-1.315865995108189967e-01,2.356055870912852068e-01,-1.956378772775561325e-01,2.335336830388260176e-01,-9.713300357342660729e-02,-8.569449722172993444e-02,-2.915701552342951364e-01,-3.333618043014389687e-01,3.316871020609956644e-01,-5.492168331361841904e-01,-4.570637710658903563e-01,-3.581363909666428896e-02,1.172151264207774712e-01,-7.612592350570206445e-01,-4.383439127856919026e-01,3.192328879513416373e-01,-2.841500420652426015e-02,6.974262284090269048e-01,9.955013042224365727e-02,-3.641531017666296832e-01,-6.208238444188604044e-01,-2.829342124173828132e-01,2.721957271165448278e-01,-3.996032760117643745e-01,2.665718009657583321e-01,-3.509744064195269853e-01,-1.173113909591481097e+00,-5.481321932065909008e-01,-5.208999861502245921e-01,1.401406495663619911e-01,8.557314111962827097e-02,-1.831091841271863807e-01,1.598579606171071366e-01,8.087937431687416967e-02,-3.848756555435058069e-02,-1.560016233382570949e-01,4.409409586182023721e-01,9.269891367203766941e-02,-7.682188441093924514e-01,-6.750124698508841448e-01,-2.190357851933129318e-02,-1.446005869236084707e-01,-3.730967099677545695e-01,1.131936484849808966e-01,3.128717000657244007e-01,-2.183698864508318294e-01,-3.283693502857445989e-02,2.264012133960137119e-01,-3.371745067589607299e-04,-4.369251157155249615e-02,5.020957452324070758e-01,-7.373046845319827791e-02,-5.443433320146040533e-01,-3.162437622079633526e-02,-1.983449159344284965e-02,3.991326220209400616e-02,-3.229411511841754345e-01,-1.486726129720321032e-01,6.870621926795957186e-03,-1.193187767833527591e-01,1.166828113907350112e-01,2.325546589874528669e-01,-3.912390782005937817e-01,-6.941116242385213242e-02,-8.195965145144575026e-02,-6.049544783964653227e-01,-1.514305141444065861e-01,4.880799328607027948e-02,-2.993075895819721777e-01,-7.654785977327039914e-01,2.973472128354624489e-01,1.468215790915573284e-02,3.819481700120775369e-01,-5.267540924967727411e-01,-1.792746298722058471e-02,4.492383810662289867e-02,-3.212508873156731670e-02,1.959487971463134415e-01,1.645848192075494432e-01,-1.976054882016374803e-01,3.839305181389392474e-01,-3.563238078975091566e-02,4.644555094688593844e-01,-5.433511208332492820e-02,-3.129387820861913028e-01,-3.831028238222677351e-01,-1.454586151889630981e-03,9.193464402118274592e-03,-7.416233311792524985e-01,3.839782436807094856e-01,-5.659011795429554903e-01,-1.184959182411686962e+00,-4.389793077025556656e-01,1.982306223315265514e-01,-2.835758420882617328e-02,-4.997281406066245713e-01,4.731275158150706761e-01,8.265224643766341805e-02,-4.421372468179958215e-01,-2.004158165858274665e-02,5.761044992518314922e-01,-3.112335204250568643e-02,-1.274420895404024812e-01,1.353761684201221782e-01,-7.678200381495603466e-02,-3.757252922953017993e-02,3.121187864056382266e-01,-2.577595387227224477e-01,-3.925837578727764954e-01,-1.185350562483418635e+00,-2.371143583436396696e-01,-6.484499972233613851e-01,6.040983566836939378e-01,-1.382367552857367843e-01,4.007788728605627959e-01,1.293460517042216984e-01,4.458196249828475510e-01,2.127197140792072005e-01,-5.697004847002534039e-02,-2.714987918810367606e-01,3.405511926712783688e-01,3.138906534678284621e-02,2.852757973719298734e-01,1.566850868708517808e-01,2.326727131061289422e-01,3.123957049216499748e-01,-6.945964571103910856e-01,7.245974924707045128e-02,4.378374767070165596e-01,1.309927029894459027e-01,7.225775646902563021e-02,-8.707182013798968612e-01,1.078828956575354769e-01,1.037177267900329242e-01,-2.374399082959131879e-01,-7.349396758602150248e-02,-3.519576542039112854e-01,5.192854551304462163e-01,-4.564401070305619257e-01,2.055893065155505166e-03,-8.030375724725388187e-01,3.937435527307077687e-01,-1.626799950501525149e-01,2.542049316805712889e-01,-3.044120622393685083e-01,4.885015403529716083e-02,1.036506381802617949e-01,-1.761106955019369480e-01,-3.363633281944860415e-02,1.136841231931643714e-01,-1.247273591459258230e-01,3.902564956020960207e-01,-2.251795470403156196e-02,1.923092392481930701e-01,5.907462390689758314e-01,4.304701900907852846e-02,1.923775604046167875e-01,4.872594599836159723e-01,-1.121291057686458342e-01,3.493968851432627254e-01,-2.907844283032866572e-01,-4.761564257834305369e-01,-3.887009360438495320e-01,1.992612784830175704e-02,2.783136044779026541e-01,-2.794043570298297974e-01,-1.534727475202779245e-01,2.115082602053494631e-01,-3.263554066657589625e-01,4.457316201647572584e-01,5.170579105674075193e-03,2.384406913860869504e-01,-9.212790612829628856e-01,-7.177543676050589516e-01,-1.006401549110943039e+00,-1.115089813558144127e-01,2.239564115598712609e-04,-2.024751717310437071e-01,-1.834185422941159160e-01,4.588526629704068882e-01,-1.134196588201136502e-01,-2.942034969633902097e-01,6.014685417934946543e-02,3.157195006770658896e-01,9.708136035716531664e-02,1.036219388107093714e-01,-2.036885305447528605e-01,-3.989641837699678395e-01,1.550442889852893247e-01,-1.519619643489244221e-01,2.264453193895287764e-01,-3.626891580988831354e-01,2.156182021758042133e-01,-8.839499516507476340e-02,-1.588652115338664850e-01,-9.745778525188384389e-01,8.752223262781695656e-02,-2.948339143266855977e-01,-9.947864521671919702e-01,-1.735368751146685318e-01,2.916372545884993728e-01,3.969201949290176445e-01,1.989593550395272747e-01,-2.923812217993882467e-01,-8.894739615980232217e-02,1.649588138894236833e-02,-3.188034334256049651e-01,1.429813729732683503e-01,-1.690580460244504590e-01,1.008521598477677278e-01,-5.624698404639393301e-01,-7.268210671916097709e-01,2.447341762635783444e-02,-1.173343234469083507e+00,1.307473681416659039e-01,-3.814594282508553258e-01,1.533824190299616121e-02,2.829184804547949517e-01,4.250322166975744470e-02,-1.508499058308683527e-01,-5.081649610790535121e-01,5.285120091840249303e-04,-1.311038708315889929e-02,4.489110456733411136e-02,-2.591971881637765707e-01,-2.148936134200128967e-01,2.245644910530526783e-01,-3.583471852875081964e-01,3.388118536243973633e-01,2.378725513279480175e-01,4.749009747662331082e-01,1.452207562312121669e-01,1.936540733054417929e-01,3.450178717203026268e-01,1.004166285235853079e-01,-1.281423541837794187e-02,-4.972184634376422552e-01,-2.653483621372429435e-01,-3.295369711765552129e-02,-9.516723171755745447e-01,4.268833458451188126e-03,-1.215134522595808508e-01,3.010638813104221309e-02,-1.132147011609058618e+00,-8.088873481036011892e-01,-3.372339922026320047e-01,-2.654605832380683029e-03,2.115901960722013642e-01,-5.966809619141757448e-01,5.862766582270845239e-01,3.373881249390636161e-01,1.867242082322837227e-01,6.681763514274632887e-02,6.712240485737336337e-02,6.960696748372277032e-01,1.746197308100761597e-02,1.132662605884240600e-02,1.006100099502428707e-01,-4.539675257769212185e-02,1.022363134204572199e-01,-7.197875841887769743e-01,-1.022179479660525026e+00,1.018157416874240911e-01,-1.063635808044423592e-01,-3.762257599147960652e-01,-6.221430037261486135e-01,-3.987583013407313554e-02,-6.666101342829258702e-02,-2.969015205060457907e-01,1.932635390175972412e-01,6.348174091385448969e-01,-5.860248980273322639e-01,-4.423361347452571257e-01,1.030886313095592255e-01,-8.716664177130421798e-02,3.117024905109819482e-03,1.255259408610805705e-01,-1.653942480319131880e-01,-1.159931029693509336e-01,-9.952155385797264997e-02,4.993987784264015267e-02,2.048895580066047717e-01,1.665448107826908719e-01,-1.595945868288096633e-02,-3.824063022260354439e-02,-1.395924678864043367e-01,1.422316028305908586e-01,1.712896988591141867e-01,-6.065246595592050927e-01,3.554458490080196764e-01,-1.933801557982926522e-01,-3.874798838629707753e-01,1.804912847683842470e-01,2.746641475223213225e-02,-3.598105913510597498e-01,-1.556191609589272218e-01,7.224520066317778599e-02,2.491099449073084227e-01,-9.340991438735754548e-02,-1.473731383870984790e-01
1.089863098232264627e-01,1.623514112644868501e-01,6.618388706266792321e-02,-2.814838707145019270e-01,1.179918331223879374e-01,-7.810580647810061450e-02,-2.199409521072032969e-01,4.061337115996465491e-02,-2.242424492070276554e-01,-1.986064595679039868e-01,1.354232835480344010e-01,-2.852682106650290123e-02,-3.744405327134875949e-01,2.879394101507284365e-01,-1.867557853331372753e-01,-4.108645691771688896e-02,-3.156758911633110176e-01,-4.543769893841301810e-01,-4.562420072174090402e-01,7.306920079458454342e-01,-7.280603847862607836e-01,2.257926342009950738e-01,3.929489954902581905e-01,4.955785524681502463e-01,-5.040528615190577044e-01,-5.685624871215212428e-01,8.536498275901520383e-02,2.867510642325451498e-01,5.096140821792711773e-01,4.458415039239906758e-02,-2.611904585646547816e-01,-1.367184628446718453e-01,-8.355491238965502554e-02,-2.079057606440218031e-01,1.180965572171354117e-01,-1.886361986268967061e-01,-3.936548354907945524e-01,-1.323485938568228215e-01,-3.091965736103688064e-02,5.219806730979936749e-01,-2.782876770271627831e-02,3.333425491285110787e-02,-8.091945548620817219e-02,-6.283363746054790866e-01,-5.769352421600376646e-01,3.309320264066535344e-01,3.667646609101911648e-01,-6.287963677013533870e-01,-6.587403031418977151e-02,-1.118494985611818010e-01,-1.244652134621775236e-01,3.346067150538953872e-01,1.093498142594844680e+00,-8.769579849896598500e-02,-1.025090099724804138e-01,-5.325132601005960753e-01,-5.137536752195307616e-03,1.741461445564321947e-02,1.344071351775479040e-02,9.939896137359865991e-02,-6.348808146744358560e-02,-2.367351762995417719e-01,5.905485237719542146e-01,-1.294730111683854434e-01,-3.183333486880111085e-01,2.153022734715470121e-01,-6.762988553138168935e-02,2.932107122911289387e-01,8.770012762163226228e-01,-4.410245528414550864e-01,-2.130476328371930239e-01,-3.520072898077029611e-01,-2.632872047158384410e-01,4.850112593328487764e-01,-1.380178821048987925e-01,-1.450353690085673941e-01,-1.227963155139565228e-02,-3.391849531255886618e-01,-4.694890638381142844e-01,1.373248160587879629e-01,-3.436116951244919115e-01,-3.423418830526692158e-01,-6.586895117486533113e-01,3.803578967565107022e-02,3.727194521869334198e-01,5.603481548697725190e-02,7.946960038934964068e-03,-6.558066678467022563e-03,8.907932675689370083e-02,-2.187516825850341629e-01,-1.839978054125918916e-01,3.349768095660000111e-01,-4.598615757192817816e-02,1.561381011691681531e-01,-2.419940814364934800e-02,7.952837442557901537e-02,6.422975429699244454e-02,-3.024520851294462687e-01,4.409901699378641626e-01,3.612740707296718812e-02,1.871827826288726682e-01,6.037533901578904377e-02,7.614163929418063526e-02,-4.658479238295330088e-02,9.063821932108800938e-02,2.554231524417162683e-02,-1.032837937727740241e-01,4.256454540189573144e-01,3.694199205678637687e-01,2.881760589364728564e-01,3.213956375190601400e-01,-4.929500017920750987e-01,-1.118130820483007881e-01,3.735354317920706602e-01,1.560700696975843849e-01,-3.077982210090090542e-01,-2.655950417220481752e-01,5.496794418313392105e-01,-6.902198499780011209e-01,-5.690535606537899804e-02,-3.204993155546946859e-01,1.139317590882181624e-01,2.374726392035027001e-01,-4.242655536564807206e-01,-2.725693718475921123e-01,9.237847660465099697e-02,-1.617827705831735574e-01,1.776707160953255038e-01,4.745467864926675716e-01,-1.671118710416600872e-01,-8.600957233069453367e-02,2.654318995370056333e-01,-2.564462742511438020e-01,3.320209370164664553e-02,3.994967621348975984e-01,-8.302851882123858315e-03,6.462730695390552782e-01,3.251524763326565232e-02,-2.232072605929340259e-01,2.832037093009691451e-03,1.919155883189213874e-01,3.652750580470371933e-01,1.256073378691186654e-02,-1.576213993464018193e-01,-3.131829449163076595e-01,-2.851336527895324824e-02,1.860285876252026349e-01,2.229597440938630715e-01,-2.237127676395415585e-02,-5.197453068811416221e-01,-4.338380192884618292e-01,-1.073709378923445312e-01,2.659145923431283642e-01,-2.754021423649742895e-01,-1.660210664657952792e-02,-1.337407412929919326e-01,-4.357759603962733930e-02,4.263123619110948948e-01,3.794775235443178379e-02,-2.234376279575200908e-01,-2.597029590660717147e-01,-8.430084700716909962e-01,-3.174690753139176591e-01,-3.499950611757409180e-01,-2.623871150290718601e-01,1.848345086500321477e-01,6.187074194468099309e-02,-2.335427528819664089e-01,3.653168305767136581e-01,1.924327426445286149e-01,-6.027153224411305882e-02,7.590119187916553878e-02,3.519122890479622345e-01,6.230204880769304454e-01,5.548297810858511259e-01,-1.252689706863681640e-01,4.365224631148884905e-03,2.455503303356263989e-01,1.791180656430020612e-02,3.075435884636622541e-01,4.862917162624200845e-02,2.007758130684483555e-01,1.721043918614547086e-01,6.547985743244406631e-01,-5.840523484562346601e-01,2.897580361234555202e-01,-1.295275860322432082e-01,-1.245706438525002947e-04,-2.351387137604855626e-01,9.467742466227423159e-02,1.325069210374563711e-01,5.381510664895582802e-02,2.433297013356179594e-01,9.010038911937202910e-02,1.172949884998818887e-01,3.610710826259220796e-01,-4.846843589359820514e-01,-5.921773569747518229e-01,2.639588454123616423e-01,-3.587844372934249643e-03,7.609456230518673037e-01,-6.183804878851337783e-01,-5.709199177301332861e-01,1.123030574550668986e-01,-1.948611134933454225e-01,2.641368173482875475e-03,1.055576708674769298e-01,1.540933794912485166e-01,5.939963931012235548e-03,-2.935324809490537090e-01,8.366389276804885311e-01,3.179038916576773510e-02,2.414215900730870834e-01,-5.379448341955005430e-01,-3.834172176755533679e-01,-6.069360976022605270e-01,1.823824706454528766e-01,-2.561605010791292436e-01,-1.123246735524655593e-01,5.153922378521665765e-02,-1.098650251001565860e-02,1.511402240726553159e-01,-7.709710691889171651e-03,2.650350557405687923e-01,2.025025705625870809e-01,7.352904943848645458e-02,1.519123375847034572e-02,7.786612015343333804e-01,5.234896085215774431e-01,1.727894338271800945e-01,2.739841304492440788e-01,1.947244213853845940e-01,-1.341577235669139390e-01,-1.824799320010596360e-01,-1.357888408741835529e-01,-2.049132680399081974e-01,1.200339295013919463e-02,-7.007900882097112261e-01,-2.072384874779012107e-02,3.882216626351892019e-01,7.801871096325638591e-03,-9.176844857438226644e-02,2.408818318919639101e-01,4.655129862026844978e-01,5.973085376082824111e-02,2.194910725501964532e-01,5.420395480013782269e-02,-9.414792620273586266e-02,6.847996161957567440e-02,8.955644590877849531e-02,-7.840014323293951204e-01,-7.822281003303309665e-01,5.736396081931532942e-02,-3.767705958320759219e-02,-4.760874104389871686e-01,9.476597671185116312e-02,8.773097119474419781e-02,2.199221135624203627e-01,-2.004211630808672498e-02,7.653151365855404009e-02,-4.273384155213898888e-02,-1.777212871762789970e-01,-1.610138173866414169e-01,-7.204438361362042187e-02,3.388758025463088630e-03,4.558000246102943132e-02,-1.923251134813826202e-02,5.975787810563609921e-03,7.934129162491486420e-02,2.872743463675253572e-01,1.815305508149306357e-01,1.516821112539774585e-01,2.893291679358959145e-01,-5.314957924804586398e-01,5.664137495947253742e-02,6.931924457872424769e-03,-1.552005191039210474e-01,3.462263614437808834e-01,-7.428774726366026149e-02,-3.550347842215592631e-01,3.788467081433306068e-03,-5.186939848419411248e-02,5.322170551821830270e-02,-6.662707900960099239e-02,-1.912828506923960545e-02,-1.278270178278287372e-01,-4.174486542241985787e-01,-1.507215641754506563e-01,5.887478782635711116e-01,4.837158769729551500e-01,3.469755576693958066e-01,-3.629607008826940540e-02,-2.571730743500092453e-01,-1.304627999659778992e-01,3.089913925061277822e-01,2.197685580597683389e-02,-1.300881099104450600e-01,2.828361888971556853e-02,4.307041645375175309e-01,-7.225596199273683073e-02
-1.282618641245824587e-01,-2.439025457770569328e-03,-1.285572388234944297e-01,2.625712179999007412e-01,-9.949030645041788412e-02,2.626197248459672395e-01,-1.211172247986128381e-01,-2.763530334053503901e-01,2.721673491281629276e-01,-5.382794454678105911e-01,-1.710991336777185345e-01,1.050950728787116047e-02,-8.532172238887379689e-02,-3.257553408488643720e-01,2.858628402966355009e-01,3.334881768525366774e-01,-3.263089330186328407e-01,-2.436627914044680321e-01,-4.733966158733420027e-02,6.141187532685913331e-01,4.990939360570899319e-02,-2.277981040975043947e-01,2.944786759651949470e-01,-1.858412713028456398e-01,-2.565409303896233340e-01,-5.835050893889403012e-01,8.465138019528117841e-01,-3.727214463487022456e-01,7.495548968998765049e-02,-4.193736895307538515e-02,-1.371298951937444111e-01,-4.471442955152570009e-02,3.839136470607529966e-02,-1.269982172571343104e-01,1.247498608399875836e-01,-1.998957246823936662e-01,2.957580212967060307e-01,1.353204810115138101e-01,-4.926093296278394873e-01,-2.867049584225092596e-01,6.779834898398324908e-04,2.594632032302848224e-01,-3.458763559807183086e-01,-6.199318288569745095e-01,-4.071726956196904945e-01,-9.406615319439430578e-02,2.728299881106791003e-01,-4.818602006622014766e-01,2.977502250386312305e-02,6.190433181234105547e-02,4.460673127337980715e-01,6.990097417499475940e-02,-2.797493825175940141e-01,-4.514510682130731117e-02,1.977256066155984315e-02,2.610990836131548143e-01,5.101434895589310355e-03,-2.913408454787749235e-01,-1.849211237293874738e-02,-3.804044181247827339e-02,4.433845245307496685e-02,4.170645234585305117e-01,2.058449822801919904e-01,6.323535711562017214e-01,-1.366524958377253463e-01,6.550405042545729417e-01,-1.198474682106689115e-01,8.863550714381097650e-01,-5.350243313116554572e-02,2.945060660169774303e-01,1.560005011415394882e-01,1.003646266242119896e-02,-4.509881302526062008e-01,4.112816903497715781e-01,-5.449246400309162158e-02,-1.555931563817483931e-01,4.390887871666407892e-03,-4.417674041896777620e-02,1.524256156015169061e-01,6.016640905220644875e-01,7.601921689348895006e-02,-3.791333627014957242e-01,-8.123812652755606212e-02,-1.805808064719079814e-02,5.885647986145408073e-01,-5.136070257434189879e-01,-1.057748263717209593e-03,-1.051342533247187107e-02,-4.217558179023468690e-02,-3.694759127172361768e-01,-4.488437093157276458e-01,-6.261177518467567760e-01,-8.399269290600523685e-02,3.032436252840018942e-01,1.147070812084582600e-02,9.932771142999670400e-02,-4.984977479670102962e-01,2.341213452614182011e-01,2.599440258458172170e-01,3.001398859610147074e-01,-2.755653495145247711e-01,-6.902439876557648311e-03,5.709737644874750551e-01,-7.853877637210955331e-01,-9.321591604122896058e-02,-3.775115645074795384e-02,-3.538653113362003610e-01,-4.333056151887392654e-02,-8.479020141716658854e-02,7.320119316662043740e-01,1.762549164037305882e-01,-3.930815055374825007e-01,-8.226455061315890438e-01,6.550274881590437692e-01,1.619356938360261011e-01,-2.842863321743260285e-01,-6.732803114219668705e-01,-1.513320378449172030e-03,3.915771641223523281e-01,-1.617426574248572724e-01,-7.441209913080225613e-01,1.986728659737694858e-01,2.052425736328305494e-01,-1.932534680020853712e-01,3.041301695763417579e-01,-1.235170991665927032e-01,3.419685058985541537e-01,-5.521881049985528644e-01,2.208783549745795272e-01,7.250667329396549843e-02,8.585065633782085204e-02,2.851861758087806398e-01,7.769707277947265900e-02,-1.887477508315802688e-01,-8.167835350894150914e-02,3.872522753590579292e-01,-1.723379543954815796e-01,2.237893449244045263e-01,-2.488242206056618944e-01,-7.595913050715763330e-03,-4.975113482073754145e-01,-1.220325281634375481e+00,3.045242096295376344e-01,-3.878419164891563908e-01,1.107561718889853997e-01,7.202121387939290631e-02,-2.589197228278580232e-01,-5.011092812131019425e-01,9.687919463605873874e-03,-1.462101733377013657e-01,3.172827956724501991e-02,-1.926232068042957324e-01,2.357637597578645661e-01,-2.594726522168319116e-01,7.623299584616442803e-02,2.250984266130256345e-02,-3.360346776417121872e-01,1.085522312067011663e+00,-8.183414446893573502e-02,1.564503938371718528e-01,-3.526301286482637354e-02,-3.549009988725662645e-01,-2.680780814189674399e-01,-5.803003719439960850e-01,3.501824498731427870e-01,3.138024995222309099e-02,-1.471073167096564327e-01,-4.549730370562732884e-01,6.642243235271926005e-02,3.102483526014150894e-01,8.488652164819419921e-02,1.016882346773916451e-01,-1.118590722911659840e-01,-1.277807368317523284e+00,4.008967510450792138e-01,3.409524694159176555e-02,-7.350962214282101559e-03,2.982781046572952760e-02,-4.185205167198281090e-02,-2.976449210500302645e-01,1.058681269756253512e-01,-7.594754642273569833e-02,-4.012925614235274829e-01,-5.920252326738760784e-01,1.981496499518486387e-01,2.584456197855644066e-01,-3.786184150606228260e-01,3.308464844881969236e-01,3.965088549649522370e-02,2.133236146615663797e-01,-7.553537784749221606e-02,-5.369234807231114404e-02,-1.615380019575898829e-01,-6.140935435866130138e-02,1.928147707120471677e-01,-2.281583176818575420e-01,7.309614406478641413e-02,1.894649902671270425e-01,4.652097404012552062e-02,-1.157476045374496165e-01,2.681497039604994748e-01,7.399479914779150472e-03,7.365062949741592313e-02,-7.335285662094266357e-01,8.130205090040366900e-02,2.237695874253045874e-03,6.597483965206285550e-02,1.182860657363792728e-01,3.386392139574750243e-02,1.112826598627860916e-02,-4.248094242983204150e-01,-5.494216601063131034e-01,-7.375866057676076781e-02,-1.302801904738468686e+00,-4.057930396652529303e-01,3.369181194947602487e-01,-6.715479210790337768e-04,1.528644530423566017e-01,-9.139188846044322620e-03,-1.989913497239125806e-01,4.957255746214309644e-01,1.096440291949035001e-02,-7.121967899867696072e-01,1.327385829963659836e-01,-3.266595756570460640e-01,4.537214128985949529e-02,1.436521438859698629e-01,1.615493666175418230e-01,-1.223751310004058901e+00,4.502180555671762008e-01,-1.268211788248541361e-01,3.649057710465059556e-01,9.176437885501170788e-02,-1.679432174642254139e-01,-8.976601721851418247e-02,2.488340895929166616e-02,-1.505975269445137266e-01,9.443626158424469827e-03,1.224959866242457049e-02,9.309002319451959995e-01,-1.035330361591587159e-02,9.296466836707605041e-02,6.015059465613097067e-02,-8.886311605460543717e-02,-3.652026789287801112e-01,3.234606463223600042e-02,-3.960300149836183392e-01,-5.668218558779819505e-01,4.634899761114266714e-01,-1.789403031020434798e-01,-9.651150540369328734e-01,-1.292293656859685724e-01,6.736404838568965658e-01,7.350184438799720610e-01,1.013995770843239663e+00,1.044269239451173503e-01,3.684517029183279058e-01,-3.544147742243963783e-01,1.682014157073475832e-02,-1.783566678686504536e-01,8.847242670982026214e-01,-1.384243774246498027e-01,2.078439041101745322e-01,-2.392339184891041984e-02,-3.209347358098956771e-01,2.516228222516484481e-01,1.107585105010202610e-02,1.759186278368284895e-01,2.516281205320481870e-02,-1.729602609333048269e-01,-5.038663198450542557e-01,8.169480328097846744e-01,-3.035013494438684178e-01,-1.365737997520954927e-01,-4.908758800607638390e-02,-6.511090991941419388e-03,1.153468363254652879e-01,-7.035366830769693158e-02,3.623197066829761392e-01,-2.828775834027211777e-01,-1.021379084633855960e+00,9.573524693105049665e-02,-2.389741902170460786e-01,2.616392593050619886e-01,9.879018346043164436e-03,3.547209680468921961e-02,7.312100743852205376e-02,-2.298352331839107476e-01,-3.559236851528385093e-01,-3.121358053053390202e-01,1.082916137757045788e-01,-4.936257449107269712e-01,-8.414261563978241154e-02,4.667211808857341798e-02,2.737637479153450654e-02,-6.943949446920177904e-02,-1.821618580070423210e-01,-1.456014253956419424e-01,2.680999585674252450e-01,7.003190256518958268e-02
-1.784432250983451415e-02,4.649576470011996393e-02,-1.803312966968530218e-01,-1.838891172660969686e-01,-1.044462500114314296e-01,1.333349969798148238e-01,-9.657551466320192859e-03,-1.528168201482228705e-01,2.459922653686053284e-01,-4.283911823944796388e-02,-1.054315020707505685e-01,-1.337072127559653899e-02,1.899799365571824272e-01,-5.886394276868195385e-01,-1.809368623357310024e-01,-4.745794353871859439e-01,3.108175782478127536e-01,-1.919848255725086494e-01,-5.551733523714125901e-02,-2.467352773895866158e-01,2.892718895664387890e-01,3.560982285193798891e-01,1.755933493894555955e-02,3.948400450604528378e-01,-8.271333639256811532e-01,3.986591379941920033e-01,8.918454121611304464e-01,-1.373214652162297600e-01,-3.303672483506555624e-01,-1.994750212075361850e-01,1.856688887513358588e-01,-3.091344688169320523e-02,1.630706294141841262e-01,8.513743974452896157e-02,-3.195174685185213637e-01,-3.501188677017502138e-01,-3.701045464389448592e-01,-2.725488081339235702e-01,9.984173875001062237e-02,1.476792479678147585e-01,-3.134831259676491844e-02,-2.856829250476113358e-01,2.028652247625538640e-01,-4.493228811980852777e-01,8.013361132409062559e-01,2.123362389645642445e-01,-1.516889476812977589e-01,9.008557577140597905e-01,-6.260824842974456461e-02,1.807777441677231867e-01,-6.677874174945889196e-01,-5.475869833202061665e-01,1.873340818909626504e-01,-1.985518472878181895e-01,7.478936257145292477e-02,2.735099444652534517e-01,-4.867904563563238973e-01,7.562338189487981255e-02,-1.129009871092009204e-02,5.049974693359709360e-02,-4.545708551558851340e-01,-5.422593257116571364e-01,3.590126254510353498e-01,7.236969641266997044e-01,-6.923530180525214184e-02,2.453137022576732940e-01,-9.171002369693191658e-02,-3.478575334385355933e-01,-5.604910169129040387e-01,-8.971640386555337909e-02,-2.912129803411960816e-01,-1.869574675785462547e-01,-2.414215262107842208e-01,5.106540432665352958e-01,-3.343650938161451536e-01,-1.500704880308824096e-01,3.788564688138888054e-02,-1.275552266800123735e-01,3.360235889411596899e-01,-1.374524229137152609e-01,-3.380924217101636264e-01,-2.829710556633383001e-01,-5.013294340492203682e-01,-3.677493595024696610e-02,4.017426413373913208e-02,-4.325731412394125952e-01,-8.404659529246913743e-03,-8.644958712441429965e-03,3.466962303459101835e-01,-1.540976050652223817e-01,3.466824276826630524e-01,4.280039452686663082e-01,5.858289030231503963e-02,2.737846047439807529e-01,-1.849400251968522438e-02,1.808802335347321766e-01,1.090203997762233118e-01,-1.520808136321995796e-01,-1.432081209591766491e-01,-1.925892810810206079e-01,-2.168112830503555466e-01,5.871572892380414604e-03,-4.194184313809494191e-01,1.620564785667679905e-03,-1.594291794086646341e-01,-3.686709390002627929e-02,6.392228331588284407e-02,3.004283414910285943e-01,1.729757055296622659e-01,-2.525825506984908930e-01,4.051175123075019535e-02,1.302596499638184746e-01,1.540525823438739783e-01,-3.979946133854254109e-01,-5.999263138265630291e-01,5.052587221418479713e-01,-2.331193402927156932e-01,1.491003100240803347e-01,2.481462802713312599e-01,-1.116484016809311114e-01,-8.878558792642190500e-01,1.777278304934060138e-01,2.756891518586102041e-01,1.254812145749465979e-01,-1.889148581022059292e-01,-4.980041520550184536e-02,9.053241912587103868e-02,-2.641362507753393651e-01,-4.029573413538852303e-03,-2.066375998305921835e-01,7.458486046923878954e-02,5.065546839640155952e-01,1.427137302955969744e-01,2.931366473755783186e-01,-2.000117295106849935e-02,4.073430729812255735e-01,-6.913197983381138556e-01,-4.957790416980768500e-01,4.670651420562686729e-02,-9.463795001755597944e-03,2.465961448834065317e-01,-2.369882521365886674e-01,-3.226868558026008693e-01,-2.746600487608845675e-01,2.176353719713831902e-01,1.007238680534256955e-02,6.999616948990973475e-02,-5.353245584765794485e-01,-1.534166338744020509e-02,3.299689108562162132e-01,3.960174972842437913e-01,-8.258929216253581285e-02,2.234245331909281707e-01,6.450512604356257729e-01,-1.278018965037130694e-01,1.376608376001792755e-01,1.152608440519843902e-01,-9.595422320973834296e-02,3.045793762077712852e-02,6.941813679012791283e-02,-2.199291241307745337e-01,4.364054147669160777e-01,-1.684493046206599898e-01,-1.383879884959023365e-01,-1.823571546709929492e-01,-1.599678607309996947e-01,6.993257280242556884e-02,2.361493398290477053e-01,4.551810417826759325e-01,-1.991530397544958031e-01,4.044150947285713241e-03,3.307466595267037901e-01,3.031031304749850497e-01,-1.374764179064414948e+00,-4.787136728329507984e-01,-2.780225681773303929e-03,5.114181206722495654e-03,-3.310494140569492649e-01,-2.722982298957251079e-01,-2.014921405585055336e-01,-2.454945863055150446e-01,-2.090710284311674827e-01,-2.824797560435958199e-01,-3.985007939472478555e-01,1.646358290587030537e-01,-2.707566413933001903e-01,-1.239886088537718173e-01,1.184340729502617456e-01,-2.108021715167325005e-01,2.159257866447801891e-02,1.989875378196397648e-01,-5.035354008827776229e-02,-2.786143350637665383e-01,5.603890871034238746e-02,7.588199252042750198e-02,-1.808143513131218738e-01,-3.810932610137370002e-02,6.051387071090794656e-01,2.034681237478665750e-01,-6.228740003089393296e-03,-3.086840174183950181e-01,-4.431209149959796645e-01,4.079249834593061674e-01,4.392972339456023834e-01,3.016057267147240206e-01,2.399235559739056750e-02,9.526682666380492659e-02,-2.782464630910571734e-03,-9.185907662263025075e-02,-6.330790402376451631e-02,1.359697561049033054e-01,3.982665222864325005e-01,2.947760546872663090e-01,-5.404347798328794639e-01,-4.525935144353623873e-01,5.302754971714250531e-03,-4.569605436491434164e-02,-2.752265213348513706e-01,-2.605524209649875966e-01,-1.930546602394440578e-02,2.992179111870638120e-02,3.946360036785002967e-02,3.480049047158738085e-01,-5.066386154301405487e-01,-2.227631558108161824e-01,1.009513910436008327e-01,1.636428562171719503e-01,-2.779574254046739967e-01,-9.183683757796363700e-01,-2.264818877687114207e-01,3.549688368376539005e-01,-1.409809579188796291e-01,1.227665220784377731e-01,-2.153851631145877604e-02,6.161287602265721336e-02,2.422844137858866376e-01,-1.615074688807001946e-01,3.538589565099630740e-01,-1.395035340072557292e-02,-3.512578870243389106e-01,2.518768081600418918e-03,6.150217018685040504e-02,2.795655708411345919e-01,6.877416455682670016e-01,-4.957219504998592319e-01,2.454054208343092180e-01,-2.954103277246153958e-01,-1.708326858368592049e-01,-1.068972717645517295e-01,-1.312295794157611051e-01,-5.433285556253272253e-01,-1.572872715366079310e-01,-2.236288118755714038e-01,-4.557967466699768821e-01,-2.319853339564912631e-01,1.174320788220510753e-01,-1.912548262994702708e-01,-2.025266581238011898e-01,-2.129321823274386155e-02,5.390256728791723018e-02,4.387219187257436759e-01,2.923687531704443066e-01,-8.067224172230189061e-02,-2.269678337564957904e-01,1.197352748993629201e-01,5.900709033298574130e-02,-1.281117478009085285e-02,1.234846747226815006e-01,-4.075155200929214683e-02,1.929425690067315402e-01,-4.504133740699980404e-01,2.396118346525029363e-01,-6.261988188908826913e-01,2.722806416390928796e-01,1.786241160026315333e-02,-4.137145567911574597e-03,1.007548480004897551e-01,2.552600307177302352e-01,2.981066414851013188e-02,-2.276821421920458277e-01,-1.923650220474291683e-01,-1.246880787140890040e-01,-1.325289882334239056e-01,-2.090888399597826963e-01,-2.028741950181838297e-02,2.103032273176803080e-01,1.558891590804437899e-01,6.260722516047249886e-02,3.312619521105262255e-01,-5.787858847123843464e-01,-3.483353880930680213e-01,2.903390741917609708e-01,-2.577709611041206772e-01,-1.441907409208352531e-01,-3.024455224771757655e-01,-1.312086440678969235e-01,2.646008786698784143e-01,1.362104088897622689e-01,1.161753764732465638e-01,8.054419991910534427e-02
2.681289723965295524e-01,-2.009844016938837907e-01,-3.745577030169479626e-01,-6.719507310736459738e-02,-7.274243319952533593e-02,2.130750568671763989e-01,5.633961198465470277e-02,1.487339746404122420e-01,-1.337239297522253012e-01,4.423677375808565126e-01,-5.891397154268991632e-02,7.928280620390923752e-03,-2.057758536938432692e-01,7.114745296465110336e-01,1.578352832402550587e-01,2.092363588752996217e-01,1.392910288278524644e-02,-1.022479709947421433e-01,1.222277867596278794e-01,6.373415749722491364e-02,3.719042289005072277e-01,-9.441667470284136054e-02,-1.915435813667141496e-01,1.889622509350951524e-02,-8.107436298767016492e-02,1.422014896130985306e-01,-1.039904369556653441e+00,-3.514519494399415689e-01,3.760507208793202327e-01,1.002988996284667061e-01,-1.462880476908702543e-01,1.344409013172175871e-01,-2.924127160452425489e-01,1.179046720119624088e-02,-2.802026999240000427e-01,1.431386233760887916e-01,8.057715083379558829e-02,8.584795747456563930e-02,-2.768828614229119564e-02,1.548018027480411452e-01,-2.568382295381442526e-04,-1.467679960971892961e-01,-1.769702712985897208e-01,-2.337851464013883107e-01,-1.319850352653586523e+00,-6.068257572960533697e-02,-5.861677014244548456e-01,-6.130141151276475853e-01,-1.020161569303460435e-02,-1.371829950715054425e-01,-6.147522551305744515e-02,-1.607446190191503255e-01,-4.241983903065857930e-01,2.979821225550260966e-01,-7.678493290420660387e-03,-1.656708269766272723e-01,2.215078541884164809e-01,1.596550544287667628e-01,7.359125804033379153e-03,-7.192682716116352570e-02,3.600436154418369394e-01,1.729352265312567860e-01,-1.550828879400614424e+00,6.073233073364094244e-03,6.123101076414414617e-02,-6.371626763287889794e-01,9.981375157062302717e-02,-2.255476984267139051e-01,3.616818520987118979e-01,4.159323978788146414e-01,2.846980232467394636e-02,5.296817925363908608e-02,3.175097517250868306e-01,-5.460786418632759265e-01,3.451136490217523445e-01,-2.876088339979658570e-02,1.051541658549178665e-02,7.396560391002859891e-02,-5.760215877969400156e-01,-3.175695194549861822e-01,2.025384221984373734e-01,1.198051745474115609e-01,1.635783919448198787e-01,1.227074083946287641e-02,-9.503797847957983214e-01,1.957321393600832127e-01,-2.325682337439469085e-03,1.644822457710239712e-03,-4.213547989463402588e-01,2.666569270826965599e-01,1.200806251980293532e-01,2.885932754104482134e-01,2.207090549704731341e-01,-7.265937228400433101e-01,4.591460573276757995e-03,-1.732215023415357713e-01,-5.632772351296123636e-01,5.033581588146399666e-01,4.306446968575829981e-01,1.160904195472838157e-01,-8.607508536941235744e-02,9.465096640992549937e-03,-4.135995728163893714e-01,2.412049244448674634e-01,-4.044814338520266728e-02,4.888708818959312113e-03,-2.802095466193010309e-01,2.701913539654125507e-01,-1.365726745420003940e-01,-5.972835633065279870e-01,2.075795573086016560e-02,2.555303282526523168e-01,-6.395785661253524657e-01,-7.832689420012702852e-01,8.015728116548610782e-02,-7.574623846920420789e-01,1.358898830297915472e-01,-7.955956619244366479e-01,-8.846336391767942522e-03,1.355984377903789728e-01,3.170554212854370113e-01,-9.115192021752994977e-02,-6.197854973863910211e-02,1.074837030865857940e-01,-3.880598370948092068e-02,-3.097096068507249611e-01,7.246524320089062221e-02,3.699757487529965966e-04,-1.410528079600413195e-02,3.202897042959890195e-02,-8.354469193464535148e-02,-4.258730812147625833e-01,-4.519733345029091631e-01,-1.838711474596902984e-01,-1.519747286085252336e-01,-3.020867292064090270e-02,5.529871273417449329e-01,3.874164745484087735e-01,2.663544068598949072e-02,7.280138868604834126e-03,-2.978576233281072551e-03,-6.496109797868728775e-01,-1.109122273539422804e-01,5.065056773918341637e-01,-9.616455119181894703e-03,-8.049183764172465616e-02,-9.253134178326784254e-02,2.344856199338171132e-01,7.731047990689451921e-03,2.816572810675838645e-01,-5.774769337029210803e-01,-4.446392005439677719e-01,-3.659353984578039842e-01,-9.539583628407423133e-01,-3.648471169039533279e-01,-2.029318992066717064e-01,-2.237923092745908171e-01,-7.180692701456005134e-01,2.928221868086696919e-02,5.784924958443201648e-01,-4.569559745843893017e-02,1.727305407855175279e-01,2.301091600189600350e-01,1.421106716848992424e-01,-1.161241349243295473e-01,3.432104454861766296e-01,9.789030249975410811e-03,-1.168710438714588330e-02,-5.473244914186899956e-01,-2.131549848451849971e-01,-5.390317488663937812e-03,-6.296757452872818739e-01,-2.129542523425810574e-01,-2.356891076934797824e-01,2.482176741905157136e-01,6.676907590374944745e-02,-8.439513684025486476e-03,2.520307220895369738e-01,-1.425704564800109597e-01,-2.855585052436822591e-01,2.962917221151981084e-01,3.509778694521322739e-01,2.472891938403071893e-02,3.478932233532223139e-01,-4.514390490607478323e-01,-4.080563619248987473e-01,-4.843461457583481122e-01,-1.644962015594297611e-01,2.547531471241018530e-01,-7.063316616638563028e-01,-3.998343400136580850e-01,2.856479987711957672e-03,-2.737448004518415745e-01,1.739720700941403131e-01,-1.090077783433815589e-01,3.474440799758308773e-01,-4.666350218813011819e-01,-1.048942552968889164e+00,-1.059345474177768587e-01,-5.433804600450334865e-01,-4.058127444026709552e-01,1.452641102341298007e-01,8.655929960321928629e-02,-4.251377642016677255e-02,-7.085929298324004089e-01,7.408128673603107950e-02,-2.398296854635266206e-01,4.250341534101040319e-01,3.350873027702151036e-02,8.525934792254549754e-02,2.712159555007526701e-01,-2.952376590620129360e-01,-1.012311623113880898e+00,-1.193709159057166680e+00,5.927958290586024526e-02,1.489567882604045379e-01,2.378753188634589177e-01,-7.574116217439894050e-02,1.890900865328757063e-01,3.220475539340799873e-03,1.526101473378176088e-01,-3.256827744868864838e-02,-3.346450337673376185e-01,2.649556159658149057e-01,1.881517181817903561e-01,-1.467192775716344988e-01,-2.346492307193427107e-01,1.591795647198854802e-01,-1.619928529851290266e-01,-4.699966532918096740e-01,-6.091558101677437831e-01,-2.872051769501222651e-01,-9.975626011703024598e-02,-1.484206349891746546e-01,1.100028851016749132e-01,-3.778052784472473724e-01,-5.179286692503762835e-01,1.229166919220325699e-01,7.910447553176436220e-03,-5.724178109389889135e-01,-7.963842858606460509e-04,6.531838473595980021e-02,-2.130279415464274573e-01,-5.964040194355409996e-01,2.923786358618796766e-01,-1.057669180946724102e-01,3.432014289523190320e-01,1.564421807396341735e-01,-2.380695371463719123e-01,3.989389712351695816e-01,4.878508023820812833e-02,3.612807266368333464e-02,-2.396503297340674826e-02,-4.054491159594492133e-02,-1.370135946198228760e+00,-5.551917454544709196e-01,-6.039203037987401768e-01,8.196195510209776380e-02,-3.807942958600941605e-03,-3.377021020085489988e-01,-8.720175092238684478e-01,1.701766202547123630e-01,5.643227017314653843e-04,1.504991316295557768e-01,2.340251398684596862e-01,2.073572600198713145e-01,5.848173328390813587e-03,-1.164090921720556671e-01,-5.935738948833908790e-02,-5.330330765153390438e-01,1.899865219313677522e-01,-6.150717179409214558e-02,1.009182874113862816e-01,-4.093108911418971152e-01,-2.647283355456113083e-02,8.255849673377392908e-03,-7.960188401342778441e-02,-9.193608064925976042e-02,1.035247618297188525e-02,4.573685084833445380e-01,5.217100692079640334e-01,-1.272574083795514621e-01,3.310974252701072429e-02,1.604475693015829096e-01,7.974159592215325151e-03,-2.592387681188897813e-02,4.515271492154860344e-01,-1.213740187004117982e-01,4.025321857059414032e-01,2.921807662389578342e-01,2.689945649035135541e-02,-4.941926918732851559e-02,-3.149353101408946046e-03,1.324362809876958869e-01,6.975122461501367943e-02,1.480855887614928798e-02,-2.909783042450793666e-01,-5.109395251735119325e-01,6.659686931395263354e-01,9.139408210542694297e-03
-5.069373209045726636e-01,-1.151239681987070024e-01,-2.993620539545568948e-02,1.765566827974332786e-01,-2.524453942215350299e-02,1.335287466025346648e-01,-5.395139115461598800e-02,3.106258911644211307e-01,-4.512490764635830875e-01,4.146416935942369708e-01,-6.438211028681968312e-05,2.476987907210290510e-02,9.574188805513245137e-02,1.389077876614325802e-01,-5.074974017197395743e-02,-5.403742422148019031e-01,3.286267794497185202e-01,-6.528660759353295262e-01,1.076651912819233808e-01,-3.540005780776455113e-01,4.197731421902368698e-01,-2.007142011294137385e-01,-3.115030619591422911e-01,-7.501557581309251654e-01,6.817847308626616698e-01,-2.599038603310528314e-02,-5.909358072585680910e-01,4.205514892419696255e-02,-2.769387634936307588e-02,1.605480266758020913e-01,1.174794480191387880e-01,-1.723438926246522729e-01,9.739790790400879028e-02,-1.145444865827830068e-02,3.335247309268762894e-01,3.295463258898695402e-01,-2.159730458577301948e-01,1.400915737939036343e-01,-6.986067377061780936e-01,-4.956464412962388599e-01,1.548839231074116383e-02,-7.777591100954252268e-02,7.649746328577380905e-02,7.756040296593300631e-01,1.086342794919932686e+00,-2.760817184033255156e-01,2.073538431960457451e-01,7.326642300739107938e-01,1.165280934821225078e-01,1.968617092372612620e-01,-3.128856129256071122e-02,9.198199846412613567e-02,8.178752042037000791e-01,-1.895327336268854135e-01,3.922987158193616368e-03,-8.780362801372433579e-02,-4.397291048013340919e-01,1.118801514567670241e-01,-1.002595311167261624e-02,6.876117794848000953e-02,-1.221854609485886339e-01,-4.820099670241524414e-01,1.112902584029863862e+00,-6.481917282639285682e-01,1.180958714035850315e-01,-5.196088028166426787e-01,-3.390557280795878509e-02,1.780415946723993004e-01,6.108539072348859178e-02,-4.729271884962071293e-01,-3.020200243676967045e-01,9.352940991577882168e-02,-2.376811692873437576e-01,-6.869445945179505353e-01,-2.750033396121875917e-01,3.356865848506002670e-01,8.188972616792862536e-03,-2.231308152559808092e-02,3.073873087514103486e-01,-1.952136018267791595e-01,-4.215908917523129018e-01,1.884154644461987493e-01,-4.853540668334734021e-02,5.192620996739272243e-02,-1.407392150194582414e-01,4.389425803893840516e-01,-9.283833738159531779e-03,-6.065395352286845863e-03,1.881262819137677345e-01,-3.410351979999264316e-01,4.372113603637839963e-01,4.780807541328799815e-01,-3.095002213776559818e-01,1.681027268470763614e-01,2.189586321611897146e-02,-5.063127276809480104e-02,-2.988805824802551192e-01,1.618024559019846653e-01,8.695382148050247173e-02,1.678716486422126009e-01,-4.613620622979617419e-02,-4.256642908586264103e-03,-2.739501975206559137e-01,4.780720153579611220e-01,1.018345514619659609e-01,3.574324338100504095e-02,1.862555362218694666e-01,-6.755065462651395070e-01,1.730729025350611350e-01,8.982015946086253921e-02,2.316658536096589116e-01,1.531819659491684693e-01,2.985710139986068601e-01,-1.771633718108589495e-01,-8.184427539312968403e-01,4.109507641692106694e-01,-2.562494697878676606e-02,1.028951420084257690e-01,-1.110264166481641640e-01,-2.949982079423008607e-01,2.221036241858649063e-01,-1.182045800150732240e-01,-4.184541173028257788e-01,3.613841400813196797e-02,-2.098267290810648111e-01,6.423372811135877325e-02,-7.008919468917778062e-01,5.670649680081409905e-01,7.399821814026361078e-02,-6.356727460779754146e-02,7.168980396823759760e-02,-1.037646572413244983e-02,2.764218670135541456e-01,-4.459777275372647093e-02,-1.499392151504725379e-01,-1.961700611208197220e-01,-4.543294716296301106e-01,-2.470756389983061463e-01,-2.144278722625643507e-02,-2.684437207472842746e-03,9.099794022869679699e-02,8.004842261585072283e-01,-2.450443129539626452e-01,1.600551657633111358e-01,-2.672807610403132306e-01,2.472600948321740377e-01,-2.137644704918453820e-01,-6.153244034257071560e-02,1.893557593401143727e-02,1.722130148275150541e-01,1.387857176173252494e-01,-1.210207866760429629e-01,-6.055564002880488017e-01,2.923504625076061014e-01,1.495875355260639916e-01,2.378026958744180741e-01,1.707391509281796782e-01,-3.831171682556337443e-01,4.018897734676109973e-02,-6.035955083098727414e-01,3.494964714205479051e-01,1.741365592300485043e-01,5.043210071659583876e-02,1.088101980673307073e-01,-1.208231504315369215e-02,-2.571094130389192656e-01,7.480336366154666239e-02,-5.098216613166933926e-03,-3.818823466767320429e-01,-3.060932688720909289e-01,2.367666647772521948e-01,1.149585873454606749e-01,3.584754953359704510e-01,8.132178458571334145e-01,-7.211302158782100236e-01,-9.331496896674759678e-02,5.332776889262485923e-04,-2.802623977885816409e-01,1.909939730007841896e-01,-4.585031794015907436e-01,6.823963253984509369e-02,3.305954403535931174e-01,-6.968848069921274035e-02,-1.405781221673922943e-01,9.062211114707659221e-02,-3.917199150333672830e-01,3.748462568025787700e-01,2.455365808790382354e-01,-6.136291856783221074e-03,-3.284506405718399247e-01,2.541397015376210544e-01,-1.922411524143656236e-01,-8.997942045027017277e-02,-1.634184130246806865e-01,9.506506782106530218e-02,5.291529679931821634e-02,1.292934267999609477e-01,1.222639076568007160e-01,1.196330866751989068e-02,4.881215097593791241e-01,-3.650303018747247386e-01,-7.269565518142102889e-02,2.506132177823046647e-01,-3.957596021966261479e-01,2.724571148583784796e-01,-3.356727669572361766e-02,2.327337975357625377e-01,-7.258473907520165413e-01,6.012299094407042022e-02,4.018517313961515736e-02,3.601964503175544841e-01,5.927449482841228301e-01,-2.003088748185381518e-01,1.300156802696270875e+00,4.346166457810559103e-01,-5.625388626355624089e-01,-3.693554443044447799e-01,-1.681690312443276103e-01,7.673495884476287665e-02,4.008864242614157414e-02,-2.660405828129182582e-01,1.097500373778277361e-01,3.020468704155241865e-02,-6.242613662440099631e-01,-2.843702810399650893e-01,6.447187983286535584e-02,-1.852717857542749147e-01,-2.897921539623030118e-01,6.713316492242628053e-01,-7.068361556168865911e-02,-3.013176015987315687e-02,-2.253468549085846373e-01,-1.127144559338549290e-01,2.079063974386224367e-01,3.931442902282175633e-01,5.666786902439558543e-02,8.873748700949519730e-01,-7.267352421042931887e-01,1.968138237536240856e-02,-4.180521714814619538e-01,-5.396525506767045968e-03,-9.835601012050551595e-02,-5.315476532545627686e-01,8.840372287886500979e-01,1.854780351575296415e-01,-1.683335520473549229e-01,-6.358649254648665039e-01,4.403021540620424834e-01,6.611820804850874339e-03,8.720678247921145876e-02,5.382868326723333485e-01,-7.567859972655430201e-02,-1.278384808902947312e-01,-5.093690950127572892e-01,9.994744564644083562e-01,-2.031247477202339224e-01,2.195260632685860913e-01,2.924784442855682953e-01,3.739158445621404425e-02,8.369468195993327864e-02,3.135452620737333440e-01,3.444382736030303649e-01,-1.685545668490019133e-01,2.182791750600060476e-01,-4.599473526681247537e-01,-7.720563463152740891e-01,1.830087747850154753e-02,-8.581520790960734876e-03,1.104023150732914155e-01,3.943593926309528208e-01,-5.377952819542667351e-01,-4.659491053820435935e-01,1.856117196508426936e-01,-1.103940197693827480e-01,1.618730056958231009e-02,-1.673012081409912212e-03,-2.305520647103167630e-03,-1.674977089084850601e-01,-1.989822462233990785e-01,3.004895950629531409e-01,-6.855456892498050792e-01,-6.690957630960171765e-02,2.593236580228832147e-02,3.881905857749654021e-02,2.070783430864240812e-02,-7.284233086251749867e-02,-8.243740373052300674e-01,1.811742773792472117e-01,-4.022243844505434818e-01,-8.980180961647832305e-01,-2.907561583388492688e-01,1.049377611293888374e-01,1.347640593410876497e-01,1.061672899123830560e-01,-1.932664400673946847e-01,1.399709992121359603e-01,6.378389707194606628e-02,1.968247894257314778e-01,-1.364634580332823033e-01,9.009856042201222492e-02
-1.313661977897836453e-01,-1.873051802993793147e-01,-8.855703269174072800e-02,3.564897179234725599e-01,-6.847659428084870714e-02,2.350037132535448547e-01,1.725655380294552899e-01,-1.572494236111209309e-01,-3.235406809360772962e-01,-5.085666244655298041e-01,-2.724684397873313735e-01,2.163646167795914635e-02,-3.711583815079859128e-01,-4.731815479970592486e-01,8.867446058269093379e-02,4.999162705275511653e-01,-5.880862457807005672e-01,2.816747086020316565e-02,-1.797118277287516053e-01,3.681520359790647623e-01,-1.292193191551883391e+00,-1.574424721940771710e-01,-2.674909312960566110e-01,-7.379857825771163338e-01,4.223990818502766920e-01,-1.003880935396082863e-01,-1.216429961764599055e+00,-4.991748057674766925e-01,2.563884215101756570e-01,-1.956649294136538486e-01,-2.084694686489650395e-01,1.766512076317526825e-01,2.212391330725928251e-01,-1.555656789538002460e-01,2.303810775788470433e-01,1.832463245616042236e-01,3.577941658333430586e-01,1.195289587905272732e-01,-6.163688862399410023e-02,2.495303993017791155e-01,2.291870945602992801e-02,-1.364706345250565334e-01,-1.895266301893337446e-01,3.506075986250103971e-01,-1.628713022479751638e-01,-4.525877680965647021e-01,-7.271267568164402340e-02,-4.537153627490460028e-01,6.548566847513076668e-03,1.423169018765705618e-01,2.102299267509965819e-01,2.828773268236342564e-01,-2.919856616345856692e-01,2.714652023645993117e-01,1.492576839026631304e-02,1.042165215705977838e-01,2.105437688001303154e-01,-1.622558792684196116e-01,-6.329216857572313865e-03,-9.890648285132364048e-02,-4.838918550791127537e-01,-2.015261719922557537e-01,-3.241950892900413161e-01,-3.649574486524843620e-01,-1.602657938804470106e-01,-5.179806661277902569e-02,1.062290794809844646e-01,-4.893060599689584289e-01,2.748019378668384305e-01,5.980647354692610052e-02,-2.981151306144183555e-01,-8.416246773687971472e-02,-6.481412568305128241e-01,-5.973798605875039192e-01,-1.425472111000314068e-01,-1.220134861426554473e-01,-1.852946904802017011e-03,-5.305261913323469081e-01,-3.458225364432705451e-01,-3.347683016943406864e-01,3.894561962254936560e-01,-3.631499285852263226e-01,-2.237145238421366644e-01,2.631700071367458005e-04,-5.627805861189341119e-01,2.500644709132854304e-01,-1.707042155345736469e-03,9.095696873898911905e-03,2.220807187584712683e-01,-5.141091451075066043e-01,-3.730863534461414388e-01,-9.833667331439127635e-01,-4.696944365931908782e-01,-5.771853307704063463e-01,2.289409966944053534e-02,2.081041324686805638e-01,-2.361903561460421686e-01,1.883205663428626497e-01,1.762301676335580880e-01,-2.439827808391497321e-01,-1.723942493398671616e-01,2.126617167849704712e-02,-1.659267574175485663e-02,-4.113093523868022183e-02,1.108506011233602456e-01,-1.362714820759004276e-02,-2.587118872703837447e-01,-8.140338410676342118e-01,-4.049237707129317576e-02,-5.745443769624114516e-01,-1.536860705879668498e-01,-5.727757420627102025e-01,-5.261741922045105879e-02,1.357706038821483163e-01,4.664002653988286173e-01,-1.844465722078617032e-01,2.850927921078193483e-01,-1.299765465631567418e-01,-1.245408128483866950e-01,2.609908822531752381e-01,5.596374853755513579e-01,-3.603226159762547565e-01,-1.061814090391053483e-01,1.466942534345954674e-01,-5.596223254117682622e-02,3.578443872906929002e-01,-2.333723718432645020e-02,3.755617232543748130e-01,5.078290799750706519e-01,1.881380415634978653e-01,-1.194566748747704771e-01,-9.541949060488830181e-01,-3.982370313030473286e-01,-1.509342609904013865e-01,4.890322632013308080e-01,-4.556883838738841064e-01,-2.867850729458243375e-01,9.788444520222470881e-04,3.049293417373333606e-02,-1.371953771684309570e-02,1.702882706141763958e-01,2.942207995735925397e-01,8.486565933773342341e-01,-1.077370369582023590e-01,2.980059482475806709e-02,-7.848778205411686623e-03,-1.111618540844448028e-01,-5.778740066289467237e-01,2.020643874796808695e-02,5.514776371519423126e-01,-4.813540227811658467e-01,-4.560167010339224447e-01,-1.890302345207496570e-01,-4.586872368155138491e-02,3.803229602052089070e-02,-3.914260755402108050e-01,1.499380905627085425e-01,-2.177603867175011698e-01,-6.841336004031108031e-02,-7.152733869831053859e-01,1.398935494468404039e-01,-3.106033414305737206e-01,2.572711137715368857e-01,1.918700379936864042e-01,1.393308827710070807e-01,2.799246542537361937e-01,-5.402460354779655555e-02,3.864480401690421618e-01,-7.098146004490670791e-01,3.535223756128145767e-01,1.015016548500618067e-03,-6.918911949080733814e-01,-1.663961931835747365e-01,2.109142410202299867e-01,-9.217991359282337038e-01,-1.420570242914580561e-01,-1.415387858860445852e-02,-2.300207666232214065e-01,8.293512698889643486e-02,-3.145859951676807653e-01,-1.930120203968275217e-01,2.918185699828293456e-01,-7.471233749071454211e-02,4.281217170125948823e-01,1.887256021622452928e-01,-1.693501040545557224e-01,5.107825600359553464e-01,1.613302820414386218e-01,2.794052341643641357e-01,1.763888308241601810e-01,-3.042197650633880479e-01,1.894688935468743229e-01,2.872712375317378886e-01,7.695259952819491489e-02,-1.709642391334248723e-01,-2.531132676700280637e-01,-7.772041189160217023e-01,-8.233232735375081157e-01,2.568572550879495431e-01,-1.224822257664200109e-01,4.964411852424384652e-01,-1.748300796085128783e-01,2.170710902027417621e-01,-3.873982002840104522e-01,2.204669497838238346e-01,-1.239254481282745825e-03,2.851673043772118624e-02,-1.213718239826830497e-01,5.788128365827515526e-02,-5.868000352586115465e-02,-1.035231964327541609e+00,-1.447953620020764609e-01,4.416282421090784172e-01,1.343498893674928141e+00,3.128804347986611223e-01,-4.548799358742154353e-01,-1.913064869329236806e-01,1.474188455994819569e-01,7.560621590323014785e-02,-1.242600544608935265e-01,-4.666540509378035995e-01,-1.646279829928096530e-02,-2.422367664825773870e-01,1.525986004968852561e-01,3.519088381704509882e-01,-1.041545442799671067e-01,-2.033175128755071448e-01,-7.103105013699442249e-01,7.643132277382044260e-01,2.712401022295710118e-01,-6.645281646472392945e-01,-2.700459467935033553e-01,1.609327463863839403e-01,3.215063239961856723e-01,4.674290717311996995e-02,6.146732171924889493e-02,3.589168797658446319e-01,4.394003865862040198e-02,1.755924614597725170e-02,-4.635666279514855659e-01,-8.314535051274409699e-03,-1.037096660275118459e-01,-3.717605207062793515e-01,-1.595972294620120691e+00,-4.272889346375412511e-01,1.615471127268202078e-01,2.839825851317492322e-01,-2.346265018925578483e-01,-2.003062705637688110e-02,4.090139090920499321e-01,5.228225343549609549e-01,1.205908682098045664e-01,-4.187832793210196636e-01,7.633100268933322441e-02,-3.621395067698877646e-01,-5.663284291563324135e-01,2.228756238373802989e-01,2.735086543807589976e-01,9.045661665439300864e-03,-3.028343008222484367e-01,-1.044407165660858894e+00,1.898238441798633380e-01,-7.041125755459985702e-02,2.228829095479728517e-01,-2.552887738878515944e-01,-3.334123817361455133e-01,1.106536381624913939e-02,-1.918754123082032637e-01,-2.153293251789815677e-01,-1.804732459870977690e-01,3.829911124930762689e-02,-6.044078600274219726e-01,5.951702643167984252e-01,-2.633329368396370995e-01,-2.386274848418830710e-02,7.062517314800493759e-03,1.024682521417659246e-02,-2.896706101052191062e-01,-5.984886717837391290e-02,-1.022020072543462055e+00,-3.549943169855435676e-01,1.147210636674740429e-02,2.605814976958875095e-01,-1.711624395182843872e-01,1.790294315522419910e-02,6.966611136922562508e-02,2.342556786627445486e-01,-4.065822709941291357e-01,-5.916026132460898701e-01,-3.988723211927174273e-01,-3.261830315161417648e-03,-2.319999225284037625e-01,-1.273865801623000338e-01,1.098749932447444649e-01,2.941115671381041019e-01,-5.401763222741376436e-02,-2.914540219561199130e-01,-1.558564244589118741e-01,-3.851185373759714592e-01,-7.406390247284259931e-02
-1.359942236263698458e-02,2.581364501231079855e-01,5.879281898054214417e-02,-2.452166344813916099e-01,1.129406046895912868e-01,-2.421485180328782627e-01,3.475319309641386467e-01,-1.169194726344705282e-01,-1.167724063411275381e-01,-4.313680525992498113e-03,8.744953237715916150e-02,6.425860788504930872e-03,1.639114378785283821e-01,7.632607320934013950e-01,-2.746802493970532666e-01,-8.054606513210489649e-02,-2.182959298599179421e-01,4.802846183355772292e-01,9.800409588898822966e-02,6.937428312184197587e-02,2.982566604393258602e-01,1.383980729429027390e-01,9.997642452830932114e-02,3.215604983809683959e-01,-6.959348582747040823e-02,-4.666172568543560523e-02,1.277522306078825221e+00,1.579610227487205643e-01,-3.807885030440042590e-02,2.291197853594205136e-01,2.897824196226047450e-02,1.507066802591095489e-01,-2.530770564664543421e-01,1.419993871037122657e-01,-2.009971404027046660e-01,-5.176858034925842927e-02,-3.279244005341357404e-01,-2.113155391766902147e-01,3.527655866889928271e-01,3.684289582146046960e-01,1.505499895304257194e-02,2.745885643308478286e-01,2.106990958022045834e-01,2.598051364648392147e-01,-2.142146048098649558e-01,1.509431108400379473e-01,-3.801439131038662489e-01,-5.242755182574171391e-01,-3.953218405283316118e-03,-2.143142901613414586e-01,-2.626819226638472116e-01,-1.746331163705850120e-01,-4.838667650328726255e-01,-1.897133546836065610e-01,7.008350812505697702e-04,-3.866451040573123943e-01,2.487611644506553810e-01,8.799515995047577088e-02,-6.252253527398100169e-03,1.246401423205282244e-01,3.226801198855263619e-01,1.282409143304689969e-01,-1.841939147451123193e-01,1.154656072729334099e-01,1.753154491812015658e-01,4.264826388573536575e-01,9.135242917075322988e-02,8.810705143503956283e-01,-2.536081456632093278e-01,-5.394968056793364442e-01,1.615658241235816417e-01,1.350826257815427589e-01,3.274783729133236565e-01,2.629646486806353489e-01,1.542637345762715995e-01,-2.252610876285718322e-01,2.440506794216741604e-02,-2.416518175774501342e-01,-1.720484134932966924e-01,-1.810028593006413333e-01,3.420202752896299714e-01,-3.869392750412054549e-01,5.039836547490599283e-01,1.916074197414419436e-02,1.169034738782594340e+00,-4.021979793512079904e-01,2.376836244906756559e-03,-2.727270591732422673e-04,-2.566684061977244080e-01,1.293269408427114020e-01,-9.365267803340929231e-02,-5.757320856615827376e-01,2.885328578743627803e-01,-2.842947476514025018e-01,4.624869751252102396e-03,-3.809338944012051476e-02,2.152715373822059741e-01,-1.821331282083684111e-01,-4.886168410613990765e-01,2.165692240154969694e-01,1.419220930456720486e-01,2.183308900494440943e-02,5.258636539402186116e-01,-3.363098413449555624e-02,-6.659333628775247760e-02,-5.347907880442617085e-02,3.162677903543175684e-01,7.706512810327769726e-03,-3.093530877851857208e-01,4.521912748642957780e-01,-1.690675528809245931e-01,1.712647575259026167e-01,2.128087546264394725e-01,1.652863822222426504e-02,1.229009337705141702e-01,-4.954653037049732700e-01,-7.652287782111489856e-01,-4.651115586513839828e-01,1.306590189769773203e-01,3.094010113764165126e-01,-5.422642252147107378e-01,-2.056430617063634003e-01,3.623731644168204369e-02,-3.116806473808655387e-01,1.508744544451150471e-01,-4.043752825384401284e-01,2.686879688919934783e-01,-2.786300313305903886e-01,-8.655364990719531804e-01,-6.672034142763155762e-02,-6.816091443102099967e-02,-4.994186594330006224e-01,-4.631238301711300687e-01,-4.262768574723877629e-02,-1.268635170731912121e-01,3.472433322786093735e-01,2.741774060365320675e-02,-3.978641348330488325e-01,-2.323720728467292551e-01,-3.201136165379210585e-03,-5.769161129454910553e-01,-1.321196578376460928e-01,2.245990538138162573e-01,7.462520348003789383e-01,-2.304893579330564990e-01,-1.377380228584375588e-01,1.702523205900798309e-01,5.620893014482942762e-01,2.048410780372645484e-03,6.929046279139160214e-02,2.702123418229981922e-01,-7.146677181788309297e-02,2.042071367441264940e-01,7.642927629358377273e-02,-3.215241378176273424e-01,4.718419167413590021e-02,2.355615529317062196e-01,2.318041350591437399e-01,5.516076220736133850e-02,-1.718136519756231495e-01,-1.706774110381285570e-01,-5.835630460302185796e-01,-5.640923065092649791e-02,-1.935417317124984715e-01,-3.563600874104287941e-01,-2.185586687492667990e-01,-1.273391963523803627e-01,-2.631464987801324096e-01,6.850891017233728952e-01,-2.962111138409561084e-01,-2.805279440805084068e-01,-1.753069578776162707e-01,-6.295083799341842923e-01,-4.219252168436953276e-01,6.748095393649035101e-01,1.228676781748512109e-01,-2.894824133652917561e-03,-5.110600902766716525e-01,-3.164755243378241656e-01,2.237108999965124467e-01,-2.692248672974104640e-01,-3.519287122720758942e-01,-6.129723093705606585e-02,7.446055907835670284e-01,-2.968343854910445168e-01,1.079437452502970962e-01,-2.164754438268617631e-01,-3.196921619667754122e-01,-1.002694894144913196e-01,1.362079051318325629e-01,-4.357600030681720860e-01,-1.347621176256531828e-01,2.926478321577327679e-01,5.623742279343776906e-02,1.009302851360703857e-01,-3.001919101306205762e-01,1.355707022920207006e-01,4.069824719050846862e-01,1.521979751710920287e-02,7.867136921794261051e-01,4.201982858596203241e-01,6.667529304001719170e-01,-2.985560227286018775e-01,-2.508257420711900582e-02,-4.730198559008764736e-01,-1.102278541288133178e-02,-2.604831417686713224e-01,-2.761576666004235681e-01,3.306395733781872237e-02,-2.505961540831611045e-01,3.647011420287759598e-01,2.357801301584885045e-01,-3.548884196732891017e-01,-2.266727625172204608e-01,-8.710306250299729158e-02,-1.611462608057440959e-01,3.597291884020291097e-01,1.251397908180608975e-01,1.486530218834860029e-01,-3.241346785285203341e-02,-2.885844220890359524e-01,-4.399132120858471190e-02,1.602746524833934538e-01,1.612174897557358544e-01,-2.551266632776559851e-01,-6.404237452050312585e-02,2.831075773344186031e-01,1.611331793347591801e-01,-7.706103430162367651e-01,-5.325133558275956247e-01,2.622868666699579854e-01,-5.341059227486644884e-02,-1.394753039267378480e-01,-3.599185877310524528e-01,-2.061675686971577159e-01,1.198106317762976797e-01,2.508259085623635865e-01,-1.089147975754747866e-01,3.492137942649467357e-03,4.592109654767204674e-01,-4.033125017902286676e-03,3.254364069184820241e-02,3.244523922267877544e-03,-6.587991981395752150e-01,-3.145296843077383109e-02,-9.601942270103205890e-02,2.317022962765377669e-01,-1.084009753586763075e-01,4.484858363542166271e-01,-3.935312479169655875e-01,-8.986202175918105162e-02,1.184756692396905092e-01,1.554362098344930776e-01,5.522519490546572429e-01,-7.040475601757955060e-01,1.790994042449514101e-01,-4.627005729226794650e-01,2.450811220768635279e-01,1.616222534248141357e-02,3.251375004689761872e-02,6.055617024244536184e-01,-1.991730177752205899e-02,7.009819045037825325e-02,-1.551186150065299307e-01,2.778851910014339399e-01,6.266897949109807853e-02,6.377296970174689897e-03,-1.918134188321493350e-01,3.039619962436524575e-02,4.131902771357817694e-01,2.513322743229333689e-01,-1.353607649401134816e-01,-2.026110808284662668e-01,2.617979381852319487e-01,-5.491531534810428772e-02,5.462674755081586495e-03,-2.753745469246825575e-02,4.324774966484692951e-01,-4.450508079199368972e-01,3.024477913056733969e-01,4.631816059560725507e-01,-1.549964337120747770e-01,-1.184633623256062529e-01,-1.424491861861483799e-01,1.790633338898418511e-02,-1.321985289043069722e-01,-3.064039989873394432e-01,-3.535798871974518143e-01,-1.314724994385643719e-01,-3.330032547167494084e-01,3.109963341291842043e-01,1.860591829876790393e-01,1.555675349899723614e-01,-1.167256980929196331e-01,2.491958039353386056e-01,3.434483277085453312e-01,2.549340086241825426e-02,2.448445271090706615e-02,5.727564047700557381e-01,-9.456610844164771434e-02
1.743249263064762522e-01,-3.327273047233725856e-01,1.562517348796414463e-01,-7.388424799863049230e-01,4.177014248812662561e-02,-4.177878010498418115e-01,-4.005054567231843277e-01,1.305460565352190849e-01,3.391255721371654319e-01,-1.344100288485345074e-01,1.603826327928875584e-01,1.890355269597426835e-02,2.350068150741335959e-01,-1.699572860214336179e-01,-1.486406619541287277e-01,2.126380166023464358e-01,-2.381134267967018880e-01,-9.909060158038381083e-02,1.132236162979046029e-01,-7.525460938692981605e-01,-6.989814234636783086e-01,-2.235441911394994985e-01,-3.763299308500229756e-01,-2.720099144116285284e-01,1.146275180455931936e-01,4.200258935498932811e-01,-5.694212039946520143e-01,2.943762943177444247e-01,-3.063331702226971265e-01,-1.877930618478111935e-01,-3.037398799929318799e-02,-2.832998201341000999e-01,9.629490338705548949e-03,1.493453925838811869e-01,-2.706584605067615112e-01,-2.505937753160834003e-01,-3.109337725347820214e-02,1.479061468283471015e-01,-2.158682995451026085e-02,-3.863530588114948983e-01,3.030367582161202361e-02,2.575778740143275583e-02,6.612089802491964707e-02,-5.975209963116323575e-01,-3.845608405395106177e-01,-2.378945641823100032e-01,2.365571253114563122e-01,-4.678691154706548366e-02,1.192161645384048028e-02,-1.767784853270870926e-01,-4.239937989704840593e-01,-6.520172010422031761e-02,-9.150271519638630835e-01,-4.018184222415041029e-01,5.545152127834342094e-04,4.532657177770477164e-01,4.158360683703173910e-01,-5.023597922531252216e-03,-1.788216239308746194e-02,-9.220480743785897104e-02,-8.443745770305397524e-01,-1.247251113779883069e-01,-1.058426522617098131e+00,-6.176947728440667085e-01,-1.609300920518809686e-01,-1.776048642754144424e-01,5.624978289633768974e-02,-1.003701233412813032e+00,-3.100942508206791168e-02,-1.521566573125048283e-01,4.397248166454845869e-02,9.051009658712669270e-02,-1.615771394746550182e-01,-1.943368770805315449e-01,-1.375475175334752997e-01,-1.295704659215635712e-01,-4.501434816169657543e-02,1.220854198665452389e-01,-2.948241407937504110e-01,1.132052594854409816e-01,-8.758314078637055022e-01,4.953946984010604848e-01,-6.068476564318674438e-01,-4.111265935156571336e-03,-9.467021943990572286e-01,4.486383651792292260e-01,-9.149134336708362319e-03,-5.120322916619144370e-03,5.446342124755199077e-01,-5.672911492667682964e-02,-4.027210277559138407e-01,-4.416209785081192107e-01,-3.383951086804991015e-01,2.163983218807686085e-02,2.286614217411087752e-02,1.218130211584109585e-01,4.305131913735137927e-01,-2.567401953057206910e-03,-2.069816303157847037e-01,-2.621612163573707743e-01,-4.768401652808595959e-01,-1.768346234541016623e-02,-2.104498487360636494e-01,-4.006733880274774423e-02,7.317015782832679560e-02,-3.885805070022592400e-02,-1.972861258962970987e-01,2.645813033139720466e-02,1.085274621073512025e-01,-2.048245534217275898e-01,-1.486876242388104896e-01,2.592448191269879909e-01,6.626430640667266281e-02,4.381366600488930674e-01,3.948847577239367190e-01,2.427684680941779305e-01,3.864066480367448486e-01,1.969548892240756133e-01,1.811864042873776171e-01,-3.525965547079933371e-01,3.613111678009867100e-01,-5.930021652991702280e-02,-1.993150441290545694e-01,-1.942731074597688068e-02,4.763073767123069541e-02,3.250204192642676126e-01,-2.964735477751525017e-01,-1.855386573285614238e-01,-6.370456007346696481e-01,-8.748799353371054799e-02,-7.112533552782232538e-02,1.240366277949029178e-01,3.237953551952041931e-01,-1.750915562090256117e-01,-1.295247727639498858e-01,-3.090837400469547691e-01,-9.910271919384290307e-01,-3.564291925222322077e-01,2.098915492911416769e-01,-8.659000612188773663e-03,4.146289682044366209e-01,-4.393173658119768343e-01,-7.530225822671295921e-01,-4.628935302253475159e-01,3.187188967680421592e-01,-1.544727332451722168e-01,-1.779218322430118626e-01,5.118708247797235794e-02,2.436463755811922247e-02,-2.563907665808470293e-01,3.361461488557452859e-01,2.153679933845976946e-01,-4.812074255709977710e-01,-5.907213457684639124e-01,-2.603132365474430387e-01,2.396611397462376225e-01,-3.495066846976006003e-01,-1.172285154196896828e+00,7.142256391191804943e-02,1.143885480216282335e-01,-4.790476216803574161e-02,3.342687397908108426e-01,-1.495910403094404539e-01,2.438601767383618002e-01,-4.102225117314856617e-01,1.839562581751094938e-01,1.025169989636385975e-01,1.500139630584770845e-01,-6.133175380785340636e-01,9.717085220166724047e-02,2.905765533890550603e-02,-2.752710840155194738e-01,3.090050465833068527e-01,3.110257893903600745e-02,-4.541524611253487942e-01,6.755871527364770701e-02,8.535859319071220641e-03,4.836682558529113996e-01,2.629980649167454332e-01,-2.368090111954084254e-01,2.173953876975749100e-01,1.553701785786697209e-01,-1.542781152314043683e-02,-1.136592493015369021e+00,2.183039135807321174e-01,1.024136250729144187e-01,-1.556882298658344987e-01,-3.667121379641308243e-01,-5.230566783899561444e-03,8.405613976360359896e-03,1.606088675672905919e-01,1.406123123440510825e-01,-3.814000900440304154e-01,-6.388325450564508179e-02,-2.095178685664958809e-02,-3.231946698317724187e-01,1.811394095559994422e-01,-2.372337786433552087e-01,1.213498574317686297e-02,-5.352036355215381569e-01,-6.623779603793691351e-01,-2.013617820235418521e-01,-5.473726245124467260e-01,-2.435720034944777457e-01,4.934619385601682340e-01,3.508561359253269812e-03,8.073081048157951245e-02,1.662695580953453822e-01,5.802751933768185433e-02,1.329647333252521046e-01,-8.403852147504842218e-01,3.506301277926002213e-01,3.943784434802773409e-01,-4.749685509365753067e-01,7.144910924881406333e-02,5.104821884744757954e-01,-3.565869632429522484e-01,9.727102847216095860e-02,-6.185369551966358320e-02,1.670261342686908679e-01,2.550149201838957658e-01,-1.380818764928004871e-01,1.305323660061012137e-01,2.622474668006482545e-01,-1.385095978948610029e-01,1.219825307660530600e-01,-2.809684914902550457e-01,-3.560433288626818626e-01,-2.321663367143073642e-01,1.016670806513819275e-01,-2.585430513920471407e-01,-1.089464401338771787e-01,-1.748308729790369331e-01,1.457839065817249369e-01,-2.027379564063794826e-01,-2.507774889802386609e-01,-4.231289716587664507e-01,5.447408557091317771e-01,2.354883525954566334e-02,1.020049356377074889e-01,-9.623006480132965858e-04,8.592522323176005061e-02,3.763526857222176253e-02,-1.126035289105806525e+00,5.612974897235680771e-01,-9.074052172421054330e-02,-2.054193077710717019e-01,1.860233225724272077e-01,-1.614122879496440455e-01,9.788171903680370142e-03,-3.900022776584982642e-01,8.473131286013872721e-02,-5.854820722360483121e-01,-3.570094444286320279e-01,-6.188788150813461647e-02,1.189218109141664537e-01,5.186368050146472619e-01,-5.071642480943008291e-01,2.205832977259678321e-02,1.520874383672942143e-01,-6.548565159794240698e-01,-9.407928517483649111e-02,-7.266891239712955364e-02,-7.069912015698716357e-02,-2.798041417788483809e-01,2.166720153283940020e-01,2.924440105260476402e-02,9.138322916303170951e-02,1.348108299584184766e-01,-6.057528738744113461e-01,-7.559928192679631065e-02,3.552292775565699112e-01,4.152722777985253244e-01,2.011380883747525550e-01,8.290447798207671581e-02,-3.415334153036429354e-03,2.461197390714667949e-02,-4.230597428190361886e-01,3.174997985310295395e-02,-2.859925811860810629e-01,-5.170002271381329839e-01,6.874549137464952553e-02,-2.190515110088210315e-01,1.303649835745138430e-01,2.770707820778939290e-02,1.557068354090127560e-01,1.783083168546865382e-01,-5.021754781732173933e-02,-2.375582529933686071e-01,-1.741237500298579710e-01,-5.115302134326987077e-02,3.273142610120968188e-01,1.303892991592324295e-02,-9.893537192299569488e-03,-2.812072665682071038e-01,-3.289897049378956613e-03,-7.525844674982282156e-02,-1.057511170145445378e-01,-8.124619822890940535e-01,6.539606889700894099e-02
9.651118841339643983e-02,-2.528132732819846629e-01,3.487748089730567380e-01,-1.773793728035109873e-01,2.257467729358061601e-02,-3.905182077868348256e-01,1.747712032248899261e-01,-1.630244296031027884e-01,-2.302476623755880525e-01,1.068637743249042232e-01,2.273493748082240640e-01,-2.121847990568387701e-02,-1.070463336143175487e-01,-3.515255775336654231e-01,2.264072476782416354e-01,-3.614460681278475196e-01,1.739103844820641953e-01,-1.947917361102626671e-02,-1.334721792143609143e-01,-8.730851234611630707e-01,1.942405305176828079e-01,1.740951950451606958e-02,-7.268113258344413574e-02,2.376295211013901565e-01,2.191814704440329109e-01,1.034354683534931679e-01,-1.704797723615314009e+00,3.532616667286002099e-01,-1.942398665559920967e-01,-2.069322571987842474e-01,1.296603068337361109e-01,6.391345377753372692e-02,-1.275473902853166142e-01,1.350104307325398871e-02,-1.086638443604364401e-01,1.069681837423441945e-01,-7.513410573623710564e-02,-1.107675526737231381e-01,4.304721569330198228e-01,5.284769457001003978e-02,-1.697319484099034728e-02,1.886266033092982297e-01,2.004673833206248035e-01,2.623805275423362390e-03,-6.181520322454348015e-01,7.212354357929766369e-02,-3.142637832143393428e-01,-2.028953618888935939e-01,-2.304340479376977904e-02,-1.897536677297687324e-01,3.059412536511847604e-03,-2.209660241390657975e-01,-6.218202202718635663e-01,5.913071866176088792e-02,-1.227773420156158535e-02,-2.853200049256360282e-01,-4.045753090111412278e-03,1.093124301254392444e-01,-1.259177994358688484e-02,-1.291672738011730992e-01,1.874221404825405224e-01,2.465669427570788275e-01,-4.597367770742308291e-01,-5.101642271187659672e-01,1.246967879826828829e-01,1.134869375501828537e-01,9.025859597220070932e-03,-7.214240241921493491e-01,-7.317212566284444497e-01,5.866330199617848518e-01,6.978871840760260403e-02,1.132610275678000988e-01,3.348331596002376842e-01,-1.588433143241364809e-01,2.483497455155490169e-02,3.625549881056696067e-01,-3.016071661496378883e-02,4.494300329936977700e-01,-1.473870823537901109e-01,5.294343184701819083e-02,6.287502684963999777e-02,2.614175124905409042e-01,8.361676387104316488e-02,-2.988162788910217818e-02,-1.082427313946436875e+00,5.660187463094343979e-02,2.858859069858326642e-03,6.688359162799036896e-03,-5.242515018329754195e-01,4.002091642223454815e-01,1.269977171314441711e-01,2.615137087122061943e-01,1.204156186048179755e-01,5.198615029900415657e-02,-1.062556949042435875e-02,-1.399808275609759345e-01,-2.706122967568188112e-02,-5.771041667532061936e-01,-2.562831829341287171e-01,-2.712496195665062837e-01,3.295757520029579668e-01,-8.468095887647636086e-03,-2.544423661677958082e-01,-5.148097993589986765e-02,-1.151319658009517521e-01,1.235904895451000497e-02,-1.946074897545095606e-01,1.010060916257361358e-01,-1.598360264333024694e-01,-5.927047296351486416e-01,-2.195190712460511340e-01,3.724825828779693843e-02,1.028317657569349924e-01,-9.069322448706040873e-01,-1.009175099345645671e-01,6.013041007206227501e-02,4.279832362859719574e-01,-2.531286569137745079e-01,-2.531107068791814130e-01,1.545005042122133132e-01,4.513366673742743584e-01,-5.073522738478580124e-02,-3.826603176945990170e-01,1.894437558390067722e-01,-2.492358902952681102e-02,-3.504129370186996328e-01,2.207355126233061515e-01,-3.334137434931732646e-01,-8.245226756630771314e-01,-1.626476301479981915e-02,-4.581510346660102456e-02,2.372867776029667919e-01,1.629305980745308913e-01,2.768020626120091809e-01,-2.220498904539439655e-01,-2.494805768173943561e-01,4.150789084551701480e-01,-5.834422967310937819e-02,2.892572816189449281e-01,1.109782933599483333e-04,2.251165432418429091e-01,4.212323069070394999e-02,-7.916431280636354595e-02,-5.473835414783497777e-01,6.417550933313932726e-02,-1.298512310164935402e-01,1.469318137664782087e-01,-1.168215121850895745e-02,-1.838403747597250684e-02,-8.669969190595792075e-01,-2.291744583971104254e-01,6.834975182267821747e-01,4.482342241777119152e-01,-2.184951306622043843e-01,6.597235329790336611e-02,-2.956953705096243001e-01,-2.512266235449843732e-01,-1.113471266487593869e+00,2.321313872799561986e-02,2.852372704976348650e-01,2.237569520743939999e-01,6.155115493667049353e-01,3.244793268086174631e-01,1.790662299411536484e-01,-1.116477434639814859e-01,-2.702340458325929728e-01,6.854976981842690609e-02,-6.434049400845484601e-02,-4.466660105557533900e-01,-3.739825045147094351e-01,-1.249948400428937956e-01,4.522759005806517574e-01,-2.826843740253356940e-01,3.870984413176263850e-01,1.067114077916377912e-01,7.921613440338579060e-02,4.499722506457079670e-03,9.653342856980375031e-02,1.409148805396240045e-01,1.821599466290025893e-01,-9.886632681180204663e-02,-4.623723846809954519e-01,8.309404908574620496e-02,-4.376252407046926085e-01,-2.342611105763007032e-02,-1.166143239552067251e-01,-6.116998919783718514e-02,-3.059403436759925987e-01,-2.571827914135410564e-01,3.886667561534152271e-01,-1.008239031525642870e-01,9.807731661675227197e-02,2.252451168310745655e-01,-5.119577349734575483e-02,-1.816983001482552207e-01,4.184778974373490334e-01,4.545196773764847986e-01,3.064235766201264810e-01,-2.984014366534112339e-01,-3.137968691917342734e-01,-9.750782434392905040e-01,-3.366795480254328177e-01,-1.645463232934882836e-01,4.084721756787088598e-01,-4.900098565893259428e-01,-6.015838751570502102e-02,4.734762206986043581e-02,1.098964730936785941e-02,1.292538019963874671e-02,8.940269181856212721e-02,4.288249470408910247e-01,-3.111466392050802887e-01,-1.169464709371096228e-01,-4.546439043200342089e-01,1.319289663126336498e-01,3.737222930158327072e-01,-4.507289822531462820e-02,-2.001214962910170120e-02,-1.319235644556039644e-01,-1.718512170076594847e-01,3.970735863630039941e-02,-3.540870265214719065e-02,2.088368684357982119e-01,-3.183959890995281816e-02,3.582716248265647163e-01,-8.604152167024722853e-02,-1.760378388506562419e-01,1.925792739004185961e-01,3.150395554326246295e-01,-1.785605255304820727e-01,-8.334513510902777367e-02,1.124605413866835296e-01,-8.387437120314701622e-02,-4.127603738725812432e-01,-2.625752114958625483e-01,2.583669712910237060e-01,-2.353419837677569737e-01,1.402292008277838398e-01,-1.222195584097997972e-02,-1.437208955427715651e+00,5.553210213796217105e-03,5.605342027268975236e-02,1.712097260118583264e-01,3.775464900098461918e-01,6.720304436566844342e-02,-9.956909210462334958e-02,1.630285786848915119e-01,-8.511284432940770250e-02,-6.943757371782637300e-01,-6.273151980486574297e-01,3.563259833888957617e-01,1.306988830875256968e-01,-4.919261212807349293e-02,5.859659075560044034e-02,-1.678201367596667826e-01,2.278134334560174556e-01,-6.329971160090565041e-01,-2.549545724606974706e-01,-1.595893311546276588e-02,2.299103958484064181e-01,-5.003654736737119801e-01,-1.677021209483365860e-01,4.511954137775634616e-02,1.464580074237706092e-03,1.957741909165945371e-01,2.443186906521241375e-01,-1.260581148259383791e-02,-1.054701999575517746e-01,-2.451124398390735759e-01,-5.355849408737374251e-01,1.728882258243915060e-01,-3.374881203635538562e-01,-4.377945971719740537e-01,1.885349084634090899e-01,-1.238824560928378921e-01,8.798626287908993884e-03,-1.303801540992675367e-01,-2.311425214373216686e-01,-3.466641764359568861e-02,7.965580935519515904e-02,2.806872415146965394e-01,1.548927699518959193e-02,9.957514070595366307e-02,-1.826010234197714688e-01,-1.872567229585195281e-02,1.302104074107058099e-02,2.514599199897239457e-01,3.592411241822246470e-01,1.216306256818332210e-01,5.293272828534886232e-01,-4.536570393727656358e-01,-1.626977137109188176e-01,1.594681416654093187e-01,-1.239173770000088354e-01,-4.134376615969342361e-01,-1.461136733093383044e-01,1.943071261684916617e-01,3.215017921003589241e-02,-4.261282843072446980e-01,-5.973502058140452847e-02
