-1.105327847410914333e-01,1.124325050342145360e-01,-8.643339727314576504e-02,8.590035261195592964e-02,-5.018232967637367009e-02,-2.957247439249516274e-02,-1.212658288897880549e-01,5.733687951178034065e-02,4.929007858223067445e-02,-1.064904305795366796e-01,-1.241561519400297825e-01,4.971357896297866341e-02,9.849343939684150617e-02,-9.735470000980640803e-02,-4.435950362236467520e-02,-8.472754573670800149e-02,8.475809441244069875e-02,1.592633870957740339e-01,1.190137299000658400e-01,6.094159974607531172e-02,-1.028981684926850715e-01,5.778823035382196077e-02,1.293945121817438593e-01,-7.340125277167949824e-02,7.999563132757640804e-02,-6.633897732854952822e-02,-6.529201620601397804e-02,-8.592619380495614134e-02,-8.791444921600181928e-02,7.776382573138625187e-02,8.149527138515860747e-02,-6.808792431884645724e-02,2.459717838393973323e-03,9.965575379686110458e-02,-6.747591857776197299e-02,-1.148628293243717791e-01,1.001886389094257396e-01,4.171151862497053664e-02,-7.427577151615147311e-02,-9.691002723370459315e-02,-4.676956746319973351e-02,-9.988278035122821752e-02,-9.631017707112932147e-02,6.258470924518215461e-02,9.664647965840737764e-02,-9.359420134462861918e-02,4.720504018829026205e-02,8.836750830103162757e-02,1.050876678654694418e-01,5.512375277648749045e-02,1.650391030422163341e-01,-7.611767408617849118e-02,3.115785591171130187e-02,-3.577607784583573813e-02,-1.595486070148456614e-01,8.077197357123712396e-02,-8.683784620263992893e-02,-1.454052007256498857e-01,1.083693111739416765e-01,-9.748955520241614492e-02,-4.240923720358915489e-02,-9.427166654089097486e-02,-7.632822992719597022e-02,1.600437585010386077e-01,-1.697786618336561137e-01,-1.035308387752658932e-01,-1.232117694225064175e-01,2.002319860449759958e-01,-8.098476760174198874e-02,-8.126027416550904436e-02,-4.361530883071855491e-02,3.038965609902722145e-02,1.361546051286029457e-01,-1.213622354988909829e-01,-1.031617565596223557e-01,8.188182552694239780e-02,-1.848327340735537450e-01,1.410569460853569879e-01,8.108489251962076871e-02,1.562434699563986507e-01,-1.580087362726797506e-01,-1.196779689091476279e-01,-2.460143792488113032e-02,-2.240968591594182380e-01,-1.767780173881705955e-02,-1.101531737669355637e-01,1.278928032127174264e-01,1.247563671061572843e-01,-1.376550041921719703e-01,1.693941333006801220e-01,-1.385702415207631655e-01,6.543232197203379882e-03,-4.203469460344627651e-02,-7.342590524186660972e-02,1.223141545867555691e-01,2.390246673370055239e-02,1.356167989058999213e-01,4.190396413508965662e-02,-7.667636791043744293e-02,-1.062538645209983590e-01,7.084290076907380496e-02,-1.017921140305547423e-01,1.157193922427045829e-01,6.664899949412581015e-02,-1.059774400424534219e-01,-7.733835001853529845e-02,6.861885508230251840e-02,-6.685851219385777200e-02,-1.493773773859583542e-01,-5.743954608885551427e-02,-1.946576285964360664e-01,-1.658758598087853031e-01,1.187846467179557997e-01,-9.507168065555118841e-02,-7.890117538152641163e-02,2.840700697388086338e-02,-9.678655333833517671e-02,1.107799484294513977e-02,1.303877089920015553e-01,-6.572124122178310546e-02,6.762743741041173096e-02,6.324760490548463066e-02,8.350206344222400878e-02,1.355286266804714146e-01,-1.141527490965339314e-01,4.008831889263285431e-02,-1.141501481824603176e-01,5.803466899611313401e-02,1.239051656316969841e-01,1.672924874158494002e-01,2.923149178528165054e-02,-7.142877860372048859e-02,5.790331973278935174e-02,-7.798573458295832150e-02,4.018273593169483654e-02,1.267470851066655746e-01,-2.744299211478519115e-02,1.393396820758248944e-01,8.407723393883322072e-02,-5.168284397729101115e-02,-1.583763523760119141e-01,-3.002187486978812395e-02,-9.283776706004431833e-02,1.743069553319145648e-01,-1.650644765351423904e-01,8.012936871973629083e-02,1.159057008971345337e-01,-5.233016327469069973e-02,-6.190398983908734082e-02,2.869553441811562716e-02,4.886902732848268788e-02,3.537401850355820915e-02,-7.776501011612836634e-02,8.802021013566076191e-02,8.218645031261526124e-02,3.835793941152225439e-02,9.124206190626411861e-02,1.329056924182312471e-01,-8.738592833928784942e-02,4.314651339080059073e-02,-3.805169092121967606e-02,-1.155893033981743728e-01,6.980643295983228469e-02,1.802590798892906004e-03,8.162166919277072386e-02,-1.123045023769910500e-01,-1.028086731213481569e-01,1.015087029768324683e-01,-8.706281391796279190e-02,1.693937813299819239e-01,2.078670039946587181e-02,6.325992227276901192e-02,-5.061416560019418864e-02,-5.234023335446728875e-02,2.801961274339584765e-02,-7.573478148539640464e-02,-1.827971172009546230e-01,6.894323086342607487e-02,-1.008819442230095148e-01,1.800037613592939401e-01,-1.105797067873197648e-01,1.040045864827846694e-02,-8.437506958236161425e-02,1.453005457791313459e-01,3.573818070557516213e-02,-9.317910154071203099e-02,2.452769200193928925e-02,-1.593179790341879842e-01,-8.487425197464373849e-02,-7.610304052234878602e-02,2.546373184010097476e-02,-6.937698675386566594e-02,1.402434238661739163e-01,-1.788975490535265611e-01,-1.927608686834203500e-01,-2.391086333605984757e-02,7.071800541185147004e-02,-1.570037498273785803e-01,-1.197311321490590191e-01,1.135251288108123785e-01,1.266534810408465883e-01,1.727511652388305508e-01,-1.160486782688214119e-01,-1.944764676248585955e-01,8.851571445913943015e-02,8.370137315935022304e-02,-1.632374577841511909e-01,-5.977445379195758107e-02,-1.548356198975619213e-01,3.699761471896398368e-02,-2.672840645298252271e-02,-1.268751414448964498e-01,2.484787210185461157e-02,-1.142279884285365837e-01,8.661060564633311920e-02,6.562553062118826885e-02,-5.064934501842889569e-02,9.465399458516891851e-02,9.600401382729363553e-02,4.545581276168453311e-02,-9.033361912706956709e-02,8.241223275974075835e-02,-6.179502054225481655e-02,-3.810161833842323070e-02,-6.543996224247447535e-02,1.674811065070687735e-02,-4.544201489286436163e-02,-4.058004996721579355e-02,-1.106936305735089360e-01,7.698075783672238270e-02,1.071697443511398090e-01,1.339238717145623814e-01,-1.215046813721340491e-01,4.392058374007993399e-02,1.335190036644576528e-01,-1.079617882348434948e-01,4.603484129470092334e-02,-1.103463332716029949e-01,1.041949480974802694e-01,-1.519402744476069933e-01,-4.317978839933966223e-02,-1.522954362436992060e-01,-7.381194137071128702e-02,-1.318108520921391358e-01,-1.529646561258554971e-01,-1.559787143630640693e-01,7.575040561766811786e-02,2.043100282583185379e-01,-1.027043823940985284e-01,4.610221351117651384e-02,4.751823135900184319e-02,1.316643841664991432e-01,-9.730345267323578518e-02,-5.046563706206479150e-02,9.364843264716347926e-02,-9.419259144925400118e-02,4.034631610542568914e-02,4.065664001407592876e-02,-1.566802969305346738e-01,5.833977756888555910e-02,-1.758445357178972102e-01,-2.107459843812219125e-01,1.117343785709474374e-01,-1.032521594264248915e-01,-3.735093202478362295e-02,-7.929854552143303370e-02,-6.043826824883417187e-02,4.311727814873119596e-02,-1.522511693845963743e-01,7.108124251235269087e-02,-1.082731607251710693e-02,-1.088153855729151881e-01,-8.727546254939722026e-02,-3.185345387673984511e-03,1.643778289295213246e-01,-1.353162814753558485e-01,1.421237184392326047e-01,-6.497068842756736906e-02,1.936054148720497622e-02,-7.116794785200497575e-02,-1.053399863704319595e-01,6.723652700203740229e-02,-8.517143089773888953e-02,-1.075073056913676377e-02,-5.619988185735779601e-02,8.633953098090493827e-02,9.525811649757333355e-02,1.174822864742850331e-01,-1.272364190520132721e-01,-1.997422363971251488e-02,-8.127483895756511256e-02,-1.489709040314083077e-01,7.210334116227559709e-02,5.957782346770092163e-02,-1.092324054627371310e-01,-4.761651792155533608e-02,-6.579352872520874418e-02,1.065990500234819532e-01,1.227720494310742955e-01,3.357172589131467155e-02
1.069854563934366232e-01,1.017955332232443472e-01,8.762401149401585765e-02,7.595829699331031748e-02,8.382868078312057103e-02,1.302182055061147925e-01,-3.081106501563042610e-02,-1.425774722058835986e-01,1.079825555736254328e-01,-1.094372906926164291e-01,1.033648919728858695e-01,-9.710752257666799281e-02,-1.625071076112232227e-01,-3.087814095335084368e-03,-6.599359957300220125e-02,8.359039644852930828e-02,1.035513579260906314e-01,-9.293823893860775343e-02,-1.356809696329623893e-01,1.005109212024532100e-01,-1.085616798279441381e-01,8.485096139332744258e-02,1.098379038006813413e-01,9.193957312804679205e-02,-1.123126177224775535e-01,-5.190862902293343767e-02,1.753360614752743352e-01,9.511802998515352103e-02,1.285828879392022228e-01,-2.784579921429632815e-02,-1.513245260711127971e-01,-9.847011165154907764e-02,-1.349449898775183510e-01,-1.468022419927067779e-01,1.260487329553685032e-01,-9.742019640335580766e-02,-9.810191081307827188e-02,-7.270996010567042089e-02,8.675481601171626533e-02,9.044920450279803070e-02,1.332896710198042678e-01,4.301171262430034115e-02,1.728099139991779720e-01,1.494940626640632250e-02,1.312009289782755106e-01,8.504542977444508323e-02,7.565509211133190914e-02,-1.172631092102666278e-01,-3.614860719106641196e-02,-1.221295624066771612e-01,-5.154298980848909251e-02,2.375340009067789665e-02,7.240004316488485303e-02,-2.603479903927845285e-02,-1.465199107097661102e-01,8.705026811342614357e-02,2.458132084248357968e-02,1.029566433047383184e-01,3.818970754352561670e-02,1.134190718567688327e-01,1.027921286633057540e-01,-6.366585856072012883e-02,-5.834417564110008780e-02,-3.320325932223271159e-02,-6.076556544566849571e-02,1.066773980083056961e-01,-1.187717813080713808e-01,9.425446413466032070e-02,9.489415836226677836e-02,-7.312906259392601416e-02,-1.164711075285834035e-01,-1.511268854193349997e-01,-2.712497519397218462e-02,9.759764730431590152e-02,-6.493950395122868868e-02,-1.381042715654819120e-01,4.577701265714412271e-02,-1.353484375861438438e-01,-1.541767178442143560e-01,1.255974612445119876e-01,-3.437005475530473947e-02,1.031423995607208821e-01,-3.879071812817694309e-02,-1.175998292073242302e-01,2.833400142401651389e-01,8.285589789623833135e-02,7.381777080304681438e-02,-9.324394828605213348e-02,-1.272975108533737744e-03,-2.278663792050731208e-03,-1.079888820172909963e-01,5.168308694017556548e-02,-6.559077727068235442e-02,9.881736848917813121e-02,1.167281931612349499e-01,5.520812956165357943e-02,8.023029585863304669e-02,-9.948955011225228684e-02,7.662062092218856202e-02,9.227304844489266078e-02,-1.329098501452324887e-01,1.070429400793914826e-01,-6.712213112893990197e-02,-1.280876864991105368e-01,8.614681376076363528e-02,5.614005746853880860e-03,-3.660290813682036404e-02,9.682385211409511028e-02,-4.823885935671589666e-03,1.107440915821176070e-01,8.382256912800874205e-02,-9.131908796985906129e-02,8.353641148342776102e-02,1.000736748733717235e-01,5.456044632295259725e-03,-9.125505626512725454e-02,-9.544161784623662881e-02,8.783132520266083432e-02,-9.586968086372459064e-02,7.086557360947469408e-02,2.054409715207925640e-04,-6.451734483620076566e-02,1.150678853768928728e-01,-1.210613420533723228e-01,1.250557305211056625e-01,8.366180443868309613e-02,-8.260521866631909127e-02,1.025171308762954925e-01,9.536011781015291122e-02,-5.330404314834419344e-02,-9.786727271995641908e-02,3.083119235362603155e-02,-1.035784684569829445e-01,7.515381381793928561e-02,1.417387921886521518e-01,-2.224381742893034516e-02,1.666194277278795211e-01,-1.039207946213591555e-01,2.222101483348307756e-03,-7.706184353575933066e-02,4.709967563477213126e-02,2.644894613816573536e-01,-5.475739746926339135e-02,-7.339440095434518474e-02,1.330357490149034760e-01,4.748388263419308503e-02,1.192838011551405758e-01,7.800389978837084237e-02,2.212730265572141614e-02,-7.412896810718291873e-02,-1.458450546875071363e-01,-1.560839517154889167e-01,5.146073775295348374e-02,-4.176892492572362170e-02,6.706356786003847548e-02,1.656270295423887401e-02,-3.034129755519929250e-02,1.224032951933663738e-01,7.802282277786139197e-02,-1.007423823529349088e-01,1.527881955437473682e-01,-1.098369857122475091e-01,-1.496348395898073058e-01,-7.471265433567352010e-02,6.080088700273267310e-02,3.861790904378597372e-02,2.087723191529764280e-02,-5.292740042284077573e-02,1.148530374651904606e-01,9.948630412829960468e-02,7.647383899448732814e-02,-1.382328021286840236e-01,7.683951780127687425e-02,-4.686251169960537616e-02,5.088313028992596382e-02,3.002066235578742040e-02,3.552627054146247076e-02,6.752495220470888793e-02,7.243721456977382511e-02,1.591356186446107601e-01,1.075919584033381143e-01,8.007710890578222107e-02,-6.380026620064800646e-02,-7.637282511462605006e-02,-9.718740255529283167e-02,1.509618983286437344e-01,-1.315425092204150215e-01,-8.401366373565159751e-02,-1.375723869779162944e-01,9.046587221043723981e-02,7.384086408504837717e-02,-3.029856097581894430e-03,2.476005939922355098e-02,-1.197637791795490153e-01,6.416716373943820440e-02,1.159874588572797904e-01,-1.172005690083553625e-01,-8.953809562806552824e-02,1.024515444635566846e-01,-1.454175875963798492e-01,1.329384399488365565e-01,-4.554695637002385833e-02,-5.911058575982199026e-02,6.324056475296420919e-03,-7.777818265473182557e-02,-6.737115833766582629e-02,1.798902684389624279e-02,3.719220362692202825e-02,-6.735316879534995749e-02,-1.181274609612837090e-01,1.428857138393763992e-01,6.322960823351812809e-02,4.390897808597490209e-02,1.374443092115243958e-01,-1.360396966654255635e-01,-1.934675508694173318e-01,-5.214654784435070883e-02,4.279714140141050588e-02,-1.105632565527337602e-01,8.115043584905100305e-02,-2.738428790148352346e-02,1.013296152805218814e-01,6.089299450407480163e-02,8.054630171509744030e-02,1.369649966526689244e-01,1.245983219108066781e-01,1.387424262328998958e-01,-8.278729907878328020e-02,1.454842449012686278e-01,8.732988616979196761e-02,8.873552941635443059e-02,9.196943327574989835e-02,1.293420532932856581e-01,-1.484226476104604786e-01,1.846835252373192279e-02,-5.673770487000343726e-02,-4.722562466627071992e-02,-1.324823587387668200e-01,-1.043207294713883598e-01,1.194630410779063123e-01,6.289479801688932503e-02,-1.026005917848479554e-01,4.552400977733015580e-02,1.261348095351666476e-01,6.101401502020323275e-02,1.095136852491495755e-01,-1.070981071620451808e-01,-2.159494621098286687e-02,1.529582065311726746e-01,-5.774416333652884759e-02,-1.910793378785597130e-01,-6.989612916555924815e-02,3.063908937597550203e-02,-8.438734055435777315e-02,-1.206513129663411149e-01,1.861009726447389323e-02,7.574584834780656584e-02,-1.298415004558954589e-01,1.286036811635776766e-01,5.579061126890020456e-02,2.658536870184706816e-02,-8.750639761099150704e-02,-1.326757062684243149e-01,-3.668014779749664833e-02,9.739962577138550071e-02,1.089613753860422252e-01,5.444630007818281742e-02,7.236761238658033502e-02,1.336148726301087941e-01,1.161785425128732258e-01,1.226940933048614457e-01,1.096841078489656784e-01,1.209477868127293160e-01,-9.098333141607123364e-02,1.093480238745299926e-01,-1.100556302065833492e-01,-9.256585604117015254e-02,1.120864855732134485e-01,7.822768210865649330e-02,-8.974246888233962383e-02,-6.619128509923556669e-02,-7.566515369858733270e-03,-4.081944419182644002e-02,-4.164196816558466546e-02,8.197297977748344011e-02,-9.631472821536447848e-02,-1.296090538825726557e-01,-4.693119864687027992e-02,1.116483816444407556e-01,2.536471781878877896e-01,6.273334546306295889e-02,4.774826034017993354e-02,-1.582513609762259688e-01,-7.762004418663816241e-02,1.508984710838821852e-01,6.464025802507843144e-02,8.165507565625518271e-02,1.182186259759185343e-01,-7.575546381249131933e-02,-7.802747880846919171e-02
1.639748124246820926e-01,9.413469704945283401e-02,-3.848767027659084992e-03,-1.003451312819943209e-01,-4.755472951095946615e-02,5.373863439962042743e-02,-1.694776296304530971e-01,8.699158101414775079e-02,3.345180619043523762e-02,-3.423107692543068958e-02,-5.475227747884365420e-02,-8.843670282183549447e-02,1.098617482753883878e-01,-1.126442426601572816e-01,1.492754016805664385e-01,8.042294687104507844e-02,-1.073768539367085662e-01,-1.154879981827431346e-01,1.683476788311479844e-01,3.858202424022166149e-02,1.754697776276981092e-01,-1.466119535745289137e-01,4.272602093676991508e-02,2.313781023719935562e-02,-2.354469151807090932e-01,-6.867471597756517887e-02,3.528720288739362748e-02,-1.140355419988128664e-02,3.567856373799200426e-02,-1.864800726036831557e-01,-1.521071245483365808e-01,-5.052847844461191840e-02,1.030575456618723351e-01,-1.578647749815573487e-01,3.445794128694661118e-02,-1.157070442418861034e-01,1.346464889995388214e-01,1.440539345927209780e-01,8.355397600776522105e-02,-1.177450054803671209e-01,-8.774983760484704465e-02,4.163635668943575611e-03,-1.357030437113191934e-01,-1.567801518419414952e-01,-2.068642228094409730e-01,1.792723028768242188e-01,-1.259618593860088176e-01,-6.015955634198880131e-02,-3.531128080349972553e-02,7.500582536383219867e-02,1.657988649656577385e-01,1.345774537060665799e-01,-8.521053264069368416e-02,-2.491003673602888713e-02,1.651454780952962553e-01,-3.934606379804031495e-02,1.657879380317311413e-01,-1.807355827217076716e-01,1.988514315753591166e-01,-1.012916722062122132e-01,-1.041047075089393537e-01,1.599957624080083074e-01,1.369517933571806068e-01,1.639253746259929090e-01,5.979013602913060138e-02,9.421568956976709985e-02,-1.714275206838359322e-01,1.775948351608248599e-01,4.456125482935379550e-02,1.905090100372537898e-01,1.530050131014299986e-01,1.326882549802184119e-01,-5.381162034562995272e-02,1.485938567815980049e-01,2.052958032322025339e-01,-1.677932690883290334e-01,7.400244303611784591e-02,-3.958522507401993767e-02,1.625556023776561776e-01,1.892558911131068111e-01,-1.741227840174250086e-01,-1.184449537260637841e-01,-4.745227140235189905e-02,1.530322471555640995e-01,8.903802494594977024e-02,-1.799398225290785580e-01,9.272961155751022200e-02,-1.160631676896868580e-01,1.176966933442453178e-01,-1.545947802046723774e-02,-9.702571650875090048e-02,-6.913636759853039604e-02,-1.649888850025939963e-02,2.184041434100968126e-01,-1.057481918066055515e-01,3.608658999622531283e-02,1.141402181428219781e-01,3.091147811059519190e-02,-1.195911658505647290e-01,8.558168197811542866e-02,-3.073044358190553382e-02,-6.612515743729703577e-02,1.572373069562611192e-01,1.046697153559374149e-01,-9.520340072576752299e-02,-5.768295474096105796e-02,-7.894344890655893843e-02,-2.477244234404523890e-02,1.282465168186697722e-02,1.218885847411734363e-01,1.558034761125882128e-01,-1.338692199607167954e-01,-9.680765506789835995e-02,1.076048990285818907e-01,-1.977507428983965587e-01,8.017737368864635839e-02,-1.229282852771381440e-01,5.935015052171668803e-02,1.512765262577020486e-01,-1.579009173425684198e-02,-9.251527500489163669e-02,5.042148070017055117e-02,1.157297302336531691e-01,-2.244793304453622240e-01,8.452123170000179486e-02,-4.233429710190384637e-02,1.670428011726277640e-01,2.327990633032909693e-02,1.138647605910329957e-01,1.297839454710374985e-01,1.423365084885662990e-01,1.305841544429176548e-01,1.162263082885857390e-01,9.345268361282241254e-02,1.085719996279937982e-01,1.179910209300721324e-01,-5.405645480808510261e-02,1.709350710766101844e-01,-1.406576625485612131e-01,-2.121690025737846957e-02,-2.302198295437056230e-01,-3.106608696834457090e-02,1.464935916919990200e-01,4.179591572291471019e-04,8.229939798040235288e-02,-3.929307671467619639e-02,1.603129019899982577e-01,-1.290640344739152345e-01,-1.917536398840058998e-01,-7.140159939506145192e-02,7.133765058572999473e-02,-4.008724900247352674e-02,2.037430561266626028e-01,-1.335313464357008525e-02,-1.598453865688244102e-01,-2.250612463875136526e-01,-1.489632831679115962e-02,-6.572211396438625008e-02,-2.659389221538345158e-02,2.904926387581363914e-02,7.268500333042872408e-02,3.858146498288237553e-02,-5.221488814941470380e-02,-1.043494567249167310e-01,5.205176482092480766e-02,3.997861316747518094e-03,-1.677686156893167246e-01,-1.520011530629706564e-01,2.198582057272778501e-01,1.655330548228483301e-01,-5.631920966827771297e-02,-1.262972408787220273e-02,-1.413503872839223519e-01,-1.039554235991899112e-01,3.410729695765291059e-02,1.548819934035052803e-01,-1.599475433342062713e-01,-2.496136404536475339e-01,-1.280358395568529928e-01,-1.134146030994280935e-01,-4.337764120663156059e-02,-4.984400735882463934e-02,1.014307436235549753e-01,-1.088604236808272813e-01,4.911867793913493596e-02,2.000391814400703239e-01,-2.323655702629280964e-02,1.545501021785696261e-01,1.083920005136688874e-01,-1.037966761031310914e-01,-1.300316027492787706e-02,1.508289793825445813e-01,-9.330464278185299221e-02,5.400406267353108358e-03,7.838756826749528062e-02,-5.242832576705586112e-02,-2.949625458740713288e-02,1.382550585868974058e-01,1.431677515731165917e-01,-2.170121076763403822e-01,1.847930644407324782e-02,-1.821876135760744919e-01,8.637706485320570393e-02,-1.821199542803992877e-01,-5.010053869036707602e-03,2.846024430948480011e-01,7.441619541989087649e-02,1.440311680164632069e-01,-9.619882308185358222e-02,-4.583989468731714673e-02,6.954648903431950857e-02,-1.382417389188466128e-01,-1.793761397471822089e-02,-1.540087244044523462e-01,-1.799626639463831057e-01,8.362483374585719109e-02,-3.698001180296010826e-02,7.970535347592040687e-02,1.859820737032099811e-02,-5.599096740996226118e-02,1.320729237945914847e-01,1.162894213792401918e-02,-1.309778090164156160e-02,9.328750047569106529e-02,3.193172467829151484e-02,-1.076205983922825654e-01,2.422733278375693855e-01,-4.870825637919662908e-03,-4.187478848223067512e-02,2.561625858013672971e-02,1.227278000060868096e-01,1.164502163518017913e-01,2.598697907103701341e-02,-1.739620451694749437e-01,-1.567586314991854801e-01,6.477874377301291731e-02,-1.159559823448615482e-02,1.195451123005736305e-01,-1.403103595353068500e-01,-5.124364435120498662e-02,-1.015496271991296884e-01,1.331554113630835645e-01,1.954067387282436841e-01,-9.842187645768424309e-02,-1.802686358395450827e-01,7.576790784003158141e-02,-2.056233664191916555e-01,-2.829326629830105841e-02,1.672912198729272215e-01,-2.396487781148805025e-03,1.470109157929629373e-01,-1.074149276132603387e-01,2.823184633021160253e-02,1.969717098137460098e-01,1.959917825193936147e-01,9.833610532114721303e-02,-2.696014036887112511e-02,-2.624512762630790141e-01,2.266547880271322923e-01,-1.279310511848754384e-01,1.917642038223521528e-01,8.152781428647223882e-02,1.489492864524172844e-01,3.789417370583098715e-02,-5.758589543053747178e-02,7.590614798499950924e-03,-6.757565394199671616e-02,1.306458009662766206e-01,1.665659302149225807e-01,-1.266009086095059091e-02,-4.741151401547748917e-02,2.375298841630053559e-01,1.556392037748205726e-01,7.862373868302893754e-02,-7.020684901471115069e-02,-1.579888813468066991e-02,1.284558604570326668e-01,-6.668159131709187892e-02,4.865758364246029581e-03,-1.248160472199107661e-02,-3.030224566133886757e-02,1.665122519218693031e-01,8.942445840782403677e-02,8.122600369558771738e-02,-1.509998241785674017e-02,7.114114643222832490e-02,4.276344520821478284e-02,-3.673228998673269685e-02,-1.849046131424985639e-01,-1.812096307557967481e-02,-1.396498991327558281e-01,-1.472663918560155605e-01,-1.643762076504171887e-01,1.248784823914728531e-01,-6.358613190044011543e-02,-1.041785855434776975e-01,-1.091407905846681903e-01,1.425706106729041356e-01,1.765618834309810314e-01,4.930410728468774539e-02
-1.081169097502071158e-01,7.406848155121331656e-02,-4.357256643901283311e-02,-7.322766195784252696e-02,1.174410546633432584e-01,4.252134967848072294e-02,-1.570010651963646975e-01,-1.325691549807268832e-02,-1.575035463177765563e-02,1.925037131723921491e-01,1.323959606276268741e-01,1.009545854469492687e-01,1.605370569164353556e-01,4.065961603755155473e-02,-1.604956359301575389e-02,-1.227824763738068620e-01,8.566900825459100588e-02,-9.704116178400050419e-02,-1.241863586168178296e-01,1.237625864644912102e-02,-6.047154578316327883e-02,7.717589873657897115e-02,8.311096437458949382e-02,1.196827003800562117e-01,-2.096516499543896184e-01,2.390894030237033507e-01,2.597625172292677975e-01,-1.533457276056464647e-01,-3.831244700760508964e-02,-1.494438956247585437e-01,1.269812671922133096e-01,6.996304596231810169e-02,1.196117571860401685e-01,8.149253332297970442e-02,-9.243628088034198942e-02,-7.563708202886011700e-02,-1.752594462029985478e-01,-1.735028986785334681e-01,1.134138571637171855e-01,-2.253661091085975426e-02,-1.185924901078393850e-01,-1.191492607854614666e-01,-1.839038883800974411e-01,-2.200007672736369047e-01,6.671961970933780114e-03,1.832226447550379667e-01,7.246918180012346111e-02,4.969923690839577607e-02,-9.996098108030625207e-02,1.204326339564285309e-01,-7.712195521652613628e-02,-1.509519417375236872e-01,7.489716814019645175e-02,-1.785035995002104067e-02,1.310144690563909697e-01,-5.669261907091429492e-02,-1.436502464598250761e-01,1.505433576370868165e-01,2.046910034013605384e-01,1.642691768226172688e-01,-2.280571710958126386e-02,5.948971761734882929e-02,2.238323692004957899e-01,-8.536020203487655611e-02,1.729777039384066128e-01,-1.004519174244114799e-01,-2.640755077777469026e-02,-1.657928166451314578e-01,-1.251544785635655965e-01,-7.368445186239235001e-02,-8.197232955683936978e-03,-2.240061215031072250e-01,-1.850982937903130621e-01,1.621967538550448396e-01,3.872565821420062560e-02,6.954238730524829604e-02,1.402730289653849605e-01,-1.259308098758674388e-01,1.430780309168121385e-02,-9.355134074212008433e-02,-1.366162531215205367e-01,-1.257531209724296051e-01,-3.817813232755414704e-02,1.352013003402358915e-01,-1.294935737087555550e-01,-1.908098233924516718e-01,-8.840800509650917349e-02,-1.798606548828859120e-01,1.422250058262685135e-01,-2.112026276111750867e-01,1.818910460287306019e-01,1.796140027798272809e-01,-3.773989764582250106e-02,2.158081463943542500e-01,-4.714582014086955014e-02,4.002033395532490767e-02,5.474424760593741938e-03,1.407662331166643736e-02,-6.100908713764150587e-02,-9.038381171842144179e-02,8.224352066324738808e-02,2.059486366682648228e-01,1.289849749787927158e-01,1.653048390978481830e-01,-2.071297998686835173e-01,-5.825551277939809008e-02,1.215836974181051661e-01,1.734822247041614696e-01,2.102633043581105809e-01,-1.257987789181529495e-02,9.930682042618156624e-02,1.103555257659335070e-01,1.380620017607524508e-01,-9.459968253464183519e-02,-7.645472514877878212e-02,6.978138118271033641e-02,-1.122255528471733516e-01,3.535901185908362637e-02,-1.104187276024540115e-01,-7.156453578288703155e-02,-1.583765308898040236e-01,1.151186771810264187e-01,1.267695768714330040e-01,6.929390166383987693e-02,-1.777136979999826005e-01,4.528809395145087791e-02,-4.303232093622921112e-02,-4.527324045024079188e-03,-8.643692747306219726e-02,-7.669274775142473355e-02,1.631299482682508628e-01,1.391098859719914482e-01,-1.585572956710600001e-02,2.067739914665790886e-03,1.041667549739387633e-02,-1.291872619080938200e-01,1.845574173082366667e-02,-1.003912630430759956e-01,-1.782846316016129806e-01,-8.701898207475208813e-02,1.045041195160498204e-01,-1.317353009776810469e-01,-4.156102059708271373e-02,-1.674627583850184509e-01,1.769497863151359429e-01,-1.061786203576927240e-01,2.482036939498884209e-02,1.659105761625032094e-01,1.237188664958251182e-03,9.269443097024611389e-02,5.874432798389975924e-02,4.925004372555057131e-02,-2.879947258894450363e-04,1.279863988738234870e-01,4.455662481647996304e-02,1.044054552591974355e-01,1.348952031616459102e-01,3.854222865243927404e-02,-9.520599848006031096e-02,1.172627917928832503e-01,-4.282310308033722424e-02,9.763497011416333304e-02,6.131823375073934546e-02,-6.864990598278544742e-02,-3.258869592231498913e-02,-1.527935038080766583e-01,8.087388102345738350e-02,7.140714568651748695e-02,2.391147220646850091e-01,-1.318527365663047235e-01,-2.439341731540061418e-03,1.493994719365948909e-01,5.589480043696316847e-02,-3.816662823915488445e-02,-1.994486723865009081e-02,2.323587007741991645e-02,1.285627386563955032e-01,-2.515056601239167300e-01,-1.299395834044440312e-01,-1.690052496149578865e-01,-1.643722744958551474e-01,-1.639196575691916069e-02,-5.454502898306690800e-02,-1.508027876381346777e-01,9.122645916209085049e-02,-9.061755867785424579e-02,1.284260177866782815e-01,5.112552664590946927e-02,-1.424351739763677627e-01,1.542334461893214159e-01,7.384675727858126815e-02,1.908087817946248210e-01,-5.125319225791394318e-02,1.723647212949038499e-01,1.183623935603869137e-01,-4.578107735258592909e-02,6.465002303758214663e-02,1.449670091336320854e-01,-7.154170968487291726e-02,1.312462031573569110e-01,2.219222104001752210e-02,-5.807949775651879282e-02,1.304835195456759966e-01,1.677128610251741869e-01,1.392761966202921420e-01,-1.134890130627859289e-01,7.413419837646811894e-02,-4.361885941120523941e-02,-8.720331129218610033e-02,9.178414427029385481e-02,-1.152062513398949793e-02,1.023180288515595227e-01,3.658020753072607767e-02,-1.702500403094929782e-01,-1.574137629615212641e-01,5.749840650432135741e-02,2.007027825709309099e-01,-2.244654407886602920e-01,-1.553698619790591096e-01,1.666296916298338690e-02,1.538907927649648399e-01,-4.708257897785123047e-02,1.362278397137378916e-01,-2.165887768498082899e-01,-4.378201585610536767e-02,8.837241430097357575e-02,-1.157346876974738453e-01,-1.009054460324738944e-01,-8.563258646928226248e-02,-1.000032324832560993e-01,6.722179907453208758e-02,-1.338374481506177660e-01,1.106151521380596692e-01,1.709173811499858919e-01,5.225744962529963768e-03,1.898033400014394467e-01,-2.532358936381582173e-02,-9.572337255639230824e-02,7.756140171192468791e-02,1.085489413698063621e-01,-1.151337670921353529e-01,-3.744687024789496860e-02,7.051174445309044136e-02,1.794110589238342712e-01,7.500029798382849833e-02,1.325982279892929938e-01,-1.875161423350150403e-01,-1.904334635227477313e-01,-1.225882888924500619e-01,3.695482139493850866e-03,-2.044615567202215378e-01,-1.223255535147999840e-01,-2.051517062662105984e-01,-9.218838100910159428e-02,-3.363969084022242623e-02,1.134865060620758176e-01,4.565194100331679966e-02,1.198223064095237655e-01,-8.791457226008937698e-02,5.823182944327066207e-02,7.692474468128457366e-02,5.729252228219738896e-02,-1.884484163770738518e-01,7.359572959344200249e-02,-9.041899719700466354e-02,1.744874487526359708e-01,-1.779167831378354950e-03,4.024351671344411630e-02,-1.327267272446986113e-01,2.139480962385156143e-02,-1.398439776412930546e-01,1.649988947525025118e-01,-9.236965127294401168e-02,1.843350789783856081e-01,-5.270532955297459188e-02,-5.534328587426714380e-02,-1.275412418705171858e-01,2.168754366780106524e-01,-7.191256548810585902e-02,1.813531811612084654e-02,-9.465348038567218680e-02,-1.878825787724669738e-01,1.067129814087456191e-01,-1.083076998033657284e-01,-1.063456568015137826e-01,1.301401562019366132e-01,1.611750934846804539e-01,-1.225738931722666347e-01,9.435534698631595218e-02,-8.907424078965635317e-02,-6.518374458262750359e-02,1.544059613205742698e-01,1.229032086925319761e-01,-6.958786198626674968e-02,-4.190346930872952680e-03,-9.218316022377771868e-02,1.506957837385063670e-01,1.199719428292730233e-01,-6.938405521143678478e-02,1.753046778908871547e-02
8.647167069282396534e-02,3.967379405922170921e-02,-1.622380994403886667e-01,-2.009912685890797440e-02,-1.333383491454517844e-01,2.562654126338561045e-01,5.457086171452134316e-02,-1.644305814769845830e-01,-1.383198465074516881e-01,1.253284426222835979e-01,-7.866361599182312980e-02,1.651213917947874921e-01,-1.056553157695330342e-01,-3.863632881216480519e-02,1.409746956465237067e-01,1.333413886940526538e-01,-8.697832524890357353e-02,1.851538242154465719e-02,-1.369040267593358683e-03,-1.656303402289687476e-01,1.522669229963303228e-01,-1.078807091768188842e-01,-8.579856387664624995e-02,-1.339092524647640947e-01,3.813833363382745922e-02,8.280896363395268134e-02,3.818186311309871434e-02,1.167562474045330534e-01,1.488149899997651404e-01,5.510590361269689791e-02,8.116272952827519038e-02,1.004654695138745141e-01,-1.219105595056294844e-01,1.186242728729561963e-01,-1.428160832461020657e-01,2.719948167147692372e-02,4.855128281011477330e-03,8.589628687499930443e-03,-1.627314678918021229e-01,2.776900190289873296e-02,-6.041370468655887782e-02,7.123153866872046491e-02,8.016851939641136569e-04,3.103958657807285096e-02,-1.042594345456350491e-01,-7.001629013435432813e-02,-7.169733191105580328e-02,-7.259324258451524403e-02,-1.668017609778688626e-01,-1.323808682223396316e-01,-4.020794862459837332e-02,-8.087314021910535500e-02,-1.112996612019311743e-01,1.250545799831926375e-01,7.655057138903366420e-02,-1.519645347657236356e-01,1.553766184999920974e-01,4.818641942323580868e-02,3.521920640344684134e-02,-6.139162554938710353e-02,1.192073249406116892e-01,9.270903140575866008e-02,-2.414718696776459519e-02,-1.758853145039149246e-02,6.683415055869391941e-02,9.653606307557732746e-02,4.694903435728324526e-02,-9.880063507724159977e-02,1.659453863624459347e-01,1.173924513162185462e-01,5.551262650181622987e-02,-5.000388569956994850e-02,9.893867531400231397e-02,-6.153283783192893541e-02,1.603514324907857891e-01,9.604456921742458853e-02,-6.458242356803223228e-02,4.298843171849952433e-02,-9.439843616893024703e-02,-5.174718700509164937e-02,6.429179747277374846e-02,4.211214905242152695e-02,1.114602363023498438e-01,7.624695200230847958e-02,4.971660749705864718e-02,1.986717576914292203e-03,-4.312091424461615002e-02,-2.651321720357460721e-02,-2.047888494517922375e-01,1.993490525055598428e-01,8.478874564787108881e-02,-1.289885957406320394e-01,1.093702657844961568e-01,-1.006837554792122252e-01,-1.492322808240659215e-01,-1.020496248508165615e-01,-1.265574998981611188e-01,1.949223876298528391e-01,5.003387963565424784e-02,1.219764873838361657e-01,-1.433483412153113146e-01,-7.616997989661206114e-02,-3.750157042143160285e-02,-6.272544874752242205e-02,6.901277439129972768e-03,1.167421286864606111e-01,-7.051475207396828981e-02,1.128754628688458106e-01,-1.806518568328838448e-01,-1.163911382454171639e-01,1.272750713130326936e-02,2.993056955153588702e-02,-8.171011286775924087e-02,-1.438469983816539899e-01,4.322248228739203335e-02,-1.630825500754165824e-01,7.021748265405870770e-02,-1.194169702467150068e-01,-4.402462214338390134e-02,7.437698516246896152e-02,-1.158120697720022296e-01,-1.061414941025736608e-01,-2.289539665643456799e-04,7.172238989690322974e-02,1.277391665753405403e-01,-1.406271128631777223e-01,9.669694027793578062e-02,-1.106565435626445520e-01,-7.865156166099003532e-02,-1.057075539813674171e-02,-1.009344662984008462e-01,-1.127806985134220674e-01,-1.280951511927879150e-01,-1.326892406856605700e-01,-1.656575595415805680e-01,1.519404691722366363e-01,1.132955692852386370e-01,1.750178870934867214e-03,6.480644527485782125e-02,1.549444869942937786e-01,1.816972235578199688e-02,2.681056525850155758e-03,8.870276428342165065e-02,1.338378702099300988e-01,-1.681765157295993240e-02,-1.239063711242106326e-02,1.391196884370616942e-02,-1.174138243877034388e-01,3.916941130008275845e-02,1.538706861162736916e-01,-1.662467610153952891e-01,-2.448237847184309424e-01,-1.464061077926545051e-01,-7.433153422317630155e-02,-1.431500890993012698e-01,9.643973520844618952e-02,-7.584797978761638471e-02,-1.021940930682146975e-01,8.625258749304125228e-02,-3.901744681930776476e-02,8.814358146065533195e-02,1.160908361637242731e-01,-8.805417306372087527e-02,1.732087114534430206e-01,-1.576773636399011747e-01,8.555310774793167816e-02,1.279268828850322823e-02,-1.171813335077943191e-01,-9.746133927436329003e-02,-8.702780400805733285e-02,2.080794283044026804e-01,-1.205090589265579021e-01,-3.526171101969741151e-02,1.026311148710583321e-01,-1.665346425068942038e-01,-2.357984895092029576e-01,-4.920035040729069803e-02,8.830344170496270961e-02,1.073376122162846523e-02,-1.179602476645191106e-01,1.050842356557457474e-01,2.437254397677454665e-01,1.219671055562863010e-01,2.264819384798407928e-02,-1.370344285603152801e-01,-9.922114812937592176e-02,-1.181898540881954202e-01,-1.806819716486323113e-01,-7.471509122076057385e-02,4.849834020493043463e-02,-1.174442745544230643e-01,-6.138910806294678446e-02,-1.994715380308104136e-01,-3.061132164924008567e-02,-1.032863804559179394e-01,1.488528111551600253e-01,-1.562089486351755374e-01,-7.600069333678065309e-02,-1.447065247936468735e-01,4.383877704270101178e-02,-4.746063310893994941e-02,2.782945388706908885e-03,1.214453239197050421e-01,3.728755453232193359e-03,-1.190849277087937530e-01,7.397144855044411604e-02,-2.227240185238724968e-01,2.255811444598456172e-01,1.336945724579841621e-01,2.381590561866394826e-02,1.277791630026874070e-01,-3.466417632752751693e-02,-1.688920838993896167e-01,-3.607601012870814694e-02,4.936869497545435387e-02,1.552100112521306342e-02,7.513185292274704441e-02,2.199025321291719903e-02,7.180030937498339816e-02,-1.426825884544871692e-01,7.501445042240558088e-03,-4.963361667230451781e-03,-1.107257823119656842e-01,1.549617084152780586e-02,5.751415367795913863e-02,-9.112684996651113090e-02,-6.716135757484076318e-02,1.548427242563046591e-01,-1.674035987492876187e-01,-1.416014152289497285e-01,-9.303530466887641182e-02,-4.159523275394453462e-02,1.422921777781802621e-01,-6.100796591347980302e-02,-7.116613925181927529e-03,-1.730276809031367630e-02,-1.191053088566170898e-01,5.891994981167043843e-02,1.209264774322225816e-01,-3.576537789626207378e-04,7.886935647491419288e-02,5.492018015462318131e-02,-2.311491432383324662e-01,2.600663405068097747e-02,9.050688809016690754e-04,-1.399208907968538529e-01,1.102814849739627012e-01,4.036513247107895164e-02,-1.106036610855005431e-01,1.951439387234946699e-01,-7.682301032311510125e-02,7.817595416313395662e-02,4.213337543172512162e-02,7.257422791631133741e-02,-6.114573983530344897e-02,-2.174463064663809120e-01,-1.157010809166873488e-01,3.650933695588657463e-02,-6.957899472679950070e-02,-2.117556584978374790e-01,-2.692352293553383624e-02,1.765832825273165319e-01,-2.928565863457517279e-02,1.171124161996378032e-01,1.287725618566238905e-01,1.210848927555654708e-01,7.834699855694464421e-02,-7.449343660990635774e-02,-3.431415604186942997e-02,-5.568265152440252802e-02,1.469929863458151742e-01,-1.011199562310757250e-01,-1.138440785431866636e-01,4.347111028722638187e-02,-2.301338645734928023e-02,8.557251724383072022e-02,-9.279917983927384040e-02,-3.470105889644475167e-02,2.479249745322903431e-01,1.611775158276783082e-01,1.315558682927477907e-01,-1.303299724807134574e-01,1.576655055860196608e-01,2.226158550038846440e-01,8.524950081666407553e-02,4.456986758939698173e-02,1.134562623494829309e-01,-9.680689439073585090e-02,1.061496603560495439e-01,1.734361465895574092e-02,1.616242042281390567e-01,-7.524585763461898169e-02,8.708800348119322132e-02,1.594887411731986948e-01,-1.508785154843458876e-01,6.396560008240113893e-02,-1.098392537044168144e-01,-1.410597976346511517e-02,5.601754813465415622e-02,1.987116608757119596e-01
-1.086631944051951321e-01,-1.427998417757480321e-01,-4.824721042350787331e-02,2.907436342784682215e-01,-1.577374815753379567e-01,2.959975742039384905e-03,2.619875867114572765e-01,1.937192902795218941e-01,-1.374497675430309991e-02,6.333071444706339648e-02,1.139183398480309306e-01,9.622448023883696522e-02,-5.197212156717988252e-02,-1.676762632240156592e-01,-1.148869842984902821e-02,-2.232156775995311135e-02,-9.249618288699130997e-02,-4.293533298071083165e-02,2.262715756402083889e-02,-1.577743734439177314e-01,-9.551828199169278000e-02,7.017606661670576507e-02,-4.966881164089249900e-02,-9.339970305929547190e-02,1.444845834085491942e-01,-8.079850226128650059e-02,-2.764331150507595702e-01,-1.073036355956674820e-01,3.840215917637525983e-02,2.222777015045731275e-01,6.683567979077154053e-02,-6.790486789632854681e-02,1.022076933957442035e-01,6.882869553039892320e-03,-1.189522193937379568e-01,8.003921840123380538e-02,-1.320829304433316365e-01,1.313279639023717249e-01,-1.017970749972851308e-01,-1.791373946341066059e-01,1.613697481596217120e-01,-1.335615263590210489e-01,2.496026317227377500e-01,1.526770550265185433e-01,1.164913430794403126e-01,-6.184080876058774962e-02,1.445324631485345734e-01,8.398240557554648156e-02,-2.631831410662542961e-02,-7.846437755757103283e-02,-9.386267874080612972e-02,-8.075637725972456549e-02,1.664223981185947998e-01,-5.294175048803895743e-03,-6.070244348177483706e-02,-6.872342900687380962e-02,-1.698653697014277097e-01,2.042846445840862668e-01,-3.701015920448279539e-01,1.170784940594274751e-02,-8.398665079495920560e-02,-1.072655285235596390e-01,-3.094019237626007002e-02,-5.878138739934683776e-02,2.316010381827744409e-04,-1.154398232636695554e-01,9.291483271158096358e-02,-5.600769398284800166e-02,1.056777555639529069e-02,-3.805122583259233637e-02,-1.548822271480017609e-01,1.520063958921157310e-01,8.142793521797538070e-02,-4.638530584314932981e-02,-6.217453692966534717e-02,7.812661639841134154e-02,1.542768542866440884e-01,1.187275767991025355e-01,1.335638329002833968e-01,-1.004435589149683949e-01,3.831962015935361787e-01,9.760403124499608674e-02,-1.165262446067013603e-02,6.942490687547889228e-02,-8.776512582474735313e-02,1.432109009165578040e-01,-9.145883357479032971e-02,1.178374573815044735e-01,1.757378579120923434e-01,-1.816541347903841974e-01,2.592610195437827780e-01,2.152541855354758449e-01,-1.124374538398413385e-02,-4.885511340490908405e-02,-8.420044149316557869e-02,1.003111130075203840e-02,-3.236098666177504579e-02,-8.510039222680614024e-03,-2.201782799044565628e-02,3.923060226409261914e-02,2.931731435940090544e-02,-5.828008012053574605e-02,-1.681725292511592473e-01,-6.384542091687046839e-02,1.591712014688587695e-01,1.040848726794025847e-01,1.744723465476981095e-01,-1.106271302722574013e-01,1.936996392209568985e-01,-5.380744744652474904e-02,2.014668409516925107e-01,1.231432994911807327e-01,-1.210123114873396244e-01,7.473202552325118771e-03,-1.903249309119258992e-01,2.833466105473349955e-02,1.507732221680740947e-01,1.499881020158073397e-01,2.431709674801570305e-03,-1.857841685642007690e-01,2.184327713917139646e-01,1.054031387400308911e-01,-9.980855186512410659e-02,2.521884688285720710e-02,-1.948833708156660072e-01,1.811137605524954994e-02,-1.122297140986782543e-01,1.412076791538190990e-01,1.340588379944916177e-02,-6.424080877235840981e-02,1.416963104419497743e-01,-1.843961223030972929e-01,1.548084488609070830e-01,-9.685022805203367946e-02,1.052287052794078498e-01,-1.959811952641771493e-01,-6.245888333083614297e-02,-4.016485842942116996e-02,1.282651779652461688e-01,2.019489890236414176e-01,6.549964506825992072e-02,1.233226471937586277e-01,-1.398474600494311881e-01,1.193755864502297759e-01,-7.796412279240456933e-02,2.345321930020582701e-01,-1.468265058773367826e-01,-2.638678740998018357e-02,-4.182875527787472542e-02,9.248994417682848690e-02,1.168045538671156208e-01,-3.909456849537079615e-02,-2.503888811453133106e-02,1.849610828246222860e-01,6.170500316266688129e-02,1.572170269429917777e-02,1.333156803603128826e-01,3.870110410263073036e-02,-8.128213377580294219e-02,1.303125186319195328e-01,-2.970926190730303201e-02,1.114044805523411452e-01,-7.597403532486345784e-03,1.012121367675724998e-01,-1.272012263110784171e-02,-1.397670474972294574e-01,3.628365010459295992e-02,2.494459180864737335e-01,-9.260906778116555216e-02,-1.688513841458398612e-01,-6.264908612840648476e-03,1.792140017727619425e-02,9.490705677516092509e-02,-5.032337742151194587e-02,-2.625711628487374660e-02,-1.148565005170595621e-01,1.820248250638973053e-01,4.409232834195939837e-02,1.409939333014172125e-01,1.595649620827276627e-01,1.636940495792340300e-01,-2.771054666204782191e-02,-7.142208478357887913e-02,-3.402653352750034665e-02,6.315370307699107177e-02,-7.336195511397701485e-02,4.346248281920279261e-02,2.404540216434127575e-01,1.420027773957900641e-01,-1.485168527266499949e-01,5.406242745109864078e-02,-1.580148010365169942e-01,-9.431524821200033826e-02,1.837187460149365681e-01,1.716124560787950504e-01,-4.068622925743253793e-03,1.884244360448919867e-02,6.772411029513016045e-02,-1.702937681976770048e-02,-1.686686093936640429e-01,-1.674007758629979248e-01,-1.030335008937408314e-01,-4.627873428026212793e-03,1.627769706264249050e-01,1.484462437479723840e-01,-1.356404192097046268e-01,1.914304360833061769e-01,-1.393138474491115442e-01,2.021838647606864492e-01,1.479752035079679416e-02,5.471269059825450282e-02,5.765410226612324024e-02,3.980778783332847293e-02,3.233981019074106400e-01,8.360767187307488468e-02,3.442851205980674428e-02,-9.378411699286040570e-02,-3.620219899413831127e-02,1.747955713045415416e-01,2.632418182586974617e-02,-1.463835781879751496e-01,2.555155546377759213e-01,-2.291668187976964033e-01,-2.174063185373673601e-01,-4.045802510725789863e-02,1.127602315240153613e-01,5.427140391086849452e-02,2.044710649896509802e-01,1.768021711340090896e-01,3.184996537687619783e-02,9.524983151350866623e-03,-1.111605551734981129e-01,-1.216045289969318738e-01,1.143131720378264271e-01,2.786557058047272051e-01,-1.482052395941077239e-01,1.765507787448571675e-01,-1.539443092354061682e-01,7.917025831631317734e-02,2.048535400968516940e-01,-6.063580250831978463e-02,1.035527618863024968e-01,-1.378578639950130968e-01,2.306543909014165950e-01,1.070686124455192817e-01,-1.048752911493453649e-01,7.919221056133332604e-02,-4.525050426887371885e-02,-5.984473280791738521e-03,8.588258057748838353e-03,8.158224931471817765e-02,-3.003183480262711785e-02,-1.723757609254876755e-01,-9.153358682228389387e-02,-3.911481692843925967e-02,-1.803641833258526062e-01,8.273539977406586809e-02,-3.030445848755372942e-02,1.705545051259238776e-01,6.555899979220249085e-02,1.430533852756240010e-01,1.295624502266946310e-01,-1.807918725727135911e-01,1.374894917209289469e-01,-7.373300252484192574e-02,-2.942692105564339577e-01,-1.902736905947002843e-01,1.534203100699581268e-01,7.692303921392487642e-02,1.358178686993581630e-01,-7.089059469582063844e-02,-1.557408061527568686e-02,-5.756652983079810215e-02,-2.216012439190109817e-01,-3.036508738159353002e-02,1.644999393264630072e-01,-1.837328976291221772e-01,-1.703902723009805553e-01,8.391525295124954709e-02,6.127297456321878499e-02,-4.396881361826240203e-02,-9.086785210584014116e-02,3.112636697540005493e-02,1.453956953672196628e-01,-2.246739547558190830e-01,-1.746085475111494034e-01,-1.781862652902873323e-01,2.169171045165560197e-01,1.874922777102464300e-01,4.832335327835209776e-02,1.319844595553437971e-01,9.695378295978110406e-02,3.922105944446656334e-02,1.061402135053615137e-01,8.783022968063596003e-02,-1.071699166908676865e-01,-5.042201475088681217e-02,-1.205917595342944765e-01,-7.592827304735641492e-02,7.685611889891928727e-02
-7.633606061374490805e-03,-1.004004852129652126e-01,-8.345289746239380191e-02,1.162118717219575853e-01,-6.193637921244865563e-02,9.153371367391091584e-02,1.287567203294673057e-01,-1.529234385917009054e-01,-8.061411659111686334e-02,-1.247841551558802470e-01,-1.189055856354117591e-01,1.272614939304590465e-01,-1.739808326093963131e-01,-5.772271995843535064e-02,5.581920682179152687e-02,1.293748825235330191e-01,-2.778723614604977285e-02,1.199685017841476409e-01,-1.409506858186300058e-03,1.920327661960381238e-01,-1.371815632382917816e-01,-3.037434837724537970e-02,-8.286320946841500834e-02,-1.344253151057491769e-01,1.439539044205973839e-01,-1.145494834481491503e-01,-7.333436336237665609e-02,-8.725037248192009376e-02,1.428690672560374852e-01,5.047334371640396083e-02,-1.752811619028650791e-01,2.840474454765292561e-02,4.638104820094001574e-02,-1.651303120556704973e-01,1.532026601771868668e-01,1.179812773542700532e-01,1.051158629084807672e-01,7.349965588096024627e-02,-1.063402403169246419e-01,1.414259772605716003e-01,-1.467777699241843391e-02,1.158605443137332158e-01,3.932293897439491370e-02,6.992694507737888532e-02,-3.178893633131790047e-02,-1.156701880924470432e-01,-4.656730188760191402e-02,-4.662757787974493306e-02,-8.104091839261171049e-02,1.223483007493489372e-01,1.821416439983153668e-01,1.623737152440341835e-01,1.231194178519666449e-01,1.150842736477629136e-01,2.637102025569347877e-02,-7.959695519264686769e-02,1.629071277087738856e-02,-1.268591698935497003e-01,-2.126156699990763843e-01,-1.420712100498234230e-02,-7.178541423398318577e-02,-8.578276096389718386e-02,-1.170464806017696563e-01,1.405697474853795925e-01,1.719002891195294674e-02,4.053691608399211804e-02,1.128050613411310660e-01,-1.631170343972209724e-01,1.158826673806458707e-01,1.493060935168020464e-01,-1.252366685102610233e-01,-6.026658406589355775e-03,-1.166364923830659622e-01,-8.520982113958595894e-02,-1.290615317961363584e-01,-1.822489160974491706e-01,-4.545423359172119648e-02,-1.632172010147986130e-01,-2.111472448584759132e-01,-1.100239608704485367e-01,1.067186363419509454e-01,6.592855498139899018e-02,-6.508654666330422611e-02,5.304149796026502717e-02,-5.123424072925621825e-02,1.424593228752662477e-01,1.379356761240538021e-01,9.700511750412577072e-02,4.532424985211012947e-02,-7.085617105990651976e-02,-1.259222699217128205e-01,-9.371463244269893911e-02,-1.112335039076467885e-01,-1.232388690664712044e-01,1.419254745254943939e-01,8.994137618558596670e-02,-1.647141740139871080e-01,9.484753253552387353e-02,6.851291468471593094e-02,8.816849937010705351e-02,-1.335097116688021557e-01,-2.399842882712817371e-02,-7.894941390078807908e-02,-1.393698901587688260e-03,1.633378815842972120e-01,-1.283715846931579030e-01,-4.920714278422018417e-02,-1.030109752808434920e-01,6.414269253566660944e-02,1.376758646845975820e-01,-1.170109888179542423e-01,-1.361323561865516452e-01,-4.411835075822428259e-02,1.544272542648555124e-01,1.170332387596568491e-01,9.640817594423754799e-02,1.452998804513234987e-01,-8.996110763862287529e-02,8.441089280345681622e-02,9.517426508431851839e-02,5.298136685490125548e-04,1.458147606945050800e-01,-1.183702269780868288e-01,8.317089823122141012e-02,5.764596352689989323e-02,-9.685346244888266842e-02,1.105804433777699512e-02,-7.978421362009245621e-02,1.307165127066922672e-01,1.712936875136933934e-01,-1.368711662155544795e-01,-8.058117351338713041e-02,-1.069872335558575416e-01,-1.285457308905152141e-01,1.180765475437613177e-01,-1.151421036090782488e-02,-6.142949549339889875e-02,8.023508122377347174e-02,5.013874015955693819e-02,-1.676700676201419160e-01,8.357848767390940736e-02,-4.347277168907817679e-02,4.753209068079593258e-02,-1.614039289189837523e-01,-1.060988626823596431e-01,1.203990216084809550e-01,-9.729658916333058793e-02,-4.476148400784965564e-02,7.294306336099695698e-02,1.057069296160773608e-01,-2.130412552977085927e-01,-9.527236694535268224e-02,-8.426826028539058377e-02,-1.065876723962530248e-01,-1.133813622502524987e-01,-1.650804592334513266e-01,-9.416260358848979606e-02,-1.014661379892330406e-01,-1.652821792273548585e-01,-1.739521749111594684e-01,4.947089940178223816e-02,-1.317048949135649905e-01,-5.551562127045426426e-02,1.510410525793503544e-01,1.247891666327371890e-01,1.106477576751313252e-01,-7.897637372683187149e-03,8.143507731044546949e-02,-1.172132338489297598e-01,1.244008554212091971e-01,8.028884192070687154e-02,1.239908865853187568e-02,-1.050867787919487623e-01,5.408399078435577323e-02,-1.864883239116303937e-01,-1.096225109702931300e-01,-1.336269042429787113e-01,9.751778071047510765e-02,1.296868548380313846e-01,-2.932410387397635029e-02,-5.192002613794889643e-02,7.313852154139958983e-02,1.015125111223957044e-01,1.117996110105421992e-01,9.218263991084307829e-02,8.408895722775419634e-02,1.213012786827771666e-01,1.525667283102520588e-01,5.446971901682080668e-03,-7.250296004898611202e-02,6.111241411884361929e-02,-6.814256958881995119e-02,1.172495302782423643e-01,-1.377747414648934354e-01,-8.782230634997487129e-02,-1.008938930658258293e-01,-1.134560478567256531e-01,-1.396087108965519408e-01,1.496003028114017419e-01,6.833060928172206283e-02,1.725939681059968644e-01,1.725947843715802954e-01,9.165625819419978559e-02,-1.003788020520901131e-01,9.974810466530559250e-02,3.510215172029232389e-02,9.078722644181717524e-03,-1.021031113575225635e-01,1.110592560264695300e-01,1.855079994206027677e-02,-1.272792073514698585e-01,-1.268368037562984663e-01,1.399341686595253521e-02,1.588658078504611715e-01,1.149815705925055775e-01,-2.431733481584916201e-01,-1.155185233760479824e-01,4.747507417833588678e-02,1.650605412029557129e-02,-8.416949000385202939e-02,-5.886780283154084692e-02,5.470590260590239839e-02,-7.142729536898911880e-02,9.307197710240595889e-02,1.266552938723894406e-01,-1.032835022525230295e-01,-8.196439040791800301e-02,-1.531363060285388378e-01,-8.001940085484340881e-02,1.078575345119424100e-01,-1.910122646161934168e-01,1.296224720389303753e-01,1.180483140903973438e-01,1.210450039314144022e-01,6.307819340988517209e-02,4.778315751765773584e-02,9.384596802022787676e-02,4.250969021754899546e-02,-1.160671578438429580e-01,-1.131457518978602333e-01,-1.398164344822066807e-01,-1.885237395860118181e-01,-1.005652896327544760e-01,-9.749153034814474206e-02,-1.138807897758411930e-01,1.893213832518384487e-01,9.979996050582629064e-02,-1.175256038255469843e-01,1.667721964425366299e-01,7.611464828390519799e-02,1.368879481558164368e-03,6.166817421952796446e-02,6.353938820119583997e-02,2.869810729139409336e-02,6.810171978595055964e-02,1.486344123124394220e-02,8.404681837053884497e-02,8.181187157492789130e-02,-8.011156656932442999e-02,-1.639449251739113489e-01,-1.930728101036958966e-01,7.226806131636276387e-02,7.639332801877821155e-02,5.460514771018226687e-02,-7.727868680138812174e-02,-1.447668230793352218e-01,-8.675573495937745350e-02,-1.437803568105756602e-01,-7.191462107584634111e-02,-7.015365233061202077e-02,-5.531109008533777183e-02,-8.495492780096461360e-02,1.893242031914849632e-01,-1.484006590385413271e-01,-6.286323425021826672e-02,-1.475747477266199648e-01,1.363532038303708060e-01,-6.906540287840966241e-02,-1.622464848883638233e-01,-1.323769448558665685e-01,-7.530176005599005518e-02,1.196270867073410266e-01,-1.152680409471817380e-01,-8.543689614555603773e-02,-5.305692638759891555e-02,7.948735945502656552e-02,1.055199613259387020e-01,-3.191401684999391891e-02,-9.248426834429086807e-02,-2.649323610026026177e-02,9.768425358442976714e-02,-1.115249393978589298e-01,-1.509566064348224490e-01,1.020322096029823294e-01,2.479168949215599382e-01,-1.306242234495523513e-01,-6.965174630244977405e-02,-1.623221607532335520e-01,8.593069706284035825e-02,-1.420174118347253545e-01
2.012201404948298911e-01,1.564928946966550327e-01,5.820781628503415156e-02,-1.669277756746216992e-02,3.500026848055590167e-02,-3.984787320957249718e-02,1.132997129275280096e-01,-5.848402743534443504e-02,-1.490374737858264076e-01,1.331724166871927906e-01,1.329237008794492136e-01,-8.082467380612246011e-03,1.266143333012243744e-01,1.148520839922044234e-01,-1.574560455800362579e-01,-4.364610399899837567e-02,-1.377658925236144305e-01,1.255908275248947270e-01,1.534768549126623582e-01,-1.100064663519217806e-01,1.273340851602829671e-01,1.597013366163269332e-01,1.496300100933519728e-01,1.013606988275091159e-01,-5.348022271172088449e-02,5.060329779895347824e-02,-3.712604250884080082e-02,1.309429244958243421e-01,-5.149076830083158807e-02,4.897541633267953054e-02,4.293358930561309850e-02,1.736762555761090787e-01,-1.388735673530330506e-01,5.413091313981735486e-02,-2.349099874549714917e-02,-1.046454621809682073e-01,-7.415409734221377336e-02,-1.164544005473110988e-01,4.740934241808111328e-03,1.468924688220508146e-01,2.077783605387022725e-01,-1.159379521590933326e-01,-6.286978659020128757e-02,4.784800694752967126e-02,1.556692817780064853e-01,1.800811342184161223e-01,-1.435694791390700331e-01,1.038428733985192753e-01,2.424675021534019453e-02,-7.907260404954992439e-02,-1.318502800762378635e-01,2.561266901962287040e-02,-4.237786344854941462e-02,-9.039205254417122595e-03,-1.541512601154498563e-01,4.514498218118331851e-02,1.532239913163812028e-01,1.395673816909425574e-02,-2.202364022332677085e-02,1.976520329868822479e-01,1.916265835837885068e-01,1.035839210707167751e-01,1.638182094808917355e-01,-8.309703870586987451e-02,-2.311106456284876820e-02,1.103262331376981820e-01,4.914067033642796622e-02,1.249060201570978967e-01,-3.099417020970094902e-02,-5.636306587627375186e-02,3.820861639611399657e-02,2.667075394284613293e-02,2.588561837810868238e-02,1.274101967506153787e-01,2.701984186721063941e-02,7.629054969893572791e-02,-1.106672565471120834e-01,2.832350353102387405e-02,-3.867095392443159474e-02,-1.737094981225030055e-03,1.181522303610934299e-01,-1.256541059933211357e-01,1.773233475142377835e-01,-1.883877784900465924e-01,-5.763317263746803309e-02,-1.064649042565504744e-02,-8.255746522974868884e-02,-1.046721101483751720e-01,-1.594053066158472309e-01,1.117143509519673006e-01,4.187137693083617385e-02,-1.102141071202378253e-02,2.025950286255319699e-01,1.341624676249298653e-01,-2.347851913285091841e-03,-1.839274295578427476e-01,1.376369974136680829e-01,-1.510171640771124368e-01,-1.046299169010246055e-01,-5.149973505644649813e-02,4.256220713582610331e-03,1.155051673601557166e-01,1.474316242794586618e-01,2.628529084581602421e-02,-5.005740623667107730e-02,-1.192803483790272762e-01,1.648441120500352963e-01,-9.129075610286223330e-02,-1.110681915536070041e-01,2.175910551485547573e-01,-9.044067257361597389e-02,1.788909723333304835e-01,1.649869642272989989e-01,1.939281416694699223e-01,9.245676534323030160e-02,-1.524283414807275638e-01,-1.104114969542956265e-01,-1.462554874833520702e-01,1.670925382913098500e-01,1.445632513165005517e-01,-1.525567077812584049e-02,-8.363835142478916185e-02,1.316316619514369402e-01,-1.346111131417704332e-01,1.350081276841332834e-01,1.348925859028745344e-01,1.274629331171991120e-01,-1.489080937030114182e-01,-1.553986006986793622e-01,-1.100154858824520243e-01,-1.081732262521116622e-01,-1.340329456861102386e-01,-6.421018250524533622e-02,-1.929060944584407369e-02,-1.228401738864146053e-01,2.143586216054786386e-01,-1.053810796715011766e-01,1.338424490128836963e-01,-2.900426898561492273e-02,1.423512004671226572e-01,-1.497915088618540225e-01,-5.918760393126158009e-02,1.567453774499068531e-01,7.210537973296260450e-02,-1.060147652409189484e-01,1.116981260903080093e-02,1.304236945771832801e-01,1.621787142550421279e-01,-1.581384679786506930e-01,1.040630589793873143e-02,8.508581068685734661e-02,4.526404820322880995e-02,3.493427717065520494e-02,7.566318489425431781e-02,1.282367871883869082e-01,6.547717822762165463e-02,7.370070119856020341e-02,1.803820618431959677e-01,9.621720622171107962e-02,-1.494409864419749545e-01,-1.399184399718855221e-01,-1.870678400827358590e-01,1.720038984808757998e-01,1.643292243017070720e-02,-1.783477107186230148e-01,-8.861229510271156906e-02,-1.690524384929975588e-01,-7.830540011643676024e-02,1.062250664931990718e-01,-4.080512645441224800e-02,-1.711571772326287433e-01,-1.569234896327034723e-01,1.804762408481213887e-01,1.575461383835548568e-01,-3.196785572675979285e-03,5.104753807490069323e-02,9.676756991189479351e-02,-2.078287718197593115e-01,-8.539553367641530834e-02,-1.747193976492174630e-02,-1.242452168986783734e-01,-2.161990953815202954e-01,-2.802045569461159708e-02,1.343361807098447484e-02,-1.339357976108315196e-01,-2.487564428786778400e-02,-1.414327969024814224e-01,1.502723747919010311e-01,2.106755160749976263e-02,1.260519399748536440e-01,-1.751651099393165822e-01,-1.817842311551374351e-02,1.073398056924533134e-01,1.513694285535875927e-01,1.598826086020320794e-02,1.354382103485282651e-01,1.044372904176090432e-02,4.919094981983423293e-02,5.690803006454321633e-02,-6.163150153486175731e-02,-7.779932250150110862e-02,1.363975471482540003e-01,-5.790453977374625770e-03,6.792266725422367590e-02,-9.819223405629037837e-02,-1.505322664533893517e-01,-2.465145835920731499e-01,-4.224050154990891676e-02,-2.159730774380367452e-02,-2.269868371681671992e-01,-1.104961134866331435e-01,1.119990805521543370e-01,-1.503501867001995895e-01,-1.231046578766006871e-02,-1.167857445886039264e-01,1.884109955847759060e-02,7.621098087626893003e-02,-1.315719536358501418e-01,8.349025695782731626e-02,1.513612815746020468e-01,5.946402933269162583e-02,-8.206402425622369434e-02,6.161895957230124898e-02,1.132870800360612495e-01,-1.327176095655990262e-01,-1.321870709846325875e-01,7.100642334329974881e-02,1.574550332383118367e-01,7.611340554833091743e-02,-1.877196932560022402e-01,1.055976601751228289e-01,-6.788419449861836374e-02,-3.592806152133444508e-02,-5.632275732774273680e-02,-1.854543894444629290e-02,3.059801402848688623e-02,1.427332478471337041e-01,9.124956898226728452e-02,-1.558736593307493423e-01,9.471510724850734642e-02,8.765788752898663605e-02,1.447138847165826449e-02,-7.232374007907887981e-02,-1.434083841431339212e-01,8.686809240287154954e-02,-1.751225951413296761e-02,-1.487646807563260676e-01,4.981700804873088334e-02,-3.405801827049639158e-02,-1.413356946637646105e-01,8.930963286442247795e-02,3.876892118062331971e-02,9.716202815776017743e-02,8.386662513601217395e-02,1.764371019658099171e-01,-1.130892386231214242e-01,-1.440516500658754473e-01,-3.970650039058483405e-02,1.491594668589526496e-01,6.393402266488487640e-02,-9.586013945641957967e-02,6.088584564681297218e-02,1.362965881637648591e-01,-5.200242371232722399e-02,1.815215098548235428e-01,6.103674671535518070e-02,-3.545815623312532222e-02,-1.706754285154069295e-01,1.513178032525353822e-01,1.692229234573748853e-01,1.522842419823985383e-01,1.254401467745651366e-01,-4.402941963228291893e-03,4.246069983511568946e-02,1.906625480649489224e-01,1.023897672181190432e-01,1.326754082140975746e-02,1.319926552105738504e-01,-1.227525912513917072e-01,2.079677058456078642e-01,1.584719040476369745e-01,3.342012559709361431e-03,-1.866626330279485407e-02,-6.369337109744807601e-02,1.267284455788612596e-01,-1.061753979703519563e-01,-7.377609539052946974e-02,2.036036760935457934e-01,-1.651996473613423222e-01,-4.106170056313152017e-02,-2.570651089103108411e-02,1.255177723629875564e-01,2.913740988628384446e-02,-8.279085332781294104e-02,1.396063274527435498e-02,9.203963729454020526e-02,1.348354650093021301e-01,5.649836201077724357e-02,-1.083574844003238058e-01,-1.310531186016826444e-01
-5.390487046147094535e-02,-2.227274703101357056e-01,4.304443764430377489e-02,-2.181675277406234237e-01,2.546473076687041925e-02,-2.011463843298360032e-01,-1.240745768902710156e-01,6.985123012609231741e-02,2.297740819053157024e-01,-2.398910457955291675e-01,-6.267716567648703996e-02,-1.280011717974682273e-01,1.045698984617010330e-01,1.687899926739001022e-01,-1.749158255404549278e-01,3.874633740104149043e-02,1.218461599344982937e-01,-1.289912944696874619e-01,-1.204493656532779067e-01,6.564462113863289705e-02,-3.559917194946731617e-02,-8.413697212358334232e-02,-1.542409372407819446e-01,-9.746203728182370463e-02,9.609429309267124297e-02,-8.911169042297296949e-02,-2.436309128929054282e-02,-1.183729326048201837e-02,-1.023488804653560069e-01,-2.427726694574425248e-01,-2.301366998663364680e-04,-1.631309942862562701e-01,1.316240248849951666e-01,4.636542363809276895e-02,1.108183225135593447e-01,1.284607480876489294e-01,1.353316616411655571e-01,6.943307195459126613e-02,-3.599298306536485165e-02,-8.565496761538676784e-02,-7.198154421638754130e-02,1.520830482832792874e-01,-2.608284110014622709e-02,-1.936867260699780269e-01,-1.175636911261686152e-01,-1.165946280494014053e-01,1.099782529407464932e-01,1.016628358757686174e-01,1.263378961079316687e-01,7.048498321251615850e-02,-1.337798277563473082e-01,1.658793751076227674e-01,-1.666886541181958337e-01,-3.508028584788387000e-02,5.113440904523975511e-02,-7.200457537864769775e-02,-6.726335279389360211e-02,-1.741723982582736030e-01,1.111498710697819553e-01,-1.203662149545769167e-01,-1.364860378611917890e-01,-1.545831911586650342e-01,-8.731166904488334157e-02,-1.993557763631658708e-01,-1.158196312039833503e-01,-8.264236784973943983e-02,1.543124281742431492e-01,-1.269627099256700467e-03,9.582159309014629672e-03,-5.162308368473154246e-02,1.536078155894470554e-01,4.006378197602430968e-02,-1.344151628713599056e-01,-9.102802268125306795e-02,-1.235458394137350924e-01,4.392466529160604649e-02,6.770406831701751560e-02,4.417444897183684521e-02,6.496803809240525585e-02,-1.194154557614273693e-01,-1.363371054574677443e-01,1.169789017244909080e-01,-1.686374762207602795e-01,4.981010086928694403e-02,-1.183438483018804527e-01,6.257870343448154737e-02,-1.478952655814497752e-01,8.840792425849881842e-02,7.157671273603967432e-02,-5.336165232507968786e-02,-2.621416813333091178e-01,-2.695969739485108430e-01,-1.544039579093743064e-01,-1.980997270011239375e-01,-1.349471833988699632e-01,1.630669365302134799e-01,3.604171890429532649e-02,4.375432703065668810e-02,9.757712739853115214e-02,1.001876875824997230e-02,6.840468345128358774e-02,-1.054217062787825426e-01,-1.246314448630075761e-01,-1.734761483667487392e-01,5.585060582536544027e-02,1.033169150676843118e-01,-1.718168371056121579e-01,-1.116491096164694552e-01,3.976028046880673156e-02,-1.634487903358957661e-01,-2.871033355242841659e-02,7.654811706040459685e-02,-1.238630998821264179e-01,-7.398144536182039988e-02,2.293097151747326701e-01,2.071105359481270058e-01,1.334624706417096018e-01,6.797686481892278865e-02,-1.536892756012185612e-01,-8.143072846816144794e-02,-1.684642582636898533e-01,-1.955271617709308796e-01,-1.804688356001961369e-01,-1.727084882620065209e-01,-3.192307535226226317e-02,1.097592686551460972e-01,-4.035704874906190232e-02,1.074632687198880110e-01,-1.019407445225472275e-01,-1.844685500746923723e-01,2.289212828962825311e-02,9.837707885296156918e-02,8.306226118800087710e-02,9.063524132884902273e-02,-1.555111719496601874e-01,-1.126128762177464465e-01,-1.802967035662097761e-01,-1.576580615831806864e-01,-1.568720473510822055e-01,-1.122212332383282080e-01,9.339548513413312159e-02,-1.637834095102583265e-01,-1.165280935292526548e-01,-1.048962812447971488e-01,5.745437855552344014e-02,-2.022390057934927987e-01,-2.288848061847468807e-01,-1.036104978903209239e-01,2.055368400691878206e-01,-1.008064901084279597e-01,9.103799180585696316e-02,1.714687796103804007e-01,-1.404283010696971423e-01,-2.184641404544487298e-01,7.590099567669755798e-02,1.768123818016281365e-02,-1.934291211920390607e-01,-1.272147033501198621e-01,1.771032958128170021e-01,-6.880867491636405431e-02,-2.207980428021422137e-01,9.681422705159850595e-02,1.595376038582216049e-01,2.387303158627189503e-02,1.468756265604359290e-01,1.947951646481419219e-01,1.774742167635241230e-01,-1.313349204388598868e-01,-1.700100254996263216e-01,-8.939206206813234135e-02,1.827229749812975257e-02,-8.259478937729958226e-02,9.192452605267201204e-02,-1.489484840194612858e-01,6.809558260972992105e-02,1.038616023209414096e-01,1.018847453641848061e-01,1.694916375364672323e-01,1.037716604835902529e-01,-3.265712083268258042e-02,5.802603553820996629e-02,6.489739736694029315e-02,1.401433917266322604e-01,-6.950858074501221895e-02,1.647569594492737377e-01,1.016609016493993378e-01,1.588820708657089908e-01,-1.816530866561432422e-01,6.651619703159919461e-02,-1.209492518117266380e-01,1.668985336319981083e-01,1.915627957476809529e-01,-6.701467077727274457e-02,-2.521542699197358572e-02,4.396970746050923862e-02,-2.344592953224277354e-01,6.394870816615579046e-02,-8.520466488101247071e-02,1.225839394826932528e-02,1.429883495661963266e-01,-1.304304986732119365e-01,-1.284184385172062737e-01,-6.134647810675167984e-02,8.019838786910447881e-02,-8.919702635561801984e-02,-3.730625766984784625e-02,2.939511495538787642e-02,1.319547696478600429e-01,-7.796879711497670118e-02,4.470769989205356648e-02,-2.517436590969178711e-01,1.453354755004240273e-01,1.853371394996160618e-02,-9.683247485375799657e-02,9.812105883478136614e-02,6.803140847180408346e-02,-1.153433634500071192e-01,5.391026050093646743e-02,-1.445526791524172905e-01,1.341723228167981674e-01,1.721153177543336965e-01,-2.334126765296822559e-01,6.193475589186562408e-02,2.022457222776266605e-01,-2.129848400167369815e-01,1.004950227063726442e-01,-1.586269058055827796e-01,-1.369140784972793234e-01,-4.782168459066343802e-02,1.850083455759238271e-01,-4.052502224460512864e-02,-1.483634394852912652e-01,-5.068724130690356600e-02,1.256053974086937253e-01,-1.856790828407157423e-01,-1.025687998126500466e-01,-1.195890656141744696e-01,1.597907056528267145e-01,-9.011026289655270360e-02,-1.754690093567050635e-01,1.514055105285537772e-01,1.164762216028692315e-01,4.646016744965721090e-02,-2.788386551223824283e-01,1.409293006154870853e-01,-2.898772136174713326e-02,1.563427815879809557e-01,-5.696934077563566012e-02,-4.045317484886307158e-02,5.829436205443793567e-02,8.971108110945701097e-02,-1.015154926246433081e-01,2.155279080251926993e-01,-1.081579945915856905e-01,-1.394456022937641815e-01,8.632137846691127769e-02,1.200164586500708092e-01,1.645025997575159105e-01,-1.448848335606160720e-01,5.577720121853514679e-02,6.852889736897080364e-02,-8.824179155072352232e-02,1.888577471843835009e-01,-9.496061364039194708e-02,-1.881016298674593745e-01,8.405832773252587195e-03,1.709828169415389398e-01,1.636389592155468656e-02,1.052794375524766513e-01,-2.171709207408716036e-01,-1.871996931536805686e-01,-1.268440452220694070e-01,2.401606696161021418e-02,3.126134449113994462e-02,-1.082291175557868051e-01,4.842976241865235010e-02,2.341057234987684033e-01,-8.588811070340467146e-02,4.940865190964480180e-02,-1.808786825762876416e-01,-5.413089720151949627e-03,1.825106790900636600e-01,9.257494554446771273e-02,6.076545285040788058e-02,1.000683797378772999e-01,-6.665509168202081447e-02,-7.259307914190948896e-02,-8.907404377411839991e-02,-9.421477903442333768e-02,-1.195302029393760929e-01,6.544747637701381349e-02,1.111138192189389251e-01,8.411829570329065753e-02,-1.067391647863934617e-01,-1.053457843075183697e-01,2.058352213494324678e-01,-1.093893621732770494e-01,-1.195376778675590890e-01,-1.648224513224622045e-01,7.395719802717869162e-02
-1.732604262307641252e-01,-1.074824921263875660e-01,2.353776490363505003e-01,-1.418957471592432740e-01,1.795227267153264028e-01,-2.964911615280123591e-01,5.855402253426970904e-02,1.339595748663073294e-01,-2.532025091118873458e-02,9.666666379744130733e-02,-3.615460653923505130e-02,-2.187303706225152133e-01,-1.100308229864367798e-01,1.640113295644187730e-01,1.311445757773921361e-01,-1.724712518641068337e-01,4.953822928360211708e-02,5.116959451176803647e-02,-8.399056706364264879e-02,-2.483880454507941121e-02,9.264114911456809709e-02,-7.302153718783345460e-02,-1.377585334970099773e-01,1.993143552433434829e-01,1.317943306102335732e-01,1.002558088561092825e-01,-2.437096673239083980e-02,1.179234935176145666e-01,-2.175530552645514037e-01,1.467445457393798391e-01,7.685782704055714454e-02,7.358153759433054553e-02,-8.785436199378278410e-02,5.531318194582450498e-02,3.039103416492906773e-02,1.495325973021707777e-01,3.386621942676552952e-03,-1.056387280876621843e-01,1.906984978605968939e-01,1.053989974649226086e-01,-1.159117626114911509e-01,9.225722090205006054e-02,4.219968109203167672e-02,1.816542272968221516e-01,-5.787614840585856429e-02,-1.658757760373401335e-01,-5.962147704385133140e-02,-1.373149367822129319e-01,2.120654366009859793e-01,-1.902470435088121289e-02,2.349466633611000527e-02,-1.257164468401571200e-01,-4.231050031012788259e-02,-7.843989216174922230e-02,7.360375790912168648e-02,2.477365017696887550e-01,-4.361071070146151085e-02,1.210305042604013365e-01,-7.263601364960044215e-02,-1.013311486138086942e-01,6.797743204742091871e-02,9.182590342757371293e-02,-1.394658491683239410e-01,1.288639454688172113e-02,7.156187477400863250e-02,-5.195147020824277678e-02,-2.008025481725117523e-02,-9.938436691022711766e-02,-2.147111622968192191e-01,-8.534086161317246122e-02,5.551062766749439298e-02,6.067662221005403617e-02,1.891338961525254603e-01,-1.119008375740978140e-01,5.500293936003732703e-02,3.431729841263802400e-02,-8.968891163139211531e-02,8.634381784119614378e-02,4.928054687876990553e-02,4.861084598825914961e-04,-2.578338190779175948e-02,5.881448938659276232e-02,1.145138984464999510e-01,3.587935974247239302e-03,5.411369787263593800e-02,6.633214473287450674e-02,1.301584621348672761e-02,8.845803130223738042e-02,-5.272160404013155610e-02,6.045894772726619071e-02,1.537084690145433252e-01,1.252893356682918680e-01,1.230471846392561935e-01,-1.359014066114193342e-01,1.575046673341929104e-01,-1.313224107192686174e-01,-1.886504803248408024e-01,-1.714111999517549667e-01,9.728157058283457004e-02,-2.068841695069773279e-01,1.703336501696362804e-01,2.390140574218471356e-02,-5.833832230147591169e-02,4.576680431805175975e-02,-1.997153061040000954e-02,1.306590634075840140e-01,-1.083310948597341061e-01,1.401897585416883585e-01,-7.966185754258527096e-02,-1.913958558412217070e-01,-1.216989691880279445e-01,2.372140231392286247e-02,-2.777423152662393882e-02,-1.666197281217010329e-01,5.941750834514080565e-02,-9.845677966297380901e-02,3.282308526736742171e-02,-6.500760510103593959e-02,-1.380892410436908857e-01,4.693697066393127254e-02,2.486238310898257475e-01,-3.271848331447452241e-02,-1.794623407120907455e-01,2.606704225675775533e-01,-1.392392112971109659e-02,-1.647068254261896958e-01,-1.779830376718838023e-02,-8.285705252467445714e-02,-6.036998235456754458e-02,4.006115880430072967e-02,-6.327563411894100709e-02,1.866677245144402197e-01,8.786403586268509355e-03,1.987668141812554412e-01,-1.000017615009467092e-01,-1.500055492951748171e-01,1.912812911774198488e-01,-1.179192125001170405e-01,1.753392906078296842e-01,8.605058523752425609e-03,1.312639730806585414e-01,6.317779810700396848e-02,2.854931027610244608e-03,3.914945796266025742e-03,1.823739007345277427e-02,-1.331799596148029452e-01,-8.300642061034932406e-02,6.584827034816452540e-02,1.125872787537244291e-01,-2.372510630942733512e-01,4.079751043485196210e-02,2.586604136739489301e-01,1.904927629096488384e-01,-2.907453940207815196e-02,-5.595893578139823216e-02,1.761888014709471484e-02,-4.091825299399842741e-02,-1.143539676935050875e-01,2.933758711277030876e-02,2.209890025620722120e-01,1.040083744241976083e-01,6.214012234079258068e-02,-1.270796634465334307e-01,-2.190003870050023504e-01,-8.771000897833707011e-02,6.809376241022228882e-02,1.068107536448461153e-01,3.873273073892335300e-02,-1.147129345444022203e-01,-2.191181298226727026e-02,-1.687434107344471246e-01,2.809992404839056213e-01,-1.572263816403261794e-01,1.383747348427800949e-01,2.412791534547244487e-01,1.902678526414627869e-01,-2.791723084377698005e-02,1.676835210761922490e-01,-1.530597501577671271e-02,-1.785318611716495314e-03,6.356377490770899474e-02,-1.503854073216849829e-01,-1.562296097425691643e-01,1.352205654574721860e-01,-1.084828130619765463e-01,-1.495907227900554470e-01,-8.284890228019667346e-02,-1.625544370553279605e-01,9.237289146231730808e-02,9.156871610013783691e-02,-1.547079176291060731e-01,-1.590706650834872449e-01,1.241143520830422509e-01,-2.020282285090748212e-02,-1.067567879384890145e-01,7.291066873365943668e-02,1.927264027001538704e-01,1.564111391432766451e-01,-1.184521261766070116e-01,9.829247928557596770e-02,-3.062939169698214448e-02,2.085172660062979688e-02,-1.877550635273806667e-01,1.354638354969348903e-02,-1.002842589418073971e-01,3.809415724518792207e-02,2.314789546391689823e-01,-1.810919494287438203e-01,3.430317758949299328e-02,1.514175847565907285e-01,1.262431392351734682e-01,-4.683924863635130498e-02,1.469262150978052073e-01,-3.470435902141651152e-02,1.561821941389652524e-01,9.670407300774389037e-02,1.119320046839753918e-01,5.797146687265535697e-02,-5.189896892600350670e-02,-1.771830206422360665e-01,-2.150334897119028088e-01,-1.360369492113600032e-01,1.631783608908187744e-01,-1.279691002553155488e-01,1.331151523099987355e-01,-6.732129459906649113e-03,-4.260559117980964455e-02,-9.730961464540860417e-03,1.391725854344803837e-01,-8.300110880945452130e-02,-1.932578011985527089e-01,5.083506658200986558e-03,-1.776546670139554362e-01,-1.361460473274023197e-01,-1.073881234345524932e-01,9.935969722510896995e-02,-1.491465156058768560e-01,1.255035322713866572e-02,2.389818583871220481e-01,-4.008671694308368200e-02,8.178795443364181295e-02,6.968227657501901984e-02,2.503738675011780157e-01,2.007032027218431380e-01,-2.730604362723568559e-02,-5.863402687444831812e-02,1.390019191180792424e-01,1.733829883943608097e-01,-7.703202457334105968e-02,-1.670631977477628205e-01,1.201185843711433110e-02,1.148925431853418666e-01,-2.411785371070263723e-02,5.578551301777476268e-02,-1.273447965812976035e-01,2.624070767563861928e-01,-1.482308513606937495e-01,1.946966705298427275e-02,-1.341888022698502769e-01,1.348117802389590114e-01,-2.244912380558411122e-02,-1.850984423940259249e-01,-1.324471312028884240e-01,-1.109116285507593530e-01,8.656230588380914304e-02,4.485980525716925377e-02,1.414861663775925649e-01,-7.299190399377572525e-02,-2.397992298265921030e-01,-1.635810342831199582e-01,8.943053201849116007e-02,-1.961152755695459715e-01,-1.260351791456090220e-01,9.550729365622459555e-02,-1.185018040427656266e-01,7.634451517337845217e-02,-1.465204744853998153e-01,2.045687447572128170e-02,-1.420772525026638144e-01,4.612024469372478369e-02,1.284839800403909660e-01,-1.285070863653160200e-01,-2.244201301776359569e-01,-1.998169454547112645e-01,7.262254893533932887e-02,6.039023706756659754e-02,-4.322511324277571176e-02,-1.145680190593462155e-01,1.465709070272862014e-01,3.076092723991479677e-02,-2.121933768135018938e-01,-5.510686335761053045e-02,6.044377822328116101e-02,-2.115843535319132940e-01,-7.211381987766030122e-02,5.396013603225607164e-02,1.332949417282844884e-01,-1.404994338097563245e-01,5.193758010809949865e-02,-9.498939229501776604e-02
