-4.536293797288209334e-02,9.669493705979725559e-03,-5.506273990395055967e-02,4.893592742900936682e-02,-1.876387361145019292e-02,6.057853903758187407e-03,4.346387224586859693e-03,-1.132693768440703151e-02,9.252862610897414838e-03,-7.704466921030579153e-03,-7.402128766461808784e-02,3.028442362039003490e-03,-4.492520917693773597e-02,-1.112856733707103252e-01,2.574358292918967409e-03,-6.394149774212829276e-03,2.244558475041303139e-02,5.722489430116097647e-02,1.195928005177865176e-02,-9.879083457824504311e-03,-5.431289963474118798e-02,-6.236893851250446298e-03,-1.922790499724263968e-02,-1.642848861469089344e-02,-2.286595417352084089e-03,-6.822980420497158638e-02,-3.214540002496467982e-03,-1.203714968543556779e-01,-8.118343984635924965e-03,-1.202525570215766913e-02,-1.127784682304345349e-03,4.091738631274762102e-04,9.523515934056063156e-03,1.692824093356069121e-02,-1.480886908096161123e-02,-2.840479898497548158e-02,2.905820532643967752e-02,2.710731534532519454e-03,-1.901959474363242725e-02,-3.187627974665344088e-02,-1.023813152530305207e-02,-2.972286600784140864e-02,-2.729928813876071527e-03,7.600122560714695115e-03,-6.451673408458430056e-03,-3.573225513610826104e-02,6.672580975005414951e-03,2.482994527812642724e-02,-1.316618712650462165e-03,1.615818465285993530e-02,-1.965594737470908668e-02,4.878852463881248012e-03,-8.084779097905543666e-02,7.333938991781900445e-03,3.381172108891791414e-03,-1.856593575921995122e-03,-2.019546845918960415e-03,-2.462245375713411830e-02,-7.895198352262390237e-03,3.015983702907595269e-03,-5.776210397103150214e-03,-2.534177060502233736e-03,-9.526597227363593767e-02,4.442840524542273489e-02,-1.342630692284716917e-02,1.041273170746522328e-02,2.737843559909731214e-03,9.242965842467392194e-04,-1.125054941601646638e-02,-7.507421402198651353e-03,-6.761683919228034245e-02,4.063045903382041420e-03,1.747891836195327288e-03,-1.170872919258995719e-02,-1.809601048544892156e-03,-5.321082603221660018e-02,4.121477136521981693e-02,-3.027082246646653138e-03,4.159041568288979716e-03,1.816393791908050767e-02,2.736855574922728517e-04,-2.202269937056782617e-02,-4.210342584583522813e-03,9.808081152203954045e-04,-2.052791671983270668e-03,2.065147880802619892e-03,-1.453007694483139049e-03,2.114223004293574266e-04,-4.686964506296946269e-03,-9.887474509508555401e-03,-9.410828518030291828e-03,-6.060867219004473228e-02,1.384967762892477285e-02,1.112244099103349045e-02,2.835895352032009875e-02,7.976064539600205821e-04,2.774168396305333462e-02,2.426983233419620616e-03,-1.873782336026246637e-02,-1.669067693085718451e-02,2.572733283083139619e-03,-6.759984684328848928e-03,-1.379701183437436265e-02,-1.135985684891988555e-03,-1.988806022403777265e-03,1.158689068565530063e-02,3.194777764134291639e-03,-2.519129527506579376e-03,4.513793137001496404e-03,1.813293440293195502e-02,-2.365001770467995649e-03,-1.998504613514855838e-02,6.818284713715051879e-04,6.462916750359295505e-03,3.022095041666133380e-02,4.349671855978030910e-02,-1.786815444195809580e-02,2.530700536116306520e-02,-1.599970283037164490e-03,-3.582794855931008618e-03,-2.138129484362664024e-03,4.468364707577426181e-04,9.730590763473892513e-03,-1.763437517291251578e-03,9.762200008872625682e-04,-5.008238208363929335e-03,-6.945211139694809285e-03,1.670009916039826015e-02,-1.855624731885479250e-03,1.039694205654498674e-02,7.522587474632575280e-03,-7.542130330832240263e-03,1.274686445418950730e-02,-7.970047351545968273e-02,1.249025606626042589e-02,-4.102883568327231182e-04,-7.876695515724894611e-03,1.254395275264274861e-03,-1.761090488873687070e-03,2.055929899686777945e-03,1.278569192119673875e-02,-3.034210016777309869e-03,-3.494326986045854198e-03,9.005640663556191416e-03,-6.091922756619654565e-03,1.833464997653750121e-03,-1.396522203749043112e-03,-2.587894243348268578e-02,-3.339575716470756864e-03,-1.898303249245234534e-03,2.937952630993049229e-03,1.800036708623877976e-02,-4.626888112742754550e-02,-1.583638768644235559e-03,2.065185528817930452e-04,-3.308312798383219663e-03,-2.461900649512102027e-03,4.900356187273761412e-03,-1.234025537993032045e-04,6.464851426106802378e-03,-1.147248135391750953e-02,-1.236506966419206183e-02,-6.448605116506973822e-03,6.638417259290348496e-03,3.878606358979256458e-02,-3.507049686449636994e-02,-2.854111341548453470e-03,2.165590084683671594e-04,-1.408925789931129470e-02,6.796589955670183196e-03,-4.627084446729803381e-03,-2.495227790545023749e-02,-2.000388679736869735e-03,-1.932750434308267914e-02,6.401104049975034002e-03,2.807058599343412002e-03,-1.690341011564251228e-03,-2.417781206469507647e-03,-3.934237603214199575e-02,3.696250248020082479e-02,6.375829225277840177e-03,-2.139393071893859206e-03,-4.584318938736117038e-02,-1.667105715289712332e-03,4.302527144456341768e-02,-7.870650679222730012e-03,-2.235394935547362592e-03,2.170043812739587408e-03,3.492108907315404943e-03,-2.887733865917470506e-03,-3.173031968212957060e-03,-1.473389301452724840e-03,-2.738630870475253568e-02,-4.916155748636664123e-03,2.237482312927258077e-02,-1.289253110183395945e-01,-1.707906654539155002e-03,-2.050561522335693498e-02,1.095822557295944404e-02,-1.003018748217258846e-04,-3.639832631994498798e-03,-8.171120427559238480e-03,-8.944276195779797892e-03,4.631861638039441731e-03,1.964430515013660186e-02,-3.919613088322400243e-04,7.739033722391894981e-04,-2.913171373073261336e-02,-1.132303209328729479e-02,4.215252161873951804e-03,-9.869787174599846391e-03,1.717128843007934696e-02,-1.409055925896502033e-03,-1.147053812884799191e-02,-4.526779791368219091e-03,-6.531880843269888270e-02,-5.591491712389120433e-03,4.334203286007335537e-02,3.468888400721819448e-02,-1.797245803122009961e-02,2.731955432228461850e-02,-3.786698091036984608e-03,-2.228973942895835173e-03,-5.237772262131071103e-03,-1.218246200739984617e-02,-3.553173474431581963e-02,-3.318464421811881133e-03,-3.982546436721595522e-03,-1.038663228038326676e-02,1.925914774658414380e-03,-4.580108098268593185e-03,-2.651522286191824920e-03,-1.263472582573567371e-02,-2.525713769106958419e-03,1.999059789465777032e-02,-1.112442261505139883e-02,-7.487876423081552511e-03,7.243030040731950926e-03,2.260075400844070020e-03,3.731359440478514838e-03,4.268950609588677801e-03,-2.638050977052021351e-02,-4.130995991274115787e-04,6.053349890446933779e-02,-2.222347197159931127e-03,5.479494733957129132e-03,-3.561167273633056816e-03,5.423621242146566684e-03,-7.772327499445431942e-02,-3.268266266935505523e-03,-1.233067325322498395e-04,1.726225042526116638e-02,1.800903934123945045e-03,-2.347256384224878298e-02,-4.750848590627614748e-03,-7.581885724667578562e-03,-4.506475218771610614e-02,-4.617004199633762546e-02,-6.381145068816132873e-03,4.471808805719315778e-03,-8.243765607378983340e-02,-2.225526825490673974e-02,3.658426256739010646e-02,5.451964043187927308e-03,-7.122448557483125609e-02,-8.927377778245608811e-03,-4.248752039579575465e-03,5.250776781977406840e-03,-4.362138596071981483e-02,4.741130520189371089e-02,-3.850439514026811772e-03,-6.256390044654483798e-03,-8.107166549567714972e-03,-5.146218388110912478e-03,4.688211518560975698e-03,-5.859889103376388075e-02,7.651447409217606438e-03,-5.731019649574865642e-03,-3.672488102257694727e-03,-5.425460800336660144e-02,-8.047115529899184078e-03,-4.440390833411093918e-02,-6.492849768681885694e-03,6.093126053255302002e-03,-5.917400202179318169e-03,-2.787556269113273719e-04,2.252351054667778209e-03,-2.327382105542295104e-02,-5.760823860233512013e-03,-2.833280959940501741e-03,3.178056994124673924e-03,-1.051125453947612948e-01,1.384552015525514906e-02,-5.028505785367911717e-04,-3.445001142594381754e-02,-2.919861645958326049e-02,-3.771122727437792310e-02,-1.783650639298110883e-03,-1.464996071676868527e-03,9.583443860875772227e-03
3.545723871015502709e-02,-3.786159704721826780e-02,-1.068656796371201395e-02,-6.818809875019778144e-02,5.174396728721609995e-02,1.952597448527822882e-02,3.961065185758973900e-03,-7.621735749750689626e-03,3.962060480528008764e-03,6.208125898760831485e-03,-4.970207294373738677e-02,1.533917802497472040e-02,-1.148965435756765579e-03,-1.186288895176392313e-02,-5.058265959652610139e-02,1.411835861488658014e-02,-1.984592955802903444e-02,-4.880592043956356874e-02,-1.918430648382009676e-02,1.405390552365270995e-02,-1.746814804815323766e-02,3.732174626926897110e-03,2.326520924986585047e-03,2.221788756335107105e-03,-5.723556534013562840e-03,1.814567234530614984e-02,1.282960466164220423e-02,1.942668377429104115e-02,1.330513864830024442e-02,-3.849533844115538006e-02,1.256539122898508477e-02,-3.101688006330797012e-03,-1.353010396084478040e-02,-3.204553046619729173e-02,4.070903466646036417e-02,-1.447742515694929073e-02,-5.326291913913316911e-02,-8.281506137483518604e-03,6.371221993212169456e-03,-4.052510362595878463e-02,-9.975461420588006833e-03,-3.433705452647412004e-02,4.540479625966744627e-03,-1.226472974358948885e-02,-1.990916822115926244e-03,1.804659070212301375e-03,6.823061340907951230e-03,-1.192763200326311251e-02,4.547470594539923527e-02,-8.217326638277807835e-03,-2.539486293556703425e-02,7.591984109416291537e-03,2.163011823781857412e-02,-1.583749376019160868e-02,-1.741490055794873287e-02,1.099023582179729959e-02,7.060446446890243297e-03,-3.168001513214759035e-02,2.953849800403359621e-02,-2.925250251964820001e-03,-5.976710807911500382e-03,7.520690438125123868e-03,-3.146131284570299197e-02,-2.116836082960847631e-02,-1.959463075872744375e-02,-1.572497364775032533e-02,-1.651026493491562080e-02,1.449629340440413035e-02,-1.906285573206566858e-02,-3.487161420652765825e-02,-7.272569161565638207e-02,5.629792065826989475e-03,-2.653559329719057825e-03,1.515621959905495003e-02,3.448788768884177014e-02,-8.661998654133669373e-02,2.108345027874319183e-02,-1.650608787214784051e-03,-9.431256637211563737e-03,-4.425056027037251732e-02,-7.659228084809501132e-03,4.725313375274051500e-03,3.834582955282071770e-02,-1.618777481050735073e-02,7.123993392442547201e-02,2.212573175116629501e-02,7.934577746250188329e-03,-1.485334670278334347e-04,5.183268437291361531e-03,-5.520584900458283539e-02,2.392335913347198428e-03,-1.809120758136395155e-02,-9.914935315485781664e-02,2.921246679700722961e-03,-5.183365077855443814e-02,-2.916873099113782668e-03,-2.718714214389394285e-02,-1.146642999734459600e-02,2.631507463894676088e-02,-4.371944798962957429e-02,-3.925518757590471669e-02,-3.800638938714225729e-02,-1.682726826171175583e-03,-1.711768133703665470e-02,1.337194900060046168e-02,4.218081050556695376e-03,3.315252590040897087e-03,1.880291062607641547e-02,-2.247345409001427416e-02,-7.856395240990824910e-03,6.555496176777372321e-03,-1.454128956227459038e-02,1.275087979505333015e-02,1.383342568742385210e-02,2.518562865566371586e-02,-2.186869571462225423e-02,-7.196251975153956926e-02,-2.292942883076352564e-02,-1.726623837018858437e-02,7.292581739186021657e-03,-6.785776306591482544e-03,-5.135710221316986367e-03,-1.172412398757475931e-02,4.651955197438625497e-03,-1.099552260331729953e-02,1.525217056203424879e-03,-1.910988950627529742e-02,-1.076879209801940088e-02,-9.734484931102961938e-03,-9.085043777428077755e-03,-1.925402126900419356e-02,1.971134550343688063e-02,-1.961179941434823722e-03,-7.117815841195943190e-03,-1.790393293124801360e-02,-3.592374403767422536e-02,-8.020720222598828539e-03,-5.315837662854669063e-03,-7.626851779798302783e-03,2.831884194518282782e-03,-2.408099000700521155e-03,1.260678144370582128e-02,-1.029081960610521776e-02,-1.192220131059600931e-02,6.643310398471156605e-03,-5.531818582277627655e-02,9.284388163239575692e-03,1.334936645271766250e-03,3.548134286225168663e-03,3.146823131851499752e-03,-6.709897281435769911e-03,-1.118820085983300919e-02,-3.799092942880757245e-02,-2.242080304252343573e-02,5.913935985802713623e-05,-4.308947277565041561e-02,-2.426792757442287375e-03,7.912090380942900583e-03,3.932757531914680971e-03,3.801689980184471372e-03,-1.863551964469591180e-03,-2.941310915541630461e-02,-6.102709645802364968e-02,-5.666294417393680921e-02,4.095580138273628712e-02,-4.450054583987338684e-03,1.050873799625417181e-02,-1.055399176348306017e-02,-2.609301794942921345e-04,7.366488575985234363e-03,1.425194160720961133e-03,1.111294793625138173e-02,6.824562008245741926e-03,-1.130356419587257195e-02,-2.629833957130630652e-03,-3.472917620529867438e-02,-1.407472402571374910e-02,6.543255408957467274e-03,-9.185961376249079935e-03,-2.829356008831710248e-02,5.894429674562402972e-03,3.788588322614519586e-03,1.258900152225326738e-02,-7.827649326960860188e-03,-6.753815917105718269e-02,2.409695651782997258e-02,-1.612486132694555471e-02,1.837804820842960400e-03,-1.649286792643207605e-03,-2.194632074081590001e-03,3.253495835337470981e-03,-9.972030315416506932e-04,-3.779950056008012094e-02,-2.064811060968680875e-02,2.623341367335539631e-02,-7.721821546800757691e-05,-6.803286718519055420e-03,-2.369556669195807541e-02,2.559031063366990280e-03,-1.878473793234840521e-03,3.918326442681229101e-03,-4.232921440320491606e-03,-6.156190065077810081e-03,7.176251749592961297e-03,-2.207228251601943067e-02,-1.109466794961564209e-02,6.477985390382844447e-03,-1.523434893162347800e-02,-6.108387672775236754e-02,-8.645776198277771787e-03,1.435774760348993914e-02,1.763469306293355757e-02,8.559849202162413129e-03,-2.722855490239802639e-02,-9.501640363646856116e-03,6.685684521372920429e-03,-4.579739382753337910e-03,-3.463376124879059825e-02,-1.814075742574427705e-02,-2.867497020462569934e-02,1.305202346589601735e-02,6.567146905523651122e-03,3.468751904230243694e-04,4.393322890742793613e-03,-3.392645682762158305e-02,3.477489848396500549e-02,1.861953069699526274e-03,2.810189719305712045e-03,4.896458250670142343e-02,1.387283725713932096e-03,-9.536479921937695073e-03,6.962139567531790661e-03,4.063426471336031159e-02,-6.890474170959303736e-03,-5.213238340971063783e-02,-1.648862055845455588e-02,-6.934616448124960968e-03,-1.081885520623827130e-03,3.939374323167964438e-03,-3.309332452931390209e-03,-4.214510087836832730e-03,2.449387777956481271e-02,5.521272656257307856e-03,-1.453219285442554961e-04,-1.269287001880767696e-03,1.471512175021013301e-02,-2.337063475926403223e-03,-3.927132782206429334e-02,3.183019308249779300e-02,9.114068817996782632e-03,-1.592382440433937757e-02,-2.088471747417094959e-02,8.239254621357354133e-03,-2.498660268977161928e-03,8.580659564559410101e-04,6.770729633880642057e-03,2.244642704287080556e-02,1.397335748521341160e-02,7.703440701524949009e-03,-2.175581564889896360e-02,1.819926970778003306e-02,1.640802445151628292e-02,-2.890959380220020289e-02,6.285929680312667307e-03,-7.461192764078444783e-03,5.577575098652165844e-03,9.141126263754026718e-03,-2.723462537785508245e-03,1.253388419536588874e-02,-7.023049790153179650e-02,-2.399614155510038094e-02,6.683608960201955010e-03,4.125652321358924679e-02,-1.895483201135166398e-02,-3.484011500109842393e-04,-1.950388444730798837e-02,-6.628991932868755210e-03,4.132649882184138285e-02,-8.027156149052335279e-03,4.730158989170663714e-02,3.905632202771482358e-03,8.862522462908263218e-03,2.586163738687542388e-03,-2.311383761860595284e-02,1.130557255861054482e-02,3.964612825810775835e-03,-7.597737772865439422e-03,1.257564864643734986e-02,6.505629289269251880e-02,5.261744079867677892e-02,6.681020301036730454e-03,5.335888587218757390e-02,-9.678601634071045887e-03,-9.464451085517381831e-03,-2.187687560868575853e-02,-2.352323313890827827e-02,1.984331529884792930e-02,-1.011246070564557386e-03,-1.425203104437034601e-02,8.475980223128761273e-04
3.195927222408886242e-02,-2.118362559460064409e-02,-4.838772839796815634e-02,-6.803681071372758016e-02,2.686130633107957147e-02,9.256995075239935226e-04,-6.857499336248688154e-03,-1.987577115295539529e-02,3.143352453039266123e-03,-1.235257997538577457e-02,-1.876788952334901284e-02,5.513877707019094673e-03,-3.460213925925138823e-02,-4.284058334292116521e-02,3.065511445916072747e-02,1.999303542710214460e-02,-1.658044900713336392e-02,-4.690239361026066894e-02,-5.075557377035165747e-03,-3.420533853242146288e-02,3.916114117930383220e-02,-4.890919604491253576e-03,3.568767318823502788e-02,-3.045861862101211653e-02,-3.047132417741080582e-03,-2.789072335330273003e-02,5.623047170487858147e-03,-1.958312938422181355e-03,-1.448319243490501888e-02,-8.226982838335915316e-03,1.033875352011116291e-03,1.439611953453118036e-03,1.980576452098909923e-05,-2.411787625673514346e-02,-2.174230727382867739e-02,2.246186677094625522e-02,-7.384600359608389786e-03,-5.208623550190688047e-03,-1.970234823824211154e-02,-7.985250470896002040e-03,8.303175633370848269e-03,-2.782235634049971817e-02,-4.670067752218878300e-03,-1.348885369858850982e-03,1.611279258264599994e-03,1.566272746778393961e-03,-6.934730506064908789e-03,-1.081528733797964756e-02,-9.825752057325382385e-03,-1.108969233949050337e-02,-9.443520759620635877e-03,-6.774223469499619961e-03,-1.424220013465956995e-02,1.190387349489980227e-02,6.130306289397257323e-03,6.155424299346117390e-04,5.374267110270791042e-03,-5.144905920371001945e-02,-4.762331700896409170e-02,-5.075979819927114479e-03,9.038775904974235068e-03,4.189101369699789641e-03,-4.121137031407450663e-02,5.153899571256490009e-03,7.413209194568443072e-02,1.966387039527161748e-02,-8.021518230416640680e-03,8.050655921707425972e-03,1.333301135345767337e-02,2.695305572089724128e-02,2.323010694455732508e-02,-1.268822339674424617e-03,-2.364654792190694355e-02,5.162706643508337308e-03,5.142213732213619937e-02,-6.620196552866755568e-02,2.699686043914206052e-02,-9.446933181402722077e-03,-1.515414907062662261e-03,1.961083326302934596e-02,-5.188835998313145841e-03,-8.689111679772956037e-03,-1.559200308584531534e-02,1.208141267092628472e-02,-7.649875969874167514e-02,3.657970727914410685e-04,-1.056734152154932896e-03,-1.577023508021243008e-03,1.217368177758911462e-03,-3.891912508374704288e-02,-8.304653658278635109e-03,-1.396205473315319592e-02,-1.800544132984954748e-02,3.040830892043875516e-04,-9.175821823848742675e-02,6.334662052772309544e-03,-4.755435010297005827e-02,-2.713236432938643649e-03,-2.853319436231229952e-04,-6.844239159838393094e-02,-1.077056246959678422e-02,-5.365414040888265984e-02,1.144644177464695933e-02,4.418977324821614198e-03,-2.310337141255562263e-02,3.440358225850027873e-02,3.364325789228368030e-03,-2.529547603732884911e-03,-3.868972091695008393e-03,3.171129243464821182e-03,1.004816934520265555e-02,-3.067989557314339255e-02,-7.509480285183061862e-04,6.062708464825226906e-03,3.133196333753232588e-02,-1.787572056551691227e-02,-5.813867971974401999e-02,-5.786779170828223670e-03,-4.456703299310091695e-03,5.035693851023995138e-03,-2.618903728411160498e-03,4.277956500944121547e-03,-1.461917728875647762e-02,-1.041244196842880951e-03,1.495829210906708066e-03,3.633916135554469181e-03,1.461067322653151514e-02,4.625894373081288272e-03,2.818088388665547506e-03,-2.745237650295014389e-02,-1.731449705958967638e-03,2.646048521243778498e-02,-1.100173940414622166e-02,3.154466194692619879e-02,5.491176006105380480e-02,-3.939425326798806637e-03,-6.385920559971064968e-03,1.847823554504719658e-03,-4.897443953125804866e-04,4.415147184457307410e-03,-2.671468887792710981e-02,4.856763152287390216e-03,-3.333428304407798706e-03,1.428705061632995488e-02,-1.974887786542955156e-03,6.319942161813332966e-03,5.449614276177437884e-03,-3.550563543101014317e-03,2.136638542996630030e-03,1.697008453305924114e-03,-4.456858825757308191e-03,4.322629372358805649e-02,-2.871495618590663018e-02,-1.129895816287370541e-02,-1.568274625945733540e-03,-2.772693224174379439e-02,-2.363092208230386723e-02,1.828399489987494238e-03,6.091686158679451759e-04,-1.510373142326603812e-03,-1.454309326375663458e-03,-2.813201779305595646e-02,-4.058571352144070554e-02,3.089742967011053078e-04,-2.326956514174176142e-03,-1.895694405199150126e-02,-3.316505302677459632e-02,1.807596261747752668e-03,2.238857015648548429e-02,-8.673267202370559675e-03,-9.718655772441513836e-04,1.138613179614697719e-02,-2.203147024720208871e-03,-2.045394972157789718e-02,-3.208188909845891175e-03,2.233966989848419279e-02,-1.653863014772054881e-03,1.048150802778205319e-03,-2.281812321627759224e-02,6.575891792960826716e-03,2.577659122324162024e-03,3.996572804879054350e-03,1.250155307382985401e-02,2.827600136281077994e-03,-2.816170426367317105e-03,-9.101233259367390652e-03,1.841269901123237856e-04,-5.172302177059307469e-03,6.428766093408062876e-02,-3.237435749845772592e-03,3.000685376666091444e-03,-8.951469613735912878e-04,-3.061374745101676578e-02,-7.931716362040685739e-03,-3.609681140489379245e-03,-3.928059360772975100e-02,5.132015891776520872e-03,-5.093680218520637085e-03,4.515666617267882418e-03,1.433193320916898664e-03,1.368616675328251757e-02,5.087092118576038401e-03,1.394360340023615254e-03,8.246913280025438414e-03,-1.209130954078395902e-02,1.048094233037112979e-02,-3.846173229931115420e-03,3.242092528844750521e-02,-2.857879299068010262e-02,-6.915584887072626953e-03,1.669492674896819922e-03,6.049697226294157605e-03,2.259835561626763294e-03,-5.459672379509709905e-02,3.126501124932678198e-03,2.616171268040477088e-02,-1.389010386773009004e-02,9.123667242764903901e-03,-2.407206475574068250e-02,-7.125631711175123284e-02,1.373145938594099238e-02,6.265269935933230616e-03,-5.786434509253508308e-03,1.783263037532756279e-02,1.194079939652603140e-03,3.555166511796070683e-02,-1.962679908662950164e-03,-3.812825433068240278e-03,-1.132747096578642920e-02,1.632286466750734050e-02,1.385695963663190373e-02,3.810286580299274313e-03,1.661270726351354518e-02,-1.522551295251322765e-04,1.180867612084406321e-03,-2.362094258923747719e-02,1.185124170443805410e-03,-1.234497971951981988e-03,2.802056194175289380e-03,-9.483498017413077852e-03,-1.035294815897885162e-02,-2.840439051100224557e-02,-1.754948212455227988e-03,7.198507239755386590e-04,-1.893299362716006212e-02,1.687234702828971714e-02,4.009721343973681081e-04,2.385738588648757871e-03,3.684163903695401865e-02,9.141251153109828179e-03,7.846128602502032813e-04,-1.577799497015142799e-02,4.718592172811278927e-03,-6.614767537302499931e-03,6.538926667465576976e-04,-8.262298577540898087e-04,6.459326840757079018e-03,-9.629946707651413501e-04,-1.246571388542125477e-03,1.992227015486297895e-02,-3.136833235106643164e-02,-1.474410417021475468e-02,2.242353144789096739e-02,-1.980342222528678163e-03,-7.839539610255616409e-02,-2.584513943017365239e-03,2.542363094359322614e-03,-6.457271636541148455e-03,1.680611101254467742e-03,-4.915891797649324380e-02,6.788764547342421470e-03,-3.371901121631786305e-03,-2.805895293489671372e-02,1.306152472746677923e-02,-9.999210049946020973e-03,-5.748659782499588450e-02,2.827711019652776048e-03,-4.056798119032392624e-02,1.949287545053752417e-03,2.723790978299263713e-02,-1.214183832147211484e-02,4.369993532871542519e-02,-8.096531434185167547e-03,-4.413926070036464089e-02,4.567873108706484858e-03,8.483591232522784409e-03,5.286779352813625668e-03,-9.211680659860779774e-02,-7.066232975022562757e-02,-4.919805812768196507e-02,1.519068381317828162e-03,-5.844709072739869005e-02,-5.171228756181674776e-05,5.550329274702066329e-03,-2.685172481422787652e-02,4.942923388702839121e-02,-1.061587841766034775e-02,6.313894072763577446e-07,5.542511249763894428e-03,6.624346463533523771e-03
1.192821648672827244e-02,1.039891949302079906e-02,1.746776729732410147e-02,-2.559027409825526123e-02,-2.695983161701025893e-02,-7.975147643055064198e-03,-8.780909354351882842e-03,-4.378252576146181990e-02,6.169731228949453493e-03,5.758514079755732568e-03,5.083752284087186823e-02,-3.611687332476963552e-02,1.438388313874595925e-02,-6.185777432118078241e-03,-1.632466854422921776e-02,-1.063673159702989771e-02,1.671643180755010569e-03,-2.301184495329008928e-02,-3.383162529559705090e-02,8.533850989603320239e-03,-4.152558388633892372e-02,-1.139817978348621599e-04,1.089078266594820273e-02,2.032866152776887161e-02,-3.478505296329632498e-03,-1.957623362620448601e-02,1.171186579849295070e-02,-4.543573473373124783e-02,-1.941061147893115291e-02,-4.000993462235196731e-03,5.592665168752178166e-03,-1.174275725304257771e-02,4.756076415595684309e-03,-1.288989878408108337e-03,2.661841630308992013e-02,-3.221869960968035823e-02,-6.841555513095134121e-03,8.728128774497625683e-03,9.352528022692327761e-03,-8.861904959323431766e-03,-2.012152303912849438e-02,-4.375342023656388427e-03,9.708225091416073293e-04,-2.488237782857297131e-02,-8.293096086357748878e-03,4.318497943617489315e-02,5.336409413232595135e-03,-1.215717536645108399e-02,-2.575911175949402790e-02,-2.149694520422000890e-02,1.188023549693154220e-02,-8.041778174502769300e-03,2.664623349285237530e-02,2.837888732196686137e-02,7.621259887158236650e-03,-1.624340107625105167e-02,-8.115724258191937823e-03,1.940441176369931894e-03,3.699368396290666269e-03,8.977036382327810773e-03,3.014477587658676364e-02,5.457626833307191623e-03,2.986426802873145062e-02,-1.444419878100942391e-02,4.827815028043149458e-04,-5.170523906371374961e-02,4.043621021572226491e-03,-7.998621652437374122e-03,-2.479377446700001698e-03,-2.122808718160244801e-02,4.385758315775964422e-02,-1.428566883809473040e-02,2.734062284818553415e-02,4.017435894564593685e-02,3.735347006153499905e-02,3.995307750623683027e-03,-4.278879787445055011e-02,-6.629657169607660119e-03,5.643240028272482334e-03,-2.861664603723090144e-02,-8.738875991955359981e-03,-1.637216422125910981e-02,1.038697089691099570e-02,-4.927212578419036017e-03,-3.404492342865007848e-02,-2.945341754653790431e-02,3.748198374999662293e-03,-4.733806088443552086e-03,9.388300520312085548e-03,-8.717346335901286769e-03,5.810169997993978701e-03,1.678345760409721832e-02,-4.767129488768451218e-02,2.019603189229285476e-03,-3.051906404917162016e-02,-2.697631672727078718e-03,3.304606072557975116e-02,-3.728898950728544524e-03,-2.950867732588784501e-02,-5.534359469892503186e-02,1.167913583103122668e-02,2.528372938643526011e-02,-1.479406535412262740e-02,1.211777587336765089e-04,-3.995954411768456310e-02,2.787803539408286249e-02,2.292676630166430325e-03,-1.110964730665853911e-02,3.399186588037085826e-03,-5.568498622569004880e-02,1.541161600910276493e-02,1.928874592836256991e-03,1.534829113197847157e-02,-1.926751034097518370e-02,-7.075917644722486133e-02,4.685625614531050732e-03,-1.937679770167584706e-02,-3.831063540999041228e-02,4.649942624483527505e-04,-9.683813824135446618e-04,-1.176260815329601903e-02,-9.461089434126977640e-04,-2.075757431274589254e-02,1.233015589016397268e-02,8.661712461327138179e-03,1.118279372591934016e-02,-2.038682311230766153e-02,-6.760526818951382612e-03,1.303754876147863746e-03,-2.043466783692248281e-02,1.096648120753240807e-02,-1.973395404575995285e-03,-1.425525017073790007e-02,1.106751413090385078e-02,1.882187924496850698e-02,-2.289605762529505623e-02,1.203324713765644219e-02,-2.078974810971968758e-03,-1.056412608612935025e-02,-9.463480793557755774e-03,-4.671788215325388405e-02,-1.225408332136068180e-02,8.331226828327913808e-03,-4.181588992353633960e-02,2.574171798970139452e-02,3.952698767859170320e-02,7.374468926932527604e-03,-3.137472328922947997e-03,-1.571354841280272075e-03,9.770555990776249450e-03,-5.537405974803764203e-03,-1.273018838344784458e-02,-7.731022947259242337e-04,6.737033016562341686e-03,1.358687271981774691e-02,2.954700776338742632e-03,-3.201823877385156190e-03,-1.694925088598831517e-03,3.280885644650577155e-03,-7.806332870234183353e-03,-5.499735461719933508e-03,-1.866376131924171039e-02,-2.223449564924284694e-02,1.371861310267383748e-02,-6.853432239624050737e-02,1.132738517681859333e-02,-1.494451107427378390e-02,3.533493568473234595e-03,3.372076772632620623e-02,-8.447973806829768909e-03,3.388600293356761051e-03,-2.007537118456281799e-02,-1.040973825458753159e-02,-3.058690945929687030e-02,-5.944816120854211523e-03,-9.681474848034249403e-03,1.120496816922539329e-02,-1.434008230805254320e-03,6.054557226183490681e-03,2.038690038912184792e-03,-3.137650858529815456e-04,7.419262481522762021e-03,1.371178412701242431e-02,-1.532992297146300309e-02,-8.404473984982979706e-03,-2.436202672451338522e-02,5.540974937259263849e-03,1.483672687576529465e-03,1.130482093452444235e-02,5.110334030008996387e-03,8.306212090878136931e-03,-1.087050766538969794e-02,-3.748575848556083556e-02,-4.048489491410664498e-03,-1.032109920063170941e-02,-6.619163971894925780e-02,5.980739572982207361e-03,4.484519198762922099e-03,4.059508884113023977e-03,1.352227140801126257e-02,-7.138944373752784296e-04,-1.234013453720051411e-02,-1.894112569049297905e-04,9.034706714588358958e-03,-7.358074314131151901e-04,2.997735463764493458e-03,8.162511094676142692e-03,-8.949244288113266180e-03,3.825887578846720702e-04,-4.873796824891042309e-03,-1.783139923139954661e-02,-1.000727036194444357e-02,8.134934644323518066e-03,-3.310287703417130051e-02,-1.469845017953466497e-02,3.499880314469611120e-02,-3.878686818104606741e-03,-3.472865660044885394e-02,-3.585307302603187030e-02,-6.654917172262933556e-02,3.176270710428878404e-04,-3.045164467621369522e-03,1.278746543259378114e-03,-5.590237964760121255e-03,-2.489647235694513946e-02,6.449032350410540369e-03,1.161672890548971901e-03,-2.494778132483854369e-02,-8.310467268215128434e-02,-1.451105956517015523e-02,-1.165327550572919056e-02,-1.240403474345382062e-02,3.380865426410940844e-02,8.434842853306295102e-03,-3.956602781282118203e-02,6.384331656428899986e-03,-5.981290144299161379e-03,4.840084775164240662e-03,9.519746307780555319e-03,4.705333594175064096e-03,2.519005756689720373e-03,3.598819345819018189e-02,-5.321426703308202236e-03,2.752094617068694821e-02,3.464330242957633019e-03,-3.673804666998100460e-02,-8.773974669855590027e-05,-3.291559241173732525e-02,-2.956846337818954534e-02,-1.658235994190138118e-02,-9.557768273500912362e-03,-1.293356653378560650e-02,-1.871719893521472250e-02,-3.030212314126401983e-03,-7.629529211457503762e-03,2.390329487637054932e-03,-3.661105258103827115e-02,1.642064686285048605e-02,2.010468202604023119e-02,1.133951600476214121e-02,2.813817377169201828e-03,-1.430547295870995307e-02,-1.404370436117331755e-02,8.836693568112664182e-03,-3.212726326233334567e-02,-6.526034293683809911e-03,6.733725005025567936e-03,-2.112713091947127433e-03,1.629961953422366314e-03,1.469138406353933876e-02,-2.605987272108278505e-02,4.118456423377290197e-03,-1.144794185138775164e-02,6.856097351820827045e-03,-4.062509727345593215e-03,-2.634328829101280009e-02,-9.241747597439958425e-03,-3.565287814309393150e-02,6.002996061750712209e-03,-3.051800608522977840e-02,-8.528322754914734530e-03,4.265111875012583039e-04,-5.669389180443191144e-03,-4.574860911615845349e-02,-2.595604586206358769e-02,1.106192970593455199e-02,1.231261238278214161e-02,-3.406511303390641343e-02,-5.415732861716034824e-02,-8.281684503894135713e-03,-6.743350432944354364e-03,-2.638316046464018322e-02,2.598695262155229126e-05,-5.614277156224404056e-03,-3.460092788613051973e-02,-5.485432936052561659e-02,3.627281660458719827e-03,-2.878061490916229443e-03,4.938797277979074633e-03,3.056082068011563291e-03
-4.795483612987593014e-02,1.143726782686170507e-02,-1.718635420841865737e-03,-5.271445932112323041e-02,4.397571706699830892e-03,2.524580490788137788e-02,4.904528496462725110e-03,8.602159818186924309e-03,-2.443779011644188134e-02,2.036830002613398971e-02,-7.001472160022356728e-02,1.883570950628439891e-02,3.577400865293529214e-02,8.871718446526804039e-03,2.671444590393322327e-02,1.163808360311440263e-02,-1.399455518245956882e-02,1.614209900085659261e-02,3.258913644014351072e-04,-5.476008441613916533e-03,-1.733488570267616375e-03,-2.213543567629132607e-03,1.675175296942904568e-02,-1.324285535852166677e-02,1.058358202367681855e-02,4.017723484314886934e-02,-7.465762614249499274e-04,2.329812655741765257e-02,1.524020327719717224e-02,-2.484211120944747331e-02,-1.118331407973705699e-02,-4.189429760367619285e-03,-1.060276486757939264e-02,1.102785346514157695e-02,2.880385691331865256e-02,4.973253378739417307e-02,1.749279996162884585e-02,-3.033748343026132152e-02,-3.690110164010923792e-04,1.921111659483844616e-02,4.443523111417798169e-03,1.458185902209297585e-02,-5.210947130435313220e-03,-2.552603160812876113e-03,-4.255531231295683024e-03,-7.658413646461427124e-03,-1.535421007285233102e-03,-1.273352516070259607e-02,7.669403472185217126e-03,2.716045488486455717e-02,-8.249305972263758224e-02,5.334691134916874460e-03,1.332160749875955803e-03,1.060626423165086062e-02,-2.380423939787696883e-03,3.331335772999856771e-03,6.830574325589256791e-03,-7.101665286506003705e-02,3.690942915736344920e-02,1.118553817091355249e-02,-3.756188396976084098e-03,9.378223882995721447e-03,1.233001769486011430e-02,-1.813520614460809727e-02,-7.792694593381020718e-02,-3.319170483300866448e-02,8.004158781618938776e-03,3.716884777005090637e-03,-3.312741273103783635e-02,-2.358188622567316487e-03,-2.500627452169131362e-02,9.023923218969670187e-03,1.036818027295249682e-02,-9.895689672406320775e-03,-3.519175136701471057e-02,-6.646361092716703001e-02,-3.016309437031552011e-03,-4.538605809210140979e-03,4.242134540494066873e-03,-1.380450811287791714e-02,-6.815037841712269680e-03,-3.550506231231791675e-03,6.210982877569863614e-02,-1.705968249232872602e-02,-6.953587252240711614e-03,-4.672192127739353308e-03,-2.322994160992600428e-03,-1.803892965933376552e-03,-1.354852459282679562e-02,1.256126743990596852e-02,5.219593452056108494e-03,-1.161770892999652686e-02,1.013631792324893276e-02,-2.627338353053124825e-02,2.491847243684103957e-02,5.798772711800182379e-04,-7.347959568709723499e-02,7.245365215974650629e-03,-1.249369072451143132e-03,2.546769127443375413e-02,1.475053382394996872e-02,2.182877913314233004e-03,3.246462188982676602e-03,1.887161402248006435e-03,-2.200466771466824331e-02,1.419732900232588283e-03,1.071519486830678795e-03,5.623451414174879086e-03,-4.518825974869390694e-02,7.199050963983282328e-03,-3.170565241603324775e-03,9.678283237000007491e-03,1.100838802828164875e-03,-1.914585912363230003e-02,-4.879025256277432637e-02,1.646766431125932378e-02,2.434907888819828198e-02,6.130002716728209615e-03,8.708265334209262451e-03,1.342547116944998314e-03,-3.152693526600850739e-04,-1.577709365206163760e-03,-2.329477336499130580e-03,8.968576832424468570e-03,3.392633573912133462e-03,-1.610253485908078042e-02,3.475375527674798119e-03,-1.363441446656283099e-02,9.372189307772725228e-03,2.029322030332417204e-02,-2.602752377720304183e-02,-4.846504075944086699e-03,-7.844714692427564098e-03,-6.580928752931901327e-02,-6.277366400066607122e-02,6.894003732088090086e-02,1.273934007862512208e-02,1.178327715685943081e-03,5.472872331562091304e-03,7.280172004068596707e-03,-5.450445369536436116e-03,-7.891881266985640089e-03,1.912382042656255929e-02,-1.013940991198429911e-02,-7.292955724483416238e-03,-1.854434528619885308e-02,-9.860430335050915287e-04,-5.281592014526986789e-02,7.368122231178674680e-03,6.327591281109845069e-03,3.847734204860239239e-03,1.758495960867342833e-02,-1.149537142721978288e-02,-3.650420552215976212e-03,-1.703131614107477806e-02,-4.438980541731497864e-02,1.256073550837215162e-02,-1.360801795436975166e-02,7.259539076562276233e-03,2.155044704197792583e-03,6.973259190243720831e-03,2.963615067268888029e-02,1.057093042266533250e-02,3.188641621798178616e-02,-2.809220833151483340e-02,8.524917811419783706e-03,-8.371554692535051675e-03,-6.487025785423304082e-03,-5.365214633469340272e-02,-3.803844092394645382e-02,5.353262182039687268e-03,1.243367191493440632e-02,1.437448768358377382e-03,2.398408767981478548e-02,6.582270347424681346e-03,-2.368081248144596196e-02,-3.694437473453313081e-02,8.423017350609336359e-03,-1.336648587320727818e-02,5.551928854302412043e-03,6.516348809626201950e-03,6.103535737081593020e-03,3.143617855582336168e-02,6.534036493480094472e-03,-3.265073964455152827e-02,-3.189131181453753929e-03,-1.831035978978593241e-03,-9.084454734993807623e-03,-3.449199796326679612e-02,-2.727973418349404020e-03,-3.770735913865352201e-03,-5.993136089180740519e-03,-4.992447820191736607e-02,-2.167821497815216811e-02,-6.535616395143127588e-02,2.834995132245394026e-02,-9.226308865890943053e-03,-6.383080916505625910e-03,-2.134696168412424447e-02,-1.367368356461211125e-03,1.195522556192069909e-02,-1.491052361722924532e-02,-6.342338209327045596e-03,-5.047936492151234092e-03,-2.980120879266842226e-03,-6.710435540332224981e-03,-8.093885107629209680e-03,-3.380235954142602611e-02,6.841269492283855690e-03,-3.663277032984896871e-03,3.455513425870455988e-03,1.312127529036368964e-02,-7.729601387152334503e-03,-4.316115842795713309e-02,1.614271078604753024e-02,-3.247183075299413940e-02,1.305997113326720985e-02,-4.561355740916721996e-02,8.736200908637775653e-03,-1.436133561339690556e-02,-4.584425931629117212e-03,-3.751647247718286303e-03,7.718529847412413693e-03,-3.821147612135895356e-03,1.100416408214040069e-02,-5.885469591976819070e-02,5.086979747513910516e-04,-4.636030334938939616e-03,2.121039597654524045e-02,-3.578843924948205135e-02,-2.756704399115443224e-02,-2.219300475747821785e-03,1.419902424430593939e-02,6.715454781107867664e-03,-8.511867577264093732e-04,-4.587639487081264338e-03,9.035083279475373142e-04,2.289126500337407277e-02,5.730367721791832999e-03,-7.502859323325988990e-03,1.121980856476324090e-02,1.731004729574082968e-02,-3.956931260269972361e-04,-2.394851845606982277e-02,3.564724958453825438e-03,-4.392634309084993138e-02,1.066244926293914014e-02,1.851525309628223529e-04,-6.176445347383023587e-02,5.199790897231973755e-03,6.131679012051729528e-03,-1.237686513383461171e-03,-3.511084128893475899e-04,5.225227377858879425e-03,1.295120794961571349e-02,-2.826344497723586578e-04,-6.211467318332117293e-02,-2.667117349326665957e-02,-6.340118153200792819e-03,-1.388884369310895012e-02,-5.799018123729072355e-02,-1.570730955484486713e-02,1.578975472022791857e-02,-1.906465824593088889e-03,9.846886632406506509e-03,9.892671477718103373e-03,2.520663814740703532e-03,6.478500180851591399e-03,-7.377832052999007927e-03,-2.070605399798729901e-02,-8.392039609547088594e-03,-6.294231802549670775e-03,-5.684092001490131767e-03,-2.533404505040088434e-02,7.893529460298177869e-03,2.454834841810144344e-02,1.559215431730977611e-02,-6.346810070078546737e-03,-5.839657251292048636e-03,3.006488966604709684e-02,-6.446472625605583796e-03,-2.498990921004107940e-02,-1.163284354345900211e-02,5.080747268325194743e-02,-1.875554800075884126e-02,3.585311791225736719e-03,3.603791926903522538e-04,-1.259819956555209043e-02,9.178725893514174533e-03,1.778696594468621647e-02,-2.497862335302043074e-03,1.927920302071138570e-02,-1.609010607935246976e-03,1.887005883928210117e-03,-5.334154915865565311e-02,2.349379605785157504e-02,-6.443899664206391605e-03,-1.252706524420773649e-03,-7.276368062390810472e-03,-6.474108850136483899e-03
-8.039645899397916684e-02,-8.228798092910454345e-03,-2.083825601395062135e-02,2.059702497641234184e-02,-9.054671254443581729e-02,-1.387851873498428118e-02,5.318306902653394840e-05,4.031981667592143478e-03,5.470558213229895911e-03,-5.955361973259805375e-03,3.252451532970748738e-02,9.913040846120315872e-03,9.216779894259716222e-03,-4.349684826705323831e-02,-8.401222817272265345e-03,-9.781364455052177220e-03,2.065704408166486178e-02,-3.946930067074140569e-02,1.015398707505183601e-02,-2.615161761678961097e-02,-3.291787705885400317e-02,1.225555649698653084e-02,-1.143214880241301933e-02,4.822186578801188409e-03,-6.772285823126606222e-03,-1.938727709491668005e-02,-1.460367942929387090e-03,-5.317152249175248480e-02,-1.646557607046593777e-02,1.819705769028555700e-02,-1.547054639920743442e-02,4.136078163073301020e-03,7.270806050263066596e-03,-1.550484249201651045e-02,-2.858241640495203309e-02,1.533449076307302804e-03,-2.563666319872343752e-02,3.061355840268785086e-02,-2.904866473778901399e-03,-1.637974615623895985e-02,2.435698138333276461e-02,1.561981155526636321e-03,5.142489128282560010e-03,2.781041192481413515e-02,2.306477914053035438e-03,-2.559911372777512809e-02,1.480695101555267856e-03,-1.160127709566699875e-02,-2.116365304012995247e-02,1.199297677778260289e-02,2.092291867823060578e-02,-4.872199614377135772e-03,2.713029850074763147e-02,-1.880169144677741599e-02,2.482622820226912733e-03,-1.427481843558539576e-02,-3.963379255310645727e-04,4.250661219324428780e-02,-1.348560469359171010e-02,-4.646253012178357643e-03,-1.734268986031103910e-02,5.984381562015632372e-03,3.171008427604883606e-02,-1.089063764372520844e-02,-1.531660546042637981e-02,-3.598760568320247960e-02,-1.334852771244654512e-02,-2.090716183802258411e-03,-1.372342105969918957e-02,-1.309499750566267030e-02,2.732821890837270132e-03,5.707096001407742022e-03,1.193949480163667212e-02,-4.076797130972453775e-02,2.826370618526042374e-03,6.259007410007444427e-02,-2.215632721771700064e-02,-3.681196817670829343e-03,3.022165339459985346e-04,-1.963288234310818503e-02,3.548620103703731266e-02,4.242511278481418506e-03,-3.975248893764201513e-02,1.217563805596014702e-02,3.298668634159240831e-02,-2.811383204822836754e-02,-9.282635127964041291e-03,5.214837319698546227e-03,1.013407601813124748e-03,-1.901690969573507570e-02,-2.155522745207690688e-03,3.855595200734877881e-02,-1.066036786955063394e-04,-6.416244497543353506e-03,-5.948990820246959250e-04,3.902614354908322887e-04,2.282745027133569349e-03,-4.562394127389107941e-03,-1.365122307769337309e-02,-2.143419613124019490e-02,1.311672015026780699e-02,5.294172732378359982e-03,2.659263759727211601e-02,2.933572550066233624e-03,1.617992241385212901e-02,-2.325918348639696709e-02,9.841830529451801174e-03,-5.599294403036483847e-03,8.850234490185000455e-03,-2.937237989367522117e-02,3.093016001808188229e-03,4.206739302110735351e-02,1.760648350682871840e-05,-1.860492989496405694e-02,-4.930678587372934463e-02,1.798807479533180015e-02,4.102548673252507522e-02,-3.075688338841904568e-02,8.086659252983179709e-04,8.985568155599253301e-03,5.095992741044283805e-03,5.180023378310629097e-03,-2.516445802552133570e-02,1.771674968799797105e-03,7.718426387218128674e-04,5.209904586467010816e-03,-6.563795830632230405e-03,1.367035245493845863e-02,2.371037469828422579e-03,-3.572589719637567218e-02,-4.802645322849323148e-03,-1.630467446686721666e-02,3.650254825246701182e-04,1.578133100893956003e-02,-2.704328536987622364e-02,-2.363658801143040528e-02,1.201829667989127298e-03,-1.252383511844974533e-04,3.865134520325601720e-03,-2.684658353970353385e-03,1.600593804970645503e-02,9.427039487135252180e-03,-3.153663208669286316e-02,3.658992648951980495e-03,1.918133576316742193e-03,-2.017219474353176140e-02,1.106217150708279241e-03,4.162376567389895234e-03,2.084817782971320251e-03,1.071089314681321477e-03,-4.487700507265861977e-03,-5.390510499030557595e-03,3.223042601702400759e-03,5.953202362282410988e-03,1.080623492336550825e-03,3.589418993325424467e-02,1.000855794206244320e-02,1.524386565858774738e-03,-1.525957843220150415e-05,-2.910147799508361072e-03,-9.594951050540836924e-04,-1.040501067132830297e-02,-2.367009522132046059e-02,-3.851844433197674361e-02,-2.789700518539993488e-03,1.761148638888599197e-02,-1.039358980630703151e-02,4.687692822803352609e-03,-3.901978346162807143e-02,-2.882874894008179839e-02,9.035126589382463935e-03,-6.048365053492756223e-03,6.551216304620167963e-03,-2.357209119033809152e-03,-2.520373798362093246e-03,-4.811193243363130062e-02,4.379742843897967836e-03,3.863238475662820939e-03,3.454327254747698722e-02,-4.469197634677449238e-02,2.786337646548322968e-03,7.797470466784747062e-03,-4.092915625344466235e-02,-5.818890127979433648e-03,1.925858330306815663e-02,-2.527678158018191110e-02,3.607064336159570769e-03,-4.821111650721154364e-03,-1.975873156426172748e-03,-5.116988887889847848e-03,6.654233516805359641e-03,-1.371387834812180708e-03,4.102878189658409891e-02,1.865651075053987792e-02,-1.945186393980655876e-02,-4.226553542979732264e-02,-2.822530689503754617e-03,2.936764852451517402e-02,-1.111647550796186421e-02,-1.283887568507539488e-03,-4.457015872302936416e-03,-2.618273307115551261e-03,-8.799024409744771874e-03,-3.865085938499213548e-03,-1.202559793588683403e-02,7.023597162832180161e-04,-3.386664996361617944e-03,5.059042495479652672e-03,3.219539481225001942e-02,-7.259240145802888129e-03,1.402728011813572043e-03,-3.459312276782149369e-04,2.018151933682611407e-03,3.910334023238856010e-02,1.618266932918033122e-03,-1.835229338652192427e-02,-2.347173217678993028e-03,-3.030081884325507707e-02,4.672435710579654969e-03,5.846541493685940977e-02,-1.901091258271991533e-02,2.281260730046810997e-03,-4.184324633176501364e-03,-1.389704226693089587e-02,-4.072218376428011870e-03,-1.155427354448275261e-02,-7.801483228465242933e-03,2.683153130486255668e-03,-4.012994590471152118e-02,-9.506338458555366883e-03,7.014894142242624614e-03,-2.237100959442341226e-04,1.540560771015446473e-02,1.345148618339432828e-03,-6.388798572971031734e-04,-4.184714153413015766e-03,-3.076225328895336453e-03,-4.017464797988930941e-02,-4.338441164292022867e-04,-4.449511538368118926e-03,-5.396381831783944247e-03,2.661169396836919263e-02,-5.068560899455902720e-03,-2.187906139739003233e-02,3.069062805986357955e-03,-3.202872986637758743e-03,1.029752366409465800e-03,-7.035800566114794839e-04,-8.573964890310820097e-02,6.676491401723876930e-03,2.457076498594672805e-03,-1.483123414264184495e-02,-2.953295152694976333e-03,2.502348137549217227e-02,4.321954525336193197e-03,-2.486272855410863545e-03,5.038234039463244246e-02,-2.863051917596296306e-02,1.085595176882693004e-02,1.788648772159098441e-02,4.254972604823292065e-02,-3.895957080622015380e-03,-3.264680396857139871e-02,2.503681476969872241e-03,-3.128609118690095503e-02,-1.694797140234952440e-02,9.375009394810971579e-04,7.604678364343734134e-03,9.409697012922832796e-03,9.908222612788121844e-03,2.973936980265730941e-03,-2.249508149283867275e-03,-3.894931466376003876e-02,1.242807367388919226e-02,-5.789823948278767507e-03,-1.063839109882586120e-02,-5.166557403026440787e-03,-2.601984382961046449e-02,-3.664060862006744690e-02,-2.709102369145054492e-02,4.383053432227414052e-03,1.467702454155010456e-03,1.345483838973211398e-03,1.472801530252545663e-02,5.593394787275042697e-03,5.585263087364115107e-03,2.600345088378662895e-03,3.794613371126018264e-02,-1.344170067588256433e-02,5.396703970973756349e-03,-3.433281824737411878e-03,-4.034551824006898241e-03,3.186845757678045954e-03,-6.263294081048681634e-03,3.428006764874405587e-02,4.230589435790624818e-03,-1.798377885593817338e-02,4.776610398514181434e-03,3.396531166498367553e-03,-1.865371690619649142e-03
-5.472954328589949013e-02,-2.219841929777694595e-02,-7.018901153309660412e-02,2.419690801605960465e-02,3.402701292666666932e-02,3.088875319229313424e-02,-1.728906338796929636e-03,-2.785232909150594377e-02,1.567308482560535480e-03,-2.421396351722047285e-02,-6.341977634494427862e-02,4.005406467624713675e-03,2.624083243881384503e-02,1.611175934461632866e-05,-5.966161837278226993e-03,1.863189647883886635e-02,1.406139210587968331e-03,-1.717950702501849780e-02,-1.489439067175169808e-02,4.112598448484701408e-02,-1.660782404555836977e-02,-6.323402762856015005e-03,-3.872520884177933775e-02,-2.616314454252631483e-02,6.590087237269862293e-03,-3.375060599315461707e-02,3.311815729245734183e-03,-8.422969906069759094e-02,1.123715377749547571e-02,-1.738115255343694945e-02,-1.302858623106159693e-02,-5.350590610963613589e-03,6.727845907047247463e-05,-2.620802008667297289e-02,-3.843771300083078778e-03,-7.611059030825642613e-02,-7.124497732575705428e-03,-6.954823660045706193e-03,-2.737752979044377061e-02,-2.045697334137067114e-02,8.374370970392365759e-04,-1.475609616855447399e-02,-3.718627908809871499e-03,2.415230914781034757e-02,-3.682238011169885333e-03,-1.014647874918499009e-03,1.620633280385113143e-03,9.119720080461980825e-04,2.665359990013278779e-03,-2.045605049238349155e-02,5.204190886279793510e-02,6.872792723484521388e-03,-4.694234011507444904e-02,-7.263731655661998486e-04,8.072047539192789972e-03,-9.791559142217876391e-03,8.227844326451617257e-03,-4.443611163314441920e-02,-3.854049048979639458e-02,-1.093442964029222577e-03,-2.928647372336261323e-02,-8.840699587434743901e-04,-1.747538625942683665e-01,7.158286059841468402e-03,2.340753155474326400e-02,4.422577828089474528e-02,-2.643033911358775700e-03,-1.111672731546388578e-02,1.428598690540627651e-02,1.424789072471556103e-02,-4.390015747984395839e-02,-9.215145181500154423e-03,-2.674032763135289568e-04,-3.752763931800090491e-02,-5.900812252704774885e-02,-2.111975434747276684e-02,-2.606544108252214359e-02,3.816412100985078302e-03,-5.254081485157346444e-03,-2.062667683201202529e-02,-1.924107790121919268e-03,-9.804788140503378074e-03,1.294593627528926698e-02,1.644964729720997665e-03,1.857535497333122690e-02,3.635479069760924522e-03,-1.704636622437246101e-03,1.014286293134913572e-02,-9.264096566478703665e-03,-1.426209325165088242e-02,-1.538973576954449397e-03,-9.691102161268712323e-02,-1.701868045808303462e-02,-2.094521870178846223e-02,2.300227927970943317e-03,1.104578624519737817e-02,-1.886896889967611818e-02,-5.533465585399805452e-03,8.520487556450434541e-03,-3.146968979286367263e-02,-3.808727422812997754e-02,-5.604278629078891100e-02,-2.736160321157868336e-02,4.539774144142721089e-03,-2.774714542165693590e-02,-4.403246483255105620e-02,-1.343727113098896857e-03,4.666716788115665183e-03,1.388873265890432822e-03,5.073607212221908913e-02,1.077420982785998139e-03,-2.717984816213635246e-02,2.155030207531982863e-04,5.383996105954857135e-03,-8.846067245692972036e-02,1.336258054891383343e-02,8.257420988547004362e-03,-2.821787008778444891e-02,1.465649648013657132e-03,1.084730618176957088e-02,3.697549603356593915e-03,1.069361678770083639e-02,1.308016109428913887e-02,5.835556515504047859e-03,3.433510158291006465e-03,-1.102892403209066591e-02,1.210442430909415036e-02,-2.301107165947516298e-02,1.832214184614922720e-03,3.538561163086125644e-02,-4.188518360194393099e-04,-1.669592224759844368e-02,-6.105680631965011186e-03,-5.415152791847652886e-02,-3.430361593388887853e-02,-2.240811205663667538e-02,-1.694534663257221338e-02,-9.796847424829462428e-03,9.564878180754955023e-03,-1.371909121857614773e-02,4.121824500372853195e-02,-9.779727689792603457e-03,4.082081537325839629e-03,-1.761133516045313915e-02,4.879689770023474225e-03,-1.455311597155329456e-03,4.700472856696732461e-03,-5.532618221993494678e-02,1.118009374336221759e-02,-8.076271131332628467e-04,-1.177214701593776516e-02,2.682154849572089723e-04,-3.945610319740114336e-02,-1.601641948664785792e-02,-1.307971479266394586e-03,-5.778743049194017684e-02,-2.884705149903639063e-02,2.877294390359981611e-03,-1.080725061529582559e-02,-9.496036798442587454e-03,-2.606935237725389615e-03,7.797942009304263504e-03,2.452925949040113407e-02,1.569991123209374742e-02,3.932657935290043150e-02,-7.502282893513567696e-02,-4.610204826209812756e-02,8.927775408714561101e-03,-3.830361319876739862e-02,1.747194092048211939e-02,3.259391097647402688e-03,-5.113843716124658045e-02,-1.076554894868912444e-03,-2.594018831964545191e-02,3.337267040049825099e-03,-8.010690949226365043e-03,-2.155921502994576425e-02,4.801394771380309949e-03,-5.507305575214258703e-02,1.272520466802194890e-02,-2.862324484959141713e-03,8.902213225358838328e-03,-2.718294466356742378e-02,2.550179944912605266e-03,-3.712250415873797477e-02,-2.120614691511274724e-03,3.253761066854354497e-03,-5.391519057908419378e-03,-3.482309458113008738e-02,-1.350768493143010606e-03,2.856488809864578520e-03,1.063425938926063422e-02,1.904116134892253065e-02,-3.747392977630589067e-02,-2.313917866241722507e-02,-7.315913924109505861e-02,5.319983571472198906e-03,-5.510870810577419426e-02,9.118793882978287746e-03,3.989710907869674014e-03,-7.834624210756108847e-03,-8.315191564487902157e-03,-1.376140237785876408e-02,-1.940662987079535629e-03,7.814999327596073523e-04,-3.203269349843537294e-03,3.848865269553633679e-03,1.649491087037528031e-02,-3.825389348717508908e-02,4.157578917752622477e-03,2.281390617213576583e-02,-1.443682807012095816e-02,3.892111858786493489e-03,5.294544862566735038e-02,7.632203800300163543e-03,-2.406963890980841347e-02,-2.237584639740373971e-02,1.298579892146706563e-02,1.580662395855950055e-03,-2.879003458472213436e-02,-7.269433126841185616e-03,4.656639703243816222e-03,-1.522487341558405663e-02,-1.159688725936555524e-02,-2.718005612419348641e-02,-5.072980820719701772e-02,-3.552455236344324906e-04,-6.004194295696229679e-03,-4.695282085662050992e-02,1.281832520857374355e-02,1.727333762037401447e-04,6.684268634646807483e-03,-4.079209302434705364e-02,8.146299292791718896e-03,-9.844993491001638453e-03,-2.079529846790064557e-02,6.179823855951224049e-03,-1.326407051708903065e-02,2.636789086346047234e-04,-5.712946832424263197e-03,-8.314190737474237008e-03,-7.438565872260229084e-02,-7.067897335476378516e-03,5.478519419982366689e-02,-5.308938410441833324e-03,2.413913438823767077e-02,6.186358243611227853e-03,-2.511073284249112567e-02,-1.352688032193784945e-02,-2.458703050685497049e-03,4.390037272958054008e-03,-1.717191075382673224e-02,-1.480572756565288334e-02,-2.327590504110189223e-02,-5.913411685625772013e-04,-7.910549198712002808e-03,-7.081317903288668336e-02,-5.898440956247850975e-02,-1.518810767737355759e-02,-2.214229991448235166e-02,-3.307728484549841974e-02,8.928370722584195313e-03,-5.235003637506478735e-02,7.586040926964250641e-03,-7.478254690067273613e-02,-2.522096262404975586e-02,4.943967082752680209e-03,2.802260463974561890e-03,-1.993535604204586809e-02,-6.773002556487267914e-03,5.725559985895595054e-03,4.699517754639686087e-03,3.817175481625051381e-02,-2.023278152608916358e-02,3.819473159772549670e-03,-5.395075529601107978e-02,-4.897381147612885587e-03,-3.548520038927312908e-02,-9.242879731488811215e-03,-7.924351779102696905e-03,-7.567306585593027400e-03,-1.544204713375902163e-02,-1.143968572803671577e-02,2.531410888545563079e-02,1.278042795410612095e-02,9.338050253636704170e-03,8.096982427846803956e-03,-4.242612922373068668e-02,2.690236154906036625e-02,2.672602471747915522e-03,-5.793940173031798986e-03,-2.835512822753622278e-02,-1.330302927972052719e-03,1.450192928453811897e-02,3.675383194305589102e-02,8.938367685643454352e-03,7.448256485454848516e-03,3.364647568479970687e-03,-3.764040208621899884e-03,-1.009547820148895374e-02
2.941022424112335956e-02,-8.179710985441356746e-03,-1.653794653811802972e-03,-7.445157218729400034e-03,-3.376040174630413893e-02,-1.973918540058294466e-02,1.183550741947840199e-02,-2.136117320187593330e-02,-8.686221731387963260e-03,2.084109357366338219e-02,-8.630323526030789227e-02,-9.921181659873580527e-03,-3.672213798319159256e-02,3.095761044268408035e-02,-2.465769780052302906e-02,-1.970042583278937970e-02,-3.705855684437086434e-02,1.571496140580414327e-02,2.200419052921971652e-02,7.225443169536943308e-03,2.128541600881381224e-02,-5.879865382910555438e-03,3.241971016738062067e-02,-5.137414425797006898e-03,2.254271600821857249e-02,1.712682289214415704e-02,5.647739359295048285e-03,1.284482965753191985e-02,-9.833457108693460791e-03,2.002442059894456259e-03,3.706472131728517222e-02,1.059003470295181125e-02,-3.931936906966626392e-03,-2.106529669343193932e-03,5.967123312657861799e-03,2.706692417501584472e-02,-1.119197287275186525e-02,-7.053535745443691163e-02,4.788975560111732171e-03,5.126518978342957042e-03,8.954421973098512094e-03,-1.460872468652710081e-02,-1.683712657630476520e-03,-6.190301987711897130e-03,-9.254009187802869282e-03,-1.498683414102039424e-02,-7.540116647259152011e-03,5.310152161583008533e-03,1.289770069529326720e-03,-1.765368806739005605e-02,2.372070415848305178e-02,3.554928832869222108e-03,-3.167486579830238597e-02,-4.761359813751553371e-02,-5.428047082408626878e-03,1.145932289660805091e-02,3.971383297971044744e-03,-4.911824905576767618e-03,-1.444597831869105266e-02,4.080134774328966416e-04,-1.564751438878943246e-02,-2.512194262488581038e-04,-4.569274050731644138e-02,-2.433692565764453142e-02,9.137264008772414195e-03,-3.712705474761945901e-02,-2.237645639311661248e-03,7.492000291163219798e-03,-1.825977403857333495e-02,-4.466863012218289658e-02,2.960991574838756513e-03,9.953568225870320155e-03,-1.366266229598023414e-03,-3.851145511573550711e-03,1.783363315691421924e-02,-2.888895114666429481e-02,-6.064433107379875107e-03,9.515504162926766846e-03,3.164546145764640227e-03,-1.694611700807066622e-03,-9.659251052245835037e-03,7.693023377771456700e-03,-7.091239054679038256e-03,-1.429525005602446308e-04,-2.330543233304927311e-02,-3.861487902032504499e-03,2.374473507298531516e-03,-3.086827114190528014e-03,-5.082986331892416602e-03,1.143582242828385109e-02,-6.881400226604421615e-04,-1.704953481683813693e-02,1.194243208377712695e-02,-7.087093469388650382e-03,-1.109320316428268581e-02,-7.154202354448371826e-03,2.102545726688485536e-02,-1.097608031915009441e-02,7.567651795429691623e-03,-7.745224186255549037e-02,-1.323520133633818326e-02,-1.570569605659268009e-02,2.339037318561781181e-02,2.377904579307730387e-03,-4.176892290951643438e-02,-2.337583745209100006e-02,-1.011718727043892617e-02,8.293142145643788571e-03,-4.172293188412218995e-02,-7.354442563926193166e-02,-9.273754154929736079e-03,-1.245150244250737767e-02,7.206957502233489118e-03,-4.296528591540531294e-02,6.136516452539265976e-02,-9.109403106461015642e-03,9.188115885536137645e-03,3.122635060226274656e-02,-7.597066389907174014e-04,1.687805275697536536e-03,5.603333040833390760e-03,-1.144132311611363584e-02,-1.266775039284200564e-02,-3.201479562387451842e-03,-1.662840676773158152e-02,5.347045587560330174e-03,1.103532915199972398e-03,-2.519840421334994598e-02,7.912064851673740115e-03,-4.822794777416753408e-03,-4.545396264446117073e-03,-1.386507643835048834e-02,-7.136911601026189010e-03,2.157291970590433094e-02,-2.459453248686436708e-02,3.684630523144055009e-02,-5.590375635731100433e-03,1.984110764058627865e-02,7.640063500517844074e-03,-3.201105160748410339e-03,-3.360725291223318895e-02,-2.209672895588468168e-03,-3.947227314826150593e-03,3.820931438209426712e-03,-5.418645288011107730e-03,-5.283609702738503722e-02,6.629849088832635851e-03,3.897761331974382293e-02,-1.671115167514775253e-04,2.707222856134857900e-03,4.246331865205779307e-03,-1.757970989944042731e-02,3.274363922930028509e-02,-1.504792354236053793e-02,3.655900269946765584e-03,-1.898281293658903024e-02,-5.451700698628771449e-03,2.673226627718088347e-03,-7.611176058042831325e-05,-2.580304667408361494e-03,5.462276496088051998e-03,-2.657373274034067773e-03,6.199577093648889203e-02,1.083587893664613583e-02,2.188683814781117870e-02,-1.252768388089736673e-02,-1.604742567950968868e-02,-5.683900714148434376e-04,2.907832623756140267e-02,9.368337354928453833e-03,5.175315431398220742e-03,-2.047162860780739162e-03,1.363002561819779031e-02,-1.214668979780843955e-02,-9.204712569259146425e-04,1.378581810750222243e-02,-1.185827030464957875e-02,3.526246043439357821e-03,4.867883747243305359e-03,1.025930437522248190e-02,-8.256671718076808233e-03,-4.039658463468798720e-03,-2.904109814692763109e-02,1.318201715707720051e-03,-2.593026810396364609e-02,-1.303677873242297313e-03,1.912691528735262604e-03,-7.667432136314359173e-03,-4.890496674142704586e-02,5.242588314187830549e-03,-6.272607570388972521e-03,1.564742360885463049e-02,5.142516288628272425e-02,1.880368626908103524e-02,-2.917638598901706529e-02,4.621823765984788696e-02,6.120142760397451025e-03,-1.320712921465650412e-02,-2.460085074065846648e-03,2.945189705907238879e-03,-3.674497234578721905e-02,8.992665315993885952e-03,-8.524738188296303700e-04,6.902630927663461549e-03,-4.726796723745019940e-02,3.833191363707710766e-03,-1.049001894516156039e-02,-1.520015104386439331e-02,-2.016896840401326285e-04,-1.273657037229365685e-02,-5.685163842443463969e-03,-7.503750173925061856e-03,-3.558257361182563024e-03,-7.653524267447647800e-02,4.035797938596371454e-03,3.612371788648820192e-02,2.832200878199486391e-02,-2.833432774267059112e-02,2.984197143367389032e-02,3.814911808421280609e-02,1.677822824686084000e-02,-7.998018145162169579e-03,4.732764967649498271e-03,4.014690153744823742e-02,-1.648137654262919055e-02,-3.557140077436454361e-04,-6.580715151290965001e-03,1.481235467508047222e-02,-1.052535737063171190e-02,-3.085360026523951971e-02,1.355704796359896887e-02,-3.865207185407342535e-03,7.574908700482435066e-03,3.411005651626206926e-03,2.809788012090078634e-03,-1.765405982547394934e-02,-3.977794332919653425e-03,-5.969321925502024499e-03,2.482961203832262376e-03,-8.814763502380940216e-04,-4.032302978823293881e-03,-2.161224460161753277e-02,-5.434079740709631297e-03,-6.443012528529766525e-02,-1.437739094518552217e-03,-2.083501771615822729e-02,3.456841888930602298e-04,-1.099466082747936439e-02,1.104324984375913872e-02,3.394050814162539488e-03,4.619237142950883765e-03,7.105907600329286478e-02,4.870744478471350850e-03,1.792141540082580267e-02,-5.354548807819761377e-03,-1.691119442267437125e-03,3.321489988298709228e-02,4.477661359300263988e-02,-3.034291688471223332e-03,-8.341837098231349654e-03,-4.565348395242323351e-04,-5.039462102096623018e-04,-6.807979829004827052e-03,-5.406094125370369645e-03,2.770443139200616869e-02,3.492691692713205832e-03,3.976307891653062254e-03,-8.846894594781906998e-03,-3.873092018528438187e-03,1.443765935114451823e-02,2.324819910693418437e-02,-4.612429603348520805e-03,-5.008864878177695518e-02,1.460498552744011157e-02,-3.331925423694668230e-03,1.135314245880245619e-02,2.657724579744376401e-03,1.096933599122279675e-02,-2.290909270769149117e-03,-2.989755315562713303e-03,2.246795648240894772e-03,4.238912207534788028e-03,-4.982440472720626838e-03,-2.201186108653773940e-02,2.458317421169649297e-02,6.737169679843519471e-04,2.869423988839412114e-03,3.066649142005233031e-02,2.776023829842722696e-02,-4.185824785994650410e-02,-7.464073670299592629e-03,1.665975291713947364e-03,-1.427406712005413816e-03,-4.885384461915914800e-03,-7.763743479571298678e-02,7.177500375597936286e-03,1.837872411697889785e-02,-9.542453414312410120e-03,2.461756887242616890e-03,-4.201656038307195751e-03
-6.750415828986078282e-02,1.732040363899113936e-02,-2.186690351950119470e-03,-2.868439582874671850e-02,-6.243761789971938574e-05,-2.194105545230228688e-02,-6.396201807212808545e-03,1.094667718950459619e-02,1.474985953412696069e-03,-1.758139599933779967e-02,-3.089264706569516336e-02,3.879694040105272079e-02,1.948155883841538394e-03,-7.803535211267820411e-03,-4.655242984016753210e-02,1.856004272209690192e-03,-2.494194194206470275e-02,-2.295317772400818496e-02,-4.808010621588466177e-03,1.306852654643272807e-03,-5.629806080256824496e-02,5.810773243554619161e-03,-3.330007049170137512e-02,-4.145266328468524830e-02,-5.308395895367619931e-03,-1.100977800539979087e-03,4.076177572366705519e-03,-3.198439633374988711e-02,-7.564349621640850500e-03,-3.073078711583882017e-02,1.872602368548250198e-03,-1.070884553079584807e-02,9.414597400192594584e-03,-1.360114230754094246e-02,-1.577661288229022934e-02,-6.989288321903695811e-02,1.535049695413067891e-02,-2.251994864982647879e-02,-4.286672217277952301e-05,-2.506084195147872257e-02,-3.537605475042698844e-03,2.911244515702795729e-02,-2.579171382251083978e-03,-9.945762136021642219e-03,2.384116042439121327e-02,1.800087333841188329e-03,6.756616955850177665e-03,-4.591637402876535060e-03,-4.813407813672713857e-03,-3.881450004166132894e-02,1.859753058354337218e-03,-3.212733989632042281e-03,-3.065430895434161085e-02,5.697807527872385605e-03,-6.122520596366871903e-03,-6.881053600481660745e-03,1.911051353646486210e-03,4.136896363562078682e-02,3.511738227061553252e-02,-1.389038109171741690e-02,-5.818197093175251147e-03,-1.299810024238434898e-02,-3.745257559977828443e-02,-3.066177126820109761e-02,-6.456800921750966739e-03,4.307376506981394626e-02,3.063836856325134837e-03,6.170147245250974001e-03,1.672166155457478418e-02,1.469478834624688389e-02,-3.456759041354093981e-02,-2.296423047827385842e-03,1.636319077309876871e-02,-2.319487545667007090e-03,-2.083742130323959149e-02,1.164578719302105693e-02,1.419549489666662931e-02,-3.980331521184577413e-03,-6.702864324954728274e-03,-2.298631926913719372e-04,6.432741697676178181e-04,1.319217309870168026e-02,-1.361608526206822822e-02,5.394565511426873544e-03,-3.460808523137739318e-02,1.387093813855462023e-02,-9.146018254776414058e-03,8.228630072293678654e-03,7.055050838842014289e-03,-7.736541870167751300e-02,2.449384426179236629e-03,-4.431752115789713842e-02,-2.904195772235716386e-02,5.876584274126706378e-03,-1.233353071385159122e-02,-5.739192044031337335e-04,-1.242120021710320030e-02,-6.244718856631452202e-03,2.111198696481630943e-02,3.237414966089734863e-02,3.287881547624423115e-03,-1.721384280117367258e-02,-3.240012522674947174e-03,-2.962938641333496322e-03,2.438369926037687804e-02,-3.075666019817107147e-02,-1.514032769554346861e-02,1.833877865019108155e-02,2.089635063971665568e-02,-2.169877789937329701e-02,-7.133115387877217092e-03,-5.827134320670999609e-03,3.195948572931631929e-04,-2.181639248240622997e-02,-4.231386653720933810e-02,-1.037598793421874721e-02,-8.286720125010084773e-03,2.542977453911084585e-03,-5.859733399194695311e-03,-1.376529795988421477e-02,1.514880929031533693e-03,-7.152491131665106305e-03,-1.860516425324416218e-02,-5.084930306497066101e-03,4.793760969666811464e-03,1.053233675515267628e-03,-7.998624348273189119e-03,4.520075907241365284e-04,3.892597557309549882e-03,-2.017589365129916767e-02,8.063743740048055775e-03,-1.281182945685682001e-02,7.002644073427542401e-03,1.671009987781811937e-02,-8.542768320989196917e-02,-1.696560803559777481e-02,-1.086190061640923167e-02,3.784596388739248137e-03,-7.029861265290308046e-03,-8.658966618299346329e-03,1.765688013248787810e-02,-4.232491237247182521e-03,-7.480727798827154114e-03,-1.251053998915611573e-02,2.641440577096152657e-03,-1.493338948999004250e-03,9.207466435434350706e-06,-5.084688379154569254e-02,4.916050675497012426e-03,-2.539529521001435575e-03,5.754022070652035567e-03,-7.337827143010722947e-03,-2.381153713482083226e-02,1.761350158763101258e-03,1.314701333326448191e-03,-2.851133028000045044e-03,7.545369237693922392e-03,-9.485542752456119567e-03,6.149096752138241175e-03,1.104142323823795700e-03,-1.977269329423854329e-03,-2.158776900884006381e-02,-4.494408037106438492e-02,-1.104576256339925107e-03,-2.384065997857690022e-02,-1.153312286559524807e-02,2.663726489571953751e-02,8.069252886795760804e-03,-1.153531632211478655e-02,-6.971619997145528554e-03,4.872727227002995702e-03,4.912535988758050254e-03,2.762666540827839971e-03,4.079989582270305767e-03,-5.022933492982184847e-03,1.038321566049958851e-02,2.893675377767233881e-02,5.179862183620054412e-03,1.225301117871912746e-02,-7.083955850487576311e-02,-6.709095278071648162e-03,1.182578913873961156e-02,2.924838597515058182e-03,-6.758121778243000172e-03,2.248073972319632532e-02,3.336419165436602108e-02,5.068177791649391972e-03,-9.397296164143028457e-03,-4.612571742533083663e-02,-1.623091345796347836e-03,9.458029329645019356e-03,1.301270948228546928e-02,-5.926392296586746600e-02,1.564860415629798496e-02,-4.691840284061468865e-03,-1.875643437390680721e-02,-3.062650580525762972e-03,-2.064331540080628288e-02,-8.007266689218158970e-03,7.768089246137745325e-03,4.942712404556630357e-02,-1.399849582058707194e-02,1.002507205631636422e-02,1.020081581972180976e-02,2.311240632460540012e-02,4.324493769309946910e-03,-7.673090347084243756e-03,1.365220449445245059e-02,2.054169690324749234e-02,6.064963653276296378e-03,-2.056292897665136857e-02,-1.741504033510762189e-02,2.316260037799244744e-03,3.805538996808492756e-03,6.744593598138844126e-03,-2.687660166690794897e-02,-2.811390486723010229e-02,7.207001599608887921e-03,-3.419622436344525729e-02,-3.062959063470056462e-02,-9.530891512405606112e-04,-1.044940089923837101e-03,3.404042625116016161e-03,-7.870098941072765572e-03,-4.336566617602610058e-02,-8.495046034861390705e-03,-9.252019417403023818e-03,-1.570150894707501854e-02,-4.471079841706917905e-03,-2.338921465757635900e-03,-1.954991324471489714e-03,2.190348296789829301e-05,-3.949600277974450041e-02,9.989507773990938949e-03,-3.992163799211937043e-03,-3.124911956144519470e-02,3.545077788837842914e-03,-2.660115765827001169e-02,3.637800702691183514e-03,-9.720091326216324934e-03,-9.621557943149277627e-04,-2.311210275734222955e-02,-7.373331346897722682e-03,-7.242824770425778866e-03,4.383112604172029018e-03,-7.266612984065170915e-03,7.364474573599579486e-03,1.485877894950277459e-02,-7.262825466950768513e-03,5.176111199124999208e-03,-6.280094404215801410e-03,-1.570058027731043720e-02,-6.887008726226687312e-03,-1.845917045630564995e-02,-1.017690751968799122e-02,1.234574294313617315e-03,-2.583734013659505675e-03,3.991930449509505444e-03,-1.091531261596081874e-02,-4.423506085416927663e-03,4.957629488564501861e-04,-7.321309154511750072e-02,-1.558357072609389479e-02,-7.659638194920936893e-03,-1.639172787768238687e-02,1.147306203179082780e-02,5.231016831777250166e-03,-8.656062305576237015e-03,2.922141941425372008e-02,-2.002031736414833576e-02,5.886573705770332260e-02,-5.911054394076093593e-03,-3.633572869873182704e-02,8.942703345424169933e-03,5.972989364752238559e-03,-3.231315556757984042e-02,3.331175035656269625e-03,1.779995443053767820e-02,-7.636665075711905441e-03,-2.630815369667625914e-02,-2.167960558803490485e-03,-3.764796963469224655e-02,-1.248185411659365196e-02,-8.496746450581158872e-04,4.083484334611846983e-04,1.958263264045562776e-03,1.090251190440565858e-03,-2.623864483376879900e-02,-6.275425677627265164e-02,2.544989754936731290e-03,-5.304849343009401634e-03,-4.092646188024003095e-02,3.356613216309752706e-03,-1.735552874286592356e-02,-1.200196897935667389e-02,1.352529984228106018e-02,1.158115817716336843e-02,-2.178021714701126443e-03,-1.098672326016938679e-03,6.635007852375866995e-03
-6.563334451255598001e-02,3.118633556844040491e-02,3.232635635837510096e-02,-1.749050599411024545e-02,-1.540971378387294248e-02,-3.260177829565100854e-02,1.233428608076657558e-03,1.186449696906153803e-02,-9.620264083565206736e-03,3.360197920225032556e-03,1.615289599264690262e-02,9.410304770935669014e-03,2.009834689004336497e-02,3.447731371598717481e-02,-3.864178454104983448e-03,-1.395712443363308734e-02,3.032435123303970151e-02,7.863422051506193527e-03,-2.096451666609545211e-02,-4.773719301733128986e-03,1.526565293137387321e-02,-5.789896319763214276e-03,-5.669087015234128973e-02,3.376936584874909442e-02,-2.027997263555927215e-03,-2.775216016591516843e-02,-6.177006687376302384e-05,3.419716224031735252e-02,-1.597286943605004741e-02,1.528640995683162168e-02,1.270222084717570086e-03,-3.421747028299966693e-03,3.866240058516604711e-03,-1.902003181233916790e-02,-1.311983260861456294e-02,-1.131919682671672645e-02,-2.718293275216627364e-03,-9.800854385499612603e-03,1.094763619376922306e-02,3.206164869635658166e-02,-8.383344041095147289e-03,1.677066522826365855e-02,3.257289005114685602e-03,-2.333238497700648728e-02,-6.657666205154942098e-03,-2.783337967639811991e-02,-1.025714689690288006e-02,-1.829159932603790020e-02,5.375835260383949460e-03,8.024513850543028848e-03,-6.191683855529574176e-02,-7.551410327919490760e-03,9.530873456533138152e-03,-1.066144351443996247e-02,-8.881984627256044517e-04,3.028651438969665044e-02,2.864788815973903519e-03,7.626905126156580637e-03,-1.418513070756816270e-02,-7.491312728916883421e-03,-9.476450854546904570e-03,3.540205041441368827e-03,2.564147560155974337e-02,1.485211910364794309e-02,-7.402365132600762995e-03,-1.435836597053780778e-02,1.307026364783113806e-02,-4.711419206805849032e-03,1.569971842178107717e-03,5.118674046022688405e-03,2.688017576656171956e-02,2.230820724971155269e-03,8.884194237448010678e-03,-9.143119594002605682e-03,-5.902150816280953005e-02,-2.159055598323888353e-02,-3.230934762204185767e-02,5.144482891323044586e-03,-2.025824919984427035e-03,3.175708200047398528e-03,-1.755135824945764159e-03,-9.179475387087669518e-04,-3.283382100970377859e-02,-1.590081997330176217e-02,-1.215786987896342805e-02,3.455250291981468505e-03,2.859982326344566884e-03,-1.870858542993173845e-03,2.292642606495850187e-03,2.225433144718400730e-02,9.320848972545398015e-03,1.394312739821896782e-02,1.835293208973946474e-02,-1.124476871703788614e-02,2.557696490434914829e-02,-3.682493876601475986e-04,-8.347376647422750928e-03,-1.049175987736860639e-02,-2.993215462631032206e-02,6.144601199506913997e-02,-8.712130560947812727e-03,3.762709930361441552e-02,-9.673248969264754138e-03,3.185854519238386345e-03,2.958529567870845506e-02,2.836903272674519069e-02,-1.696367748005678071e-03,8.706837311831826026e-04,-5.857118214403174601e-03,-5.115862857102143613e-02,-1.143135677667521388e-02,1.652259484185322411e-02,4.815621792709559850e-04,-1.023679530075314453e-02,2.384539130737983736e-02,-2.467065183943963069e-02,-1.198713535898679287e-02,-1.312424039371160901e-02,4.843211667715452418e-03,8.540690816140025440e-03,9.207263071800505030e-03,-4.569785246148476421e-03,-1.833259219949774643e-02,2.113783682284595730e-03,6.477000680490969248e-03,-9.133507265865514410e-03,-3.888117306828108022e-03,-2.008478884221844007e-02,-1.105905779938641011e-02,-1.401926708196726476e-02,-1.030429107389562934e-02,2.666758549573316085e-03,-2.107796301599902666e-02,-4.740751211815517896e-02,-5.359692072427527099e-02,-1.779906438119014528e-02,7.542388441610591542e-03,-2.848147527213916713e-03,1.197547656446877086e-02,1.110192506872889363e-04,-2.831098702316591290e-02,4.187947931422677725e-03,8.348851236888022234e-03,2.106632784785594445e-02,-2.230136117275570082e-02,2.732437575601202873e-02,7.317294031400817939e-03,5.264184906820831952e-05,-2.638277231012296168e-03,-1.653345109963429496e-02,3.551016478892570286e-03,-1.629351877778861812e-02,1.563814850778590809e-02,8.570537136971617675e-03,1.867814719410618727e-03,-4.113336060699264440e-02,5.696120291297073097e-03,-1.522361128066314524e-02,3.301710971616302406e-03,1.554092169792997778e-03,9.672695866481114541e-03,2.849904388563931790e-03,-2.182846778692911632e-02,-3.865479777435753411e-02,-2.373319820457247750e-02,2.523235537776410617e-02,1.507388552484691807e-02,8.269358083228539602e-03,-4.200595022712045462e-02,-2.516063335489684971e-02,-1.130057833735858761e-02,2.662627985472081071e-02,-1.341585550489091333e-03,1.003151666162008931e-02,-1.329920440466711125e-04,2.531298298092314603e-02,1.620932915559409812e-03,3.471387774496298515e-03,-4.324108877315088750e-03,-1.198716699145482324e-02,4.990031660502270740e-03,-4.527199442930770167e-03,-4.054299398361015105e-02,6.641607903292978503e-03,-3.997331030135541086e-02,-9.520280582230191899e-03,-3.246272793371918642e-03,-7.231801813321071457e-03,9.738605229522450529e-03,-9.543498509250498843e-04,-4.627950976634757907e-03,-1.004204432746577322e-02,-2.309476396870945372e-02,-1.349932107434258059e-02,-5.199785648332946181e-02,2.068785081474510193e-02,6.037263627368575671e-03,-9.552552085836767126e-03,-1.224178312919857806e-03,-5.379094013952538840e-04,-3.309667619368399094e-02,2.177972241455232785e-02,1.539679947727580316e-02,1.906086410163084248e-03,-2.791509133799922882e-02,1.458754715476588346e-02,-2.337857353361125559e-03,-4.068124262066459551e-02,1.764276819651791920e-03,5.929631500832272667e-03,-4.670927317731347200e-02,1.981907063485404200e-02,3.168096572097234731e-04,-3.095311728916031943e-02,9.149448780126645270e-04,-6.904159800068225550e-02,9.645361813364746947e-04,-1.498214760049644198e-02,-2.508859165519643566e-02,1.175522757282689360e-02,-1.235977621841932196e-02,-1.012219946025069532e-02,-1.672071716880967366e-03,-1.237927971752973873e-02,4.124299958024213453e-02,-9.543290468515120209e-03,-3.525089726371743049e-03,1.907499463261674464e-03,3.035653053799847526e-02,1.556011559130351116e-03,-1.063851051965764537e-02,-2.758347549328359679e-03,-6.604323416530557059e-03,-6.827370989104614325e-03,-3.459382881353098571e-02,4.701578723985833097e-02,-9.187584189077984548e-03,2.288280213886427841e-02,9.756827783713402369e-03,-8.072346487372055249e-03,5.553844147446440963e-03,-9.271215873010793182e-03,-4.145705565230994351e-03,-2.614688061954456230e-02,7.196531028363153774e-03,-1.656981468760367754e-02,3.083383775722311451e-04,1.172769052027141344e-02,-3.457803547436682362e-02,7.219919312891319614e-03,1.226020414689066827e-02,4.650154680105104271e-03,-5.772451362156020508e-04,8.683724632440390293e-03,-1.157682607347005526e-03,2.615486388344627489e-03,-1.465923788510348560e-02,-9.987692944530932038e-03,2.747924846389964088e-04,-1.061450918728997807e-02,-6.274999708677823744e-03,6.549141640941124470e-03,-1.181844070286715287e-02,-2.832784217527681715e-03,2.519657029366337633e-02,8.124322876233834199e-04,1.048267873176130655e-03,-1.113352402265625762e-02,-1.724163389390035578e-02,-2.893262273210107927e-02,2.102226662287839595e-02,-6.598707038578321624e-03,-7.421648840912291323e-02,1.521811603087155559e-02,-1.234977057322300849e-02,2.391514957005946504e-02,1.570793531173629619e-03,-1.295909914525132309e-02,-8.118862134029517647e-03,5.019606181587558599e-03,-4.328247801167199767e-03,-7.364713726924232429e-02,-1.516223803293906790e-02,-3.048427250175668804e-02,5.908648657597939495e-03,2.698154449862260208e-03,-2.845909588871211107e-04,-1.199143426544594737e-03,-4.298271149911973149e-02,2.080457550294472283e-02,-8.696908547625378794e-03,-2.665889138628832825e-02,-7.365257795974123689e-04,-8.530355630306704282e-03,1.521813287275460046e-03,-2.274142097502260262e-02,-1.536038237907656756e-02,-9.429084263831389798e-03,2.775298156197021290e-03,-5.347146343284868084e-03
