-3.773764545687794195e-03,6.632778204333471782e-03,-3.982610196336824546e-03,2.291496810350772233e-03,-1.858951122065197539e-03,1.504603822752617094e-03,-1.566199708780441997e-03,1.137831065848854265e-04,2.215755941331927145e-03,-5.593737316991354708e-04,8.130219259560886400e-04,1.080061871924431960e-03,4.348297984178943303e-03,-1.691849171991631050e-03,-1.048349027346713288e-03,8.181360995185297169e-04,2.462400593299775634e-03,1.927410306467445232e-03,3.887271694054859460e-03,1.049296211709498366e-03,-3.411855291052435396e-04,3.757746294174656816e-04,4.113017767522825739e-03,4.651595713333629267e-04,1.553488847748103925e-03,-1.879905501530392811e-03,2.977598453941252780e-03,-3.766769370010595187e-03,-8.778902581032414776e-03,5.649905637868941032e-03,2.024418969168578341e-03,-4.824918841981053544e-03,2.109090521958414087e-03,3.252220670889871545e-03,-4.665880916270286928e-03,-2.948750503310850445e-03,1.141416838586970179e-03,1.930601516130504543e-03,-3.096067772376749887e-03,-1.546911833092120018e-03,5.725664686693538477e-05,-4.821021750602659875e-03,-1.120284790817368007e-03,9.153493032985363315e-04,1.496581646440811879e-04,3.761872374394307421e-04,6.647918345413953247e-05,1.253633922436974118e-03,1.137688316761675637e-02,5.241938124111055440e-03,8.311071613591825089e-04,-1.271380166802550627e-03,3.735129228762708222e-03,-2.310036760391513764e-03,5.368469813606805471e-04,1.430053645069969152e-03,7.458146327649655587e-04,1.904718797774742223e-03,7.667906040727263516e-04,-2.266401791770492405e-03,2.111341595499949784e-03,1.401682706712043284e-03,-1.411704099377809104e-03,4.149392076934361453e-04,-6.584949982293716137e-05,-4.623150943284654729e-03,-2.928353856896195352e-03,7.414027017972633048e-03,-2.506828404192992885e-03,-2.125429979477033195e-03,-7.182536398564846327e-05,2.492048078233029176e-03,5.016370109226442157e-03,-3.644059557805960983e-03,-5.420082097328879226e-04,1.484751207019086852e-03,-4.761458188805078873e-03,2.767148279199499548e-03,8.349800508308366422e-04,2.910971956919726445e-04,-1.220349320850151048e-03,-4.693051277662145179e-03,4.653537242352334181e-04,-9.617572895927709205e-04,4.269436770769007364e-03,-3.937573549347537713e-03,4.148695172241671433e-03,3.255233351243642416e-03,-5.606129272085956473e-04,3.278423961075922332e-03,-3.870622202021629238e-03,1.259433378189735945e-03,-2.364588347743100307e-03,-9.965109283744085292e-04,6.514216571898124968e-03,-1.316375800739633724e-03,4.807307377980738969e-05,-3.303229680893372041e-03,-1.215569778964257141e-03,-3.595829214756228031e-03,3.490640334128000156e-03,-1.876881361929683655e-03,2.532415643615891152e-03,1.907088222618853182e-03,-1.938594318352093032e-03,8.141548830206129942e-04,5.168225232346352477e-03,2.507079782274781034e-04,-1.309004375786252923e-03,-1.811839618312158185e-03,-4.341824792916944655e-05,-3.054846227588871310e-03,3.735463963159230388e-03,-3.403284851880559927e-03,-4.006091753527872730e-03,6.969579675457392327e-03,7.209964802814237961e-05,-1.864519768024903252e-03,2.696598915911938010e-03,-3.829464309712343425e-04,2.021141433010256293e-03,4.532085469174244527e-03,-4.995381255950790420e-04,3.549514214606201441e-03,7.142824778891661763e-04,3.550447621136621065e-04,-5.888494095569788388e-03,5.113461595048403481e-03,1.823776528474581413e-03,1.837679400971215697e-03,1.772060239052327194e-03,-3.556165712552871328e-03,4.625608238530601324e-03,-1.176215453668212792e-03,-2.381870994253625952e-03,2.915006073902680784e-03,-2.939478881397351948e-03,2.413158708833646176e-03,4.416678758730893488e-03,-4.161926694569969068e-03,-4.779454890834327133e-03,3.598486789096198239e-03,-4.942434067718556347e-03,1.926177245714935649e-03,-2.587895954025512448e-03,5.477122779698430019e-03,2.950132684073117437e-03,-3.202462435252411473e-03,6.211179444164825140e-05,6.602239083340715169e-04,-3.016775685517184870e-03,1.767934810460076089e-03,-3.076882996996473628e-03,6.170284586435846336e-04,3.880315852347140850e-03,4.039068385027099113e-04,-2.072595239640095521e-03,5.182858446452295528e-03,-1.209110622922833327e-03,3.060705373309002136e-03,-5.224469324093084649e-03,-4.688508281756812411e-03,1.587202706199777489e-03,-1.069506849330977309e-03,-3.025231934072312740e-04,-5.250090971554654770e-05,-9.893257333683327416e-04,2.454262141896007554e-03,-1.325192477232850670e-03,5.570106354578604341e-03,2.057958046352771262e-04,2.650313664868258600e-03,1.321394033266776961e-03,-8.674433498654825821e-04,2.948664049911036604e-04,2.388703757146311139e-04,-5.569344706660394641e-03,2.023911367791162742e-03,1.117207318882437002e-03,9.242452896419579150e-03,-8.893500624147192410e-04,1.681469643428844165e-03,-1.987146219770225420e-03,1.881444453454704957e-04,4.574923734713820002e-03,-1.412891546670046357e-03,1.155970679947728201e-03,-3.308698436082358266e-03,-1.530262020674365330e-03,-3.878703893230514566e-03,8.949705652559709684e-04,-6.722558723832301828e-04,3.329466626248307661e-03,-4.983359366360725316e-03,-6.016488436633768595e-03,-1.308389220060786730e-03,3.961553934499987412e-03,-2.089038816810465278e-03,-7.989970557093030445e-03,2.628741871900988451e-03,1.892984969464109150e-03,9.903473729553416687e-04,-3.517265853710494546e-03,-1.197135099751168909e-03,3.739421548126385143e-03,3.476374662738102635e-03,-5.414271950407264188e-03,-4.274354820741418579e-03,-6.003942524408637134e-03,-2.121457435093778484e-03,-3.746259667608466820e-04,2.032256944536895392e-03,1.271657361201779029e-03,1.691871078974642320e-03,1.993379356997906048e-03,-1.061413609605187710e-03,-2.597349748497035284e-03,1.999278572121562531e-03,2.484235484408790860e-03,1.267523879518691167e-03,-2.962041001069724930e-03,2.108963261587556461e-03,-2.278935999112871591e-03,-1.841888907020018630e-03,-3.599284022021255382e-03,-2.149639499479102239e-03,2.609024852392022135e-03,-2.351323924385250743e-04,-3.670632221311903760e-03,1.299444313440558524e-03,-2.395347957999976584e-03,5.520063671955820596e-04,6.405396028734774592e-04,8.100405927264444673e-04,5.597290804028277542e-03,-1.766398209638175170e-04,-1.762057107003478593e-03,-5.707823870800700534e-03,8.196584902273693074e-03,-2.507620646338264928e-03,-1.822110489639950813e-03,-1.431446462094095907e-03,-6.671076493884271763e-03,-2.797665930539187766e-03,-9.380675244923965652e-04,-1.945657165403070089e-03,1.121942391732420061e-03,7.088351152010632927e-03,-5.172565612735745451e-03,5.236945429964132669e-03,4.855322370366492273e-03,1.470170314392124124e-03,-1.375931886059908547e-03,6.541858211435512115e-04,1.410829126737638993e-03,-3.245517861292523260e-03,2.732372066691134659e-03,4.962836551542881662e-04,-4.304545993713660736e-03,7.799345773438663221e-04,-2.868818222510721629e-03,-6.812170275070503038e-03,4.548252970911465616e-04,-6.603289993850130699e-04,-5.094806619478577277e-03,-4.491990435495945254e-03,1.564761201330821605e-03,-1.110815383690806363e-03,-1.159212200565514677e-03,3.191432675849933866e-03,1.644263568089858333e-03,-3.541801910037698214e-04,-2.624424789023797455e-03,-2.370451585446514654e-04,-1.520434783464370398e-03,-2.724258358287569987e-03,8.825424852342340920e-03,-9.074018179506021693e-04,6.156352646096335856e-05,-7.608439478852400267e-03,-2.243994881944784588e-03,-1.549445500102486105e-03,-4.368476013775241949e-04,-9.842546259962935921e-05,2.873685512094505210e-03,4.525779207196260756e-03,2.934106721922960775e-03,4.511897982131218322e-03,-3.271267039694178511e-03,1.407593674247332614e-03,-2.792939651573094883e-03,-4.067941411036508914e-03,4.715223841925354244e-03,2.920752887281742854e-03,-3.531468164385988175e-03,-5.543022024183992145e-04,1.336503892816750605e-04,-2.591465414086037422e-04,1.420976808545457593e-03,-2.968059441470179746e-04
4.236178182618008554e-03,4.465099009019863133e-03,1.626412498113951818e-03,1.441168408126563844e-03,2.534315746688480236e-03,3.365836621814896536e-03,-1.486957669543762352e-03,-5.300897215647648771e-03,2.393009952319857282e-03,-4.918340881169143940e-03,1.077760922953932337e-03,7.221074576980340311e-04,-2.317318040720187707e-03,-2.078217728590132062e-03,1.944966305571756496e-03,2.525680180749311551e-03,-8.839519001206906645e-04,-6.242167593201634369e-03,-6.265597181733065582e-03,6.879318189607728541e-03,-3.339568010671798738e-03,5.164895753687417240e-03,5.947657589805185885e-03,1.102399474855436006e-03,-4.901968847849087416e-03,-8.426931935806965474e-04,6.062019755789966290e-03,4.838616801067980623e-03,2.911762675828772316e-03,-1.170324463611086083e-03,5.865996766573134454e-04,-2.211214298121640196e-03,-2.787910139830248723e-03,-3.560023775424893833e-03,4.752595592623010644e-03,-2.884658386921920732e-03,-1.613411700055405497e-03,-4.284893156768049619e-03,2.208954736873288468e-03,3.104020702771918654e-03,1.511730948025065326e-03,2.544599382489322152e-03,2.459781453704358231e-03,-4.203940706379428018e-04,2.020999352957183765e-03,1.170459070463859353e-03,1.551361079962832595e-03,-2.414011986836881070e-03,2.209571119746707359e-03,-1.711838476605358293e-03,-2.008753226877066887e-03,1.578110668261090534e-03,2.501404433537530135e-03,6.141402157723084392e-04,-3.853287592074969943e-06,2.535691621612221405e-03,5.277411550409309140e-04,4.919391170795908187e-03,2.313652797416576590e-03,2.560019089791147357e-03,3.600291802470947586e-03,1.422379001518987067e-03,-2.383671869513462067e-03,2.576422365441050338e-04,-7.665540506405496080e-04,8.542906165548272207e-04,-3.470887655617272468e-03,4.478953368830004660e-03,1.376147572829738378e-03,-4.085427852923536793e-04,-2.056614515616313980e-03,-4.306289123163348047e-03,-3.104844464521317512e-03,2.040412824724217433e-03,-4.017467970753572405e-03,-3.666948926046408128e-03,-3.890719012800532717e-03,-7.331829096371416700e-03,-2.615866756512728007e-03,2.765392935378480164e-03,-4.459917355366322181e-03,5.295032964114279161e-04,-2.045198542511844717e-03,-3.250948564405190585e-03,5.599045188423857657e-03,3.419635755566739245e-03,2.127642666821706694e-03,-4.277234443504160247e-04,1.549800667988364324e-03,-9.512507815493797397e-04,-3.173730768215246231e-03,3.030695593477251201e-03,-3.766458487197327492e-03,1.154429218023243992e-03,6.069804959506189604e-03,2.114705672213943453e-04,1.072862306042986691e-03,-5.144393146488667259e-03,3.464358304009444636e-03,2.671533323799891654e-03,-3.326520379211391799e-03,3.558012771344729128e-03,-2.528140106786158376e-05,-9.467629366267040977e-03,-1.129899285430590586e-03,3.481744899777083728e-03,-2.001785101179716798e-03,3.345720304496982260e-03,-2.731411748728428970e-04,1.817365214158905276e-03,5.638061073107834657e-03,4.398057096171793974e-04,5.178270025206015668e-03,1.227133499846804398e-03,1.011430577979836529e-03,-1.427189512049195511e-03,-5.106331935137600579e-03,1.172472023072214419e-03,-1.869842978231331257e-03,2.963462661042630397e-03,-4.282673646336915274e-03,-1.243576155306983996e-03,3.757529588097540622e-03,3.151345024036182824e-04,3.357268038877152423e-04,5.441725729854037462e-05,-2.580626712195649170e-03,2.330071746067991206e-03,4.551327129446058233e-04,-1.426763321231747095e-03,2.817525549036458961e-04,1.903539077443273464e-03,-3.054699412965150053e-03,1.733552067644357313e-03,1.923636959650083843e-03,-4.781382787710593621e-03,6.683204814964351093e-03,-1.147083546511375564e-03,-5.750132926034878800e-03,-3.559787890705852845e-03,2.850891970384283707e-03,8.660420539824411137e-03,1.059620354723614301e-04,-4.731450774306259627e-03,3.707722493467001303e-03,1.477259248776655281e-04,2.304169723002634333e-03,5.166514061312086573e-04,1.032809111032474431e-03,1.248969558857319147e-04,-2.162715810515133692e-03,-4.593299215793918665e-03,4.353962275159124718e-04,-4.848367008875857642e-03,3.732081027975570151e-03,-1.606917991943563879e-04,-2.761103898963588026e-03,3.245378982084972958e-03,4.829226328963010309e-03,-1.231278351790665321e-03,4.648546087610195936e-03,-3.110878016314928655e-03,-6.920567836106095681e-03,-4.179410861042753096e-04,-1.957977792242076697e-03,1.157364982541239694e-03,2.803020639982957451e-05,-1.972529442149556760e-03,1.333957770671822347e-03,5.797776094612783898e-03,-1.087995065362567593e-03,-7.024041871730011925e-03,6.533515494367385726e-03,4.037641599144203884e-04,3.702285432510173113e-03,1.165653624889281380e-03,-1.053983308448946162e-03,2.426402119835415275e-03,5.547792917111138509e-04,7.622421574297343939e-03,4.178686503997528640e-03,1.914073184245312226e-03,-2.423096148855895075e-03,-3.013067525366917420e-03,1.877847981133688162e-03,5.498663462830372974e-03,-5.855796604488179048e-03,-4.250238135850067239e-03,-3.694744203798097995e-03,-2.119829062646442662e-04,-1.271016636190736189e-03,2.177843654951470281e-03,3.011735733874266671e-03,-1.828341715744548736e-03,3.833046744150056355e-03,5.177828573542329720e-03,8.973180604541002253e-05,-3.097885969273124311e-03,4.594232515070484704e-03,-9.639443845736501591e-04,7.303000060583265431e-03,-2.436265440374159839e-03,-1.024073544760102390e-03,1.013048759664655950e-03,-3.507388161133164709e-03,-4.725264561048043516e-05,9.090204572515742446e-04,-4.097311345895804369e-03,-2.566467539169820129e-03,-2.710122508377657818e-03,2.375824810277744111e-03,-1.483168051349718951e-03,1.697852046583481558e-03,3.331042140962632830e-03,-7.509998534033431559e-03,-8.734796132414033264e-04,-1.105519520351010230e-03,-3.140453737155971166e-05,-6.508260223212213556e-03,1.947446591155419621e-04,2.716959877780874156e-03,6.758462191305568195e-04,-2.363370034335635029e-04,-1.117501352638948769e-03,-5.769598244619974147e-04,3.658460071869753735e-03,7.710593591661268550e-03,-8.687589855690838834e-05,6.065338143896501465e-03,4.380535879102614234e-04,2.912386980699846624e-05,-2.554932803444281476e-04,1.995291720378512650e-03,-2.635898461847147132e-03,1.635429403651999505e-03,-7.239870706082899426e-03,-8.287174854190518247e-04,-4.628465613173065284e-03,1.853909441784383320e-03,2.790484307559273815e-03,2.054728865064807137e-03,1.058627489047244595e-04,-2.858128389819042750e-04,6.356739367382225475e-03,3.505541027647838051e-03,5.678067632814845847e-03,-1.185063577969740732e-03,-4.376575599258576200e-04,7.942439511088493498e-03,-2.053124849501937032e-03,-5.935438273526712910e-03,-1.283871717606099990e-03,-1.599345515930093633e-03,-5.685854345663937312e-03,-4.605584648022945440e-03,1.447443247163056161e-03,6.560929874310748866e-03,-3.822667199219129987e-03,2.834417538030214664e-03,-5.212003925830117641e-04,-2.412460468805939333e-03,-5.089260326415868257e-03,-3.364537704568238297e-03,5.168518708499908899e-04,1.227558269897740509e-04,4.577876709779262962e-03,2.928328672562908585e-03,3.775757362999043396e-03,8.323832803619082930e-04,1.863976107177637686e-03,3.613205034792873419e-03,9.949090854197574062e-04,5.274986994518323334e-03,-4.331312231764769300e-05,5.565206566900657119e-03,-8.877675209848544594e-04,-6.769815633183924770e-04,2.730157857179894322e-03,1.493808541746419758e-03,-3.071394791581394910e-03,-2.464462707871064445e-03,-1.702142827909677684e-03,-2.886058693329838793e-03,-2.125491033831140332e-03,3.146382287460193754e-03,3.472476281109155433e-03,-1.258797038814309273e-03,-1.528947599786115424e-03,-9.051854225934317932e-04,1.127504235512365519e-02,4.088537378081472974e-04,3.793985677532535437e-03,-1.428958488496465638e-03,-1.483001760768425754e-03,-2.689792054580967444e-04,2.676106800947186323e-03,-2.205560002295481152e-03,4.454855934883977277e-03,-4.904750986162118367e-03,-6.444542595544230403e-03
7.700057128458442403e-04,1.439262156594001401e-03,-5.812591306444584750e-03,2.074115976220401085e-04,-4.835002473583450804e-03,-1.801346878548190904e-03,-1.102120396427000654e-03,1.702277131944006806e-03,1.010836017317595257e-03,-1.574809440361972512e-03,-1.850944062035483504e-03,-3.606125232306876816e-03,5.997114105696578663e-04,-2.564778879188153900e-03,3.629746158993238381e-03,5.494829173003628470e-03,-2.416878576124757618e-03,-7.886706556255255454e-04,2.387197443309258416e-03,-4.523852314687848127e-04,4.685891208452580906e-03,-3.106745903266519906e-03,-1.191527668874214647e-03,3.026964238562252028e-03,-4.335237415426001356e-03,-1.935894266825676207e-04,1.157948118760588610e-03,-1.472491953320437816e-03,2.243736447012563764e-03,-6.132317893030371850e-03,-5.348711562605552340e-03,1.062673491342738721e-03,5.742191043576458202e-03,-4.986638668960907336e-03,6.644770454194456714e-04,-4.413293789325284378e-03,4.377796960090431623e-04,3.395124338977339486e-03,2.955554372780774559e-03,-2.483354830179241874e-03,-9.060351081634617160e-04,2.705464227346677814e-03,-2.776466243150939924e-03,-5.350444508637272265e-03,-4.674098964173966156e-03,7.596128587287864341e-04,-6.532910794872934463e-04,-4.853627947622302791e-03,-6.565686284487262788e-04,2.387113077228481591e-03,1.341055658806487947e-03,-4.602865615745448591e-04,-3.151305607762719353e-04,-5.966815004574779237e-04,4.915995605074279136e-04,-4.166229203448265639e-03,1.139037396009391807e-03,-4.041838324381300321e-03,5.326152940020627974e-03,-2.000272349956346875e-03,-7.158334421426778595e-04,2.878556664176125553e-03,-8.660628948919898464e-04,6.915714646042355786e-03,4.481107272193467217e-03,-4.289211053102754963e-04,-2.684392626606351730e-03,3.740480635041516354e-03,-1.392964944987293719e-03,-1.977626935631010292e-04,6.871263543657854696e-03,3.703054068358657171e-03,-2.718022780972992065e-03,4.151341632264351350e-03,7.775980534370784646e-03,-5.241585902964501775e-03,1.188684246955495514e-03,-3.177688369746166971e-03,6.734408496398940937e-03,1.467988906722321940e-03,-2.317125110310794094e-03,-4.889259747970846684e-03,-2.088125240430152921e-03,2.583895544445992745e-03,2.519921302203255963e-03,-3.677725883810407416e-03,5.403468797067022440e-03,-5.264024467485447882e-03,3.260403263307060442e-05,-3.734768259816681046e-03,-2.579213956631928959e-03,-1.541068989205267217e-03,-1.521919135724921152e-03,5.643429529264469644e-04,-1.723933763558399210e-03,1.030967774507103672e-03,-2.451736075331801277e-04,3.014220251709439496e-03,-3.668870826700625781e-03,3.345932260132197713e-03,-2.137316548814939023e-03,2.069200232322907212e-03,3.583927683422418690e-03,9.072648442403686599e-04,-1.567778698229440552e-03,6.810417422639530611e-04,-1.727892732419127270e-04,1.187379589563219333e-03,1.229333126737429730e-04,5.609243458306478356e-04,4.633295251295028137e-03,-5.993085239350937933e-03,-3.617425548283575727e-03,1.959938823162364271e-03,-2.040465784706779143e-03,3.795335795305632273e-04,-3.703185831024151300e-03,-1.874076676387628271e-05,9.266083194968971351e-04,8.318462825637976815e-04,-7.257039976596868329e-03,2.799636198326683079e-04,1.563741783541137574e-03,-5.523555938913958172e-03,1.465672074392220577e-03,-2.017342799561932382e-03,2.286143626140544824e-03,1.356535569929953351e-03,-1.073557700094463028e-03,1.848836907125931631e-03,5.158650017885097784e-03,4.047290988763013568e-03,2.560162118614536537e-03,1.590984556736567586e-03,-6.618669801783530829e-04,-6.038949798085587253e-05,-2.157549028696919332e-03,-2.879933173284982819e-04,-3.125260132639813993e-03,-2.266472966481213481e-03,-5.552549573013483390e-03,-1.457398693884319300e-03,2.378361606283794279e-03,1.040956991921470525e-03,4.371417996115099748e-04,4.606583392613539476e-04,7.313071261250123946e-04,-2.430327731453195243e-03,-5.285988806050509470e-03,-4.019378857625407857e-03,9.104448520716754232e-04,-1.390574995270679563e-03,8.750216550134129120e-03,-3.401630134735874906e-03,-5.865703251816616927e-03,-2.174277999144814261e-03,-3.719643630170496422e-03,-2.889382926519514123e-03,2.999114161496438391e-03,4.233936577223022628e-03,4.122656029722743948e-03,-1.824554196921671610e-03,-7.136242478037535877e-03,-5.111307959554638701e-03,4.490486597780934258e-03,1.124135833436219842e-03,-5.280593854081129697e-03,-1.898569028649386373e-03,3.967596644589528772e-03,1.130539928820426454e-03,-1.215928500676712130e-03,4.596212482702694349e-03,5.784376082437669899e-04,-4.598924211738939318e-04,2.627940653632158431e-03,9.955422883162179035e-03,-1.560011564119913145e-03,-4.122785854725744513e-03,-5.957908823729832215e-03,1.075804118297873642e-04,1.935618291398068062e-03,-9.024781869118800315e-04,4.035902200872806302e-03,-2.250964578991035067e-03,4.221589330326728194e-03,4.369254758383227244e-03,-5.612173114751532743e-03,6.200625101793870182e-04,2.611798232672930212e-03,-2.860031342797037142e-03,-1.146424574842922015e-03,6.072638046611021027e-04,-1.204038637541653253e-04,1.999528892765709432e-03,2.112285851987905343e-03,8.832560664213556269e-04,-9.179985618208000081e-04,3.514604398956098358e-03,2.038821296147072699e-03,-1.240269683699488958e-03,2.718430927848904024e-03,-2.936513847906995888e-03,9.691926521205015467e-05,1.593628267971221096e-03,9.927903096162244909e-04,5.848669716483773269e-03,1.903341917221884833e-03,1.887316269814052604e-03,-4.149542162159537630e-04,-1.152524283847953862e-03,1.888556416567737772e-03,-5.850422681613722583e-04,-7.569141253268752041e-04,-3.460206514486014948e-03,-3.273590840593594564e-03,2.448368411620132322e-03,-1.216150965812043665e-03,4.742127646601588739e-03,-1.874064652035406075e-03,1.222964861962731872e-03,7.953594338653023404e-06,7.103297732107426881e-05,-5.054822844400752926e-03,4.249266533186890279e-03,-1.541559684700542212e-03,1.948748295453586223e-03,3.597359688838923028e-03,-4.072646761117644683e-03,1.954878151157264828e-03,3.422624919298203078e-03,1.689452590117306073e-03,-4.212834449142892194e-04,1.485083965129400333e-03,-4.766211844566925308e-03,4.092239186689658860e-04,2.999914841802752731e-03,-4.762261283111247391e-03,-1.671386390670681101e-03,-7.657716361686490612e-04,-3.681595926740566412e-03,-4.584669920484498937e-03,5.301045997801420370e-03,3.606925001235227173e-03,2.477908927129242756e-03,-8.731477234305583257e-03,-1.368550103971794560e-03,-2.506090609357294972e-03,2.263037143821937456e-04,-3.223362112720913998e-04,1.991602927200927017e-03,-1.466662946932175120e-03,-4.126094721277846766e-03,-1.289131922538830485e-03,5.977533298056856258e-03,5.187701561859790755e-03,-5.852825792051516256e-03,-3.857855067029925867e-05,-1.379277949768148177e-03,1.982606252458374123e-03,-3.999188243605320686e-03,2.949618376527324282e-03,2.365128645596739892e-03,3.659464958088261798e-03,3.738734471313872113e-03,-7.303688698798508879e-04,1.565290566557910393e-03,-2.487050184277889587e-03,-1.085023886266089661e-03,9.821071081898440948e-04,-3.137587241334679512e-03,-2.828818205225041692e-03,2.550199146459579229e-03,9.998061153437024732e-04,-6.537068394616149048e-04,-4.149026282317194031e-03,-8.340753544108522139e-04,6.138740819352403151e-04,-5.512985030126774967e-03,-1.818067331149940619e-03,1.972362715189065595e-03,-6.681353616474682185e-03,8.183234828576748179e-03,3.283675808728997187e-03,9.234982512212695088e-04,-1.815217433115123239e-03,3.981180032625247084e-03,4.177143096710511476e-03,-7.964745843513939107e-04,-3.084947435370323770e-03,3.562283098824837058e-03,-4.177320001975173488e-03,-3.487166046276336806e-03,9.937468204974386505e-04,-2.134525250567705654e-04,-2.946289273400924669e-03,-3.266748416641691941e-03,-5.428470236181196472e-03,9.486985063732729460e-04,1.771269840842303999e-03,-1.214979761808708059e-03
-1.148737805212644977e-03,2.113727887423059331e-04,-2.525303792133288660e-03,-1.100108251678229287e-03,6.015716343887248917e-04,4.427148477445282636e-03,-3.517704604504895763e-03,1.024955639524566904e-03,-2.137874411954084671e-03,1.301196938722139641e-03,3.822350518327068299e-03,1.209407292202314662e-03,1.906079399569163323e-03,4.837084035470483497e-03,9.480651806169035920e-04,-3.649226332601502101e-03,2.727367463915946529e-03,-2.436618166361572291e-03,-6.892360943112953338e-03,1.145194398568731824e-03,-1.885418213904589821e-03,4.382975443459823442e-03,2.095666558689787944e-03,7.769113180947446930e-04,3.437911098516194860e-03,5.046352191306531856e-03,6.892697943155930672e-03,-3.088024080572037301e-03,-1.135162210381172659e-03,-2.246566073565994196e-03,-1.828162632122876108e-03,2.529845238155969088e-03,6.424913906576182158e-03,-3.200511441538037645e-04,-3.240509861283170576e-03,-2.046880223811771253e-03,-4.528828075246920173e-03,-5.372728698157622218e-03,3.997453875772024982e-03,1.915563707181641272e-03,-3.675709707907623999e-04,-3.816430264289052011e-03,5.793018784345480314e-04,-2.690905570311596506e-03,-6.171591394855648538e-04,3.141949089326728090e-03,-1.581422942683153839e-03,1.354366835154698512e-03,-3.067477556190383774e-04,9.682106573347242515e-04,6.897716165132066358e-04,-2.509994272683260287e-03,6.422760084247180860e-03,-2.703810627704385499e-03,-6.584266503513146727e-05,-1.733274253183270282e-03,-2.581152094957844291e-03,1.969633693458988297e-03,2.528173950641576621e-03,2.057254738398563328e-03,-5.952211606670860253e-05,-1.073392041980772427e-03,7.325306214422235354e-03,3.124764917111820875e-04,3.378815582738231224e-03,-1.219039536075935482e-03,1.686471817089428386e-03,-1.298091228253496097e-03,-7.992998239507389038e-03,-4.301242894812909792e-03,-2.320586071507309538e-03,-5.990020792923616937e-03,3.323042361844667520e-03,5.536083218947595100e-03,-2.210325589917349308e-03,-1.617854587687333427e-03,1.299341306036200586e-03,-5.511783949224485172e-04,-1.682122134805458767e-03,-2.020332128185567747e-03,3.725625099327120517e-03,-4.697044225610707245e-03,3.382650915244850027e-03,8.765866345068653968e-04,1.195901666307805887e-03,-3.439524833902082596e-03,-2.317751681498827696e-03,-3.136046877449228699e-03,-7.597972714364191211e-04,-1.899054601908514847e-03,1.886936194298846408e-03,4.609633604622341042e-03,-7.067673343454832294e-04,1.765818712071727699e-03,2.163381522555129621e-03,1.538132025723934048e-03,-1.352104152719810128e-03,2.074697294232707122e-03,2.384059697536116871e-04,-5.425077347295232874e-03,-1.030333934602675446e-03,1.030931478048015965e-02,2.450743075182902891e-03,7.196117001931368615e-04,-5.588540114860912796e-04,-1.927966981300921305e-03,2.313389908118563751e-03,4.987529215756059814e-03,3.144861909714120104e-03,-3.403583410772424711e-03,-5.239454995959210012e-04,3.402900973648242695e-03,9.203334034465047650e-03,-1.225662438908961885e-02,-2.190091566058454797e-03,4.231898394083396554e-03,-3.437457089099115772e-03,2.332228493158487997e-03,-1.951504492514732512e-03,6.040650451182218595e-04,-4.754614208680982106e-03,4.270532075208887356e-03,3.225021419591837194e-03,2.653750929410690195e-03,-5.862024685049004036e-03,1.707387777767834826e-03,-3.190710414793632415e-03,6.258032733188543910e-04,-2.581315440155237170e-03,-1.941062335975239075e-03,5.743213857869736670e-03,3.829201157841462515e-03,-3.075317818324042364e-03,4.218274076212435064e-04,-1.735096301708081903e-03,-1.785781443790981351e-03,-1.130307053825568424e-04,9.799931784381619992e-04,-2.934646223885552848e-03,-3.959327835318103214e-03,2.024387597886478929e-04,-7.296490923917056670e-03,-3.375091446999053859e-03,-5.797496167960548320e-04,2.726900271666148328e-03,-1.305498136625052839e-03,1.095450360264362596e-03,6.049069083177070717e-04,-2.299378997697640033e-04,2.134131386886766596e-03,1.196129066477838628e-03,1.937055858101985166e-04,-7.644067476080655416e-04,5.275009284554568918e-03,4.774945234423818088e-03,-1.320551817627232298e-03,1.452468866472284709e-03,1.235477621172267068e-03,5.249220726456800936e-04,-6.599412434314352090e-05,1.517384645829513497e-04,-1.399980093531490166e-03,3.121080405075016533e-03,1.184691471588520707e-03,-7.002547459068748752e-04,-4.530390330687666944e-03,-8.888308746381285916e-04,3.845987127596965909e-03,6.432701975218045078e-03,3.928966316013324874e-05,1.653706414371254119e-03,5.185638763889163089e-03,-2.213384584596359266e-03,1.890407013628492196e-03,-4.030747079385390728e-04,1.667552273839393749e-03,-2.051417570725902397e-04,-5.661583215733393369e-03,-2.489179174613608079e-03,-5.395742892843810850e-04,-5.904142640409592788e-03,1.583733302527167092e-03,-1.311649756864166627e-03,-6.764329930796395170e-03,3.826721779259316305e-03,-1.082354335636173150e-03,1.230522783961063554e-03,-4.875143332313128589e-03,-5.548935789207702293e-03,1.023297226165664374e-03,-7.800635814815092125e-04,2.911752768616168198e-03,-2.439309452729174644e-03,2.638809861227663176e-03,2.189247147617245752e-03,-1.793089697894415966e-03,-4.340998232698414241e-04,5.187113745951703325e-03,2.488372761445672987e-04,3.394291292590749173e-03,-8.104891104476199745e-04,-1.784831678830688020e-03,3.656225340527512364e-03,2.581335590885676032e-03,-7.349919221113824196e-04,1.077669179810166822e-03,1.235989811649125568e-03,-5.366992360267973557e-03,-6.807111202479035512e-03,1.763480963882189663e-04,6.487315419768203495e-04,2.289310425780749329e-03,3.996847895901504012e-04,-1.693953050194418929e-03,-6.896543310361613784e-03,2.571068137326047373e-03,3.446639305312561730e-03,-8.160343819247926900e-03,-1.820261577941081161e-03,-2.586950356694281070e-03,-1.582233210921604998e-03,2.531098882704706492e-03,3.224769772663898734e-03,-4.730665859391675228e-03,1.015612696484740262e-03,3.817536761642278606e-03,-5.459130107529688684e-03,-5.617770012004615413e-03,-3.991751353937596225e-03,-4.779088806199326828e-03,-2.832555663211462800e-03,-6.583254932760770721e-03,5.672187124288519122e-03,5.248644967095342402e-03,1.710614667232754349e-03,2.299688176727695665e-03,-1.713201724543636484e-04,-1.023159881069202236e-03,5.298970618779051504e-03,-1.564407701429057929e-03,-4.040360721174158370e-03,2.471481657431092837e-03,-4.850181920128994874e-05,2.082093045539529751e-03,-6.192633712557939533e-05,2.975350237588269674e-03,-1.046059766685658761e-03,1.954055000202749174e-04,-2.187596044023917309e-03,2.171171214259762661e-03,-3.275730096121155441e-03,-2.603381145640553101e-03,-7.145320290136197329e-03,-1.696474981421989148e-03,6.502671852148619478e-04,2.035052575918784752e-03,-1.473546320033384833e-03,1.462339594408698044e-04,-4.739460879162264283e-04,2.078802678846117160e-03,2.765768849227724646e-03,3.260563295873042389e-03,-2.729498764564161455e-03,1.617523260990915562e-03,-3.212074215417478219e-03,2.094571991324212755e-03,-3.503337488593971085e-04,2.580806869763169198e-03,-2.892006763509764444e-03,1.050060787844870301e-03,-5.302218804390366851e-03,-2.431387811970819272e-03,-7.662272397574294803e-04,8.097799710094043604e-03,1.370249897103056370e-03,1.730341407471959209e-03,-2.208697986850362955e-04,5.004178396462787915e-04,-1.075706583178826468e-03,-4.345793285627429182e-04,-2.639609291490976548e-03,-3.209895291278960956e-03,1.088845109753444791e-03,-4.004544990885628396e-03,2.944329414736615255e-04,4.253174102526641881e-03,6.907409638987774790e-03,-4.533926820920170138e-03,-7.612991426574802333e-04,-1.357485719194145716e-03,-1.074946862050127480e-03,6.254084009699464354e-03,4.540475490133537469e-03,-3.882759826153357155e-04,-7.547639208528016553e-04,-1.822435962189451666e-03,4.294258617025512731e-03,-1.948780531154034167e-03,1.690472628923084773e-03,3.454025165434831523e-03
1.926433286883916002e-04,-3.719024975076230723e-03,-2.239286594174674360e-03,1.405376733064387252e-03,-3.009629902375419823e-03,7.930542906502262637e-03,-7.843825189139617396e-04,-1.130240433930445091e-04,-4.800621994797129796e-03,4.456362198007507262e-03,-2.133207656671499541e-03,2.523704546849653979e-03,-1.563450336375465976e-03,-9.125084886630614300e-04,6.985995140385003153e-03,7.686159461610294827e-03,7.795875840503747834e-04,1.510252131608880817e-03,2.034545493493905913e-03,1.057032931837076101e-03,3.666770967037887453e-03,-4.257892087118859102e-03,-3.994299623058123090e-03,-2.214404005554595524e-03,3.498331364804176807e-03,2.869392103670674165e-03,-6.038307361539855048e-04,1.917787516084243056e-03,5.012554889072890624e-03,1.724806206224921423e-03,-1.054090735549537009e-03,2.517329842782482265e-03,-8.142370177083854211e-04,1.971728995343352293e-03,-3.778209326929740913e-03,5.444342615747295618e-03,1.086199438854255602e-03,3.472181618919060716e-04,-1.263931937963166593e-03,2.706856579667360225e-03,-2.263510478516174863e-03,3.394376886295890142e-03,2.482392582202461086e-04,-1.768927428271756599e-03,-3.306422726994931970e-03,-5.774076014070999522e-04,4.293156633345774492e-03,4.840791097867184377e-05,-8.283055212146349204e-04,8.374029190096925679e-04,9.891992539517522730e-04,-9.093254134049395115e-04,-1.828073725644786167e-03,5.279675038494446512e-03,1.568313133863646458e-04,-1.893220239022598735e-03,4.923508463942080117e-03,2.308359893782422050e-03,2.833734218943498827e-03,-4.839972994074714582e-03,3.997270962959055193e-03,4.875112213894867985e-03,-1.377693433671595092e-03,-1.180765705969819078e-04,1.624610279513219067e-03,-5.668717203332247507e-04,2.119393904117705847e-03,-7.075728956059043877e-04,3.048238472865413481e-03,4.029657040998017338e-03,-1.566699785877980053e-03,4.293517318299340177e-03,3.665367701591770895e-03,9.128813843315881915e-04,2.660501617829490704e-03,-2.340764318357735525e-03,-3.380048965227401992e-03,1.431581742003893353e-03,-6.215095843005560882e-04,-1.168843270243609097e-03,3.298896320599347797e-03,5.931837107479158953e-03,5.848762918505279185e-03,1.017989228303357299e-03,2.260451245028186236e-03,-1.747954609307770602e-03,-8.315795898129781441e-03,-1.195561961995698745e-03,-6.771364172380231819e-03,8.204015081193800213e-03,1.409927226267096315e-04,1.347377622360810320e-03,3.607611612732814291e-03,2.373303506146401919e-04,7.978699102629487712e-04,-3.645681528428102499e-03,-1.544062657408140854e-03,1.059168467837010973e-03,2.992810229953668348e-03,9.752766028013078571e-04,-2.893770248395289083e-03,-4.466509324633839467e-04,6.755498223832529740e-04,-1.892509771863467791e-03,-2.484570818698559648e-03,5.571594119834977904e-03,4.475749143473890974e-04,5.665007918730209646e-03,-3.858469804451429303e-03,-7.263166173876212410e-04,5.183945630674545706e-04,2.431842811221287658e-03,-2.263191150942703983e-03,-4.145985198303535520e-03,4.658948888342321357e-04,-1.747261614549335852e-03,5.483459414136591763e-03,-2.613313497756225914e-03,-1.311486579270412832e-05,2.566381117776114773e-03,-4.067578532443847338e-03,-6.284161760147921952e-03,-3.335003050567556231e-03,5.764228581283529704e-03,3.976980850511215677e-04,-5.269861815343918066e-03,2.642706453377916573e-04,-2.387845192249227373e-03,-1.156269057734082405e-03,1.861388174763132846e-04,-2.020848766329928770e-03,-1.886998177712655438e-04,-4.088993011106791670e-03,-2.238035005435061887e-03,-3.206279400999201105e-03,4.236117922972001959e-03,1.025626747949491373e-03,2.063990661024322007e-03,-2.279662196439098069e-03,1.973147647232490007e-03,2.376544751858773123e-03,-3.465401905965172138e-03,2.175863803107244872e-03,-7.187994484086970013e-04,-2.164500676395896082e-03,-8.901875158577813706e-04,-2.125177829870678482e-03,-1.662419572550105249e-03,3.542563172307612931e-03,5.602515069835136557e-03,-1.741656244612244586e-03,-2.817996390764387991e-03,-5.097187993154382937e-03,-9.261611843722764503e-04,-6.218078620041227710e-03,-1.333938341819458379e-03,-2.694793056036488398e-03,-9.964087915772481174e-05,2.382316912980895953e-03,1.033579508798866935e-03,1.380231154184998962e-03,1.585469397283195974e-05,-1.800557656752147396e-03,3.472744115109888900e-03,-7.976581518300046927e-03,3.501598895634398106e-03,-1.849774043612056017e-03,-1.507495560525898021e-03,-4.683278467633120515e-03,7.102094633739446322e-04,3.248416993145048469e-03,-3.010025525593674182e-05,9.236935251459693608e-05,7.473738316596210138e-04,5.129787360856731884e-04,-7.508406115488697186e-04,-1.467629087240335207e-03,2.030215612480972334e-03,9.656827008510096479e-04,-1.249729913174014691e-03,1.903044400025248172e-03,2.417347407622775623e-03,2.354975265237956202e-03,8.792609903690087880e-04,-2.524264842667393351e-03,9.989750847032986651e-04,-3.314333108654792664e-03,-3.170703832667602813e-03,1.922441879437061796e-03,-4.320907969544507204e-04,-2.592639370605365721e-03,-1.266163845134600811e-03,1.579490688418977006e-03,-2.463650483698088915e-03,-5.404034388401713837e-03,7.043500556066923692e-03,-2.943839516896269888e-03,-2.101438147439775410e-03,-1.830281627955704588e-03,1.837350143935938002e-03,2.204897996834988619e-03,-2.381401304994553651e-04,1.229507698383919831e-03,1.334136269500831029e-03,-5.033111639866292598e-03,7.314322713427947632e-03,-1.919831412686739481e-03,-1.017596610666297646e-03,-2.291865990591632728e-03,2.789287475631905926e-03,2.972813532111817647e-03,1.769297395301566841e-03,-5.296528402243286422e-03,-1.147563129808687118e-03,5.257322737173647682e-03,1.686468367215445058e-04,3.173921721850260676e-03,8.134602613985432266e-05,1.182051114173276888e-03,-2.728985814755608211e-03,1.410423457894366146e-03,2.314165105089300515e-03,1.725296331098223786e-03,-1.775969554251343461e-03,1.158705458822009791e-03,-3.401543012947916972e-03,-5.205353596081443122e-03,3.360943447095713667e-03,1.137551060179247970e-03,-2.611241931133383761e-03,-3.098629537334456757e-03,-1.028838105590416420e-03,3.453651973962375450e-03,-5.479466719611933412e-05,2.456512275219167440e-03,-2.192991184951804343e-03,-4.460118928029837768e-03,4.685991200167040523e-03,2.939982489083441987e-03,-1.591833535124188414e-03,5.195370637155994134e-03,3.846446953235485230e-03,-5.732240194316766228e-03,1.213229753377856757e-03,-3.722196521385020759e-03,-2.293115449910405781e-04,4.225188554586221078e-03,5.427862637230459683e-04,-7.663346211145708256e-04,3.460224112329805639e-03,-1.901272484517995678e-03,3.447692937354591113e-03,-2.360024550993146571e-03,4.441683852940826564e-03,1.624093899525232143e-03,-1.125886671466422382e-03,-2.710002533382375577e-03,2.091856307908541122e-03,-5.338480726243749648e-03,-6.165817639191751263e-03,-3.583653747073888875e-03,3.669704906270283840e-03,1.639824423009809701e-03,4.922320395347859479e-03,-1.152107148207499963e-03,1.724159870926969280e-03,2.591095208929247024e-03,1.789050875047292584e-03,-2.049062630152236313e-03,-4.098844849495262362e-05,5.370740631663266547e-03,-2.182013061390709961e-04,-2.657806759018141278e-03,2.200200308747601516e-03,2.518567710716785972e-03,2.075547193649023101e-03,3.200971098970474549e-03,-1.703370253701540736e-03,9.388552034168911285e-04,6.484784514831581394e-03,-3.556106364249251488e-04,-3.755327216515785480e-03,2.361043790703444729e-03,6.818845667405985973e-03,3.609970223459576903e-03,2.253504632035643364e-03,6.078903760116093416e-03,-2.055346323021074728e-03,3.683786980722191591e-04,2.377110848750299630e-03,3.892300994533057484e-03,-3.645415776300572376e-03,1.372268062145149108e-03,4.442097835017079673e-03,-1.958743133885921649e-03,1.763824913232806425e-03,-2.180303895032037823e-03,-7.426819381376629364e-03,1.858665606843383934e-03,2.061269500757681537e-03
-5.386832258629594555e-03,-2.826979674155469702e-04,-1.866318267226996664e-03,3.675761365619538597e-03,-4.910545839333140851e-03,2.937065618165038785e-04,6.363108574103406440e-03,1.203827742702124129e-02,-2.225352720738729001e-03,-1.589942079808355675e-03,3.571351925485988579e-03,5.311968833206399954e-04,-4.068442306596165361e-03,-2.617839086126957948e-04,-1.594430059847284442e-03,-6.951963993404350990e-04,-5.385192842962552642e-03,1.401286728379449488e-03,3.679861410828822767e-03,1.230990509440482369e-04,4.629241277163533529e-03,3.274598472386291200e-03,-2.028574194738407260e-03,-5.463436440226500119e-04,5.763967737968942948e-03,-2.083424784072970132e-03,-7.083160575250301190e-03,-8.715164010164832805e-04,5.515393275294094974e-04,1.538918444762142710e-03,5.724361468242651109e-03,-2.398232669162934840e-03,5.632627915312739091e-03,-2.449975146108044352e-04,2.883057087225024146e-03,2.093244136999087603e-03,-1.890606566598999135e-04,2.592445729711711274e-03,-1.069163904036852034e-03,-4.894967272539448543e-03,-3.490087982047389379e-03,-2.845687970181841071e-03,5.579785662881580656e-04,5.423757229020397669e-04,-8.091113737995075678e-04,-3.700511884511380450e-03,6.900739286972446158e-03,4.005422095080825827e-03,-1.359067412936185723e-03,1.506554974423167761e-04,-1.608853094519682595e-03,1.043348654135619084e-03,4.960467726172772176e-04,-1.493162274267869185e-03,-5.048444304217832371e-04,-7.704293893043453502e-03,-6.171448757692973852e-03,2.400478602691202661e-03,2.228798964919602704e-03,1.271273154255689449e-03,1.044417649044809826e-03,-5.209435458589063532e-03,-2.341045741038651380e-03,-3.206698500730680891e-03,1.918174046769774389e-03,-2.595238562343287099e-03,-2.158284276279545579e-03,-4.980452424495064763e-03,-1.530255170873322983e-03,-9.280872727631898217e-03,-3.391926560524300555e-03,7.664716805778556095e-03,1.290194816866216962e-03,-3.077484845365274866e-03,2.100544259156851556e-03,3.395615860477577477e-03,3.701495047081308212e-04,2.326473037812921540e-03,2.216062107384426418e-03,-1.206294005760151370e-03,1.761230798788420955e-03,3.583241809508595278e-04,-7.332409268522756133e-04,4.872708484489955000e-03,-2.290126593639121768e-03,6.195778051605896515e-03,-3.196449242725130438e-03,-2.823639504436460342e-04,2.561398465314989985e-03,-3.989518805181225571e-03,3.257448489888277107e-03,5.029347124274280954e-03,-2.980171135994792459e-03,-1.769335135620216581e-03,-3.492160701308664149e-03,1.615199381954044453e-03,-1.362121209657793939e-03,1.107352638907652728e-03,-2.671380715529762611e-04,4.552113512558748042e-03,-1.974240102740710406e-03,-4.483181596482216304e-05,-9.394950360075897487e-04,-3.531413542627409759e-03,2.896063770022106344e-03,3.735033888908097319e-03,6.524474177127207591e-03,-3.887777722992486872e-03,3.011967339988965743e-03,-6.224639468380570133e-03,5.663115587439170040e-03,4.195906018162835933e-03,-6.015477696191350206e-03,2.239969333228562006e-03,-2.364252643250712091e-03,1.249979384552761454e-04,1.974445116802560699e-03,-4.369461742913192926e-05,1.125917346150338144e-03,-1.698060844319281308e-03,1.317740082421131847e-04,5.095437252922739363e-04,-2.973947934684900880e-03,-5.321852694650358248e-03,-3.123316828562382446e-03,5.722440769100512088e-04,-1.773188652590158322e-03,2.559636027624984447e-03,3.753789787960124988e-04,1.132489363624960849e-03,-4.529636335163279154e-03,-1.347495934304611311e-03,3.059085223219780783e-03,-1.672115873046366814e-03,-8.482510761200391528e-04,-2.711588778253865017e-03,-4.516524894170214494e-03,1.065575081203635208e-03,1.618562216403369438e-03,3.837744959301387163e-03,4.410353216200082679e-03,4.800137686635290403e-04,-7.889513376660078903e-03,3.548987424125309934e-03,-3.413758057731364638e-03,1.806058583334911117e-03,-3.570935926969638543e-03,1.777505155947781352e-03,-4.099376749751686144e-03,1.594280848535268962e-03,1.155680916677782801e-03,-6.456604968619500048e-03,-5.288751731320098619e-04,1.627373903654275641e-03,-4.955066782662628441e-03,2.947064448487727532e-03,-2.514255205908301222e-03,-9.478656228812190349e-04,1.697705044334511847e-03,3.284472546052917379e-03,-6.857774449313745573e-03,2.472977225582330819e-04,-4.890712727005739648e-03,-6.829562029375220097e-04,4.460055783335316413e-04,1.141226088547754158e-03,-1.163592089556117265e-03,3.009608458914275926e-03,-3.906353493590657491e-03,-6.332858698776626643e-04,1.447090999386799930e-03,1.942649341436063302e-03,2.559505190359074971e-03,3.277114668706330135e-03,2.858924944032355427e-03,-3.484173873172694436e-03,4.536710779004589356e-03,-7.138939937128561996e-04,1.965427174959617600e-03,3.483302336707575202e-03,7.281610169591055601e-03,1.376881458905837748e-03,1.227382903320507540e-03,-1.365967824867521559e-04,2.384723734807819243e-03,1.110822141878564694e-03,-2.079346521537890711e-03,1.209623274609518883e-03,4.722710055098180981e-03,-5.368547213382958427e-03,2.449659422704269889e-03,-4.145325817103064081e-03,5.379370823961791229e-04,3.135069437948018872e-03,2.703770011961860627e-03,-1.051263867647104101e-04,2.909371595488071619e-03,4.388057904982008714e-04,-2.231740181813353287e-03,-8.057209642512337677e-03,-2.742599728210431270e-03,-3.394060419816797604e-03,-8.098272730110659540e-04,1.632649560555272245e-03,-8.347782459397912061e-04,-7.083454805416902755e-03,3.397774898035147654e-03,-8.724339110151224305e-04,1.097372104775551837e-03,-1.131977419182378852e-03,-1.947823967704938536e-04,-6.449573533972614717e-04,-4.128726928058306517e-03,4.609066759267766052e-03,-1.435434727237886853e-03,-1.508796061286987386e-03,-4.291682030473006719e-03,1.015053706247915971e-03,2.596290154896520319e-03,3.516713906476157461e-03,-2.662973726680487388e-03,8.307180190392648642e-03,-5.285383184471248441e-03,-3.412013576861611629e-03,-3.052040288319733327e-03,1.148431819958752043e-03,-1.725450172233959851e-03,1.617279239752177859e-03,4.095359496707914188e-03,4.052916400293694182e-03,-1.458250359749291899e-03,-5.214525520657858210e-03,-1.631444755031775506e-03,1.361373971486552314e-04,4.137823545468904962e-03,-6.112580496464987663e-04,2.471436093020680166e-03,-1.609632976292778121e-03,-4.473113071952545400e-03,1.449107134740659211e-03,9.215332167411985440e-04,7.047914464628538510e-04,1.216461685063204576e-03,5.553137049007882478e-03,4.856656145400898780e-03,-1.720197257023484876e-03,1.288930504026272522e-03,-1.915537532944381260e-03,-2.835592412689789954e-03,4.818414255267440896e-03,-5.987582060417426027e-04,-9.078370226153393858e-04,5.111485923353748743e-04,-6.761845681549505252e-04,3.339852496602653455e-03,-3.190391886728965749e-03,7.582567882920100873e-03,-1.396540154977504939e-03,6.802445396865663442e-03,2.687487734418115854e-03,-2.504800886117494762e-04,4.426368886037905341e-03,-2.033167121785196298e-03,9.000964983656501925e-03,-5.024335068797710149e-03,9.761626483287387133e-04,-5.211035807308922983e-03,1.485881880185319906e-03,3.759139545234573953e-03,6.317000680290583980e-03,-1.056644567353884172e-03,3.182998260309724981e-03,-5.142116274417476334e-04,-7.693022157397205393e-03,6.211979409405818343e-04,4.079436690739712476e-03,-4.968606300484053849e-03,-1.581999890545910184e-03,5.535312653197771611e-03,4.196392233994966810e-03,-1.076745450747229951e-03,2.519509672646960447e-04,-1.031529859964988756e-03,3.748641683518485774e-03,-3.332514316687221548e-03,-1.479730718052849883e-03,-3.582051480629038030e-03,4.329825885342778943e-03,-1.506498434111959591e-04,2.719459892533838529e-03,2.215561932858332254e-03,-1.917475938759185920e-03,3.679547979215505148e-03,2.212697222331059827e-03,1.115627257129812779e-03,-7.645592967626997508e-04,-6.055863308812043516e-03,-1.371807113480688232e-03,-1.311643714066085048e-03,2.035197275340214478e-03
-6.679396424778361128e-06,-3.563252615493104659e-03,1.514734048784107832e-03,3.915578869657702910e-03,-2.884002621300920527e-03,6.877140817506159458e-03,3.551187690708263942e-03,-3.825814270498656758e-03,-4.303382536455065827e-03,-3.309443393717555106e-03,-1.014801524257096139e-03,5.584732173732204208e-03,-3.410311945786526858e-03,2.569114595903160530e-03,8.889231771362927350e-04,2.466322984561570685e-03,-3.492148398727783036e-03,2.672151929029134218e-03,-4.284272055692154441e-03,4.543478079762876091e-03,-6.485210388421198784e-03,-1.422451215137467877e-03,1.998225487335305098e-03,-4.856668411975684219e-03,6.644735193840236968e-03,-2.062720682283925629e-03,-7.696673519735772661e-04,1.671029394404634693e-03,4.238882431380208704e-03,-7.426180157514192769e-05,-5.810354126547239914e-03,1.351032791653449232e-03,3.180388938061778567e-03,-5.303490766994337080e-03,4.951473067113971137e-03,-1.218509268699093898e-04,2.786459215110298742e-03,4.108923074158767237e-03,-5.020375817449889561e-03,3.068752687729042663e-03,-4.660455036661003206e-03,5.177852064237747215e-03,-2.962170905216669065e-03,1.869679906795602975e-03,-2.581057154735124769e-04,-1.025810664436944963e-03,-4.291262245397232597e-03,-2.356762990180252988e-03,-1.604157046596814667e-03,3.664502907734510425e-03,9.834659962946676326e-03,3.006037621792499791e-04,5.753874367170233421e-03,8.038105319947270316e-03,6.793677795548611498e-04,1.234371051239969898e-03,2.591124737724141312e-04,-2.852665680921283222e-03,-2.340311846115606265e-04,-2.291967850616959037e-03,-4.778804957729051225e-05,-5.912632477920263391e-04,-2.369024916673121480e-03,9.627011071691921919e-04,3.335750512517605352e-03,6.210898163081696004e-03,4.840690971156849090e-04,-3.612060308402616216e-03,4.275396176079304666e-03,1.127091165673645319e-02,-2.211907964821421477e-03,-1.215725588555221235e-03,-4.967030018960568024e-04,2.223713456477386698e-03,-3.024318333917268634e-03,4.061148079563578592e-04,-3.452825289198611751e-03,-2.336845225877711221e-03,8.383035125954908882e-04,3.380540560267180543e-04,1.131086880103348603e-03,6.743143843971188128e-04,7.156544549234282763e-04,1.487894201572553376e-03,-5.085539359763817727e-03,6.342386194950104007e-03,3.966489622671133530e-03,3.446811958499185116e-03,4.503845731258484999e-04,1.193905642507639853e-03,-7.166338012160479616e-03,-1.817224905541235409e-03,-3.522254222781200442e-03,-5.380490431824818016e-03,5.615248128855694111e-03,4.941843553438477789e-03,-1.731949117194295706e-03,3.947863609468773107e-04,2.167056154164227061e-03,-5.093274331052804159e-03,-3.716073987029839230e-03,1.005695757591505615e-03,1.211575140906363509e-03,-8.428864849151021521e-04,3.444690792847880916e-03,-2.497600343480672284e-03,-6.772653261979152788e-04,3.784380462046023027e-04,-1.403884583667928433e-04,3.333735935690117832e-03,-4.366930021112756279e-03,-1.793948957414956630e-04,-2.814378067381581518e-04,1.904648837768149880e-03,5.102176844818186695e-03,2.094691359994899863e-03,2.893664169701262376e-03,-3.084149890683238540e-03,-3.116499263448835018e-04,3.109125876971766816e-03,-7.388362625961518394e-04,3.916563309176630120e-03,-2.941930407536100071e-03,1.013786804019418643e-04,4.251907958890529561e-03,-1.304901253294126796e-03,3.636242582273102163e-03,-2.370951316154294632e-03,-3.044920897458558320e-04,5.865792521173556449e-03,-1.619147544491630420e-03,-1.358265890663118121e-03,-5.078881976877276921e-04,-6.095563862511133718e-03,-2.061704563135344920e-03,-1.509852821373453089e-03,-2.318363797328453196e-03,2.069334025644273094e-03,1.331930565444742944e-03,-8.007278079709896287e-03,5.269355811406126189e-03,-4.253920069945640869e-03,4.934392023619775525e-03,-1.856631010128350062e-03,3.486815630950925718e-04,1.889518126458914708e-03,1.677847066216666154e-03,-2.607554477850337633e-03,2.886165784363963534e-03,-5.222383991450768636e-05,-5.405380260262933161e-03,-3.052425272061162331e-03,-2.348805506042792555e-03,-1.132893919038458668e-03,-6.795995211163999468e-03,-4.639757019871197999e-03,2.688619721518437935e-04,-1.166682277503199505e-03,-7.454370303201173463e-03,-3.328570449568915395e-03,3.075950820523378013e-03,-3.213760295664831561e-03,-9.503328710900691301e-04,3.540465852791063479e-03,5.420117042975561815e-03,2.195696375539531349e-03,-2.626814563702695952e-03,3.980223442023640527e-03,-1.690548121866453611e-03,3.594513763142831182e-03,-1.106876588055040391e-04,-2.904460331036729914e-04,-3.246906649423579073e-03,1.241134843835279070e-03,-3.390446787106428297e-03,-3.283445166894447334e-03,-7.780042149804200328e-03,2.705620998714989992e-04,1.016640773838918587e-03,-8.489283627434900722e-04,-3.848709735086946245e-03,5.625508605320281080e-04,-5.726171858108215730e-04,1.280748370246278254e-03,5.243987910006967651e-03,-4.060684517385030386e-04,8.616204688810030418e-04,5.631149951896033358e-04,2.224082133771243704e-03,1.427073774818623164e-03,-2.389530132556483158e-04,-3.369336480566891955e-03,1.314646268019760726e-03,-3.452422180545589026e-03,-8.320594234936049948e-04,1.726942498040257663e-03,-7.577848666246500336e-04,-9.978115144542356457e-04,6.869332174485780554e-04,2.814399648167701783e-03,3.972950066813679855e-03,1.346194937140847989e-03,-2.626548343225280262e-04,4.308112723920533120e-03,-8.893914132595391207e-04,-2.902908931914508286e-03,-2.457958961424241539e-03,-4.539433589883945346e-03,-7.497803317434970603e-04,-1.766721025275310233e-03,-6.442968348675439522e-03,-3.376545382467598718e-03,-5.655012623221232710e-04,-5.105364616969577029e-04,5.203526882979985120e-03,-2.153893091338060419e-03,-6.767788293635860694e-03,-1.069940621941097654e-04,6.071955103369356234e-04,-3.918576276758791235e-03,-3.040540114063648713e-03,-1.413574048290894844e-03,-8.198326206276242102e-04,3.380520800128372118e-03,1.707481411357898759e-04,-6.051559833578067440e-03,-6.459173803441541940e-03,-2.677374446048192899e-03,-1.481063246425512502e-03,3.531527439295158860e-03,-1.997013519278087717e-03,-8.744349906132085383e-04,4.490039233287210219e-03,1.199317564389374520e-03,4.008364467767195141e-03,1.713394701361383929e-03,2.735330276545755272e-04,-2.018813031015351906e-04,-2.018707328430938922e-03,5.631331313317199713e-04,-2.123054456674869014e-03,-7.422727788813313771e-03,-9.659384222682900574e-04,7.957525045363860253e-04,-1.651574643539194210e-03,3.672076503156536213e-03,1.313961809353157402e-03,-3.324042915134825266e-03,2.040102369956143212e-03,3.015767141181080208e-03,9.727640023381515762e-04,5.051547201364660388e-04,-3.375931614459960761e-03,4.020708125380656819e-03,6.982502071995297550e-03,5.228146155535016971e-05,5.326643280285437050e-03,2.509900693419346920e-03,-4.114760481891360441e-03,-8.518018262957935405e-03,-3.530608138728617753e-03,5.980825745047613391e-03,-1.498650384003205778e-03,1.531605630763309325e-03,-5.847535705185873296e-03,-8.497990960226666380e-04,-7.886883536647000190e-04,-3.357019441459096424e-03,-1.833124781035697266e-03,-4.572759458011950440e-03,-2.177023838276418918e-03,-1.364857018792569199e-03,7.932329965211062234e-03,3.150844577043456505e-04,-2.591382887053157204e-03,6.996144546559156588e-04,3.929639177119241544e-03,-1.566298668045473363e-03,-5.030500450622151822e-03,-2.917596405859330900e-04,-1.704680108523938401e-03,-3.444439977782176934e-03,-4.798460295788850062e-03,-3.104333803031383496e-03,-2.328620261887151446e-04,5.463408281567835346e-03,6.569102527367138081e-03,-1.675789325061903404e-03,-4.446407918139338306e-03,2.855180605398478441e-03,2.385552570037385444e-04,-3.656791730509449754e-03,-1.855058997350818827e-05,5.122588774679861026e-03,6.000982481559712436e-03,-4.414912966600278987e-03,-3.414415574510294010e-03,-2.948604674025463550e-03,-1.342387051976873334e-03,-7.966636236439352935e-04
6.297713773987575342e-03,6.682338449240317162e-03,4.779336160829183652e-03,-5.008559941619942710e-03,3.654972939806329368e-03,-1.860545714960007771e-03,6.630934214281168117e-03,-1.021035482564486632e-03,-8.338903897147573185e-04,1.854042862792070617e-03,2.246897760143445454e-03,-3.320188359885099545e-03,2.705680923675864765e-03,3.724616691915856679e-03,-4.122001426602505195e-03,3.537424794415753183e-03,-3.653283622267473885e-03,5.860520170270919031e-03,3.125234834384500032e-03,-2.358093600362368668e-03,2.328623894533120905e-03,8.062056183105282409e-03,4.161398325624633340e-03,9.420836897581082951e-04,6.178086738220824048e-03,-8.881571690354905617e-04,-4.907171766075705795e-04,4.254180598023108231e-03,-2.657297718209218965e-03,3.106540972039799862e-03,2.181658371266982817e-03,2.538685089270847819e-03,-1.908486750143151191e-03,1.602677307358853481e-03,7.518744728623248490e-04,-8.340423301666389372e-04,-3.023134901559890566e-04,-3.044754847117595465e-03,-3.365932980741907256e-03,1.516005978103131431e-03,2.758164423496939788e-03,-4.720156211683164361e-04,4.894587857580162855e-05,3.238468419908629558e-03,6.440300715143365247e-04,5.274393751621228414e-03,-6.377702881213946498e-04,1.780584312080811049e-03,6.686557218183232856e-03,8.906403667031286345e-05,-1.483410557749720218e-03,-1.700504710653188674e-03,3.322064694259685771e-03,1.470489443531451538e-03,1.255082412255597961e-03,-1.308179699643287775e-04,4.651045556871798159e-03,4.579858776984293764e-03,5.864212290008048549e-03,3.770722237171076838e-03,7.466532248056262713e-03,1.162753694128124647e-03,-1.424759797407781133e-03,-1.419068303847286633e-05,2.149423198868854242e-03,1.798326855841077525e-03,3.258521528039361702e-03,3.645325469334708725e-03,2.672017965088172194e-03,-1.505150211244802054e-03,2.648482249279353849e-03,-1.216789719600787833e-03,6.316307058406972139e-03,9.321806734486952351e-03,-6.282628539763151013e-05,1.630702665067877222e-03,-3.147764255749361736e-03,3.360434000243374148e-03,-6.817141870153264416e-04,4.617516901444237510e-04,3.750466444932043942e-03,-3.536955299626444796e-03,3.041254576599584664e-03,-1.853810852978526142e-03,-3.385103370153345675e-04,2.891477264250931836e-03,-3.185282495022137214e-03,-5.586156591536911575e-03,1.603398956715519326e-03,4.644732733627360624e-03,5.679979500906289468e-03,5.936064869688610635e-04,4.578894519313063058e-03,-1.954578891507206383e-03,1.640356578069254723e-03,-1.856570204275641853e-03,4.618125059807760141e-03,-4.617730766012423209e-03,-1.042816741832234488e-04,-2.906290818403452821e-03,-1.454280599058796562e-03,3.717100194301148179e-03,9.289122890792360365e-03,-9.635937676289611569e-04,-2.094402256675448673e-03,-1.776578367370749284e-04,4.876821044132308852e-03,-8.161869189909290315e-04,-9.028542776126712022e-03,5.700176431597241827e-03,-3.889941631396107765e-03,3.141013638695744521e-03,4.952052913677550475e-03,3.995295813800901069e-03,2.285047997920827689e-03,-2.200567898052066367e-03,-3.345637673713339286e-03,-2.183432874077202018e-03,3.828411866803662581e-03,4.004922437414788587e-03,-8.728087118478385781e-04,-1.664713153629123485e-03,1.795378059454314987e-03,-5.569897057193500672e-03,1.797465609198934397e-03,1.654706552085099570e-03,3.612062835037833236e-03,-5.859169277730558179e-03,-3.720694548324023640e-04,-9.889194220190319125e-04,-7.301089476031317853e-03,-2.940901050427490847e-03,-1.315692295688820250e-03,2.152338595660812075e-03,-7.247994329975682853e-03,1.195391747105347931e-03,-9.096186962477090677e-04,3.487423491383481993e-03,7.630279444570493494e-04,3.796948571696370876e-03,-4.554435667700582231e-03,-2.521513452087400034e-03,4.012850511008509910e-03,5.451989891490036273e-03,-3.184262317862327375e-03,1.388022880764315688e-03,3.636713063197453098e-03,6.948172450793453636e-03,-1.482634107968595471e-03,1.079791895704965143e-03,-7.879372911264306356e-04,-1.120148064118520019e-03,1.022798335121508084e-02,3.478696057198936756e-04,-2.331423141258692246e-03,-4.848272508797283643e-03,1.611559868791591008e-03,3.981904901756724499e-03,3.630599955622392395e-03,5.341244004859865748e-05,-1.066887908374123404e-03,-4.297926496328381696e-03,3.385058658001207591e-03,4.085291463016646083e-04,-6.129252783397291446e-04,3.341340428279239157e-04,-2.233124233035470654e-03,-9.287598156447569517e-04,-1.022212611284718580e-03,3.377140559106497257e-04,-1.910135754585551033e-03,-1.764715674361703015e-03,1.305160754148405921e-03,1.564636853416851835e-03,6.451249415349144881e-03,7.829226783536051906e-03,2.520079156418373201e-03,-2.469335951494864689e-03,2.062540039614948226e-04,-1.663048030497406987e-03,-3.118087347825455359e-03,-5.379912143275543922e-03,2.723316535063638835e-04,3.544618079224703001e-03,-8.256013206919698586e-04,-3.645232770741731708e-03,-1.575732730878401031e-03,-1.251107190625224373e-03,-7.787548533597500426e-04,3.867996661598297262e-03,-6.806146909336945917e-03,8.397410514461111199e-04,3.971519202253392597e-03,4.544834512708103604e-03,-6.561499922265711651e-05,-3.615997338719233352e-03,1.578424422220540307e-04,5.280444729478402620e-03,1.865545940078993086e-04,2.990666924840769294e-04,9.994341846360395298e-04,-6.687532625844927903e-04,-1.739160790388187203e-03,1.395715998818816131e-03,-4.518792851053450577e-03,5.392932042694296470e-04,-3.782150720303675395e-03,-5.491575651509991197e-03,-3.924305749337723276e-03,-3.568575233387030667e-03,-8.884135154843384894e-05,2.756549075703168625e-03,-5.201172785707918432e-03,1.575573821555617191e-03,-1.815308300872687294e-04,3.375384652324023727e-04,9.679126333655103248e-03,-2.850674006142512045e-04,6.501347374236489222e-03,2.072086489506331630e-03,-1.610648203805862058e-03,-1.438337684257369334e-03,2.381638618842589743e-03,4.066192212322561166e-03,-2.832903336028455392e-03,-1.222909518320730408e-03,1.897128807983709548e-04,4.187740383285911382e-03,8.444781201163570339e-04,-1.665897409430624121e-04,1.038149251211633673e-03,-5.704475734219505156e-03,4.351865075365040931e-04,6.534595277270820917e-04,2.590472517282664533e-03,2.554291334607596171e-03,2.497237506421191681e-03,1.450990179755427541e-04,-9.368742445933851259e-04,5.952593930394584239e-03,2.834708379970772314e-03,-6.813350865091417907e-04,2.192112020713876328e-03,1.242543701978146868e-03,4.223765625023194860e-04,-1.446527534051018221e-03,3.309415150464691934e-03,5.449746388430068596e-04,2.266032025367304683e-04,-6.828598083789012146e-04,9.825400397944269310e-04,3.049472958531940139e-05,-1.862720140067692905e-04,-4.077087905289113819e-04,1.575817945072727298e-03,-3.368935811874747104e-03,-9.389324129611120989e-04,4.189198873563072453e-03,6.875782168170456281e-03,-5.553825538112133493e-04,-2.745382169578992112e-03,3.166315516300036419e-03,-4.217033101774844434e-04,1.186166099853900105e-03,-5.919390965944834821e-04,-2.948606767499533645e-04,6.085870078295012135e-04,-1.257741150630621845e-03,5.223549639604053822e-03,3.065209704209026324e-03,3.215423719616794778e-03,1.983726151881012433e-03,5.195236449136313855e-03,5.013933242995222833e-03,4.094044243584721646e-03,3.185578827327908112e-03,2.004136196607944013e-03,8.267843459217316931e-04,-7.085306852603957470e-03,4.589511580606457121e-03,8.836439222083559628e-03,9.967264028327754623e-04,-3.739391973250609340e-03,-1.877143812571700635e-03,8.186968000120576489e-03,1.393198239212464730e-03,-2.000751045011158206e-04,7.078883294192032938e-03,-2.707065864671251952e-03,3.395007775386745062e-03,-6.496067456708508586e-04,2.216709309958541773e-03,5.300335323652571526e-03,-6.488791253410466919e-03,5.384081950580363318e-04,-8.196182342422195189e-04,2.654141164023445919e-03,1.300322379943114753e-03,-4.376289401248089662e-04,-3.044089924763771892e-03
-1.154147925541941597e-03,-5.877835560065275931e-03,1.539036152556357874e-03,-4.469674075276762124e-03,1.891855104017616798e-03,-9.354160116989257076e-03,-6.489576229147134365e-04,1.415159663763448971e-03,6.240840779507947009e-03,-1.595544574323214972e-04,-1.211334355415515486e-03,-3.709768625745004430e-03,1.416415184748095590e-03,3.558033236237131362e-03,-7.495380989630741342e-03,5.502650139184971263e-03,1.132963671240399704e-03,-7.491032875831337909e-03,-6.090600572470076168e-04,-2.224698429557619289e-04,1.000581580151184424e-03,-1.719833366635249976e-03,-1.491237220240097935e-03,-2.711935241382917947e-03,2.067576719378593809e-03,4.549297977208298436e-04,-4.607579956622859696e-05,7.316738807290628808e-05,-4.703925669731018333e-03,-6.263539817767329806e-03,-1.722409987439798163e-03,-4.084881997856488686e-03,1.404772783844401591e-03,3.338712935722769858e-03,3.100745858661727895e-03,3.409057535316535950e-04,5.233556889221687922e-03,1.987674536733417732e-03,-1.135864950817738446e-03,-2.830252449861778586e-03,-3.776915702011780784e-03,5.327441933988421956e-05,1.943998765933672231e-05,-6.486602907667664286e-03,-4.814512922931520121e-04,7.557877863860717723e-04,9.683360181146987399e-04,1.983750517374755721e-03,4.889999229483398338e-03,2.826917107244389122e-03,-7.313653507453152670e-04,2.855486706691215491e-03,-4.022135832352598445e-04,1.305252755799045546e-03,-2.087760082477599106e-03,-6.662991029597488792e-04,-6.226780505860176783e-04,-5.825851627121409002e-04,4.036213171127620188e-03,-4.812475999697598227e-03,8.095916059440417091e-04,-5.730915365228820765e-03,-1.656501467821006003e-03,-4.613641458069423461e-03,-2.995426375264619544e-03,-4.988542495598680473e-03,-9.331938266142311873e-04,3.390624160786876937e-03,9.513147636307651544e-05,1.888101707224577397e-03,2.721231537115300324e-03,3.337453560540889520e-03,-4.043473040958691853e-03,1.604965036645832933e-03,-1.335356685991355517e-03,-5.491980598245113209e-04,5.650814998942672168e-03,1.960577828352858334e-03,-2.514080105092494520e-04,-6.055769061062228533e-04,7.604807513380672929e-05,5.855421847210848761e-03,1.476319492793416342e-03,3.885500808430402114e-03,2.464734377957682621e-03,-5.146611939976724432e-04,-3.035548830411435688e-03,4.226158657347929386e-03,-6.502649257830270691e-04,-4.728846928513862026e-04,-4.130745701451892134e-03,-8.281834675124947337e-03,-4.247722420285277175e-04,-6.583371020105252720e-03,-6.566744988657573570e-03,2.887827942690645092e-03,1.624102023418417043e-03,-8.107396667977229306e-04,4.371985921560211930e-03,-5.161348663788602707e-03,-8.183427955860874672e-04,-2.777385825713918192e-04,-3.149855549180062553e-03,-6.093230991013837659e-03,-1.181617257861754559e-03,2.864062286754934586e-03,-9.574863404981007577e-04,2.580048545531016127e-04,5.890934048881815710e-03,-1.655502314246271468e-03,-2.572599613335473621e-03,1.452141315332053980e-03,-1.907953479147825575e-03,1.484781218404879373e-03,2.032255222130817385e-03,5.486238311967752898e-03,2.185951852020352922e-03,9.742893912088888874e-04,-2.729503091456510645e-03,-1.078773145518523114e-03,-1.145637017709072621e-03,-3.363806770210891594e-03,-1.376916105615787547e-03,-7.530261240601018174e-03,-3.258304689382931878e-03,-4.845358770283613933e-03,-1.925891044296258389e-03,3.256212022113825610e-03,-1.785904387624711893e-03,4.655671972668900616e-04,-2.194172899211067028e-03,-1.178880855271036057e-03,2.718456941470084789e-03,7.614020486738276410e-03,-3.115860586608626501e-03,-2.626483639184774323e-03,-4.895326763261754989e-04,1.019685998310106015e-03,-1.395594243340190501e-04,-2.944035341833295839e-03,-1.487899194251967368e-03,-2.342017502948997611e-03,-1.348699574948459688e-04,-4.689803685319690087e-03,-6.786975245656133018e-04,-2.755157804829862743e-03,-4.319129163225181312e-03,-4.509900149247478697e-04,1.140678429991439594e-03,-2.239120105974711904e-04,-3.367722914141981047e-04,3.378983580677518122e-03,-8.390763418928368425e-03,-3.920769381372592199e-04,-5.283077897307972455e-04,-4.470889279796972510e-03,-1.490588332298010228e-03,-2.039055732248635979e-03,2.299188516275438819e-03,-3.344079663869836943e-03,-8.177668353532273685e-03,-2.410368942343098112e-04,2.791778192708256438e-03,2.924092952818611001e-03,1.197857699344649987e-03,3.033079200559994550e-03,2.094656202724227674e-04,1.249889630413907830e-03,-1.687811264055047358e-03,1.717470116975213174e-03,-2.223099378099861832e-03,-1.608257968148233980e-03,4.171071002380736387e-03,3.885573480869185421e-04,8.421143345501139925e-04,3.225186874120976668e-03,3.261776528771801603e-03,7.014882620902224662e-04,-5.682798095399046057e-04,4.990526546702302906e-04,-3.386544979968459366e-04,4.383380910244117148e-03,5.378799836524537220e-03,-1.405892711381451308e-03,1.357440637420048724e-03,1.880240877878879002e-03,-1.691310364901493259e-03,-3.966672697839506746e-03,8.483904033375027471e-05,-2.107184178597000263e-03,4.531631764783034151e-03,1.244169559573062630e-03,-2.888668659114099722e-03,2.528934167673421631e-03,2.989970103430841363e-03,-6.958250552460138860e-04,2.890701187382923275e-03,-2.368721965899329551e-03,1.034852701366007106e-03,3.533953984179387126e-03,2.037011165130523868e-03,-2.626019276839197236e-03,-1.360701598358216025e-03,4.035850849683592263e-03,-3.510990902690912328e-03,2.106289766853479059e-03,-2.236818982568495977e-03,-1.377792147969513891e-03,-3.652727157712862879e-03,7.242481240973201295e-07,-7.697651025748097897e-03,3.827023606017224393e-03,-3.201489062320586696e-03,-1.957432554061725588e-03,5.510473879412856012e-03,1.466666064000001629e-03,-2.191006805678612918e-03,-1.897055061030787442e-04,-4.110700707720529867e-03,4.067007668790993593e-04,2.718132911413366059e-04,-7.010680886899803635e-03,7.305902782193097154e-04,1.535355230158004817e-03,-5.775736238352687478e-03,3.005602403778459466e-04,-3.426647180426601290e-03,-6.268381468730168347e-03,-2.440672767687326102e-03,1.248686883661421750e-03,-3.762469981453081189e-03,-4.440288762892386117e-03,8.836913376938902460e-04,4.130864826315691803e-03,3.650280794363413911e-04,-2.214203174784955697e-03,-2.709672680836989426e-03,4.932877706608323511e-03,-1.201902212101002993e-04,-4.079002509031368247e-03,4.597521343812211586e-03,6.656001385853793292e-03,-1.576529378296114611e-03,-7.782902282999154021e-03,3.054631412413355562e-03,1.366538831895580349e-04,5.674386387311660188e-03,4.147786137016538726e-04,1.198443723604469303e-03,4.523499504549013950e-03,3.286332130971816607e-03,-2.315711709818856281e-03,-8.807874567010192963e-04,-1.148856903019381892e-03,-2.703233512443208942e-04,1.952154790287600767e-03,-1.281738717164547948e-03,1.656786313653165442e-03,-2.472313661336702269e-03,3.564006150646782580e-03,1.411071767134793042e-03,2.910429637809969954e-04,1.442072676212230063e-03,-1.612769793823798587e-03,-5.005300304685379210e-03,8.602318366903241587e-04,1.951272506674688306e-03,-3.206561733270273627e-03,1.408386046110167303e-03,-8.869374593267297449e-03,-4.779675437787316104e-04,-1.681676003168177855e-04,1.559376377100361692e-03,2.493568293952462891e-03,-5.030171779289093707e-04,2.325425571709985231e-03,5.685247961998743729e-03,-2.909902532605127337e-03,-1.954125752062098494e-03,1.425789969118968891e-03,3.371277126702488559e-03,4.636399796026364865e-03,3.265587580423455309e-03,3.006484960814405274e-03,3.860180087243754703e-03,1.105445690247424360e-04,-1.164161496670658956e-03,-2.700530847618294594e-03,-3.175976271887388531e-03,3.961748345456620954e-03,4.897586098700923299e-04,1.778733069787749371e-03,3.795785393565706371e-03,-1.195330564992860747e-03,-1.143270051998099670e-03,2.497682374109173528e-03,-3.457498582205975092e-03,-8.816704921573294100e-04,-3.745803392786829561e-04,8.292817646700062495e-03
-3.486090710972174211e-03,-8.004233011151999167e-04,3.427567689631292030e-03,-3.972268476245643769e-03,-6.763911776001678986e-04,-1.203528323231982562e-03,7.099830636729837809e-03,4.152438633133860926e-03,1.521824331265536124e-04,6.678135620484487549e-04,1.972394611676993054e-03,-2.097832832879370502e-03,-3.686386465443998710e-03,4.011243125675622960e-03,6.813109128275252752e-03,-4.159773896477561746e-03,1.687495096650326641e-03,7.005350076411562222e-04,-6.832075228705459255e-04,7.373641234020963855e-05,3.221796830398694113e-03,-3.086404633144353843e-03,-5.240971358675888987e-03,6.853410143175450546e-03,3.662779486954250048e-03,9.552915157497116408e-04,-4.487630767326029912e-04,1.179385618392614701e-04,-9.551197364445854774e-04,-1.334861474406433962e-03,2.570105579336813811e-03,1.488357950611219564e-03,2.774957236373665204e-03,-3.082518799533032032e-03,4.327567235124383550e-03,3.116922914882597141e-04,-1.257802749875694230e-04,-1.349824431625105134e-03,3.813917876037228438e-03,9.395930809035585307e-03,-2.521480704814445077e-03,8.155769432756160980e-03,2.812349045715539005e-03,3.636923849747133357e-04,-4.340776130253101890e-03,-2.145040437651769827e-03,-4.193744824722827474e-03,-7.205325407934476400e-03,1.747723867531342842e-03,-2.130586378572853039e-03,2.551866956095719162e-04,-1.145025640810127436e-03,4.238097569181807829e-04,-1.889949863794951291e-03,2.440056847399994268e-03,3.469566766388929198e-03,1.162074827057230780e-03,3.180604011984604351e-03,-6.570082501950141700e-03,-2.477384692673097709e-03,1.819402266695749381e-03,2.899852014837385732e-03,-2.476253682755778437e-03,-8.717865933167800833e-04,6.050521237345451130e-03,-1.658689185214863603e-04,8.498058068778266243e-04,5.438975904208583631e-04,-8.455061775368756874e-03,-1.614139871263081324e-03,6.820737215331941841e-03,2.569949464712620573e-03,5.205946847285641312e-03,-6.902657620412439281e-04,2.167783178401826681e-03,-1.519377645696036710e-03,-3.068326494362665514e-03,-9.156224045126373041e-04,2.596229570300982899e-03,-5.658905975051847954e-03,1.374588404807744772e-03,-4.827139159203992693e-04,-1.165156237119705689e-03,1.602416125824401849e-03,3.465267354612358748e-03,2.342540122198921715e-03,-3.644243927315593372e-03,1.075472668117863611e-03,-7.387671366911182595e-04,-1.698433906911303061e-04,-1.728404033043841705e-04,1.695897438557041840e-03,3.367438601840289786e-03,-5.028571264850192766e-05,3.832681813193525213e-03,-4.449334576563852318e-03,-4.270438631389145492e-03,-3.785772363855494527e-03,-1.877008794230317686e-03,-7.135527927543466528e-03,-1.239818223716496887e-03,2.597462215973984825e-03,-9.708156796335783460e-04,-1.595455162800095850e-03,-2.316835321698607151e-03,6.943828317864644308e-03,-1.418332003726640970e-03,3.793549152902825176e-03,-2.453751006954639231e-03,-4.753380191468168335e-03,-4.447410440228820143e-03,9.557078486397790201e-03,1.100627344258781927e-03,-3.618235753704424421e-03,3.168276417684422024e-03,-8.915512926747371988e-03,-2.234372752360851231e-03,-3.728859701295088140e-03,-8.194092329227116098e-03,7.062570653279806121e-04,5.961762738465256617e-03,-3.489603587139462459e-03,-4.852326473109408109e-03,4.306372043608766055e-03,6.542988070037850752e-04,-3.626585731806174998e-03,-2.351844263742152320e-03,1.145672173031415508e-03,-9.260562608512483418e-04,2.159129049060138413e-03,-3.126159979767581618e-03,3.140695553144641407e-03,1.139254592512253805e-03,2.383956278781879535e-03,-4.599235363682242978e-04,-5.378750436260957765e-03,4.321688053178709445e-03,-5.615812198127620621e-03,6.129440361098134789e-03,6.268851935547868973e-03,6.388172498159218858e-03,3.001736713021525144e-03,-4.685047019587736724e-04,-2.590349842901433150e-03,8.254915183721981678e-04,-5.785284196669007381e-03,6.263737919574019486e-03,-1.118812579540337439e-03,2.409841096455342217e-03,-6.624614866508557638e-03,-2.267215559596556535e-03,-1.254192230768688557e-03,7.229597562623223984e-03,-4.115221384302097593e-03,1.620887999034653724e-03,-2.279466059122477271e-03,-4.521848151752553419e-03,-4.519626368748090768e-03,1.483775314117374367e-03,5.102240955886933917e-03,3.743192956613395489e-03,-3.019431042999775119e-03,-6.617126395740311265e-03,-3.390769873360230998e-03,-2.908992070923476295e-03,3.238698782655782772e-04,2.379616629197952617e-03,2.546750296415775574e-03,3.562756929083100640e-03,7.087359066268923181e-04,-1.030104716547133696e-03,9.432006925662326027e-03,-5.984446231562756636e-04,3.853667600149822490e-03,6.466202114600662181e-03,7.397832284201000426e-04,-1.405410382218923561e-03,1.238395944673357542e-04,1.253925081622327088e-03,4.322293462041538982e-04,2.265173476526469425e-03,4.070857311829802205e-03,-3.136455061301574075e-04,-3.490536896150355558e-03,-6.011904888180786069e-04,-1.406601114858502645e-03,-3.770498848850306617e-03,-8.226217145003302629e-04,-3.811688711402077146e-03,-2.510293864516992095e-03,-1.367516591278643821e-04,-2.329541637941724263e-03,5.146563366971676511e-05,-1.731742185286030316e-03,3.510839276272919012e-04,4.333971329543048062e-03,1.201367730124721376e-05,5.426280157976610431e-03,-3.813085996385172198e-03,1.245361020643884773e-03,1.561174203484221252e-03,-1.397966188078927051e-04,-9.859349649629699317e-04,8.537515374550047956e-03,7.368091847412998937e-04,8.034561760896441951e-04,3.811494005435488337e-03,-4.233263069219809702e-03,1.397625515786048416e-03,6.020948176735863499e-04,3.121269763860822009e-04,4.944619278960025142e-04,3.199445259896569957e-03,-1.139706055135960780e-03,2.323284932746570849e-06,2.239260527073751259e-03,1.425522572896985307e-03,7.199660183114631185e-03,-2.481861320973656644e-04,-4.345284634798901417e-03,-5.506983035760695637e-03,-4.113037237260988577e-03,3.253229301471913682e-03,-2.484357058135732311e-03,5.832285500577700371e-03,3.975864712043388621e-03,2.927697612173247796e-03,-2.363926313723196861e-03,1.613231915579829310e-03,-4.119034791893082942e-03,-4.065335245751674001e-03,-1.820781617928531309e-03,1.481269449581506040e-03,-4.781484982348673668e-03,5.483500424897559287e-04,2.414325825720414504e-03,-3.368925404565138379e-03,-2.852611499784558479e-03,4.177983917657511308e-03,-1.993279167719423563e-03,-7.335795529178180214e-04,1.841481338829653635e-03,8.331500335464276296e-04,3.797961834045866097e-03,6.312990932156659681e-04,-4.459604380584962675e-03,-8.301451511900402114e-04,4.472670395724518896e-03,-6.525564404255955291e-03,-3.082280685819986914e-03,-7.701530989878027471e-04,-2.305771902742124134e-04,-4.013541395085543084e-03,5.684211627112294163e-03,-3.058078814793017009e-03,2.289111861143765052e-04,-2.160655030899348225e-03,-4.023088331372649123e-03,-1.778295460468017498e-04,-5.380367100947211793e-04,9.714116733683332474e-04,-4.731159008525196580e-03,1.433913265312839391e-03,2.648917883056437633e-03,-3.677429278119479557e-03,1.930493865983970003e-03,2.174673641631056677e-03,-5.397047115800339238e-03,-1.576979953873156514e-03,-4.419933148409232841e-03,-2.083292007698726682e-03,5.432381134322996101e-05,-5.965648050587055856e-03,1.995187434051335935e-03,-6.901812614881341380e-03,3.497825051063730047e-03,-7.246438525153100704e-03,-1.610744361515359857e-04,-6.351865732439314870e-03,7.634423837032096403e-04,2.299831814383937901e-03,-6.332508994289129910e-03,-3.947915460617968005e-03,-2.932135778742443570e-03,-5.325572649783219190e-03,4.340997720928510550e-03,3.216912933269620921e-04,-3.226880456580196073e-03,3.112670301224602985e-04,5.624565380864882808e-03,-3.084848440294334689e-03,3.559187608523341423e-04,-1.518952300809516247e-03,-1.134092310772875489e-03,-1.792279715991959002e-03,3.373411945041503157e-03,1.904631320146807881e-03,-5.065468303548158885e-03,6.016365200320747050e-04,-2.023505113207546297e-04
