-8.635949924927024957e-02,9.669493705979725559e-03,-7.572755229572693259e-02,4.058890536745184130e-02,-4.188661747655274270e-02,-8.626422153246165883e-04,4.346387224586859693e-03,-4.316405092313045644e-02,9.252862610897414838e-03,-7.704466921030579153e-03,-1.270458222171869656e-01,3.028442362039003490e-03,-4.492520917693773597e-02,-9.829175126610797952e-02,1.815006459725972826e-02,-6.394149774212940299e-03,2.620043389214317051e-02,7.013440920546643031e-02,1.409472130791615714e-02,-9.879083457824504311e-03,-8.360692276925751898e-02,-6.236893851250446298e-03,-1.276872611121009360e-01,-7.553757663675433887e-02,-2.286595417403041591e-03,-1.346970601125923039e-01,-3.214540002496467982e-03,-8.549973857073882300e-02,-8.118343984635924965e-03,-1.202525570215766913e-02,-1.127784682304345349e-03,4.091738631274762102e-04,9.523515934056063156e-03,1.692824093387549148e-02,-3.160758862561497545e-02,-6.444863854415446014e-02,2.905820500391451469e-02,2.710731534529103783e-03,-1.901959474386608756e-02,-1.092105224932881924e-01,-1.023813152530305207e-02,-7.160095490412596297e-02,-2.729928813876071527e-03,7.600122560714695115e-03,-6.451673408458430056e-03,-2.415326925071530420e-02,6.672580975005414951e-03,3.034582837468697419e-02,-1.316618712650462165e-03,1.612241212513149807e-02,-9.778301036140465280e-03,4.878852463881248012e-03,-1.151027482624423504e-01,-3.541342868283184342e-03,3.381172108891791414e-03,-1.856593575921995122e-03,-2.019546845918960415e-03,-5.571045632943933540e-02,-7.895198352262390237e-03,3.015983702907595269e-03,-5.776210397103150214e-03,-2.521094097004112407e-03,-1.132919459530829370e-01,5.251019584699146564e-02,1.370447045533441932e-02,2.031279552700900395e-02,2.737843559909731214e-03,9.242965842467392194e-04,-1.125054941601646638e-02,-8.807382904814844982e-02,-1.269564199930253989e-01,4.063045903382041420e-03,1.747891836195327288e-03,2.502914752567448470e-02,-1.285704382836029037e-02,-5.963267073664920565e-02,4.546991926359997965e-02,-3.027082246646653138e-03,4.159041568288979716e-03,5.686720719491644011e-02,2.736855574922728517e-04,-2.202269937056782617e-02,4.636198442349183553e-03,8.436545546343370439e-04,-6.912961787479878634e-04,2.065147880802619892e-03,-1.453007694483139049e-03,2.114223004293574266e-04,-4.686964506296946269e-03,2.640635775099523658e-02,-9.410828518030291828e-03,-1.522003013368287416e-01,9.520638156549318318e-03,1.112244099103349045e-02,9.923213837760018474e-02,7.976064539559308631e-04,4.294759821854152865e-02,2.426983233419620616e-03,-1.078220836921028013e-02,-3.047745480583010161e-02,2.572733283083139619e-03,-3.343137795974115110e-03,-1.379701183437436265e-02,-1.135985684868225662e-03,-2.190939420097466183e-03,2.454327877152494633e-02,3.194777764134291639e-03,-2.519129527516826388e-03,-2.106696826761145919e-02,2.464412216628552102e-02,-2.365001770467995649e-03,-1.998543141028153586e-02,6.818284713715051879e-04,6.462916750359295505e-03,2.491398215169431107e-02,6.022606142206506780e-02,-6.656003232276719306e-03,2.530700536116306520e-02,-1.599970283037164490e-03,-3.582794855931008618e-03,-2.138129484362664024e-03,4.468364707577426181e-04,6.349051926238032106e-02,-1.763437517291251578e-03,9.761765542679582850e-04,-5.008238208363929335e-03,-6.945211139694809285e-03,1.670009978931102923e-02,-1.855624731885479250e-03,1.039687390681186090e-02,7.522587474632575280e-03,-7.542130330832240263e-03,1.274686445418950730e-02,-1.355478354475647129e-01,-2.006346335126000732e-02,2.982352811394658326e-02,-7.876695515724894611e-03,3.343294931119687730e-02,-1.761090488873687070e-03,2.055929899686777945e-03,9.964781404578598734e-03,-3.034210016777309869e-03,-3.494328466775396651e-03,9.005640663556191416e-03,1.602170040405273554e-02,1.833464997653750121e-03,-1.396522203749043112e-03,-1.527822531538278877e-02,-3.339575716470756864e-03,-1.898303249245234534e-03,2.937952630993049229e-03,6.274758369971844552e-02,-4.645854184847210411e-02,-1.583638768644235559e-03,2.065185528817930452e-04,-7.776438402637523249e-03,-2.461900649512102027e-03,4.900356187273761412e-03,-1.234025537993032045e-04,6.464851426106802378e-03,-1.147248135391750953e-02,-6.009395385566831255e-02,-2.287438273022054935e-02,-9.295211073934192547e-02,3.941067517945839871e-02,-1.554292506348640100e-02,-6.230359484195385072e-02,2.165590084683671594e-04,-2.942222284701518850e-02,2.709681177338161065e-02,-4.627084446729803381e-03,-8.559519786966443555e-02,-2.000388679736869735e-03,-1.932750434308267914e-02,6.401104049975034002e-03,-2.087207700708722594e-02,-1.893695778321630163e-02,-2.417781206469507647e-03,-5.967184035458879265e-02,4.399093495299805784e-02,6.375829225277840177e-03,-2.139393071893859206e-03,-2.389373550758720419e-02,-1.667105715289712332e-03,4.655838051675440653e-02,-6.760157116325730964e-02,-2.235245192725136918e-03,2.170043812739587408e-03,4.851892311277287290e-02,-2.887733865919955931e-03,-3.173031968212957060e-03,-1.473389301452724840e-03,-5.327852378657216281e-02,-4.916155748636664123e-03,3.244209734067560885e-02,-1.999586332334177541e-01,-1.707906654539155002e-03,-2.195561372970835853e-02,1.095822557295944404e-02,-1.003018748217258846e-04,2.807334303147364721e-02,-8.171120427559240215e-03,-8.944276195779797892e-03,4.631861638039441731e-03,1.964430515030469657e-02,-3.919613088322400243e-04,7.739033722391894981e-04,-6.083570069570495148e-03,1.885148241788035459e-02,4.215252161873951804e-03,-9.869787174599846391e-03,1.739925552437136813e-02,-1.409055925896502033e-03,-8.899316387485730132e-03,-4.526779791368219091e-03,-9.236238582037444023e-02,-5.591491712389120433e-03,5.721368667647729750e-02,6.592953226983094828e-02,-3.858071011123356819e-02,2.731955432216098476e-02,-3.786698091036984608e-03,-2.228973942895835173e-03,-5.237772262132662712e-03,-4.969485745977549745e-02,-3.553254963556416041e-02,-3.318464421811881133e-03,-3.982546436721595522e-03,-2.797021108114262564e-02,-2.243221436326180498e-02,-4.580108098268593185e-03,-2.651522286191824920e-03,-1.263617698154481835e-02,-2.464653832930524275e-03,3.470794543481488248e-02,-3.162565100123913148e-02,-7.487876423081552511e-03,7.243030040731950926e-03,2.260075400844070020e-03,3.731359440478514838e-03,4.268950609588677801e-03,-1.401145677869206074e-01,-4.130995991274115787e-04,1.516150964248681558e-02,-2.222347197159931127e-03,5.479494733957126530e-03,-3.561167273633056816e-03,5.423621245071437967e-03,-1.152119299959734056e-01,-3.268266266935505523e-03,2.988407024631441894e-02,-9.747035423468381268e-03,1.800903934123945045e-03,-2.347252516392505511e-02,-4.750848590627614748e-03,-7.581885724667578562e-03,-7.557969356028852725e-02,-5.473482799797415449e-02,-6.381145068816132873e-03,4.471807142642940380e-03,-1.592106316301060420e-01,-2.225526825496140781e-02,4.920703641301308467e-02,5.451964043187927308e-03,-1.279829329770905688e-01,-8.927377778245608811e-03,-4.248752039579575465e-03,5.250776781977406840e-03,-1.591667183519084386e-02,7.162103843534964320e-02,-3.850439514026811772e-03,-6.256390044654483798e-03,-6.159004390580195831e-02,-5.146218388110912478e-03,4.688211518560975698e-03,-1.085032568347009396e-01,7.651447409217606438e-03,-5.731235519064882544e-03,-3.672488102257694727e-03,-5.425463370220686560e-02,-8.047115529899184078e-03,-6.685335356182280087e-02,-6.492849768681885694e-03,1.253180091768071533e-02,-5.917400202179318169e-03,-2.845387849723703946e-04,2.252351054667778209e-03,-9.344474647539061096e-02,-3.591861016565212755e-02,4.062350952133274989e-02,3.178056994124673924e-03,-1.782818700563185976e-01,1.384552015525514906e-02,-5.028505785367911717e-04,-5.012927939818573320e-02,-2.919861646105270311e-02,-5.288223516591371298e-02,-1.783650639298110883e-03,-1.464996071676868527e-03,9.583443860875772227e-03
4.149192105948090736e-02,-3.786159704721826780e-02,-3.768912348968513765e-02,-2.259241359877003641e-01,1.001776567144679886e-01,2.322152526304802067e-02,3.961065185747207271e-03,-7.642603782059068963e-03,3.962060480528008764e-03,6.208125898760831485e-03,-4.742891229880201454e-02,1.533917802497472040e-02,-1.148965435756765579e-03,-1.710945930421092775e-02,-1.003540310106412481e-01,1.411833947289749779e-02,-1.984592970888776620e-02,-5.054173770030628843e-02,-1.920388324701131563e-02,1.405390552365270995e-02,-1.768905576329875273e-02,3.732174626926897110e-03,8.522394435903220614e-03,1.568937229502905331e-02,-5.723557887078961279e-03,4.487217050765247850e-02,1.282960466164220423e-02,2.983654713739466308e-02,1.330513864830024442e-02,-3.849533844115538006e-02,1.256539122898508477e-02,-3.101688006330797012e-03,-1.353010396084478040e-02,-3.204553046619729173e-02,4.290252191723064115e-03,-9.670031215380857359e-02,-5.326292656154776178e-02,-8.281506137483518604e-03,-1.403852523031920950e-02,-1.028058592908895341e-01,-9.975461420588006833e-03,-9.235571162862253602e-02,4.540479625966744627e-03,-1.226472974358948885e-02,-1.990915599562624594e-03,-1.420163996493400971e-02,6.823061340907951230e-03,-1.219051084611241266e-02,4.547445342805155055e-02,-8.217326638277842529e-03,-5.625753947021476520e-02,7.591984109416291537e-03,3.495553629264479267e-02,-2.817818050876130451e-02,-1.741490055794873287e-02,1.099023582179729959e-02,7.060446446890243297e-03,-7.367347460758205679e-02,2.953849800403359621e-02,-2.925250251964820001e-03,-5.976710807911500382e-03,2.099715888262303209e-02,-3.448643973307285310e-02,-5.255083845001909393e-02,-1.170112896260668695e-02,-3.462353283183155356e-02,-1.651026493491562080e-02,1.449629340440413035e-02,-1.906285573206566858e-02,-1.742462163260754052e-03,-4.858727472222661853e-02,5.629792065826989475e-03,-2.653559329719057825e-03,1.155033971070578390e-02,1.011175487081417135e-02,-4.420978359341119074e-02,4.200580418401760746e-02,-1.650608787214784051e-03,-9.431256637211563737e-03,-8.140261257279170215e-02,-7.659228084809501132e-03,4.725313375274051500e-03,4.903077655295967271e-03,1.874065755095925953e-03,1.256576030585086767e-01,2.212573175116629501e-02,7.934577746250188329e-03,-1.485334670278334347e-04,5.183268437291361531e-03,-2.344759557970787014e-02,2.392335913347198428e-03,-1.592126600545765158e-02,-2.224761681538614533e-01,2.921246679700722961e-03,-5.697497430754797088e-02,-2.916873099129674903e-03,-4.777204868622609429e-02,-1.146642999734459600e-02,2.215422657878141077e-02,-4.371946314518716792e-02,-3.925518757590471669e-02,1.011832749841568013e-03,-1.682726826171175583e-03,-1.711768133703665470e-02,1.338970894365550113e-02,2.766886209488053985e-02,3.315252590040897087e-03,1.892578703397160972e-02,-2.380622832402130504e-02,-4.726685559605700582e-02,6.555496176777372321e-03,-1.482161687801952094e-02,1.275087979505333015e-02,1.383342568742385210e-02,2.300685821710644896e-02,-8.567328750328948028e-02,-8.747542557572332567e-02,-2.292942883076352564e-02,-1.726623837018858437e-02,7.292581739186021657e-03,-6.785776306591482544e-03,-5.135710221316986367e-03,-7.576278320786410114e-02,4.651955197438625497e-03,-1.112829600492311680e-02,1.525217056203424879e-03,-1.910988950627529742e-02,-1.076879209801940088e-02,-9.734484931102961938e-03,-9.085043779134984940e-03,-1.925402126900419356e-02,1.971134550343688063e-02,-1.961179941434823722e-03,-1.563243874530647129e-02,8.524758357926829136e-03,-4.799548654104095202e-02,-8.020720222598828539e-03,-5.315839118744659225e-03,-7.626851779798302783e-03,2.831884194518282782e-03,-5.057707435114149747e-02,1.260678144370582128e-02,-1.029081960835896183e-02,-1.192220131059600931e-02,4.660775907523569996e-03,-5.531818582277627655e-02,9.284388163239575692e-03,-2.471089521350432194e-02,3.548134286225168663e-03,3.146823131851499752e-03,-6.709897281435769911e-03,-1.515393004640989971e-02,-3.901002592040640760e-02,-2.242080314652289408e-02,5.913935985802713623e-05,-1.004555869820045050e-01,-2.426792757442287375e-03,7.912090380942900583e-03,3.932757531914680971e-03,3.801689980184471372e-03,-1.863551964469591180e-03,3.374153284155427448e-03,-1.606057604594761379e-01,-7.201062598634110079e-02,9.840329033656897151e-02,-5.345215336064503692e-02,-1.114148661013761830e-02,-1.055399176348306017e-02,-8.618848877067306069e-03,-4.567867023628439938e-02,1.425194160720961133e-03,-2.700968279775929626e-02,6.824562008245741926e-03,-1.130356419587257195e-02,-2.629833957130630652e-03,-3.288278085805416279e-02,-2.599874050560723945e-02,6.543255408957467274e-03,-1.181499700214682508e-02,-4.947565477177449933e-02,5.894429674562402972e-03,3.788588322614519586e-03,-2.392332737881634752e-02,-7.827649326960860188e-03,-1.068205033993534642e-01,4.626969796701776300e-02,-1.612486132694583227e-02,1.837804820842960400e-03,-1.065439037559286206e-02,-2.194632108456707770e-03,3.253495835337470981e-03,-9.972030315416506932e-04,-8.039114503275554546e-02,-2.064811062177425785e-02,7.988659923169408317e-02,3.344916090629848626e-02,-6.803286718519055420e-03,-5.861770700370642906e-02,2.559031063366990280e-03,-1.878473793234840521e-03,1.916773352266754483e-03,-4.232921440320491606e-03,-6.156190065077810081e-03,7.176251749592961297e-03,-2.207228251601943067e-02,-1.109466794961564209e-02,6.477985390382844447e-03,1.559024485163345609e-02,-5.335104537383563231e-03,-8.645776198277771787e-03,1.435774760348993914e-02,1.725806999649531076e-02,8.559849202162413129e-03,-6.729691365556970950e-02,-9.501640363646856116e-03,5.738599241824072529e-03,-4.579739382753337910e-03,-4.819584654784730277e-02,-4.282497956355951763e-02,-5.902752169763262474e-02,1.305202346588656658e-02,6.567146905523651122e-03,3.468751904230243694e-04,4.393322886617296794e-03,-2.969506135421395854e-02,1.455561443954399292e-02,1.861953069699526274e-03,2.810189719305712045e-03,5.123597268209986733e-02,2.645535549411189361e-02,-9.536479921937677726e-03,6.962139567531790661e-03,8.246976296934986628e-02,-6.890474170961169431e-03,-8.333901504731283660e-02,-2.103631222552162020e-02,-6.934616448124960968e-03,-1.081885520623827130e-03,3.939374323167964438e-03,-3.309332452931390209e-03,-4.214510087836832730e-03,6.256181961614928899e-02,5.521272656257307856e-03,-1.648962812604086794e-02,-1.269287001880767696e-03,1.460244147910558406e-02,-2.337063475926403223e-03,-3.927132782206429334e-02,5.087694685678806339e-02,9.114068817996782632e-03,-1.592382440435940322e-02,-2.088471748720246296e-02,8.239254621357354133e-03,-2.498674283478563313e-03,8.580659564559410101e-04,6.770729633880642057e-03,-4.157774975057687561e-02,1.317492581343038087e-02,7.703440701524949009e-03,3.669771733784255204e-03,4.951745767066983300e-02,1.640802177222410591e-02,-5.406260405842133743e-02,6.285929680312667307e-03,-2.902060573891042904e-03,5.577575098652165844e-03,9.141126263754026718e-03,-2.723462537785508245e-03,-8.470770909683620828e-03,-9.430169549801711848e-02,-2.399614155510038094e-02,6.683608960201955010e-03,9.520240274183969231e-02,-1.895483201135166398e-02,-3.484011500109842393e-04,-4.361983698821243760e-02,-6.628991932868755210e-03,6.897221390174984590e-02,-8.027156149052335279e-03,1.379305794453492828e-01,3.905632202771482358e-03,2.180335251777179226e-02,2.586163738687542388e-03,-1.773223468904531683e-02,1.130557255861054482e-02,3.964612824864514537e-03,-7.597737772865439422e-03,-2.237902292036738836e-02,1.184303445262480797e-01,7.073207898842162611e-02,6.681020301036730454e-03,8.865458924740371449e-02,-9.678601634071045887e-03,-9.464451085517381831e-03,-6.176997157275009726e-02,-2.352323313890828868e-02,1.984245403758931256e-02,-1.011246070564557386e-03,-1.425203104437034601e-02,8.475980223128761273e-04
4.354150429921007509e-02,-2.118362559460064409e-02,-8.013590667785601418e-02,-6.282518696359716548e-02,2.627132530642094579e-02,2.629178704135027092e-02,-6.857499336248688154e-03,-1.987577115295549243e-02,3.143352453039266123e-03,-1.235257997538577457e-02,-2.539476278596171366e-02,5.513877707019094673e-03,-3.460213925925138823e-02,-1.035861347358073836e-01,3.974492865955952386e-02,3.193896117875247298e-02,-1.658044928321331796e-02,-3.438472843669632129e-02,-1.103531801455799599e-02,-3.420533853242146288e-02,2.594406514529702321e-02,-4.890919604491253576e-03,4.756292587332418970e-02,-5.780612678682419542e-02,-3.047132466756750143e-03,-1.240005243228237651e-02,5.623047170487858147e-03,-5.041987711488414570e-02,-1.448319243490501888e-02,-8.226982838335915316e-03,1.033875352011116291e-03,1.439611953453118036e-03,1.980576452098909923e-05,-2.411787625673514346e-02,-3.915911376397067378e-02,5.854490755055780787e-02,-3.880008045682609152e-02,-5.208623550190688047e-03,-1.970234843417262988e-02,-4.224957389936207647e-02,8.303175633370848269e-03,-2.935458901244511129e-02,-4.670067752218878300e-03,-1.348885369858850982e-03,1.611279258264598476e-03,2.427186377546682039e-02,-6.934730506064908789e-03,-4.245750560834311155e-02,-9.825752155462953372e-03,-1.108969233950032884e-02,-2.423659304029496947e-02,-6.774223469499619961e-03,-1.535669823271224727e-02,-5.239122780232519571e-04,6.130306289397257323e-03,6.155424299346117390e-04,5.374267110270791042e-03,-7.934788219685127986e-02,-4.762331700896409170e-02,-5.075979819927114479e-03,9.038775904974235068e-03,-2.758188063448690011e-02,-9.193274039928008012e-02,3.349587654889498584e-02,1.350584051805606145e-01,1.026177561754544262e-02,-8.021518230416640680e-03,8.050655921707425972e-03,1.333301135345767337e-02,4.633314096539269816e-02,-1.002460374015906076e-02,-1.268822339674424617e-03,-2.364654792190694355e-02,2.316747520197422541e-02,7.080696701606420396e-02,-1.227542026392425684e-01,5.984150985583637852e-03,-9.446933181402722077e-03,-1.515414907062662261e-03,2.882849689008434163e-02,-5.188835998313145841e-03,-8.689111679772956037e-03,-1.484151546876040333e-02,5.759548727244197253e-02,-1.610764129574897008e-01,3.657970727914410685e-04,-1.056734152154932896e-03,-1.577023508021243008e-03,1.217368177758911462e-03,-4.379154932783538984e-02,-8.304653658278635109e-03,-3.032063117765571372e-02,-4.633580152129831292e-02,3.040830892043875516e-04,-8.105590597313389045e-02,6.334662052772309544e-03,-5.166698395877385164e-02,-2.713236432938643649e-03,-3.521559545327156322e-03,-6.851445915259886388e-02,-1.077056246959678422e-02,-1.402213237837114379e-01,1.144644177464695933e-02,4.418977324821614198e-03,-2.337533376418903311e-02,3.041320351964747412e-02,3.364325789228368030e-03,-2.539593780407290585e-03,-9.203643892474466792e-03,-7.337586514398048571e-03,1.004816934520265555e-02,-5.564270021248880760e-02,-7.509480285183061862e-04,6.062708464825226906e-03,7.821037652772179494e-02,-5.377338257949834666e-02,-1.078297396219155130e-01,-5.786779170828223670e-03,-4.456703299310091695e-03,5.035693851023995138e-03,-2.618903728411160498e-03,4.277956500944121547e-03,-4.317268901101509182e-02,-1.041244196842880951e-03,1.261335700742189031e-03,3.633916135554469181e-03,1.461067322653151514e-02,4.625894373081288272e-03,2.818088388665547506e-03,-2.745237650337986959e-02,-1.731449705958967638e-03,2.646048521243778498e-02,-1.100173940414622166e-02,3.491173177759571145e-02,6.855853425026788017e-02,-3.985662725377201940e-03,-6.385920559971064968e-03,-2.968022939843229305e-02,-4.897443953125804866e-04,4.415147184457307410e-03,-5.355620277779106486e-02,4.856763152287390216e-03,-3.333430457950816231e-03,1.428705061632995488e-02,4.004954669106017273e-02,6.319942161813332966e-03,5.449614276177437884e-03,-1.130684206596638958e-02,2.136638542996630030e-03,1.697008453305924114e-03,-4.456858825757308191e-03,3.345006765583138225e-02,-2.780825803639480620e-02,-1.129896008850887930e-02,-1.568274625945733540e-03,-6.277327496943752028e-02,-2.363092208230386723e-02,1.828399489987494238e-03,6.091686158679451759e-04,-1.510373142326603812e-03,-1.454309326375663458e-03,-3.938729244218909520e-02,-3.815580766805726221e-02,-1.173140096904483169e-02,-1.290012564878590950e-01,-1.210998953766963121e-01,-6.625143996292620630e-02,1.807596261747752668e-03,3.102502747455704313e-02,-4.068419023093712561e-02,-9.718655772441513836e-04,-1.214570983124468873e-02,-2.203147024720208871e-03,-2.045394972157789718e-02,-3.208188909845891175e-03,1.815009005040603418e-02,4.379131715824396802e-03,1.048150802778205319e-03,5.284305142410065069e-03,4.089755544944979199e-02,2.577659122324162024e-03,3.996572804879054350e-03,-2.252468036627175776e-02,2.827600136281077994e-03,1.395094505810545726e-02,4.891302280165100254e-04,1.837243780618867737e-04,-5.172302177059307469e-03,8.520325977720556720e-02,-3.237435752676406323e-03,3.000685376666091444e-03,-8.951469613735912878e-04,-7.740805708381381933e-02,-7.931716362040685739e-03,-7.565009487308174685e-02,-4.849813962079077556e-02,5.132015891776520872e-03,-2.039237221648981455e-02,4.515666617267882418e-03,1.433193320916898664e-03,-5.250253605906168852e-02,5.087092118576038401e-03,1.394360340023615254e-03,8.246913280025438414e-03,-1.209130954078395902e-02,1.048094233037112979e-02,-3.846173229931115420e-03,4.409956274961220057e-02,-4.614898320628299175e-03,-6.915584887072626953e-03,1.669492674896819922e-03,3.658907862441133137e-03,2.259835561626763294e-03,-1.160539033104569379e-01,3.126501124932678198e-03,2.661182674518612276e-02,-1.389010386773009004e-02,7.695840148998232821e-03,-5.505238039168424552e-03,-7.709830175869607227e-02,1.373145972287547964e-02,6.265269935933230616e-03,-5.786434509253508308e-03,1.783500129602705320e-02,5.021435075829640965e-02,2.295439092870523584e-02,-1.962679908662950164e-03,-3.812825433068240278e-03,-6.366515185168762636e-02,5.551388719523255022e-02,1.385695963663189680e-02,3.810286580299274313e-03,-4.132537698164687992e-04,-1.522551299294229725e-04,2.751271447235639767e-02,-4.478605587662427140e-02,1.185124170443805410e-03,-1.234497971951981988e-03,2.802056194175289380e-03,-9.483498017413077852e-03,-1.035294815897885162e-02,-4.174628210533036510e-02,-1.754948212455227988e-03,2.192069995301767701e-03,-1.893299362716006212e-02,2.831020599435962737e-02,4.009721343973681081e-04,2.385738588648651185e-03,6.102569225812874004e-02,9.141251153109828179e-03,7.835249253149790052e-04,-1.679357841292761222e-02,4.718592172811278927e-03,-6.614817674890569911e-03,6.538926667465576976e-04,-8.262298577540898087e-04,3.649763249220367572e-02,-6.457218228579043873e-02,-1.246571388542125477e-03,1.992227015486289568e-02,-3.008639994158374478e-02,-1.474410417021475468e-02,2.981709871289336955e-02,-1.980342222528678163e-03,-7.794925583900670640e-02,-2.584513943017365239e-03,2.542363094359322614e-03,-6.457271636541148455e-03,1.501263495440814839e-02,-6.772671193421681002e-02,6.788764547342421470e-03,-3.371901121631786305e-03,-5.018301929973913167e-02,1.306152472742892062e-02,-9.999210049946020973e-03,-5.755246581084613039e-02,2.827711019652776048e-03,-8.905313103753322024e-02,1.949287545053752417e-03,-1.192962372285381531e-02,-1.214183832147211484e-02,7.269527176456692941e-02,-8.096531434185167547e-03,-4.073061625054427703e-02,4.567873108706484858e-03,2.157781276753745550e-02,5.286779352813625668e-03,-9.130769861425185041e-02,-1.292259980450164714e-01,-6.351444725132461555e-02,1.519068381317828162e-03,-7.290059283294064718e-02,-5.171228756181674776e-05,5.550329274702066329e-03,-5.199770575730227468e-02,4.942922449931269613e-02,-1.061667808556897297e-02,6.313894072763577446e-07,5.542511249763894428e-03,6.624346463533523771e-03
-1.773275769489288459e-02,1.039891949302079906e-02,3.099197553069995073e-02,-2.170687546813307445e-02,-4.893088565987908228e-02,-5.879350091681757873e-02,-8.780909354351882842e-03,-4.378252617361809429e-02,6.169731228949453493e-03,5.758514079755732568e-03,5.060744473811936567e-02,-3.611687332476963552e-02,1.438388313874595925e-02,-3.411709328521977946e-02,-6.685330470452471863e-02,-1.071513552551672452e-02,1.671626619367521955e-03,-7.617929323230283878e-02,-3.417903516633687827e-02,8.533850989603320239e-03,-8.654815689756989450e-02,-1.139817978348621599e-04,-3.117900857206080609e-02,2.216998834205588693e-03,-3.478527070684982962e-03,-3.351644809847720285e-02,1.171186579849295070e-02,-7.580174058977902363e-02,-1.941061147893115291e-02,-4.000993462235196731e-03,5.592665168752178166e-03,-1.174275725304257771e-02,4.756076415595684309e-03,-1.288989878408108337e-03,1.666068690686412293e-02,-1.777315068979100224e-03,-3.152719339027895001e-02,8.728128774497594458e-03,9.352572687192906714e-03,-6.177536316356081920e-03,-2.012152303912849438e-02,-3.951562709728712042e-03,9.708225091416073293e-04,-2.488237782857297131e-02,-8.293096086357820002e-03,6.202631235346096200e-02,5.336409413232595135e-03,1.426216137132492803e-02,-2.579627994843823255e-02,-2.149694521056975602e-02,-1.916494401286739785e-02,-8.041778174502769300e-03,3.229952054260783190e-02,-1.159822128459103013e-02,7.621259887158236650e-03,-1.624340107625105167e-02,-8.115724258191937823e-03,-3.024153298185244115e-02,3.699368396290666269e-03,8.977036382327810773e-03,3.014477587658676364e-02,-1.335232810949954323e-03,4.981665854144999572e-02,-4.333026678000116705e-02,-2.255030483934267888e-02,-1.073262572845640195e-01,4.043621021572226491e-03,-7.998621652437374122e-03,-2.479377446700001698e-03,-9.004609186290342317e-04,7.304721140776224142e-02,-1.428566883809473040e-02,2.734062284818553415e-02,8.800543456740994586e-02,4.374948838326459671e-02,1.558198571556500614e-02,-1.174950006706541455e-01,-6.629657169607660119e-03,5.643240028272482334e-03,-9.835056673626228763e-02,-8.738875991955359981e-03,-1.637216422125910981e-02,1.521656738509996089e-02,-1.912583601773882105e-02,-9.679367488258674296e-03,-2.945341754653790431e-02,3.748198374999662293e-03,-4.733806088443552086e-03,9.388300520312085548e-03,-1.870241461309516892e-02,5.810169997993978701e-03,2.805184124882598509e-02,-7.621023588254845216e-02,2.019603189229285476e-03,-3.509682012449633765e-02,-2.697631672727078718e-03,2.206920940150368729e-02,-3.728898950728544524e-03,-2.200670989704529498e-02,-5.505832251595473709e-02,1.167913583103122668e-02,1.301157120298933323e-02,-1.479406535412262740e-02,1.211777587336765089e-04,-4.040460169599340706e-02,1.856284129661893434e-02,2.292676630166430325e-03,-1.083145210281339678e-02,1.417727083776603239e-02,-7.159700146061846737e-02,1.541161600910276493e-02,-5.657117610787779430e-03,1.534829113197847157e-02,-1.926751034097518370e-02,-5.565379318286059473e-02,-2.028544298569606372e-02,-6.925037487903858147e-02,-3.831063540999041228e-02,4.649942624483527505e-04,-9.683813824135446618e-04,-1.176260815329601903e-02,-9.461089434126977640e-04,-8.383426855134380740e-02,1.233015589016397268e-02,6.134741961651090335e-03,1.118279372591934016e-02,-2.038682311230766153e-02,-6.760526818951382612e-03,1.303754876147863746e-03,-2.043466783692259731e-02,1.096648120753240807e-02,-1.973395404575995285e-03,-1.425525017073790007e-02,2.956373147035793597e-02,1.668574324842033926e-02,-2.721886740704856575e-02,1.203324713765644219e-02,2.973494536116316408e-02,-1.056412608612935025e-02,-9.463480793557755774e-03,-6.228257855102869306e-02,-1.225408332136068180e-02,8.331219866726205514e-03,-4.181588992353633960e-02,-2.641756322428955028e-02,3.952698767859170320e-02,7.374468926932527604e-03,-1.907392442068730001e-02,-1.571354841280272075e-03,9.770555990776249450e-03,-5.537405974803764203e-03,-2.701081936435139122e-02,-2.332376488180033791e-02,6.737033581373206431e-03,1.358687271981774691e-02,-1.868338182302165668e-02,-3.201823877385156190e-03,-1.694925088598831517e-03,3.280885644650577155e-03,-7.806332870234183353e-03,-5.499735461719933508e-03,-4.214986629373593252e-02,-8.282407621977475043e-02,-1.395456583833785610e-02,-6.455113146049927531e-02,-2.374805943773434722e-02,-1.306353515402550527e-02,3.533493568473234595e-03,5.267914967936418447e-02,2.316828303867937006e-02,3.388600293356761051e-03,-4.399116517683604455e-02,-1.040973825458753159e-02,-3.058690945929687030e-02,-5.944816120854211523e-03,-3.008859694929994985e-02,1.764916987652512606e-02,-1.434008230805254320e-03,2.761942836857793349e-02,-4.264694192946700407e-02,-3.137650858529815456e-04,7.419262481522762021e-03,4.390754064531549733e-02,-1.532992297146300309e-02,2.683878390008451534e-03,-3.298417534309879690e-02,5.540974937259263849e-03,1.483672687576529465e-03,-1.424504051198890314e-02,5.096133168338849891e-03,8.306212090878136931e-03,-1.087050766538969794e-02,-7.316113736383528243e-02,-4.048489495712324221e-03,-8.607134794422881263e-02,-1.495494956051694746e-01,5.980739572982207361e-03,4.022989352373836786e-02,4.059508884113023977e-03,1.352227140801126257e-02,4.232093351949316878e-02,-1.234013453720051411e-02,-1.874831069332346268e-04,9.034706714588358958e-03,-7.358074314131151901e-04,2.997735463764493458e-03,8.162511094676142692e-03,-1.515478043024592186e-02,-3.230699062819750861e-02,-4.873796824891042309e-03,-1.783139923139954661e-02,-4.039791610142282746e-02,8.134934644323518066e-03,-6.680819187036733664e-02,-1.469845017953466497e-02,5.279329616198053660e-02,-3.878686818104606741e-03,-4.394128897184856886e-02,-5.325764342154364755e-02,-7.320316037756213756e-02,3.176261718331267725e-04,-3.045164467621369522e-03,1.278746543259378114e-03,-5.594268715341678584e-03,-8.098776033532888163e-02,6.308258503922066496e-02,1.161672890548971901e-03,-2.494778132483854369e-02,-9.018303958161157097e-02,4.839906714284550326e-02,-1.165327550572919056e-02,-1.240403474345382062e-02,9.342023809721461403e-03,8.434842853271807064e-03,-5.668161269792733326e-02,-2.369341350777244906e-02,-5.981290144299161379e-03,4.840084775164240662e-03,9.519746307780555319e-03,4.705333594175064096e-03,2.519005756689720373e-03,5.497984695698638485e-02,-5.321426703308202236e-03,7.450269349974880662e-02,3.464330242957633019e-03,-3.673814221206984920e-02,-8.773974669855590027e-05,-3.291559241173732525e-02,-7.883277378033604066e-02,-1.658235994190138118e-02,-9.556037771284201301e-03,-4.462017585530630992e-02,-1.871719893521472250e-02,2.134197982150546485e-02,-7.629529211457525446e-03,2.390329487637054932e-03,-4.136832029992335014e-02,1.227458133977026586e-04,2.010468202604023119e-02,1.132802286295298694e-02,-1.539832266246813968e-03,-1.430547295870995307e-02,-2.001657721462625494e-02,8.836693568112664182e-03,-5.912520921534464291e-02,-6.526034293683809911e-03,6.733725005025567936e-03,-2.112713091947127433e-03,-1.064307495731794430e-02,5.958674569064894774e-03,-2.605987272108278505e-02,4.118456423377290197e-03,-6.476257888119706096e-02,6.856097353525447864e-03,-4.062509727345593215e-03,-1.693114783393272482e-01,-9.241747597439958425e-03,-5.542063740045714143e-02,6.002996061750712209e-03,-3.054871230037047025e-02,-8.528322754914734530e-03,-1.924313827111752764e-02,-5.669389180443191144e-03,-4.878898710513569076e-02,-2.595604586206358769e-02,1.106192970612260122e-02,1.231261238278214161e-02,-9.733732563465691268e-02,-2.512268316732074735e-02,-2.384558107061951135e-02,-6.743350432944354364e-03,-7.574602874405268749e-02,2.598695262155229126e-05,-5.614277156224404056e-03,-8.156910689868242248e-02,-5.485432936052590108e-02,-5.973412628801361146e-02,-2.878061490916229443e-03,4.938797277979074633e-03,3.056082068011563291e-03
-3.570821536366106108e-02,1.143726782686170507e-02,-2.163041256442147994e-02,-1.357712463180626161e-01,-2.712079048864158085e-02,4.951744347997068946e-02,4.904528496462725110e-03,8.602159818185690920e-03,-2.443779011644188134e-02,2.036830002613398971e-02,-1.432941745522751942e-01,1.883570950628439891e-02,3.577400865293529214e-02,3.769658128150508297e-02,3.885977747368110635e-02,1.163808351261770915e-02,-1.401092368297706184e-02,5.254813625901670615e-02,1.145288146067359805e-02,-5.476008441613916533e-03,6.609373777157168117e-02,-2.213543567629132607e-03,1.504734377838048628e-02,-1.731705102317712686e-02,1.058358202117468810e-02,6.407255407531817215e-02,-7.465762614249499274e-04,3.465081578844279170e-02,1.524020327719717224e-02,-2.484211120944747331e-02,-1.118331407973705699e-02,-4.189429760367619285e-03,-1.060276486757939264e-02,1.102785346514157695e-02,2.599880429337727075e-02,9.974522774776578560e-02,2.059714053723132876e-02,-3.033748343026132152e-02,-3.691920279277901922e-04,1.671846259414493802e-02,4.443523111417798169e-03,2.536041478238237196e-02,-5.210947130435313220e-03,-2.552603160812876113e-03,-4.255534884838894048e-03,-5.741977666575277112e-02,-1.535421007285233102e-03,-3.121073785441205381e-02,7.669403434159863427e-03,2.716045487044596238e-02,-1.179521729238545980e-01,5.334691134916874460e-03,-3.869543068439921379e-02,4.272445890773969579e-02,-2.380423939787696883e-03,3.331335772999856771e-03,6.830574325589256791e-03,-1.912164169214968790e-01,3.690942915736344920e-02,1.118553817091355249e-02,-3.756188396976084098e-03,4.871248956926835412e-03,2.433561445689689726e-02,-2.786426022257483537e-02,-1.794325417350966789e-01,1.336027481126397624e-02,8.004158781618938776e-03,3.716884777005090637e-03,-3.312741273103783635e-02,-3.317759705482786065e-02,-7.655363839920924229e-02,9.023923218969670187e-03,1.036818027295249682e-02,-1.274004471592814908e-02,-1.001330699887580944e-01,-7.872474799804282664e-02,1.377896678005840862e-02,-4.538605809210140979e-03,4.242134540494066873e-03,6.134960494606832120e-03,-6.815037841712269680e-03,-3.550508854479362229e-03,1.069514419448865938e-01,1.929309215776112997e-04,-7.547960395754500784e-02,-4.672192127739353308e-03,-2.322994160992600428e-03,-1.803892965933376552e-03,-1.354852459282679562e-02,5.706659715073404693e-02,5.219593452056108494e-03,-1.894923858881532308e-02,3.129910093382275854e-02,-2.627338353053124825e-02,-1.733416006650453575e-02,5.798772711799679309e-04,-1.004030383275886923e-01,7.245365215974650629e-03,8.592785464244970944e-03,1.948996888283588066e-02,1.475053382394996872e-02,1.345799178128855370e-02,3.246462188982676602e-03,1.887161402246500478e-03,-2.239565573854727931e-02,-3.870412121590215485e-03,1.071519486830678795e-03,5.491763401747586787e-03,-5.143252990334869906e-02,-1.190373663710688444e-02,-3.170565241603324775e-03,-2.188886283258852788e-02,1.100838802828164875e-03,-1.914585912363230003e-02,-1.353172121496816482e-01,2.245522735106490406e-02,2.616379601349369879e-03,6.130002716728209615e-03,8.708265334209262451e-03,1.342547116944998314e-03,-3.152693526600850739e-04,-1.577709365206163760e-03,-4.776965877602332156e-02,8.968576832424468570e-03,-2.591027594490373249e-03,-1.610253485908078042e-02,3.475375527674798119e-03,-1.363441446656283099e-02,9.372189307772725228e-03,2.029322029242125805e-02,-2.602752377720304183e-02,-4.846504075944086699e-03,-7.844714692427564098e-03,-9.502576686495213532e-02,-1.657055657441350305e-01,6.744303410024866940e-02,1.273934007862512208e-02,1.177937740757870836e-03,5.472872331562091304e-03,7.280172004068596707e-03,-1.168035248891711314e-02,-7.891881266985640089e-03,1.898822559869722468e-02,-1.013940991198429911e-02,-2.360265696692236473e-02,-1.854434528619885308e-02,-9.860430335050915287e-04,-5.187066771234880719e-02,7.368122231178674680e-03,6.327591281109845069e-03,3.847734204860239239e-03,-3.797306860618931967e-02,3.233108122215792336e-03,-3.650420552319283331e-03,-1.703131614107477806e-02,-1.197981597481158622e-01,1.256073550837215162e-02,-1.360801795436975166e-02,7.259539076562276233e-03,2.155044704197792583e-03,6.973259190243720831e-03,5.476060107728678711e-02,-5.980939814402655430e-02,6.931143892905237969e-02,-4.634900731206989533e-02,5.047468546164117498e-02,1.001701793177916383e-02,-6.487025785423304082e-03,-1.047041929652958586e-01,-3.801524812968008066e-02,5.353262182039687268e-03,4.584752624891060696e-02,1.437448768358377382e-03,2.398408767981478548e-02,6.582270347424681346e-03,-1.462086708098015754e-02,-8.969722720465857224e-02,8.423017350609336359e-03,-3.713194256408941518e-02,-2.173608798572246315e-02,6.516348809626201950e-03,6.103535737081593020e-03,5.242613199130301965e-02,6.534036493480094472e-03,-6.492907755953973570e-02,-3.423405404553639311e-03,-1.831035978978593241e-03,-9.084454734993807623e-03,-8.509852123135568103e-02,-2.727973418350358552e-03,-3.770735913865352201e-03,-5.993136089180740519e-03,-8.288766128591538995e-02,-2.167821500579698857e-02,-1.127173902391798016e-01,4.983905900530510857e-02,-9.226308865890943053e-03,-4.280818008913707916e-03,-2.134696168412424447e-02,-1.367368356461211125e-03,-4.790153521753594268e-02,-1.491052361766625686e-02,-6.342338209327045596e-03,-5.047936492151234092e-03,-2.980120879266842226e-03,-6.710435540332224981e-03,-8.093885107629209680e-03,-4.617479009458030914e-02,-3.457284673262142616e-02,-3.663277032984896871e-03,3.455513425870455988e-03,1.302433833084003754e-02,-7.729601387152334503e-03,-6.401426025157259947e-02,1.614271078604753024e-02,-9.929109103433453321e-02,1.305997113326720985e-02,-7.855501888753531337e-02,5.486977864846219466e-03,-3.370029578493645428e-03,-4.584425931629117212e-03,-3.751647247718286303e-03,7.718529847412413693e-03,-3.821147612135895356e-03,-2.184696733511505215e-02,-3.533404922249423763e-02,5.086979747513910516e-04,-4.636030334938939616e-03,5.092268846907671218e-03,-7.384407836262517344e-02,-2.756704399115443224e-02,-2.219300475747821785e-03,-1.034056551173459342e-02,6.715454781107867664e-03,-4.555480716234032446e-02,-1.177766670735127391e-02,9.035083279475373142e-04,2.289129101887142637e-02,5.730367721791832999e-03,-7.502859323325988990e-03,1.121980856476324090e-02,6.134549573499645768e-03,-3.956931260269972361e-04,-6.608264906429606178e-02,3.564724958453825438e-03,-4.392634309084993138e-02,1.066244926293914014e-02,1.851525309618159423e-04,-3.204803131998031768e-02,5.199790897231973755e-03,-1.307108653683514404e-03,-1.297156120546993007e-03,-3.511084128893475899e-04,5.267988442524757647e-03,1.295120794961571349e-02,-2.826344497723586578e-04,-1.344120490057261752e-01,-1.985308057645429961e-02,-6.340118153200792819e-03,-1.388884369428942944e-02,-1.115837376132341324e-01,-1.570730955484486713e-02,1.738768756256033055e-02,-1.906465824593088889e-03,1.912151047328792750e-02,9.892671477718103373e-03,2.520663814740703532e-03,6.478500180851591399e-03,-3.629803201977281624e-02,-2.875178709718793912e-02,-8.392039609547088594e-03,-6.294231802549670775e-03,-6.104374949201253620e-02,-2.533404505040088434e-02,7.893529460298177869e-03,2.488429695132063010e-02,1.559215431730977611e-02,4.878907603890732594e-03,-5.839657251292048636e-03,1.300876032432013961e-02,-6.446472625605583796e-03,-4.122636994077330530e-02,-1.163284354345900211e-02,5.811646725288004134e-02,-1.875554800075884126e-02,3.585311791147477705e-03,3.603791926903522538e-04,-2.935556548482210967e-02,-1.961129787522779278e-02,2.060189070614192736e-02,-2.497862335302043074e-03,1.909797259570787144e-03,-1.609010607935246976e-03,1.887005883928210117e-03,-6.639422926025330407e-02,2.349379605785157504e-02,-7.969624426470738737e-03,-1.252706524420773649e-03,-7.276368062390810472e-03,-6.474108850136483899e-03
-1.113722898964633196e-01,-8.228798092910454345e-03,-3.307199107825471718e-02,4.254305727899097833e-02,-1.723926898945688235e-01,-3.356983821553716912e-02,5.318306902653394840e-05,1.254367578319881722e-02,5.470558213229895911e-03,-5.955361973259805375e-03,5.394085721327751548e-02,9.913040846120315872e-03,9.216779894259716222e-03,-2.078768604081588645e-01,-7.614791869166270301e-03,-9.912084333384746718e-03,1.656641915665180848e-02,-7.619249635570465862e-02,-5.418934264218678437e-03,-2.615161761678961097e-02,-7.715974985363524552e-02,1.225555649698653084e-02,-1.741584443329661017e-02,-4.660056872995443911e-02,-6.772285858681863745e-03,-2.541532866819176673e-02,-1.460367942929387090e-03,-1.041507362798794883e-01,-1.646557607046593777e-02,1.819705769028555700e-02,-1.547054639920743442e-02,4.136078163073301020e-03,7.270806050263066596e-03,-1.550484249201659892e-02,-1.988259849615408442e-02,-7.135678469489047798e-03,6.124045768436773250e-03,3.061355837437017280e-02,-2.905312116827623269e-03,-4.797546563865914132e-02,2.435698138333276461e-02,-1.217497704954997352e-02,5.142489128282560010e-03,2.781041192481413515e-02,2.306477914053021126e-03,-2.027784950676335407e-02,1.480695101555267856e-03,-1.006030045329869838e-02,-2.116365304021219917e-02,1.203993105339447311e-02,2.392293605148150884e-02,-4.872199614377135772e-03,4.661546210303485482e-02,-2.781998254229916460e-04,2.482622820226912733e-03,-1.427481843558539576e-02,-3.963379255310645727e-04,6.630241268505880636e-02,-1.348560469359171010e-02,-4.646253012178357643e-03,-1.734268986031103910e-02,-1.710533080609827382e-03,2.954064608647784251e-02,-1.532138848820635037e-02,5.070197391624414740e-02,-5.649269449594435805e-02,-1.334852771244654512e-02,-2.090716183802258411e-03,-1.372342105969918957e-02,-4.321990411031329665e-02,8.508144975949661834e-03,5.707096001407742022e-03,1.193949480163667212e-02,-7.685886183458336129e-02,-1.470888089138841330e-02,8.279801135257974787e-02,-2.907449404417495817e-02,-3.681196817670829343e-03,3.022165339459985346e-04,-6.825649272468922724e-02,3.548620103703731266e-02,4.242514783523150187e-03,-4.667196064287880333e-04,7.656668192269737439e-02,5.759469766929687512e-02,-2.811383204822836754e-02,-9.282635127964041291e-03,5.214837319698546227e-03,1.013407601813124748e-03,-4.096647397507691829e-02,-2.155522745207690688e-03,4.172396522625912429e-02,5.213451932384247957e-03,-6.416244497543353506e-03,2.705939468432157560e-02,3.902614341190748719e-04,-2.860836663179967820e-02,-4.562394127389107941e-03,-5.885846830327018213e-03,-2.178734420797388133e-02,1.311672014879249580e-02,2.765700455239401140e-03,2.659263759727211601e-02,2.933572550044021357e-03,1.662494856507319360e-02,-4.386331502966074603e-02,9.841830529451801174e-03,-5.599296859005021762e-03,1.179217932911216619e-02,-4.019358694031178320e-02,3.093016001808188229e-03,7.679312415266348335e-02,1.760648350682871840e-05,-1.860492989496405694e-02,-8.915287366804106051e-02,3.538191411343392240e-02,7.226212919309016325e-02,-3.075688338841904568e-02,8.086659252983179709e-04,8.985568155599253301e-03,5.095992741044283805e-03,5.180023378310629097e-03,-1.788588251774211185e-02,1.771674968799797105e-03,4.944349317547702119e-04,5.209904586467010816e-03,-6.563795830632230405e-03,1.367035245493845863e-02,2.371037469828422579e-03,-3.572643707995936529e-02,-4.802645322849323148e-03,-1.630467446686721666e-02,3.650254825246701182e-04,2.689212283951376153e-02,-2.704145881168051185e-02,7.910010118065526410e-03,1.201829667989127298e-03,-1.786513347684299396e-02,3.865134520325601720e-03,-2.684658353970353385e-03,3.111586419036033863e-02,9.427039487135252180e-03,-8.013643955218502368e-03,3.658992648951980495e-03,9.480322367912647624e-03,-2.017219474353176140e-02,1.106217150708279241e-03,-3.199558575599293492e-02,2.084817782971320251e-03,1.071089314681321477e-03,-4.487700507265861977e-03,-1.939701405734438680e-02,2.204989912710236463e-03,5.953202362124087113e-03,1.080623492336550825e-03,7.757921714843460381e-02,1.000855794206244320e-02,1.524386565858774738e-03,-1.525957843220150415e-05,-2.910147799508361072e-03,-9.594951050540836924e-04,-7.682877799358676756e-03,-7.315054625085741502e-02,-5.601485081982008479e-02,6.393911518938416583e-02,9.282651920192803996e-02,-9.350283610510542326e-03,4.687692822803352609e-03,-3.576692443060942167e-02,9.054678389285095511e-03,9.035126589382463935e-03,-2.940222285117152085e-02,6.551216304620167963e-03,-2.357209119033809152e-03,-2.520373798362093246e-03,-5.496546966283015478e-02,1.068462039164017746e-02,3.863238475662820939e-03,1.206118030974105866e-02,-5.974034231156978569e-03,2.786337646548322968e-03,7.797470466784747062e-03,-1.060990884509686871e-01,-5.818890127979433648e-03,2.650653836929346002e-02,-4.009281851827620202e-02,3.607064336159570769e-03,-4.821111650721154364e-03,4.318516836215230414e-02,-5.116988887926973532e-03,6.654233516805359641e-03,-1.371387834812180708e-03,4.179549372717838995e-02,1.866056792195660077e-02,8.593859230585075906e-03,-2.948375560377193907e-02,-2.822530689503754617e-03,-1.090813281299548611e-02,-1.111647550796186421e-02,-1.283887568507539488e-03,-3.541158561109178371e-02,-2.618276819954058754e-03,-8.802700089730476629e-03,-3.865085938499213548e-03,-1.202559793588700750e-02,7.023597162832180161e-04,-3.386664996361617944e-03,-2.678732951279073557e-02,7.050906122466160664e-02,-7.259240145802888129e-03,1.402728011813572043e-03,2.928843672389425459e-02,2.018151933682611407e-03,4.671053408953033947e-02,1.618266932918033122e-03,-6.058337298147119243e-02,-2.347173217678993028e-03,-4.640269702214198932e-02,-1.376918458231472624e-02,9.508160792148502571e-02,-1.901091258271991533e-02,2.281260730046810997e-03,-4.184324633176501364e-03,-1.389704226770609868e-02,-3.503096666320401620e-02,-4.110300822759190703e-02,-7.801483228465242933e-03,2.683153130486255668e-03,-2.439184405854470661e-02,-2.138277023135221749e-02,7.014894142242624614e-03,-2.237100959442341226e-04,4.482945052891059920e-03,1.026508125608643473e-03,1.441936068846593269e-02,3.058891930715948448e-02,-3.076225328895336453e-03,-4.017464797988930941e-02,-4.338441164292022867e-04,-4.449511538368118926e-03,-5.396381831783944247e-03,4.303520485567496889e-02,-5.068560899455902720e-03,-1.612783746896032100e-02,3.069062805986357955e-03,-3.202872986638630008e-03,1.029752366409465800e-03,-7.035800566114794839e-04,-9.546157494369973684e-02,6.676491401723876930e-03,2.454269070134693868e-03,-1.489946602639499957e-03,-2.953295152694976333e-03,2.737222155758974040e-02,4.321954525336193197e-03,-2.486272855410863545e-03,8.414635665674430332e-02,-8.726211719885564044e-02,1.085595176882693004e-02,1.798951578559759845e-02,6.776288243472854134e-02,-3.896059664622219133e-03,-6.186910840020209273e-02,2.503681476969872241e-03,-5.190249784836349634e-02,-1.694797140234952440e-02,9.375009394810971579e-04,7.604678364343734134e-03,1.777966033064394200e-02,8.309366558794089447e-03,2.973936980265730941e-03,-2.249508149283867275e-03,-6.252016484322760193e-02,1.242807367388556669e-02,-5.789823948278767507e-03,-3.431473541540407818e-02,-5.166557403026440787e-03,-4.153017780008428500e-02,-3.664060862006744690e-02,-2.807154435051103375e-02,4.383053432227414052e-03,-3.610586344734583591e-02,1.345483838973211398e-03,3.749792801411486274e-03,5.593394787275042697e-03,5.585263086762993524e-03,2.600345088378662895e-03,5.685856507313953589e-02,-3.837538348945476741e-02,-1.728832247094131205e-02,-3.433281824737411878e-03,2.364748176553283995e-02,3.186845757678045954e-03,-6.263294081048681634e-03,2.289623078367581527e-02,3.450146352293642638e-02,-1.794133032382454196e-02,4.776610398514181434e-03,3.396531166498367553e-03,-1.865371690619649142e-03
-3.434478742325759726e-02,-2.219841929777694595e-02,-9.616722259024786112e-02,2.585972131259143408e-02,3.915810201879203929e-03,3.653158544820254289e-02,-1.728906338796929636e-03,3.913343816721160003e-03,1.567308482560535480e-03,-2.421396351722047285e-02,-9.096516622478419134e-02,4.005406467624713675e-03,2.624083243881384503e-02,-4.893253746882971454e-03,1.035835940159055349e-03,-1.287102959490423609e-02,1.366977755586893089e-03,7.392276036030077067e-03,-1.488141381064850971e-02,4.112598448484701408e-02,-1.690807025654062976e-02,-6.323402762856015005e-03,-1.112717279750742583e-01,-4.386416288748828940e-02,6.590087237269862293e-03,-5.315021537946588819e-03,3.311815729245734183e-03,-1.274975684385957764e-01,1.123715377749547571e-02,-1.738115255343694945e-02,-1.302858623106159693e-02,-5.350590610963613589e-03,6.727845907047247463e-05,-2.620802008817436218e-02,1.693105891342403663e-02,-1.067953495442248574e-01,-7.124497732575705428e-03,-6.954823660045706193e-03,-2.737753084371702048e-02,-1.784544870644644010e-01,8.374370970392365759e-04,-4.990453982547136957e-02,-3.718627908809871499e-03,2.415230914781034757e-02,-3.682238011169885333e-03,-7.426638231854809820e-03,1.620633280385113143e-03,-1.529038030239662088e-02,2.665359990013156481e-03,-2.045605050073301401e-02,7.158043214223243356e-02,6.872792723484521388e-03,-6.559442987494498722e-02,-3.711005845783873786e-03,8.072047539192789972e-03,-9.791559142217876391e-03,8.227844326451617257e-03,-4.802322913864785769e-02,-3.854049048979639458e-02,-1.093442964029222577e-03,-2.928647372336261323e-02,-9.888299707011968202e-04,-3.020014129350896415e-01,1.603508138410515010e-02,1.619999130015301048e-02,6.805098585293488378e-02,-2.643033911358775700e-03,-1.111672731546388578e-02,1.428598690540627651e-02,3.887195123890430787e-02,-7.331133691579419520e-02,-9.215145181500154423e-03,-2.674032763135289568e-04,-1.046853666933317689e-01,-8.715414585195117858e-02,-3.770815372901629992e-02,-1.752184784291800938e-03,3.816412100985078302e-03,-5.254081485157346444e-03,-5.986752768167583061e-02,-1.924107790121919268e-03,-9.804788141518326616e-03,2.324589463726912941e-02,-2.941338350503523366e-02,1.767582443127296496e-02,3.635479069760924522e-03,-1.704636622437246101e-03,1.014286293134913572e-02,-9.264096566478703665e-03,-5.070516265795804722e-02,-1.538973576954449397e-03,-1.504854436246587934e-01,-1.054098485132723834e-01,-2.094521870178846223e-02,-4.993346695908811722e-02,1.104578624918510499e-02,-7.582933651684387044e-02,-5.533465585399805452e-03,-1.973945439802107099e-02,-5.882079809957758282e-02,-3.808727422812997754e-02,-8.830828507780423553e-02,-2.736160321157868336e-02,4.539774143870028630e-03,-2.821519954098836852e-02,-5.972856355110513216e-02,-1.343727113098896857e-03,4.666716788115665183e-03,5.648540389751305601e-06,9.143085006948400983e-02,1.077420982785998139e-03,-2.717984818094782568e-02,2.155030207531982863e-04,5.383996105954857135e-03,-1.451781419837071263e-01,4.601665642938540524e-03,1.513546440280643876e-02,-2.821787008778444891e-02,1.465649648013657132e-03,1.084730618176957088e-02,3.697549603356593915e-03,1.069361678770083639e-02,-1.106331685864500765e-02,5.835556515504047859e-03,3.438505328483012612e-03,-1.102892403209066591e-02,1.210442430909415036e-02,-2.301107669794985947e-02,1.832214184614922720e-03,3.538613330650589028e-02,-4.188518360194393099e-04,-1.669592224759844368e-02,-6.105680631965011186e-03,-1.501656814693495823e-01,1.740617192358256959e-02,-4.124262414211411765e-02,-1.694534663257221338e-02,-1.698668536114270045e-02,9.564878180754955023e-03,-1.371909121857614773e-02,5.104372150908231820e-02,-9.779727689792603457e-03,-1.981187409215389925e-02,-1.761133516045313915e-02,-1.831321495168761887e-02,-1.455311597155329456e-03,4.700472856696732461e-03,-4.481723120204473415e-02,1.118009374336221759e-02,-8.076271131332628467e-04,-1.177214701593776516e-02,3.400092869752400354e-02,-3.964350749314948102e-02,-1.601641948664785792e-02,-1.307971479266394586e-03,-5.413175100408210150e-02,-2.884705149903639063e-02,2.877294390359981611e-03,-1.080725061529582559e-02,-9.496036798442587454e-03,-2.606935237725389615e-03,-1.422018163448494216e-02,2.523212430095864503e-02,2.244417668586377521e-02,-3.291633806484628617e-03,-1.173063455066526428e-01,-4.315064130024833661e-02,8.927775408714561101e-03,-8.326362101204318189e-02,1.747166454195572816e-02,3.259391097647402688e-03,-6.023858758347754028e-02,-1.076554894868912444e-03,-2.594018831964545191e-02,3.337267040049825099e-03,-3.229261183522456197e-02,-3.168200129016352645e-02,4.801394771380309949e-03,-3.739553618878814489e-02,9.720894846016181479e-03,-2.862324484959141713e-03,8.902213225358838328e-03,-1.909830569458377883e-02,2.550179944912605266e-03,-3.528800315326195008e-02,4.682574648025022296e-02,3.253759810685851513e-03,-5.391519057908419378e-03,-2.674427409109356689e-03,-1.350768493143010606e-03,2.856488809864578520e-03,1.063425938926063422e-02,6.010078880124219980e-02,-3.747392977630589067e-02,-3.786524372758554025e-02,-1.679665849612134443e-01,5.319983571472198906e-03,-6.062765851972828218e-02,9.118793882978287746e-03,3.989710907869674014e-03,-6.967404070355849577e-03,-8.315191564592818232e-03,-1.376140237785876408e-02,-1.940662987079535629e-03,7.814999321805127458e-04,-3.203269349843537294e-03,3.848865269553633679e-03,8.820792982278049740e-03,-5.277154273606871060e-02,4.157578917752622477e-03,2.281390617213576583e-02,-1.445164782158440096e-02,3.892111858786493489e-03,6.898441473004340851e-02,7.632203800300163543e-03,-5.988387268017326959e-02,-2.237584639740373971e-02,7.350664411955034130e-03,-2.357617938573298988e-02,-7.878692775223093692e-02,-7.269433126878955750e-03,4.656639703243816222e-03,-1.522487341558405663e-02,-1.159688725936951562e-02,-5.575824443869960984e-02,-1.110947822389120043e-01,-3.552455236344324906e-04,-6.004194295696229679e-03,-3.258099983109649656e-02,1.189599199478092069e-02,1.727333762037401447e-04,6.684268634646807483e-03,-4.256323709650879084e-02,8.146299272162644059e-03,-2.249592475974437943e-04,-2.469986418040509210e-02,6.179823855951224049e-03,-1.326407051713847894e-02,2.636789086346047234e-04,-5.712946832424263197e-03,-8.314190737474237008e-03,-1.344141746141524763e-01,-7.067897335476378516e-03,1.128106612168482126e-01,-5.308938410441833324e-03,8.485298368772991803e-03,6.186358243611227853e-03,-2.511073286063692997e-02,-2.206419710099007461e-02,-2.458703050685497049e-03,4.389753773491615954e-03,-1.949794252148898469e-02,-1.480572756565288334e-02,-2.248909927687366833e-02,-5.913411685625772013e-04,-7.910549198712002808e-03,-1.176646367744638155e-01,-1.438447390117798645e-02,-1.518810767737355759e-02,-2.221706891923415361e-02,-8.174532968331105209e-02,8.928441363672569991e-03,-7.976503941733771585e-02,7.586040926964250641e-03,-1.375718691427565421e-01,-2.522096262404975586e-02,4.943967082752680209e-03,2.802260463974561890e-03,-2.821876997672385923e-02,2.407544480758270176e-03,5.725559985895595054e-03,4.699517754639686087e-03,5.144212400296943599e-02,-2.023278152608916358e-02,3.819473159772549670e-03,-1.383779816994058498e-01,-4.897381147612885587e-03,-1.253257985838639003e-02,-9.242879731488811215e-03,-7.926162487227272901e-03,-7.567306585593027400e-03,-4.183009540070737470e-02,-1.143968572803671577e-02,5.195217899971268233e-02,1.278042795410612095e-02,-1.961465777264515334e-02,8.096982427846803956e-03,-9.963212950648347999e-02,8.544628401424400957e-03,5.826063772408737913e-03,-5.793940173031798986e-03,-3.607696185620690166e-02,-1.330302927972052719e-03,1.450192928453811897e-02,8.117124059837549366e-02,8.938367685643454352e-03,-1.715724744415220507e-02,3.364647568479970687e-03,-3.764040208621899884e-03,-1.009547820148895374e-02
4.385305840748723871e-02,-8.179710985441356746e-03,3.675915110135863188e-03,-8.047992948605272798e-03,-4.644081717322289665e-02,-2.459660217029634166e-02,1.183550741948428964e-02,-2.136118207847511816e-02,-8.686221731387963260e-03,2.084109357366338219e-02,-1.301352937745442195e-01,-9.921181659873580527e-03,-3.672213798319159256e-02,3.599580107433300591e-02,-5.779878038845340932e-02,1.202750870146757425e-02,-3.705855693342829937e-02,-1.289390859909184291e-02,-7.188313395402422604e-03,7.225443169536943308e-03,8.310290218848924437e-02,-5.879865382910555438e-03,4.557035428996578097e-02,8.937142436618378954e-03,2.254271977006159361e-02,1.246629708056730748e-02,5.647739359295048285e-03,3.806932883741694779e-02,-9.833457108693460791e-03,2.002442059894456259e-03,3.706472131728517222e-02,1.059003470295181125e-02,-3.931936906966626392e-03,-2.106529669343193932e-03,4.474904613380894722e-03,3.304352424800112431e-02,-2.711408713378023888e-02,-7.053535745443691163e-02,2.368674823155280523e-02,4.487131609517372444e-03,8.954421973098512094e-03,-1.752594511019265819e-02,-1.683712657630476520e-03,-6.190301987711897130e-03,-9.254012370485132852e-03,-5.876149613392472187e-02,-7.540116647259152011e-03,-2.279885031120923791e-02,1.304873291926693987e-03,-1.765368806739052790e-02,9.355647053427654583e-03,3.554928832869222108e-03,-6.741414179475170576e-02,-8.975708770127308056e-02,-5.428047082408626878e-03,1.145932289660805091e-02,3.971383297971044744e-03,-7.973095147284437606e-03,-1.444597831869105266e-02,4.080134774328966416e-04,-1.564751438878943246e-02,6.234373814035110671e-03,-3.836149403053372431e-02,-4.649670040468241450e-02,-1.348352819534300029e-02,-4.609765513071233806e-02,-2.237645639311661248e-03,7.492000291163219798e-03,-1.825977403857333495e-02,-5.743013401614814606e-02,-4.119179911791541471e-02,9.953568225870320155e-03,-1.366266229598023414e-03,-4.157441276420534987e-02,2.484913925491542483e-02,-4.290221894614710402e-02,-3.510887770610509467e-02,9.515504162926766846e-03,3.164546145764640227e-03,-8.471291002008647089e-04,-9.659251052245835037e-03,7.693023377771456700e-03,-4.083698615460992776e-02,-7.517430398459336305e-02,-6.130667255420846340e-02,-3.861487902032504499e-03,2.374473507298531516e-03,-3.086827114190528014e-03,-5.082986331892416602e-03,1.632860330634184178e-03,-6.881400226604421615e-04,1.357256729432616132e-03,1.128298084015763245e-02,-7.087093469388650382e-03,-1.345476327357908800e-02,-7.154202354448371826e-03,6.034177097289678687e-02,-1.097608031915009441e-02,-4.818160872684966976e-03,-1.042142994212945789e-01,-1.323520133502377114e-02,-1.308726643466068913e-03,2.339037318561781181e-02,2.377904579307730387e-03,-4.207780837382048278e-02,-1.607835671871988767e-02,-1.011718727043892617e-02,8.293141411081539002e-03,-6.122989872598392364e-02,-1.712597405286995778e-01,-9.273754154929736079e-03,-1.429401530819876358e-02,7.206957502233489118e-03,-4.296528591540531294e-02,5.715226341200338456e-02,-9.460072679876960211e-03,-1.771919621699353728e-02,3.122635060226274656e-02,-7.597066389907174014e-04,1.687805275697536536e-03,5.603333040833390760e-03,-1.144132311611363584e-02,-2.835482611781360573e-02,-3.201479562387451842e-03,4.781158084068015332e-03,5.347045587560330174e-03,1.103532915199972398e-03,-2.519840421334994598e-02,7.912064851673740115e-03,-4.822794777416753408e-03,-4.545396264446117073e-03,-1.386507643835048834e-02,-7.136911601026189010e-03,2.844487274889690581e-02,-6.270426501827608412e-02,2.885094939676336595e-02,-5.590375635731100433e-03,-9.415929851142253214e-04,7.640063500517844074e-03,-3.201105160748410339e-03,-1.007068359034391999e-02,-2.209672895588468168e-03,-3.947227315022605425e-03,3.820931438209426712e-03,-1.985121794761864414e-02,-5.283609702738503722e-02,6.629849088832635851e-03,7.133226695725784772e-02,-1.671115167514775253e-04,2.707222856134857900e-03,4.246331865205779307e-03,3.175585110877108402e-02,2.475753127794276878e-02,-1.504792354236053793e-02,3.655900269946765584e-03,-3.130818815120493814e-02,-5.451700698628771449e-03,2.673226627718088347e-03,-7.611176058042831325e-05,-2.580304667408361494e-03,5.462276496088051998e-03,6.588996660478491953e-03,1.365338902566658463e-01,-1.411265744359415167e-02,2.871820343430631778e-02,-4.443889252242651938e-02,-5.013335861334560634e-02,-5.683900714148434376e-04,3.054711948606761776e-02,-4.550809660535961448e-02,5.175315431398220742e-03,-2.662205186447319863e-02,1.363002561819779031e-02,-1.214668979780843955e-02,-9.204712569259146425e-04,8.730293716012410901e-04,-1.086097533064637466e-01,3.526246043439357821e-03,-4.769061688480547012e-02,1.714302925277060713e-02,-8.256671718076808233e-03,-4.039658463468798720e-03,-7.891070819836709660e-02,1.318201715707720051e-03,-9.096438171444788667e-02,2.763025646542254313e-02,1.912691528735249594e-03,-7.667432136314359173e-03,-1.176049858394608988e-01,5.252259453104122372e-03,-6.272607570388972521e-03,1.564742360885463049e-02,1.073590623478399841e-01,1.880368626058772502e-02,1.763328877620775129e-02,5.449269433069486163e-02,6.120142760397451025e-03,-4.380327928221370432e-02,-2.460085074065846648e-03,2.945189705907238879e-03,-4.114395412620410614e-02,8.992666159645779089e-03,-8.524738188296303700e-04,6.902630927663461549e-03,-4.726796723745019940e-02,3.833191363707710766e-03,-1.049001894516156039e-02,-6.553453426217190070e-02,-5.157362123375017898e-02,-1.273657037229365685e-02,-5.685163842443463969e-03,-1.394019767845647816e-02,-3.558257361182563024e-03,-1.317040690811308867e-01,4.035797938596371454e-03,5.368354331277167685e-02,2.832200878199486391e-02,-2.924629578106307734e-02,3.730592997830730478e-02,2.500937767084436547e-02,1.677822824686084000e-02,-7.998018145162169579e-03,4.732764967649498271e-03,4.014690153744823742e-02,-8.989451123902650331e-02,-3.577212537103463237e-04,-6.580715151290965001e-03,1.481235467508047222e-02,1.740892614285978164e-03,-5.057267244134475842e-02,1.355704796359896887e-02,-3.865207185407342535e-03,-3.356597361642366887e-03,3.411005651626017408e-03,-2.572543506703984031e-02,2.637226865537882145e-03,-3.977794332919653425e-03,-5.969357408740236758e-03,2.482961203832262376e-03,-8.814763502380940216e-04,-4.032302978823293881e-03,-3.698480682824555749e-02,-5.434079740709631297e-03,-1.101159513364574627e-01,-1.437739094518552217e-03,-2.083501783921254749e-02,3.456841888930602298e-04,-1.099466082747936439e-02,-1.892074620004418825e-02,3.394050814162539488e-03,3.636097506707020033e-02,9.907418511666085670e-02,4.870744478471350850e-03,3.945743772568448271e-03,-5.354548807819763112e-03,-1.691119442267437125e-03,2.254626765819631520e-02,1.030423634023233809e-01,-3.034291688471223332e-03,-8.341837098378714413e-03,-3.759552895268766098e-02,-5.039462102096623018e-04,-7.731199705483048079e-02,-5.406094125370369645e-03,2.484212145654669801e-02,3.492691692713205832e-03,3.976307891653062254e-03,-8.846894594781906998e-03,9.067770829328917342e-03,-1.805089858053712673e-03,2.324819910693418437e-02,-4.612429603348520805e-03,-5.265292615446105079e-02,1.460498552704089965e-02,-3.331925423694668230e-03,1.639808280022685139e-02,2.657724579744376401e-03,3.741360827393334920e-02,-2.290909270769149117e-03,-4.083550423111661359e-02,2.246795648240894772e-03,2.623792781833055032e-02,-4.982440472720626838e-03,-2.845854911124315670e-02,2.458317421169649297e-02,6.737169679313683964e-04,2.869423988839412114e-03,6.676877307085189728e-02,3.701936180957213912e-02,-6.577432030646554462e-02,-7.464073670299592629e-03,1.811657794254673340e-02,-1.427406712005413816e-03,-4.885384461915914800e-03,-1.958577022244774313e-01,-1.883042253693172075e-02,3.956441487099573995e-02,-9.542453414312410120e-03,2.461756887242616890e-03,-4.201656038307195751e-03
-6.359518299921305962e-02,1.732040363899113936e-02,-2.545844371594564487e-04,-3.291991070537109154e-02,1.850994572876400518e-03,-4.313958209439710395e-02,-6.396201807212808545e-03,7.917443389335379611e-03,1.474985953412696069e-03,-1.758139599933779967e-02,-3.070714382829518516e-02,3.879694040105272079e-02,1.948155883841538394e-03,-2.712168554211390539e-02,-9.767943513922852650e-02,1.856004272184036234e-03,-2.494200998296357621e-02,-1.868592547050101568e-02,-4.808306648189285271e-03,1.306852654643272807e-03,-8.751540276093906778e-02,5.810773243554619161e-03,-4.633815202945496675e-02,-3.166201734453619188e-02,-5.308395895373427785e-03,-2.251465431342152771e-03,4.076177572366705519e-03,-3.024478751280345462e-02,-7.564349621640850500e-03,-3.073078711583882017e-02,1.872602368548250198e-03,-1.070884553079584807e-02,9.414597400192594584e-03,-1.360114230754102226e-02,1.354295848907546319e-02,-7.006063752920156651e-02,-1.100091380006638572e-02,-2.251994860862969669e-02,-4.291228290883610641e-05,-3.353911772544569680e-02,-3.537605475042698844e-03,4.575611467476384253e-02,-2.579171382251083978e-03,-9.945762136021642219e-03,2.384116042327137294e-02,-2.237268893289691765e-02,6.756616955850177665e-03,-1.917004136838754841e-02,-4.813408616946222331e-03,-3.881450004166327877e-02,2.537789401970358405e-02,-3.212733989632042281e-03,-1.611348443868482888e-02,-4.485024911663362639e-03,-6.122520596366871903e-03,-6.881053600481660745e-03,1.911051353646486210e-03,4.730900132772376115e-02,3.511738227061553252e-02,-1.389038109171741690e-02,-5.818197093175251147e-03,-3.979949342801954865e-02,-3.583034024006213208e-02,-6.819017297904040112e-03,-8.806738196498307969e-02,-3.015741715907421447e-02,3.063836856325134837e-03,6.170147245250974001e-03,1.672166155457478418e-02,-1.912966403898676976e-02,-1.649784548296313880e-02,-2.296423047827385842e-03,1.636319077309876871e-02,-6.867169454683011084e-03,-1.924725863188059966e-02,2.100726907356651948e-02,6.315889128689818055e-02,-3.980331521184577413e-03,-6.702864324954728274e-03,-1.450765418794121688e-03,6.432741697676178181e-04,1.319217309484891493e-02,-2.821444607101050370e-02,-2.133843703983973050e-02,-3.309506707030197142e-02,1.387093813855462023e-02,-9.146018254776414058e-03,8.228630072293678654e-03,7.055050838842014289e-03,-7.677518710648006950e-02,2.449384426179236629e-03,-9.730259640196736726e-02,-1.919320641290766377e-02,5.876584274126706378e-03,-1.055434970657308097e-01,-5.739192044031337335e-04,-1.282815704742763241e-01,-6.244718856631452202e-03,5.555279996020785760e-02,3.291989099295399013e-02,3.287881547624423115e-03,-1.711647944188077544e-02,-3.240012522674947174e-03,-2.962938641333496322e-03,2.483749275733139819e-02,-5.054258028481685427e-02,-1.514032769554346861e-02,1.817021202213860154e-02,1.752339750119781200e-02,-2.583712366672515776e-02,-7.133115387877217092e-03,-4.618230832606005920e-02,3.195948572931631929e-04,-2.181639248240622997e-02,-6.598966761821364879e-02,-1.384646294868197187e-02,-1.478682346748172623e-02,2.542977453911084585e-03,-5.859733399194695311e-03,-1.376529795988421477e-02,1.514880929031533693e-03,-7.152491131665106305e-03,-7.470612086884299841e-02,-5.084930306497066101e-03,-1.903623269699110171e-03,1.053233675515267628e-03,-7.998624348273189119e-03,4.520075907241283427e-04,3.892597557309549882e-03,-2.017589509727183913e-02,8.063743740048055775e-03,-1.281182945685682001e-02,7.002644073427542401e-03,2.725604642070180925e-02,-1.417248654993858992e-01,-2.650775954076436611e-02,-1.086190061640923167e-02,-2.797693492621626185e-02,-7.029861265290308046e-03,-8.658966618299346329e-03,4.509102688521313823e-03,-4.232491237247182521e-03,-7.500110095361199776e-03,-1.251053998915611573e-02,3.604381836016674195e-02,-1.493338948999004250e-03,9.207466435434350706e-06,-5.184652079341248859e-02,4.916050675497012426e-03,-2.539529521001435575e-03,5.754022070652035567e-03,1.182749989916542701e-03,-2.740759793185607029e-02,1.761350157130875003e-03,1.314701333326448191e-03,-4.075486597739673422e-03,7.545369237693922392e-03,-9.485542752456119567e-03,6.149096752138241175e-03,1.104142323823795700e-03,-1.977269329423854329e-03,-5.979081589744835584e-02,-2.457413346402767540e-02,6.982991099600076475e-03,-1.087729061295956562e-01,-3.427354319543046701e-02,6.177944603110162303e-02,8.069252886795760804e-03,-3.791024214535125276e-04,-7.591832277935647334e-03,4.872727227002995702e-03,-4.149766701931802831e-02,2.762666540827839971e-03,4.079989582270305767e-03,-5.022933492982184847e-03,-6.597542515114002311e-03,4.530405099521181422e-02,5.179862183620054412e-03,-5.763886707809670606e-02,-1.013937244742265653e-01,-6.709095278071648162e-03,1.182578913873961156e-02,-3.719081376126244249e-03,-6.758121778243000172e-03,-7.941257323230236156e-03,1.819305641195359535e-02,5.068177787457376314e-03,-9.397296164143028457e-03,-4.692468898719531073e-02,-1.623091345796361714e-03,9.458029329645019356e-03,1.301270948228546928e-02,-1.204346535698215676e-01,1.564858288783862322e-02,-1.224717593872733969e-02,-7.747606805148611608e-02,-3.062650580525762972e-03,9.868774983320558955e-03,-8.007266689218158970e-03,7.768089246137745325e-03,9.114195918625725423e-02,-1.399849582058707194e-02,1.002507205631636422e-02,1.020081581972180976e-02,2.311240632460540012e-02,4.324493769309946910e-03,-7.673090347084243756e-03,7.207112799957504645e-03,-3.771372433537738961e-02,6.064963653276296378e-03,-2.056292897665136857e-02,-1.813370976199357373e-02,2.316260037799244744e-03,-2.241294323803277519e-02,6.744593598138844126e-03,-4.232144622990702265e-02,-2.811390486723010229e-02,1.224585260227514273e-02,-2.833450336766480532e-02,-5.688948259368246940e-02,-9.530891512405606112e-04,-1.044940089923837101e-03,3.404042625116016161e-03,-7.870098941072845369e-03,-2.498509117293051113e-02,-8.666072413978041442e-03,-9.252019417403023818e-03,-1.570150894707501854e-02,-6.629001818661668655e-03,-3.409922086402599611e-02,-1.954991324471489714e-03,2.190348296789829301e-05,-3.423223145817089891e-02,9.989506509021474703e-03,-3.043898110363196102e-02,-4.448800868125159930e-02,3.545077788837842914e-03,-2.660115980313776732e-02,3.637800702691183514e-03,-9.720091326216324934e-03,-9.621557943149277627e-04,-3.254631561466082151e-02,-7.373331346897722682e-03,-4.702852049818661423e-02,4.383112604172029018e-03,-7.266613017019328546e-03,7.364474573599579486e-03,1.485877894950201131e-02,-2.322123860500466264e-02,5.176111199124999208e-03,-6.256821482729018301e-03,-1.727360460696007044e-02,-6.887008726226687312e-03,-3.434057589907534014e-02,-1.017690751968799122e-02,1.234574294313617315e-03,-2.469117776071655737e-02,-6.023645353979564104e-02,-1.091531261596081874e-02,-3.217954609953089379e-02,1.543906778588033206e-02,-7.321309154549517084e-02,-9.875204205411852731e-03,-7.659638194920936893e-03,-3.005261509574892742e-02,1.147306203179082780e-02,5.231016831777250166e-03,-8.656062305576237015e-03,5.276032240005606305e-02,-2.736766564257106602e-03,5.886573705770332260e-02,-5.911054394076093593e-03,-6.619894238659056185e-02,8.942703342573261188e-03,5.972989364752238559e-03,-3.147058210177362814e-02,3.331175035656269625e-03,7.219381455845504982e-03,-7.636665075711905441e-03,-2.633374565327964087e-02,-2.167960558803490485e-03,-4.986613768062424928e-02,-1.248185411659365196e-02,-4.247807750947165707e-03,4.083484334611846983e-04,1.958263264000941785e-03,1.090251190440565858e-03,-5.787176999013640688e-02,-7.050162380319270616e-02,5.815468227601772351e-03,-5.304849343009401634e-03,-1.721183113447819629e-02,3.356613216309752706e-03,-1.735552874286592356e-02,-2.083982159086106289e-02,1.352529265337613917e-02,-1.786044422509898422e-02,-2.178021714701126443e-03,-1.098672326016938679e-03,6.635007852375866995e-03
-7.965046090507013621e-02,3.118633556844040491e-02,3.777327894276493597e-02,-6.149908307607829944e-02,-3.786905070429959913e-02,-2.771879906114479292e-02,1.233428608076657558e-03,1.172380065717209402e-02,-9.620264083565206736e-03,3.360197920225032556e-03,1.394927753982735247e-02,9.410304770935669014e-03,2.009834689004336497e-02,5.368451448296438638e-02,-1.799037445699690338e-03,-1.395712443363308734e-02,3.019553609603046335e-02,-5.658670944780018475e-02,-2.496251298779297422e-03,-4.773719301733128986e-03,-6.616394128639625262e-03,-5.789896319763214276e-03,-9.140061588970173345e-02,4.328459095037716364e-02,-2.027998278472717148e-03,-5.538462892757617384e-02,-6.177006687376302384e-05,1.408216588937950299e-02,-1.597286943605004741e-02,1.528640995683162168e-02,1.270222084717570086e-03,-3.421747028299966693e-03,3.866240058516604711e-03,-1.902003181233916790e-02,-1.347306618090026234e-02,-5.951772737884782061e-02,-1.798554739937051686e-02,-9.800854385499612603e-03,1.093760368462478802e-02,4.681316032447969955e-02,-8.383344041095147289e-03,2.885924939543738077e-02,3.257289005114685602e-03,-2.333238497700648728e-02,-6.657666205733271149e-03,-5.214844004048301007e-02,-1.025714689690288006e-02,-2.476518504949535779e-02,5.375828421621578826e-03,8.024511473154071275e-03,-6.149584198852461187e-02,-7.551410327919490760e-03,-8.441014461858964424e-03,1.444819789319077598e-02,-8.881984627256044517e-04,3.028651438969665044e-02,2.864788815973903519e-03,1.718845279224160902e-02,-1.418513070756816270e-02,-7.491312728916883421e-03,-9.476450854546904570e-03,3.830644348124852272e-02,3.533959603971806307e-02,1.853090356214411732e-02,-1.961452829066171258e-02,-4.536790885756327406e-03,1.307026364783113806e-02,-4.711419206805849032e-03,1.569971842178107717e-03,-4.020204114164533521e-02,4.513291812631557015e-02,2.230820724971155269e-03,8.884194237448010678e-03,-5.897887117940647100e-02,-1.013613139326903084e-01,-2.036111253842859750e-02,-7.319434229793833624e-02,5.144482891323044586e-03,-2.025824919984427035e-03,1.395921754168956939e-03,-1.755135824945764159e-03,-9.179475387087669518e-04,-2.616993199251564650e-02,-7.048467623565992345e-03,-6.912438818787895040e-03,3.455250291981468505e-03,2.859982326344566884e-03,-1.870858542993173845e-03,2.292642606495850187e-03,3.611527451205981398e-02,9.320848972545398015e-03,1.020038653701820994e-02,3.120635145885099562e-02,-1.124476871703788614e-02,2.861939695933239311e-02,-3.682493876601475986e-04,-7.993012186758886861e-03,-1.049175987736860639e-02,-4.113104862587888683e-02,1.140625334849369454e-01,-8.712130560959097103e-03,5.368397776841388885e-02,-9.673248969264754138e-03,3.185854519156938042e-03,3.002033617656871961e-02,5.906910718324082793e-02,-1.696367748005678071e-03,8.706837307293741708e-04,-4.348064612271375536e-03,-6.760164907845267468e-02,-1.143135677667521388e-02,2.743876329487034138e-03,4.815621792709559850e-04,-1.023679530075314453e-02,1.339815809415256104e-02,4.027445898985796552e-03,-1.634610008114333393e-02,-1.312424039371160901e-02,4.843211667715452418e-03,8.540690816140025440e-03,9.207263071800505030e-03,-4.569785246148476421e-03,-2.315097790631924848e-02,2.113783682284595730e-03,7.786851628789039949e-03,-9.133507265865514410e-03,-3.888117306828108022e-03,-2.008478884221844007e-02,-1.105905779938641011e-02,-1.401926708198072101e-02,-1.030429107389562934e-02,2.666758549573316085e-03,-2.107796301599902666e-02,-6.897427634323585743e-02,-1.288068990411377068e-01,-5.015299530576622367e-02,7.542388441610591542e-03,-2.848173106429135754e-03,1.197547656446877086e-02,1.110192506872889363e-04,-4.015006212216874759e-02,4.187947931422677725e-03,8.348849481760437299e-03,2.106632784785594445e-02,-1.943023170899337709e-02,2.732437575601202873e-02,7.317294031400817939e-03,-2.632157468502127270e-02,-2.638277231012296168e-03,-1.653345109963429496e-02,3.551016478892570286e-03,-2.423173515738753087e-02,2.643730661374084356e-02,8.570537136970996644e-03,1.867814719410618727e-03,-4.045113857787090844e-02,5.696120291297073097e-03,-1.522361128066314524e-02,3.301710971616302406e-03,1.554092169792997778e-03,9.672695866481114541e-03,-1.812651857073595274e-02,-5.119421374013781445e-02,-2.547500752955655229e-02,1.335111159770544995e-02,-3.640020781817352585e-02,3.110763991547272483e-02,8.269358083228539602e-03,-8.024259532636306147e-02,-5.654843891477887019e-02,-1.130057833735858761e-02,5.210721855512145256e-02,-1.341585550489091333e-03,1.003151666162008931e-02,-1.329920440466711125e-04,1.753444222466693861e-02,1.259117337254246800e-02,3.471387774496298515e-03,3.915707567011358914e-02,-4.958182869539203008e-02,4.990031660502270740e-03,-4.527199442930770167e-03,-1.534161785138255830e-02,6.641607903292978503e-03,-4.410285083389203081e-02,-2.409385627128069959e-02,-3.246272797546987353e-03,-7.231801813321071457e-03,-9.300801144108663404e-03,-9.543642538457964598e-04,-4.627950976634757907e-03,-1.004204432746577322e-02,-6.565290681761250247e-02,-1.350504780974535850e-02,-5.416809620648966456e-02,4.768673882880172799e-03,6.037263627368575671e-03,-5.521113627132266492e-03,-1.224178312919857806e-03,-5.379094013952538840e-04,-4.206955048114470463e-02,2.177972241455210928e-02,1.539679947727476232e-02,1.906086410163084248e-03,-2.791509133799922882e-02,1.458754715476588346e-02,-2.337857353361125559e-03,-2.720648204377419319e-02,1.935404877123202833e-02,5.929631500832272667e-03,-4.670927317731347200e-02,-8.799163172659921553e-03,3.168096572097234731e-04,-1.008267343369605856e-02,9.149448780126645270e-04,-8.137662627128763870e-02,9.645361813364746947e-04,2.444229140576900834e-03,-4.379299344196985883e-02,-3.103373415712926131e-02,-1.235977621841932196e-02,-1.012219946025069532e-02,-1.672071716880967366e-03,-1.237927971752973873e-02,5.530764562532325401e-02,-9.568700950569556524e-03,-3.525089726371743049e-03,1.907499463261674464e-03,-3.917223289429010852e-02,-3.001154172910037998e-02,-1.063851051965764537e-02,-2.758347549328359679e-03,-6.794780495007667932e-03,-6.827371040757147271e-03,-5.743705223834786461e-02,7.309614667865139970e-02,-9.187584189077984548e-03,2.288280213886427841e-02,9.756827783713402369e-03,-8.072346487372055249e-03,5.553844147446440963e-03,-5.994561782884791357e-02,-4.145705565230994351e-03,-1.225148272322417464e-01,7.196531028363153774e-03,-1.656981468760367754e-02,3.083383775722311451e-04,1.172769052027141344e-02,-7.760685519195723026e-02,7.219919312891319614e-03,-3.321574588389995114e-02,-1.804579404224351119e-02,-5.772451362156020508e-04,-1.040237381004235169e-03,-1.157682607347005526e-03,2.615486388344627489e-03,-6.577520807963296856e-02,-1.544330027577147345e-02,2.747924846389964088e-04,-1.061450931256565852e-02,-2.471733685427840617e-03,6.549141640941124470e-03,-4.378081515315488531e-02,-2.832784217527681715e-03,3.192130176254257684e-02,8.124322876233834199e-04,1.048267873176130655e-03,-1.113352402265625762e-02,-3.282681163428281812e-02,-3.114871282295260911e-03,2.102226662287839595e-02,-6.598707038578321624e-03,-1.039071959098829823e-01,1.521811603087155559e-02,-1.234977057322300849e-02,6.531946423588030903e-02,1.570793531173629619e-03,8.798508973073288636e-03,-8.118862134029517647e-03,-4.517104038522606196e-03,-4.328247801167199767e-03,-1.495287282151284980e-01,-1.516223803293906790e-02,-5.298607985855682129e-02,5.908648657597939495e-03,2.698154449862260208e-03,-2.845909588871211107e-04,-3.933864802279176710e-03,-1.747928567408969444e-02,-1.925348042240928106e-02,-8.696908547625378794e-03,-6.089230950741745391e-02,-7.365257795974123689e-04,-8.530355630306704282e-03,-1.562849304983181253e-02,-2.274142097502260262e-02,-9.620029440375380686e-03,-9.429084263831389798e-03,2.775298156197021290e-03,-5.347146343284868084e-03
