-6.421901875777744073e-02,9.669493705979725559e-03,-7.511929654723870087e-02,3.329342277009870316e-02,-3.987829185360322604e-02,3.403098420453774028e-03,4.346387224586859693e-03,-3.883225566142093493e-02,9.252862610897414838e-03,-7.704466921030579153e-03,-7.787628864305233545e-02,3.028442362039003490e-03,-4.492520917693773597e-02,-1.054126036965186419e-01,-3.272291627322217178e-02,-6.394149774212882185e-03,2.620043384122018593e-02,5.875649561852657604e-02,1.409472130791615714e-02,-9.879083457824504311e-03,-5.448909615323468264e-02,-6.236893851250446298e-03,-7.740996544410079505e-02,-2.553527412582616909e-02,-2.286595417403041591e-03,-1.453747815547725142e-01,-3.214540002496467982e-03,-8.443539697428471824e-02,-8.118343984635924965e-03,-1.202525570215766913e-02,-1.127784682304345349e-03,4.091738631274762102e-04,9.523515934056063156e-03,1.692824093387549148e-02,-3.160758862561497545e-02,-6.444863302198040877e-02,2.905820531528876052e-02,2.710731534529103783e-03,-1.901959474386608756e-02,-8.222060525651171681e-02,-1.023813152530305207e-02,-5.155419711343445233e-02,-2.729928813876071527e-03,7.600122560714695115e-03,-6.451673408458430056e-03,-3.768213876478020835e-02,6.672580975005414951e-03,3.034581858893588974e-02,-1.316618712650462165e-03,1.612241212513149807e-02,-4.816843027895148510e-02,4.878852463881248012e-03,-1.240740422958201833e-01,-3.541342868283184342e-03,3.381172108891791414e-03,-1.856593575921995122e-03,-2.019546845918960415e-03,-4.236685146212672975e-02,-7.895198352262390237e-03,3.015983702907595269e-03,-5.776210397103150214e-03,-2.521094097004112407e-03,-1.382409122219617204e-01,3.886020307109862987e-02,4.656181801987550190e-02,1.886271195518555988e-02,2.737843559909731214e-03,9.242965842467392194e-04,-1.125054941601646638e-02,-1.243353782276026415e-01,-1.365536714789594153e-01,4.063045903382041420e-03,1.747891836195327288e-03,2.506628020402651424e-02,-2.268443868655174462e-03,-6.326854708287592277e-02,4.466309845308220894e-02,-3.027082246646653138e-03,4.159041568288979716e-03,4.962139287838673168e-02,2.736855574922728517e-04,-2.202269937056782617e-02,-2.667401683969682427e-02,8.436545168092419913e-04,1.979916247412507116e-02,2.065147880802619892e-03,-1.453007694483139049e-03,2.114223004293574266e-04,-4.686964506296946269e-03,3.063803669969762666e-02,-9.410828518030291828e-03,-1.471999144489490874e-01,3.488098096698003144e-03,1.112244099103349045e-02,7.227126702782735168e-02,7.976064539559308631e-04,4.044711842915226646e-02,2.426983233419620616e-03,8.488202612353473731e-03,-3.046618013420315796e-02,2.572733283083139619e-03,-5.721183528266191032e-02,-1.379701183437436265e-02,-1.135985684868225662e-03,-2.190939420097466183e-03,3.583552997995731459e-02,3.194777764134291639e-03,-2.519129527516826388e-03,-1.815093833634215392e-02,2.914416840458758373e-02,-2.365001770467995649e-03,-1.998543141028153586e-02,6.818284713715051879e-04,6.462916750359295505e-03,2.491518412625999546e-02,5.493334616569045536e-02,-1.931826723927492634e-02,2.530700536116306520e-02,-1.599970283037164490e-03,-3.582794855931008618e-03,-2.138129484362664024e-03,4.468364707577426181e-04,4.626112058955045292e-02,-1.763437517291251578e-03,9.761765542679582850e-04,-5.008238208363929335e-03,-6.945211139694809285e-03,1.670009978931102923e-02,-1.855624731885479250e-03,1.039687390681186090e-02,7.522587474632575280e-03,-7.542130330832240263e-03,1.274686445418950730e-02,-1.384597805932471226e-01,-9.144230250747176214e-04,2.982352811394658326e-02,-7.876695515724894611e-03,3.343294931119687730e-02,-1.761090488873687070e-03,2.055929899686777945e-03,1.528254784552179370e-02,-3.034210016777309869e-03,-3.494328466775396651e-03,9.005640663556191416e-03,1.602170031022816937e-02,1.833464997653750121e-03,-1.396522203749043112e-03,-2.654917726851244511e-02,-3.339575716470756864e-03,-1.898303249245234534e-03,2.937952630993049229e-03,6.274758369971844552e-02,-4.645854184847210411e-02,-1.583638768644235559e-03,2.065185528817930452e-04,-1.600333436705400972e-02,-2.461900649512102027e-03,4.900356187273761412e-03,-1.234025537993032045e-04,6.464851426106802378e-03,-1.147248135391750953e-02,-3.390048459573283268e-02,-4.207451644681969166e-02,-3.219224963384856308e-02,3.942469264881434676e-02,-1.109665948988887603e-02,-4.295047501056003386e-02,2.165590084683671594e-04,-1.405772896129986980e-02,2.709680958357002165e-02,-4.627084446729803381e-03,-4.316012881195861045e-02,-2.000388679736869735e-03,-1.932750434308267914e-02,6.401104049975034002e-03,-3.947155440685592986e-02,-2.780722711680165549e-02,-2.417781206469507647e-03,-5.534356045165168825e-02,7.366333097937044494e-02,6.375829225277840177e-03,-2.139393071893859206e-03,-3.836175234087659675e-02,-1.667105715289712332e-03,5.253833001682218368e-02,-6.431524507597290163e-02,-2.235394779264981025e-03,2.170043812739587408e-03,3.328662267300792205e-02,-2.887733865919955931e-03,-3.173031968212957060e-03,-1.473389301452724840e-03,-2.809281276426607576e-02,-4.916155748636664123e-03,3.245730905096781693e-02,-1.814441164448271915e-01,-1.707906654539155002e-03,-2.195352580873812659e-02,1.095822557295944404e-02,-1.003018748217258846e-04,2.807334303156253097e-02,-8.171120427559240215e-03,-8.944276195779797892e-03,4.631861638039441731e-03,1.964430515030469657e-02,-3.919613088322400243e-04,7.739033722391894981e-04,1.006622821716464042e-02,1.885168648713286474e-02,4.215252161873951804e-03,-9.869787174599846391e-03,1.739925552437136813e-02,-1.409055925896502033e-03,-7.145572785409649852e-03,-4.526779791368219091e-03,-7.462420066108944872e-02,-5.591491712389120433e-03,4.082975548071043903e-02,4.036909348717832718e-02,-5.514284642401917624e-02,2.731955432216098476e-02,-3.786698091036984608e-03,-2.228973942895835173e-03,-5.237772262132662712e-03,-4.969459485469250593e-02,-3.553254963317257348e-02,-3.318464421811881133e-03,-3.982546436721595522e-03,4.247846353175982817e-03,1.191864042520226520e-02,-4.580108098268593185e-03,-2.651522286191824920e-03,-1.263617698154480447e-02,-2.464653832930524275e-03,2.253807426199056635e-02,-3.162565100118636119e-02,-7.487876423081552511e-03,7.243030040731950926e-03,2.260075400844070020e-03,3.731359440478514838e-03,4.268950609588677801e-03,-1.144046728937791885e-01,-4.130995991274115787e-04,4.513262622254537310e-02,-2.222347197159931127e-03,5.479494733957126530e-03,-3.561167273633056816e-03,5.423621245071437967e-03,-9.056559398976392339e-02,-3.268266266935505523e-03,2.988407024631441894e-02,-9.747047992218342213e-03,1.800903934123945045e-03,-2.347252516392505511e-02,-4.750848590627614748e-03,-7.581885724667578562e-03,-7.557968153735732109e-02,-4.037381234600102148e-02,-6.381145068816132873e-03,4.471807142642940380e-03,-1.153108865176821346e-01,-2.225526825496140781e-02,4.920703767982115284e-02,5.451964043187927308e-03,-9.164876461034678068e-02,-8.927377778245608811e-03,-4.248752039579575465e-03,5.250776781977406840e-03,-5.432540514264476428e-02,7.162101609888897602e-02,-3.850439514026811772e-03,-6.256390044654483798e-03,-6.540923849499157006e-02,-5.146218388110912478e-03,4.688211518560975698e-03,-1.014862782282370118e-01,7.651447409217606438e-03,-5.731235519043560191e-03,-3.672488102257694727e-03,-5.425463369916996154e-02,-8.047115529899184078e-03,-5.551252527541643278e-02,-6.492849768681885694e-03,-2.553261116636653533e-02,-5.917400202179318169e-03,-2.787556271794966478e-04,2.252351054667778209e-03,-9.104957754936254810e-02,-3.588148085329180559e-02,3.531534400538240137e-02,3.178056994124673924e-03,-1.614229368334418602e-01,1.384552015525514906e-02,-5.028505785367911717e-04,-7.891165180076782637e-02,-2.919861646105270311e-02,-5.288224522760030105e-02,-1.783650639298110883e-03,-1.464996071676868527e-03,9.583443860875772227e-03
3.183296988310137937e-02,-3.786159704721826780e-02,-3.269196654346667036e-02,-1.879753410608208664e-01,6.786038336436849006e-02,2.003693338713661426e-02,3.961065185747207271e-03,-7.642603782059068963e-03,3.962060480528008764e-03,6.208125898760831485e-03,-2.576348367349138094e-02,1.533917802497472040e-02,-1.148965435756765579e-03,-3.575519240578100416e-02,-9.942283942708075861e-02,1.411833947289749779e-02,-1.984592970888776620e-02,-5.054173017298545928e-02,-1.920388324701131563e-02,1.405390552365270995e-02,-1.768905233719847078e-02,3.732174626926897110e-03,3.581131403898359621e-03,1.322019987367276973e-02,-5.723557887078865869e-03,3.444222864927968392e-02,1.282960466164220423e-02,2.570088139755938653e-02,1.330513864830024442e-02,-3.849533844115538006e-02,1.256539122898508477e-02,-3.101688006330797012e-03,-1.353010396084478040e-02,-3.204553046619729173e-02,4.290252191723064115e-03,-9.760770899753923313e-02,-5.326292656154776178e-02,-8.281506137483518604e-03,-1.403852523031920950e-02,-6.119466134280901470e-02,-9.975461420588006833e-03,-8.035848297583969568e-02,4.540479625966744627e-03,-1.226472974358948885e-02,-1.990915880420646329e-03,-2.145474005822142066e-02,6.823061340907951230e-03,-1.219051084611241266e-02,4.547445342826413051e-02,-8.217326638277842529e-03,-7.775679557002918019e-02,7.591984109416291537e-03,2.103596796100601352e-02,-2.817818050876130451e-02,-1.741490055794873287e-02,1.099023582179729959e-02,7.060446446890243297e-03,-9.367331014126455135e-02,2.953849800403359621e-02,-2.925250251964820001e-03,-5.976710807911500382e-03,-1.077333602678748857e-02,-3.832271177165538778e-02,-2.879728209463008198e-02,-4.279552908530451227e-02,-5.743555833696015883e-03,-1.651026493491562080e-02,1.449629340440413035e-02,-1.906285573206566858e-02,1.096639064966467743e-02,-7.206423157643017385e-02,5.629792065826989475e-03,-2.653559329719057825e-03,1.501069613143442456e-02,-1.995043049937097676e-02,-8.979887993919173639e-02,1.186987265244935502e-02,-1.650608787214784051e-03,-9.431256637211563737e-03,-8.049466890796264096e-02,-7.659228084809501132e-03,4.725313375274051500e-03,1.751246238644288758e-02,1.874081739221884106e-03,1.127712845218319382e-01,2.212573175116629501e-02,7.934577746250188329e-03,-1.485334670278334347e-04,5.183268437291361531e-03,-5.521320782883917117e-02,2.392335913347198428e-03,-3.301916520291946905e-02,-2.410907492764344240e-01,2.921246679700722961e-03,-5.622192587775319550e-02,-2.916873099129674903e-03,-8.061622710265854697e-02,-1.146642999734459600e-02,1.894237525289041435e-02,-4.371946314426333052e-02,-3.925518757590471669e-02,-1.319974704105305111e-02,-1.682726826171175583e-03,-1.711768133703665470e-02,1.338970894365550113e-02,1.382673256223254134e-02,3.315252590040897087e-03,1.892578703123818512e-02,-2.876935445015046250e-02,-2.772919855543569401e-02,6.555496176777372321e-03,-1.482161687801952094e-02,1.275087979505333015e-02,1.383342568742385210e-02,4.689017349761546993e-02,-8.500705512171839728e-02,-7.842624099050782283e-02,-2.292942883076352564e-02,-1.726623837018858437e-02,7.292581739186021657e-03,-6.785776306591482544e-03,-5.135710221316986367e-03,-7.451689815372133929e-02,4.651955197438625497e-03,-1.112829600492311680e-02,1.525217056203424879e-03,-1.910988950627529742e-02,-1.076879209801940088e-02,-9.734484931102961938e-03,-9.085043779134984940e-03,-1.925402126900419356e-02,1.971134550343688063e-02,-1.961179941434823722e-03,-3.158038236944512439e-02,-3.345971210960065056e-02,-4.799548654104095202e-02,-8.020720222598828539e-03,-5.315839118744659225e-03,-7.626851779798302783e-03,2.831884194518282782e-03,-2.320756840755034897e-02,1.260678144370582128e-02,-1.029081960835896183e-02,-1.192220131059600931e-02,4.660775907523569996e-03,-5.531818582277627655e-02,9.284388163239575692e-03,-4.412633080044094797e-02,3.548134286225168663e-03,3.146823131851499752e-03,-6.709897281435769911e-03,-1.515393004640989971e-02,-3.901002591887715171e-02,-2.242080314652289408e-02,5.913935985802713623e-05,-9.698677889662449259e-02,-2.426792757442287375e-03,7.912090380942900583e-03,3.932757531914680971e-03,3.801689980184471372e-03,-1.863551964469591180e-03,-1.953740103504587877e-02,-1.508421684885055958e-01,-3.724022177410348661e-02,5.449052455560662173e-02,-1.374705097361039394e-02,1.744112830342019020e-03,-1.055399176348306017e-02,-1.176313226527376729e-02,-4.567867023628439938e-02,1.425194160720961133e-03,-8.815341044228796816e-03,6.824562008245741926e-03,-1.130356419587257195e-02,-2.629833957130630652e-03,-1.169042286448139338e-02,-3.464040808037597424e-02,6.543255408957467274e-03,-1.181491607082398206e-02,-4.521653640723961171e-02,5.894429674562402972e-03,3.788588322614519586e-03,-5.854559076183219087e-03,-7.827649326960860188e-03,-1.297780023949726136e-01,4.335180455835659086e-02,-1.612486132694583227e-02,1.837804820842960400e-03,-3.317126179640553923e-02,-2.194632108011530455e-03,3.253495835337470981e-03,-9.972030315416506932e-04,-8.039102205280174163e-02,-2.064811062175763226e-02,7.332366951843437286e-02,2.204132349255350648e-02,-6.803286718519055420e-03,-5.861769562110809295e-02,2.559031063366990280e-03,-1.878473793234840521e-03,1.916792369328374802e-03,-4.232921440320491606e-03,-6.156190065077810081e-03,7.176251749592961297e-03,-2.207228251601943067e-02,-1.109466794961564209e-02,6.477985390382844447e-03,-7.156497814275896872e-04,-5.333441396835402609e-03,-8.645776198277771787e-03,1.435774760348993914e-02,1.725806999649531076e-02,8.559849202162413129e-03,-4.394867068236980867e-02,-9.501640363646856116e-03,2.414069401441678372e-04,-4.579739382753337910e-03,-4.053573497161524347e-02,-2.356039789718752248e-02,-5.823980394840767849e-02,1.305202346588656658e-02,6.567146905523651122e-03,3.468751904230243694e-04,4.393322886617296794e-03,-3.354295752589553370e-02,1.455870242188253560e-02,1.861953069699526274e-03,2.810189719305712045e-03,5.973178403916440393e-02,2.645535565422972232e-02,-9.536479921937677726e-03,6.962139567531790661e-03,7.166419797009081216e-02,-6.890474170961169431e-03,-1.094562783522332605e-01,-2.103631222549559587e-02,-6.934616448124960968e-03,-1.081885520623827130e-03,3.939374323167964438e-03,-3.309332452931390209e-03,-4.214510087836832730e-03,4.202429676736092051e-02,5.521272656257307856e-03,-1.284759560563039291e-02,-1.269287001880767696e-03,1.460244164979831311e-02,-2.337063475926403223e-03,-3.927132782206429334e-02,4.282875979690181634e-02,9.114068817996782632e-03,-1.592382440435940322e-02,-2.088471748720246296e-02,8.239254621357354133e-03,-2.498674283478563313e-03,8.580659564559410101e-04,6.770729633880642057e-03,1.141908130454824533e-03,3.336085057151642278e-03,7.703440701524949009e-03,-2.185957163996674404e-02,2.169044991334464351e-02,1.640802177283584226e-02,-5.406259016214567253e-02,6.285929680312667307e-03,-3.613019485549719134e-02,5.577575098652165844e-03,9.141126263754026718e-03,-2.723462537785508245e-03,-5.171927174336061854e-03,-9.430169549801711848e-02,-2.399614155510038094e-02,6.683608960201955010e-03,8.706300121373798662e-02,-1.895483201135166398e-02,-3.484011500109842393e-04,-2.702045254147097605e-02,-6.628991932868755210e-03,4.438309941458354335e-02,-8.027156149052335279e-03,1.139060420353941172e-01,3.905632202771482358e-03,1.486798137253117665e-02,2.586163738687542388e-03,-3.056611097570086782e-02,1.130557255861054482e-02,3.964612825810160009e-03,-7.597737772865439422e-03,-3.459857790686301365e-02,8.438994144392951424e-02,6.033348547990216582e-02,6.681020301036730454e-03,7.631365378382232167e-02,-9.678601634071045887e-03,-9.464451085517381831e-03,-6.888531086865049002e-02,-2.352323313890828868e-02,1.984331496872063921e-02,-1.011246070564557386e-03,-1.425203104437034601e-02,8.475980223128761273e-04
4.146090346476220823e-02,-2.118362559460064409e-02,-6.831539559732882627e-02,-2.953674097952370056e-02,3.377987407771956135e-02,2.014145731929067179e-02,-6.857499336248688154e-03,-1.987577115295549243e-02,3.143352453039266123e-03,-1.235257997538577457e-02,-3.262066702686879788e-02,5.513877707019094673e-03,-3.460213925925138823e-02,-8.887987464184364528e-02,4.528611497021573645e-02,3.193896117875247298e-02,-1.658044928321331796e-02,-2.299759393067033614e-02,-1.103531801455799599e-02,-3.420533853242146288e-02,2.741054415150824888e-02,-4.890919604491253576e-03,4.135849154196706567e-02,-2.690905391254316478e-02,-3.047132466756750143e-03,8.686638984056475193e-03,5.623047170487858147e-03,-4.787335425760034374e-02,-1.448319243490501888e-02,-8.226982838335915316e-03,1.033875352011116291e-03,1.439611953453118036e-03,1.980576452098909923e-05,-2.411787625673514346e-02,-3.915911376397067378e-02,5.131382619328912070e-02,-3.880008045021837021e-02,-5.208623550190688047e-03,-1.970234843417262988e-02,-5.263970801056248178e-02,8.303175633370848269e-03,-2.449736324071839430e-02,-4.670067752218878300e-03,-1.348885369858850982e-03,1.611279258264598476e-03,2.136152530998502649e-02,-6.934730506064908789e-03,-4.245750560834311155e-02,-9.825752113995191855e-03,-1.108969233950032884e-02,-2.543122194852864490e-02,-6.774223469499619961e-03,-1.683755678015948568e-02,-5.239122780232519571e-04,6.130306289397257323e-03,6.155424299346117390e-04,5.374267110270791042e-03,-9.277639047752676837e-02,-4.762331700896409170e-02,-5.075979819927114479e-03,9.038775904974235068e-03,-2.758188063448690011e-02,-6.106966387841582938e-02,2.846405919145363062e-02,1.306214844061871216e-01,2.558986404870510628e-02,-8.021518230416640680e-03,8.050655921707425972e-03,1.333301135345767337e-02,5.193252598336425829e-02,1.197726710945050399e-02,-1.268822339674424617e-03,-2.364654792190694355e-02,1.151029160732052782e-02,8.534236311074290537e-02,-1.254691478125925796e-01,2.411637990876206242e-02,-9.446933181402722077e-03,-1.515414907062662261e-03,2.699972485395786895e-02,-5.188835998313145841e-03,-8.689111679772956037e-03,-2.340670275673383330e-02,5.376689654035610860e-02,-1.592638346071124089e-01,3.657970727914410685e-04,-1.056734152154932896e-03,-1.577023508021243008e-03,1.217368177758911462e-03,-2.661451173346629159e-02,-8.304653658278635109e-03,-1.164631363778806036e-02,-3.505472449174656946e-02,3.040830892043875516e-04,-8.518604047728575712e-02,6.334662052772309544e-03,-5.875679743566749463e-02,-2.713236432938643649e-03,1.204148597999802305e-02,-6.851416855272628170e-02,-1.077056246959678422e-02,-8.640190439840352010e-02,1.144644177464695933e-02,4.418977324821614198e-03,-2.337533376418903311e-02,6.780918665624267871e-02,3.364325789228368030e-03,-2.539593780407290585e-03,-1.399876336959496965e-03,7.682608855908551124e-03,1.004816934520265555e-02,-5.564270021248880760e-02,-7.509480285183061862e-04,6.062708464825226906e-03,4.835271348750205117e-02,-5.078498246713554487e-02,-1.119835837841870047e-01,-5.786779170828223670e-03,-4.456703299310091695e-03,5.035693851023995138e-03,-2.618903728411160498e-03,4.277956500944121547e-03,-4.101312205568795333e-02,-1.041244196842880951e-03,1.261335700742189031e-03,3.633916135554469181e-03,1.461067322653151514e-02,4.625894373081288272e-03,2.818088388665547506e-03,-2.745237650337986959e-02,-1.731449705958967638e-03,2.646048521243778498e-02,-1.100173940414622166e-02,3.940450025545279289e-02,6.551228823379154353e-02,-3.985662725377201940e-03,-6.385920559971064968e-03,-2.968022939843229305e-02,-4.897443953125804866e-04,4.415147184457307410e-03,-6.547322617141376755e-02,4.856763152287390216e-03,-3.333430457950816231e-03,1.428705061632995488e-02,4.004954669106017273e-02,6.319942161813332966e-03,5.449614276177437884e-03,1.862230518534214140e-03,2.136638542996630030e-03,1.697008453305924114e-03,-4.456858825757308191e-03,3.339769483027427849e-02,-2.780825803639480620e-02,-1.129896008850887930e-02,-1.568274625945733540e-03,-5.116347453020428371e-02,-2.363092208230386723e-02,1.828399489987494238e-03,6.091686158679451759e-04,-1.510373142326603812e-03,-1.454309326375663458e-03,-6.033024002955513637e-02,-4.631906113905262523e-02,2.833082656880146419e-03,-8.508921834831259523e-02,-1.210988691526333066e-01,-4.876674551867359736e-02,1.807596261747752668e-03,2.641119010835506556e-02,-4.068419023093712561e-02,-9.718655772441513836e-04,-3.271829022844471163e-02,-2.203147024720208871e-03,-2.045394972157789718e-02,-3.208188909845891175e-03,1.904935212498306066e-02,5.910002016663195266e-03,1.048150802778205319e-03,5.302898015928004909e-03,3.503226501923583508e-02,2.577659122324162024e-03,3.996572804879054350e-03,-5.488873553305735446e-03,2.827600136281077994e-03,4.846868126375111600e-03,8.581845461208681761e-03,1.841267736413129642e-04,-5.172302177059307469e-03,7.186114875376954647e-02,-3.237435752676406323e-03,3.000685376666091444e-03,-8.951469613735912878e-04,-7.740805358468810793e-02,-7.931716362040685739e-03,-4.911999805472887920e-02,-3.876669052465672727e-02,5.132015891776520872e-03,-2.032379799693577113e-02,4.515666617267882418e-03,1.433193320916898664e-03,-5.250261827095707018e-02,5.087092118576038401e-03,1.394360340023615254e-03,8.246913280025438414e-03,-1.209130954078395902e-02,1.048094233037112979e-02,-3.846173229931115420e-03,4.842644976702292076e-02,-4.614893199693845781e-03,-6.915584887072626953e-03,1.669492674896819922e-03,3.658907862441133137e-03,2.259835561626763294e-03,-9.323193547712461948e-02,3.126501124932678198e-03,4.016975231210327679e-02,-1.389010386773009004e-02,2.294011405690525932e-02,-2.837753877674660183e-02,-4.782477421667413048e-02,1.373145972287547964e-02,6.265269935933230616e-03,-5.786434509253508308e-03,1.783500129602705320e-02,3.319390549445255800e-02,4.423447148613935537e-02,-1.962679908662950164e-03,-3.812825433068240278e-03,-7.174615967560524221e-02,5.461815828286765984e-02,1.385695963663189680e-02,3.810286580299274313e-03,3.135755872982718545e-02,-1.522551299294229725e-04,6.248002196893865691e-03,-4.478554435293295721e-02,1.185124170443805410e-03,-1.234497971951981988e-03,2.802056194175289380e-03,-9.483498017413077852e-03,-1.035294815897885162e-02,-3.717121023719312245e-02,-1.754948212455227988e-03,-3.974529476076112122e-02,-1.893299362716006212e-02,2.822062274067605944e-02,4.009721343973681081e-04,2.385738588648651185e-03,4.355849986442300592e-02,9.141251153109828179e-03,7.835249253149790052e-04,-1.679357841290746861e-02,4.718592172811278927e-03,-6.614817674890569911e-03,6.538926667465576976e-04,-8.262298577540898087e-04,-7.617485808447464583e-03,-2.782378308610254300e-02,-1.246571388542125477e-03,1.992227015486289568e-02,-1.451809768291928426e-02,-1.474410417021475468e-02,2.981694235314762478e-02,-1.980342222528678163e-03,-8.769459807021305620e-02,-2.584513943017365239e-03,2.542363094359322614e-03,-6.457271636541148455e-03,1.712179709220318716e-02,-6.772671193421678226e-02,6.788764547342421470e-03,-3.371901121631786305e-03,-5.042538532505849019e-02,1.306152472742892756e-02,-9.999210049946020973e-03,-2.061788294749055880e-02,2.827711019652776048e-03,-6.006154359071150250e-02,1.949287545053752417e-03,-1.192962372285355163e-02,-1.214183832147211484e-02,6.256870986562194925e-02,-8.096531434185167547e-03,-3.192747671778119190e-02,4.567873108706484858e-03,8.273926771905104963e-03,5.286779352813625668e-03,-4.873711618417378433e-02,-4.674863849248870468e-02,-4.186881611665953934e-02,1.519068381317828162e-03,-6.103986124049204376e-02,-5.171228756181674776e-05,5.550329274702066329e-03,-5.901800487174031079e-02,4.942922508406739218e-02,-1.061589976866027241e-02,6.313894072763577446e-07,5.542511249763894428e-03,6.624346463533523771e-03
3.969908587818026316e-03,1.039891949302079906e-02,9.147896897119922599e-03,-2.427526655034413852e-02,-5.247438009727256603e-02,-8.664739093401700731e-02,-8.780909354351882842e-03,-4.378252616771767525e-02,6.169731228949453493e-03,5.758514079755732568e-03,5.844638108514071950e-02,-3.611687332476963552e-02,1.438388313874595925e-02,-1.659989819126825306e-02,-6.286714841000902443e-02,-1.071513552551672452e-02,1.671626619367521955e-03,-7.616796461720254374e-02,-3.417903516633687827e-02,8.533850989603320239e-03,-8.654814631507090628e-02,-1.139817978348621599e-04,-3.034823054692242089e-02,1.039326029538638341e-02,-3.478527070684982962e-03,-1.701144103652697456e-02,1.171186579849295070e-02,-5.607551550000190038e-02,-1.941061147893115291e-02,-4.000993462235196731e-03,5.592665168752178166e-03,-1.174275725304257771e-02,4.756076415595684309e-03,-1.288989878408108337e-03,1.666068690686412293e-02,-3.574394589842135039e-02,-3.152719339027895001e-02,8.728128774497594458e-03,9.352572687192906714e-03,-1.485981672478485158e-02,-2.012152303912849438e-02,9.622327691118481418e-04,9.708225091416073293e-04,-2.488237782857297131e-02,-8.293096086357820002e-03,6.499058331915476272e-02,5.336409413232595135e-03,1.426216137132618571e-02,-2.579627967980119285e-02,-2.149694521056975602e-02,-2.019278085634648723e-02,-8.041778174502769300e-03,4.075572457327155534e-02,-1.159822128459103013e-02,7.621259887158236650e-03,-1.624340107625105167e-02,-8.115724258191937823e-03,-2.612234344503760325e-02,3.699368396290666269e-03,8.977036382327810773e-03,3.014477587658676364e-02,-1.335232810949954323e-03,3.471032043976494258e-02,-3.194771206636937144e-02,9.446286734096899507e-03,-7.536228106362974355e-02,4.043621021572226491e-03,-7.998621652437374122e-03,-2.479377446700001698e-03,-2.814052070861992536e-02,5.913446292728849474e-02,-1.428566883809473040e-02,2.734062284818553415e-02,5.032371121965864558e-02,3.956612404854372572e-02,-6.923173708767543268e-03,-5.696599509490450630e-02,-6.629657169607660119e-03,5.643240028272482334e-03,-8.777907476995645830e-02,-8.738875991955359981e-03,-1.637216422125910981e-02,1.289053308057768084e-02,-1.911740113579520409e-02,-1.792751297357856113e-02,-2.945341754653790431e-02,3.748198374999662293e-03,-4.733806088443552086e-03,9.388300520312085548e-03,-1.870241427355371494e-02,5.810169997993978701e-03,2.399401507965300342e-02,-5.786667738088363544e-02,2.019603189229285476e-03,-5.156802199637817996e-02,-2.697631672727078718e-03,3.276453430303231940e-02,-3.728898950728544524e-03,-4.098424240532225898e-02,-5.505832249053189964e-02,1.167913583103122668e-02,2.222639992949823270e-02,-1.479406535412262740e-02,1.211777587336765089e-04,-4.040460169599340706e-02,8.523186276519392757e-03,2.292676630166430325e-03,-1.083145210281339678e-02,4.605190807432660988e-03,-5.651661241358867799e-02,1.541161600910276493e-02,-5.657115383030714671e-03,1.534829113197847157e-02,-1.926751034097518370e-02,-5.565345492044872916e-02,-1.619011128870850857e-02,-6.159728118368572314e-02,-3.831063540999041228e-02,4.649942624483527505e-04,-9.683813824135446618e-04,-1.176260815329601903e-02,-9.461089434126977640e-04,-7.069577018348084663e-02,1.233015589016397268e-02,6.134741961651090335e-03,1.118279372591934016e-02,-2.038682311230766153e-02,-6.760526818951382612e-03,1.303754876147863746e-03,-2.043466783692259731e-02,1.096648120753240807e-02,-1.973395404575995285e-03,-1.425525017073790007e-02,3.151465614301326296e-02,2.035365063693804488e-02,-2.721886740704856575e-02,1.203324713765644219e-02,2.973494536116316408e-02,-1.056412608612935025e-02,-9.463480793557755774e-03,-5.703506533684540858e-02,-1.225408332136068180e-02,8.331219866726205514e-03,-4.181588992353633960e-02,-2.641756322428955028e-02,3.952698767859170320e-02,7.374468926932527604e-03,-3.967068998388901201e-04,-1.571354841280272075e-03,9.770555990776249450e-03,-5.537405974803764203e-03,-2.701081936435134612e-02,-2.287415949866675180e-02,6.737033581373206431e-03,1.358687271981774691e-02,2.498552925155466363e-03,-3.201823877385156190e-03,-1.694925088598831517e-03,3.280885644650577155e-03,-7.806332870234183353e-03,-5.499735461719933508e-03,-5.094094493187467654e-02,-7.297625697933500521e-02,3.956648211179844554e-03,-4.024237775250563698e-02,7.426347547547671943e-03,-1.030240893979826947e-02,3.533493568473234595e-03,4.861062843216381463e-02,2.316828303868105621e-02,3.388600293356761051e-03,-3.937671738666663479e-02,-1.040973825458753159e-02,-3.058690945929687030e-02,-5.944816120854211523e-03,-1.032798428867576050e-02,9.176305810669921001e-03,-1.434008230805254320e-03,-4.144382315948189760e-03,1.726942958944161248e-03,-3.137650858529815456e-04,7.419262481522762021e-03,2.008628481613311187e-02,-1.532992297146300309e-02,-3.655829336870815294e-02,-3.298417534209233115e-02,5.540974937259263849e-03,1.483672687576529465e-03,-1.191643890922393888e-02,5.110334027296923633e-03,8.306212090878136931e-03,-1.087050766538969794e-02,-7.079722171897565031e-02,-4.048489495712324221e-03,-5.341638186211292161e-02,-1.476631917581724684e-01,5.980739572982207361e-03,1.045785944318108895e-02,4.059508884113023977e-03,1.352227140801126257e-02,4.224877894798433065e-02,-1.234013453720051411e-02,-1.874831069332346268e-04,9.034706714588358958e-03,-7.358074314131151901e-04,2.997735463764493458e-03,8.162511094676142692e-03,-5.242586242515701565e-03,-3.230690646203104172e-02,-4.873796824891042309e-03,-1.783139923139954661e-02,-4.039791610142282746e-02,8.134934644323518066e-03,-8.035847039793678204e-02,-1.469845017953466497e-02,4.456613762876705104e-02,-3.878686818104606741e-03,-4.976879505056520242e-02,-2.353913417036212000e-02,-4.077582522654054492e-02,3.176261718331267725e-04,-3.045164467621369522e-03,1.278746543259378114e-03,-5.594268715341678584e-03,-1.890897584755497907e-02,4.162265301333766682e-02,1.161672890548971901e-03,-2.494778132483854369e-02,-9.666171230372191947e-02,1.663336670783588031e-02,-1.165327550572919056e-02,-1.240403474345382062e-02,9.342023814657837363e-03,8.434842853271807064e-03,-5.656861857748749639e-02,-2.247390414174026477e-02,-5.981290144299161379e-03,4.840084775164240662e-03,9.519746307780555319e-03,4.705333594175064096e-03,2.519005756689720373e-03,4.201373648356337975e-02,-5.321426703308202236e-03,7.060900273877789013e-02,3.464330242957633019e-03,-3.673814151788472315e-02,-8.773974669855590027e-05,-3.291559241173732525e-02,-4.192695864010501788e-02,-1.658235994190138118e-02,-9.556037771284201301e-03,-4.462017585530300007e-02,-1.871719893521472250e-02,2.134197982150546485e-02,-7.629529211457525446e-03,2.390329487637054932e-03,-4.098108167339745145e-02,-9.634752469211060530e-03,2.010468202604023119e-02,1.132802707678109630e-02,1.702479763868782912e-03,-1.430547295870995307e-02,-2.001604074247521903e-02,8.836693568112664182e-03,-3.639240682769863400e-02,-6.526034293683809911e-03,6.733725005025567936e-03,-2.112713091947127433e-03,-2.263150047020267425e-02,5.958691263240115804e-03,-2.605987272108278505e-02,4.118456423377290197e-03,-6.406796564608682742e-02,6.856097353525447864e-03,-4.062509727345593215e-03,-1.360199324197907123e-01,-9.241747597439958425e-03,-3.897287335283508569e-02,6.002996061750712209e-03,-3.054871230037043903e-02,-8.528322754914734530e-03,-1.137731848696239704e-03,-5.669389180443191144e-03,-2.460371597859452308e-02,-2.595604586206358769e-02,1.106192970612067394e-02,1.231261238278214161e-02,-7.276531950173679986e-02,-5.622278028190617893e-02,-5.429320296772482957e-03,-6.743350432944354364e-03,-6.798921207339009287e-02,2.598695262155229126e-05,-5.614277156224404056e-03,-1.012194467214554555e-01,-5.485432936052590108e-02,-2.800705925486120934e-02,-2.878061490916229443e-03,4.938797277979074633e-03,3.056082068011563291e-03
-3.704309277277792467e-02,1.143726782686170507e-02,4.753084779715777489e-03,-1.189167087783273430e-01,-2.864953944035680475e-02,4.239463242115231595e-02,4.904528496462725110e-03,8.602159818185690920e-03,-2.443779011644188134e-02,2.036830002613398971e-02,-1.182086420406596172e-01,1.883570950628439891e-02,3.577400865293529214e-02,2.189278999463998773e-02,4.304596233524453364e-02,1.163808351261770915e-02,-1.401092368291550691e-02,5.254521544552118173e-02,1.145288146067359805e-02,-5.476008441613916533e-03,6.609373527128428738e-02,-2.213543567629132607e-03,5.005453454459834334e-03,-2.209309322246755247e-02,1.058358202117485290e-02,6.082780053615315097e-02,-7.465762614249499274e-04,3.006231656337199007e-02,1.524020327719717224e-02,-2.484211120944747331e-02,-1.118331407973705699e-02,-4.189429760367619285e-03,-1.060276486757939264e-02,1.102785346514157695e-02,2.599880429337727075e-02,6.107614322495984183e-02,2.059714053856915097e-02,-3.033748343026132152e-02,-3.691920279277901922e-04,2.936447873665012920e-02,4.443523111417798169e-03,2.248570269031978722e-02,-5.210947130435313220e-03,-2.552603160812876113e-03,-4.255532437140908779e-03,-2.853377534344226502e-02,-1.535421007285233102e-03,-3.121073785441205381e-02,7.669403434161830603e-03,2.716045487044596238e-02,-1.067675959391178458e-01,5.334691134916874460e-03,-3.427789557196268821e-02,4.272445890773969579e-02,-2.380423939787696883e-03,3.331335772999856771e-03,6.830574325589256791e-03,-1.220853076460189229e-01,3.690942915736344920e-02,1.118553817091355249e-02,-3.756188396976084098e-03,4.871249631721642250e-03,1.627914292488698289e-02,-9.688642845137946519e-03,-1.861229117787900622e-01,-1.007234316058846016e-02,8.004158781618938776e-03,3.716884777005090637e-03,-3.312741273103783635e-02,-7.638364125448123161e-03,-3.683082576136822300e-02,9.023923218969670187e-03,1.036818027295249682e-02,-4.839047570073782417e-02,-8.350097001260717300e-02,-6.998635914871759178e-02,-2.668570333088280191e-02,-4.538605809210140979e-03,4.242134540494066873e-03,-3.412278582838745074e-03,-6.815037841712269680e-03,-3.550508854479362229e-03,8.805461535241680682e-02,1.929332589413485920e-04,-2.621870159827709851e-02,-4.672192127739353308e-03,-2.322994160992600428e-03,-1.803892965933376552e-03,-1.354852459282679562e-02,4.266986728210948182e-02,5.219593452056108494e-03,-2.981895747728362939e-02,2.867793043534636391e-02,-2.627338353053124825e-02,1.820352017584765669e-02,5.798772711799679309e-04,-9.651691971130309244e-02,7.245365215974650629e-03,1.276169794183384422e-02,1.949320231452920590e-02,1.475053382394996872e-02,1.324109807347629078e-02,3.246462188982676602e-03,1.887161402246500478e-03,-2.239565573854727931e-02,5.060952661996131162e-03,1.071519486830678795e-03,5.491763404680217488e-03,-5.767704089634583670e-02,-2.674193982886938215e-02,-3.170565241603324775e-03,-2.188886283258852788e-02,1.100838802828164875e-03,-1.914585912363230003e-02,-1.353170949030176318e-01,1.742930661000128764e-02,4.944627747203395041e-02,6.130002716728209615e-03,8.708265334209262451e-03,1.342547116944998314e-03,-3.152693526600850739e-04,-1.577709365206163760e-03,-4.743289276391516457e-02,8.968576832424468570e-03,-2.591027594490373249e-03,-1.610253485908078042e-02,3.475375527674798119e-03,-1.363441446656283099e-02,9.372189307772725228e-03,2.029322029242125805e-02,-2.602752377720304183e-02,-4.846504075944086699e-03,-7.844714692427564098e-03,-9.113826976144034919e-02,-1.124264314289618177e-01,6.744303410024891920e-02,1.273934007862512208e-02,1.177937740757870836e-03,5.472872331562091304e-03,7.280172004068596707e-03,1.253640066190708086e-02,-7.891881266985640089e-03,1.898822559869722468e-02,-1.013940991198429911e-02,-2.360265696692236473e-02,-1.854434528619885308e-02,-9.860430335050915287e-04,-4.578312221450640124e-02,7.368122231178674680e-03,6.327591281109845069e-03,3.847734204860239239e-03,-3.797306860618931967e-02,3.233108122215792336e-03,-3.650420552319283331e-03,-1.703131614107477806e-02,-1.375022033574128943e-01,1.256073550837215162e-02,-1.360801795436975166e-02,7.259539076562276233e-03,2.155044704197792583e-03,6.973259190243720831e-03,6.752270966396546614e-02,-2.728041036098129840e-02,4.960171457967128827e-02,-4.136476080493341201e-02,5.024043462328577070e-02,-1.952280880851437611e-02,-6.487025785423304082e-03,-7.486011963104152733e-02,-3.801524812968008066e-02,5.353262182039687268e-03,3.054877589594617165e-02,1.437448768358377382e-03,2.398408767981478548e-02,6.582270347424681346e-03,-7.385840019229787667e-02,-4.574868482374035844e-02,8.423017350609336359e-03,-3.713190771993958583e-02,-4.394363965918320070e-02,6.516348809626201950e-03,6.103535737081593020e-03,3.105848276215635029e-02,6.534036493480094472e-03,-4.309772575413702705e-02,-3.356590483169615870e-03,-1.831035978978593241e-03,-9.084454734993807623e-03,-7.281461502251899975e-02,-2.727973418350316051e-03,-3.770735913865352201e-03,-5.993136089180740519e-03,-8.084765898048705546e-02,-2.167821500579698857e-02,-1.045744298738154054e-01,5.480232533082852325e-02,-9.226308865890943053e-03,-4.280815110613185592e-03,-2.134696168412424447e-02,-1.367368356461211125e-03,-1.693176927076079155e-02,-1.491052361766573124e-02,-6.342338209327045596e-03,-5.047936492151234092e-03,-2.980120879266842226e-03,-6.710435540332224981e-03,-8.093885107629209680e-03,-8.553353052121474842e-02,-3.457351973472681111e-02,-3.663277032984896871e-03,3.455513425870455988e-03,1.302433833084003754e-02,-7.729601387152334503e-03,-6.247288982833302390e-02,1.614271078604753024e-02,-1.241624524859607087e-01,1.305997113326720985e-02,-7.756272098264996306e-02,-1.567946758507134108e-02,-5.924532967216179780e-02,-4.584425931629117212e-03,-3.751647247718286303e-03,7.718529847412413693e-03,-3.821147612135895356e-03,-8.037648319783076423e-03,-6.688523294790321705e-02,5.086979747513910516e-04,-4.636030334938939616e-03,1.591561612733359207e-02,-7.384408350687661493e-02,-2.756704399115443224e-02,-2.219300475747821785e-03,-1.034056458873815372e-02,6.715454781107867664e-03,-3.300011094383246968e-02,-1.177765599991190126e-02,9.035083279475373142e-04,2.289129101887142637e-02,5.730367721791832999e-03,-7.502859323325988990e-03,1.121980856476324090e-02,1.423379120006954685e-02,-3.956931260269972361e-04,-4.294780645629989874e-02,3.564724958453825438e-03,-4.392634309084993138e-02,1.066244926293914014e-02,1.851525309618159423e-04,-3.264636909061704312e-02,5.199790897231973755e-03,-1.307108653683514404e-03,-1.297156110229349350e-03,-3.511084128893475899e-04,5.267988442524757647e-03,1.295120794961571349e-02,-2.826344497723586578e-04,-1.286542638767443902e-01,-6.710639909960855812e-03,-6.340118153200792819e-03,-1.388884369428942944e-02,-6.912984772247988963e-02,-1.570730955484486713e-02,1.738768756256033055e-02,-1.906465824593088889e-03,2.491706571195445585e-02,9.892671477718103373e-03,2.520663814740703532e-03,6.478500180851591399e-03,-2.443755334889425451e-02,-2.875178697400141564e-02,-8.392039609547088594e-03,-6.294231802549670775e-03,-3.114515168450885871e-02,-2.533404505040088434e-02,7.893529460298177869e-03,4.045643370843896025e-02,1.559215431730977611e-02,2.079984177286459818e-02,-5.839657251292048636e-03,1.222429903206502001e-02,-6.446472625605583796e-03,-2.591215278862555801e-02,-1.163284354345900211e-02,5.944928488315953663e-02,-1.875554800075884126e-02,3.585311791225717637e-03,3.603791926903522538e-04,-2.805258504400692104e-02,-2.529028495210505073e-02,7.034928182342422599e-03,-2.497862335302043074e-03,7.967198107398239595e-03,-1.609010607935246976e-03,1.887005883928210117e-03,-7.022268413966664680e-02,2.349379605785157504e-02,-7.967561128481390198e-03,-1.252706524420773649e-03,-7.276368062390810472e-03,-6.474108850136483899e-03
-1.035261670681576901e-01,-8.228798092910454345e-03,-2.354783900283356074e-02,4.722186097827434093e-02,-1.024709595755033259e-01,-3.046320106001050923e-02,5.318306902653394840e-05,3.299552084812874819e-02,5.470558213229895911e-03,-5.955361973259805375e-03,4.146522295205882364e-02,9.913040846120315872e-03,9.216779894259716222e-03,-1.969481711193125373e-01,-1.191010377778150241e-02,-9.912084333384746718e-03,1.656641921296920714e-02,-7.618972855650905929e-02,-5.418934264218678437e-03,-2.615161761678961097e-02,-7.715974900096041200e-02,1.225555649698653084e-02,-1.436635798577333943e-02,-6.841353496847487302e-03,-6.772285858681863745e-03,-1.592676830364047821e-02,-1.460367942929387090e-03,-8.538622808301196687e-02,-1.646557607046593777e-02,1.819705769028555700e-02,-1.547054639920743442e-02,4.136078163073301020e-03,7.270806050263066596e-03,-1.550484249201659892e-02,-1.988259849615408442e-02,6.435197875643273308e-03,6.124045768436773250e-03,3.061355837437017280e-02,-2.905312116827623269e-03,-4.872636999993160134e-02,2.435698138333276461e-02,-1.513558534739044281e-02,5.142489128282560010e-03,2.781041192481413515e-02,2.306477914053021126e-03,-3.029754753893079688e-02,1.480695101555267856e-03,-1.006029925208204445e-02,-2.116365304021219917e-02,1.203993105339447311e-02,3.527316732106146324e-02,-4.872199614377135772e-03,2.902375161411905116e-02,-2.781998254229916460e-04,2.482622820226912733e-03,-1.427481843558539576e-02,-3.963379255310645727e-04,6.725823577753697879e-02,-1.348560469359171010e-02,-4.646253012178357643e-03,-1.734268986031103910e-02,-1.710533080609827382e-03,3.303143975397277582e-02,1.160415124385106612e-02,1.939600455898103648e-02,-3.757811952648502929e-02,-1.334852771244654512e-02,-2.090716183802258411e-03,-1.372342105969918957e-02,-4.992937246263640105e-02,6.310444233951658516e-03,5.707096001407742022e-03,1.193949480163667212e-02,-5.675031584792061129e-02,1.825500624777623079e-02,9.270430950111603619e-02,-3.168705573899198435e-02,-3.681196817670829343e-03,3.022165339459985346e-04,-4.825000983578671410e-02,3.548620103703731266e-02,4.242514780815232964e-03,2.223617002638221540e-02,4.488109268697353105e-02,5.176724700097803944e-02,-2.811383204822836754e-02,-9.282635127964041291e-03,5.214837319698546227e-03,1.013407601813124748e-03,-1.222180569523828239e-02,-2.155522745207690688e-03,5.023197263587964728e-02,1.533799814092586498e-03,-6.416244497543353506e-03,2.978228745341411632e-02,3.902614341190749803e-04,-1.022053074181211198e-02,-4.562394127389107941e-03,-3.945382817485469651e-02,-2.178196375014253630e-02,1.311672014879249580e-02,1.214648661777628820e-02,2.659263759727211601e-02,2.933572550044021357e-03,1.662494856507319360e-02,-6.349314101362524276e-02,9.841830529451801174e-03,-5.599296859005021762e-03,8.368532785798106846e-03,-4.243522908094969626e-02,3.093016001808188229e-03,7.419660378934442302e-02,1.760648350682871840e-05,-1.860492989496405694e-02,-6.470641956839193187e-02,2.768803340044849806e-02,6.579415646313899191e-02,-3.075688338841904568e-02,8.086659252983179709e-04,8.985568155599253301e-03,5.095992741044283805e-03,5.180023378310629097e-03,-6.386633402058010389e-02,1.771674968799797105e-03,4.944349317547702119e-04,5.209904586467010816e-03,-6.563795830632230405e-03,1.367035245493845863e-02,2.371037469828422579e-03,-3.572643707995681178e-02,-4.802645322849323148e-03,-1.630467446686721666e-02,3.650254825246701182e-04,1.405755306703963294e-02,-6.832091640550996998e-03,7.910010118065526410e-03,1.201829667989127298e-03,-1.786513347684299396e-02,3.865134520325601720e-03,-2.684658353970353385e-03,1.706736870778070500e-02,9.427039487135252180e-03,-8.013643955218502368e-03,3.658992648951980495e-03,9.480322538853893158e-03,-2.017219474353176140e-02,1.106217150708279241e-03,-6.221351458128810546e-02,2.084817782971320251e-03,1.071089314681321477e-03,-4.487700507265861977e-03,-1.939701405569932424e-02,2.204989912710236463e-03,5.953202362124087113e-03,1.080623492336550825e-03,6.228048033625863816e-02,1.000855794206244320e-02,1.524386565858774738e-03,-1.525957843220150415e-05,-2.910147799508361072e-03,-9.594951050540836924e-04,-4.612153718598355212e-02,-5.567229043373609493e-02,-4.710093842525316099e-02,6.134714114328598811e-02,6.469819441318008790e-02,2.525473016124651828e-03,4.687692822803352609e-03,-3.646136025119324497e-02,9.054679003024744890e-03,9.035126589382463935e-03,-3.790604036950001587e-02,6.551216304620167963e-03,-2.357209119033809152e-03,-2.520373798362093246e-03,-8.437433768577785875e-02,1.852796832284280340e-02,3.863238475662820939e-03,5.327888502722930020e-02,-9.130615098108510463e-02,2.786337646548322968e-03,7.797470466784747062e-03,-8.974482750224493932e-02,-5.818890127979433648e-03,4.268498199924923575e-02,-4.163480503114196096e-02,3.607064336159570769e-03,-4.821111650721154364e-03,6.477181929497777269e-02,-5.116988887926973532e-03,6.654233516805359641e-03,-1.371387834812180708e-03,5.956931180154528827e-02,1.866056792194933922e-02,-1.922891142058504726e-02,-4.838467543021671147e-02,-2.822530689503754617e-03,1.447485285466760564e-02,-1.111647550796186421e-02,-1.283887568507539488e-03,-3.523677514666953559e-02,-2.618276819954057453e-03,-8.802700089730476629e-03,-3.865085938499213548e-03,-1.202559793588700750e-02,7.023597162832180161e-04,-3.386664996361617944e-03,-1.304320240826899852e-04,7.050902674609224596e-02,-7.259240145802888129e-03,1.402728011813572043e-03,2.928843672389425459e-02,2.018151933682611407e-03,5.886142720593992572e-02,1.618266932918033122e-03,-4.106175283232917778e-02,-2.347173217678993028e-03,-4.670992491911791361e-02,2.529846834286790871e-02,7.399791645444901700e-02,-1.901091258271991533e-02,2.281260730046810997e-03,-4.184324633176501364e-03,-1.389704226770609868e-02,-5.683609181103672046e-03,-4.092445454961946005e-02,-7.801483228465242933e-03,2.683153130486255668e-03,-1.856885425461408251e-02,-9.624992801818003235e-03,7.014894142242624614e-03,-2.237100959442341226e-04,4.483043632027995835e-03,1.026508125608643473e-03,-2.152603008331483228e-02,3.051728767186126165e-02,-3.076225328895336453e-03,-4.017464797988930941e-02,-4.338441164292022867e-04,-4.449511538368118926e-03,-5.396381831783944247e-03,3.502880689686824200e-02,-5.068560899455902720e-03,-4.258986933091994664e-02,3.069062805986357955e-03,-3.202872986638630008e-03,1.029752366409465800e-03,-7.035800566114794839e-04,-1.114001554986652764e-01,6.676491401723876930e-03,2.454269070134693868e-03,-1.489946602641008299e-03,-2.953295152694976333e-03,2.737222155758974040e-02,4.321954525336193197e-03,-2.486272855410863545e-03,8.422051202268454606e-02,-7.823851821993539624e-02,1.085595176882693004e-02,1.798951283938883192e-02,6.425318427838372370e-02,-3.896059664621981042e-03,-6.186910838400200285e-02,2.503681476969872241e-03,-4.541471035704354453e-02,-1.694797140234952440e-02,9.375009394810971579e-04,7.604678364343734134e-03,9.076761457806543573e-03,8.309366707164091495e-03,2.973936980265730941e-03,-2.249508149283867275e-03,-5.467819549742618246e-02,1.242807367388556669e-02,-5.789823948278767507e-03,-4.754288407673581268e-03,-5.166557403026440787e-03,-4.153017780008384785e-02,-3.664060862006744690e-02,-2.807154435050944474e-02,4.383053432227414052e-03,-4.519500257292647510e-02,1.345483838973211398e-03,2.397929026467901167e-02,5.593394787275042697e-03,5.585263086766690220e-03,2.600345088378662895e-03,3.979258810910333427e-02,-3.838535329402419094e-02,-9.914769612097957749e-03,-3.433281824737411878e-03,-6.524824130650568738e-03,3.186845757678045954e-03,-6.263294081048681634e-03,4.007669043177465584e-02,3.450146187966589284e-02,-4.968871066607735698e-02,4.776610398514181434e-03,3.396531166498367553e-03,-1.865371690619649142e-03
-5.470801913724546855e-02,-2.219841929777694595e-02,-1.009699491644010655e-01,2.516411545471439887e-02,3.641565619133497328e-02,3.970816263963886789e-02,-1.728906338796929636e-03,-2.785237638443072497e-02,1.567308482560535480e-03,-2.421396351722047285e-02,-1.380642603672199709e-01,4.005406467624713675e-03,2.624083243881384503e-02,1.335283813252043268e-02,5.472401692233157949e-03,-1.287102959490423609e-02,1.366977757140451152e-03,7.392495631865336758e-03,-1.488141381064850971e-02,4.112598448484701408e-02,-1.690807025653715337e-02,-6.323402762856015005e-03,-7.950793514363047043e-02,-3.927331515969441356e-02,6.590087237269862293e-03,-5.343357322210863514e-02,3.311815729245734183e-03,-9.124219508305707327e-02,1.123715377749547571e-02,-1.738115255343694945e-02,-1.302858623106159693e-02,-5.350590610963613589e-03,6.727845907047247463e-05,-2.620802008817436218e-02,1.693105891342403663e-02,-8.640873543172167270e-02,-7.124497732575705428e-03,-6.954823660045706193e-03,-2.737753084371702048e-02,-1.457876502665848284e-01,8.374370970392365759e-04,-3.770468695795158032e-02,-3.718627908809871499e-03,2.415230914781034757e-02,-3.682238011169885333e-03,1.092359385154752623e-04,1.620633280385113143e-03,-1.529038030239662088e-02,2.665359990013156481e-03,-2.045605050073301401e-02,7.134550565428901536e-02,6.872792723484521388e-03,-4.963461141680728522e-02,-3.711005845783873786e-03,8.072047539192789972e-03,-9.791559142217876391e-03,8.227844326451617257e-03,-3.869433685141665524e-02,-3.854049048979639458e-02,-1.093442964029222577e-03,-2.928647372336261323e-02,-9.888299707011968202e-04,-2.730455238783911498e-01,-1.115889545876744965e-03,2.664061502011828494e-02,5.658282475639568598e-02,-2.643033911358775700e-03,-1.111672731546388578e-02,1.428598690540627651e-02,3.865449031052863721e-02,-4.478866527234545009e-02,-9.215145181500154423e-03,-2.674032763135289568e-04,-5.286496607014935095e-02,-9.026378577528966496e-02,-2.722447195237257325e-02,-7.215582464784632555e-03,3.816412100985078302e-03,-5.254081485157346444e-03,-2.376839112208694454e-02,-1.924107790121919268e-03,-9.804788141518326616e-03,3.614210798743019981e-02,-2.941338350503275995e-02,4.463191035149074656e-03,3.635479069760924522e-03,-1.704636622437246101e-03,1.014286293134913572e-02,-9.264096566478703665e-03,-5.182164655819062465e-02,-1.538973576954449397e-03,-1.190113636040845135e-01,-1.157649042917698046e-01,-2.094521870178846223e-02,2.983032643815164420e-03,1.104578624918510499e-02,-1.169247877186489065e-01,-5.533465585399805452e-03,3.386180841384453348e-03,-5.882197934936947425e-02,-3.808727422812997754e-02,-8.813344624604638189e-02,-2.736160321157868336e-02,4.539774143870028630e-03,-2.821519954098836852e-02,-5.154809439030711565e-02,-1.343727113098896857e-03,4.666716788115665183e-03,1.834606420825693864e-03,7.379785954466983044e-02,1.077420982785998139e-03,-2.717984818094782568e-02,2.155030207531982863e-04,5.383996105954857135e-03,-1.451349134840331234e-01,2.722228387630092408e-02,-1.380008861995945212e-02,-2.821787008778444891e-02,1.465649648013657132e-03,1.084730618176957088e-02,3.697549603356593915e-03,1.069361678770083639e-02,2.601516894176941069e-02,5.835556515504047859e-03,3.438505328483012612e-03,-1.102892403209066591e-02,1.210442430909415036e-02,-2.301107669794985947e-02,1.832214184614922720e-03,3.538613330650432903e-02,-4.188518360194393099e-04,-1.669592224759844368e-02,-6.105680631965011186e-03,-1.325554749045895209e-01,-3.263303214738726143e-02,-4.124262414211411765e-02,-1.694534663257221338e-02,-1.698668536114270045e-02,9.564878180754955023e-03,-1.371909121857614773e-02,5.084157750930252267e-02,-9.779727689792603457e-03,-1.981187409215389925e-02,-1.761133516045313915e-02,-1.831321495168761887e-02,-1.455311597155329456e-03,4.700472856696732461e-03,-4.778005058902223823e-02,1.118009374336221759e-02,-8.076271131332628467e-04,-1.177214701593776516e-02,3.402556456116781480e-02,-3.964350749314948102e-02,-1.601641948664785792e-02,-1.307971479266394586e-03,-4.816168226634776062e-02,-2.884705149903639063e-02,2.877294390359981611e-03,-1.080725061529582559e-02,-9.496036798442587454e-03,-2.606935237725389615e-03,1.050020358862086695e-02,5.696987186389591146e-02,2.133182415646463909e-02,4.234383783711860583e-02,-1.151657271290961321e-01,-3.128843439316786323e-02,8.927775408714561101e-03,-9.376156023105904069e-02,1.747166454195572816e-02,3.259391097647402688e-03,-4.269218512370539370e-02,-1.076554894868912444e-03,-2.594018831964545191e-02,3.337267040049825099e-03,1.679672403270737052e-02,-3.547427873796148851e-02,4.801394771380309949e-03,-3.351536444418538180e-02,6.746685131987016464e-03,-2.862324484959141713e-03,8.902213225358838328e-03,-2.593360377448807302e-03,2.550179944912605266e-03,-4.024123002230386298e-02,4.265814752986324052e-03,3.253759810794654671e-03,-5.391519057908419378e-03,-1.587092897595819216e-02,-1.350768493143010606e-03,2.856488809864578520e-03,1.063425938926063422e-02,2.508108957258963975e-02,-3.747392977630589067e-02,-9.848704687482643522e-03,-1.679466456701462218e-01,5.319983571472198906e-03,-6.062763091178402508e-02,9.118793882978287746e-03,3.989710907869674014e-03,-8.751308067434513879e-03,-8.315191564592818232e-03,-1.376140237785876408e-02,-1.940662987079535629e-03,7.814999321805127458e-04,-3.203269349843537294e-03,3.848865269553633679e-03,3.269694754911563889e-02,-5.277154062802700413e-02,4.157578917752622477e-03,2.281390617213576583e-02,-1.445164782158440096e-02,3.892111858786493489e-03,5.770181295477026795e-02,7.632203800300163543e-03,-5.196395793860428963e-02,-2.237584639740373971e-02,1.879125187130415917e-02,-7.262921428329839786e-03,-7.896207474694690032e-02,-7.269433126878955750e-03,4.656639703243816222e-03,-1.522487341558405663e-02,-1.159688725936951562e-02,-5.465912199385723064e-02,-7.844620914948896573e-02,-3.552455236344324906e-04,-6.004194295696229679e-03,-4.324443303125038301e-02,-1.989220086596015652e-02,1.727333762037401447e-04,6.684268634646807483e-03,-4.256323709650806225e-02,8.146299272162644059e-03,-3.129127998767784052e-02,-2.469986417526694525e-02,6.179823855951224049e-03,-1.326407051713847894e-02,2.636789086346047234e-04,-5.712946832424263197e-03,-8.314190737474237008e-03,-1.158211763769276259e-01,-7.067897335476378516e-03,9.311366823024772033e-02,-5.308938410441833324e-03,8.608523980159502043e-03,6.186358243611227853e-03,-2.511073286063692997e-02,-3.068514996072350259e-02,-2.458703050685497049e-03,4.389753773491615954e-03,-1.949794252148873835e-02,-1.480572756565288334e-02,-2.248909927687366833e-02,-5.913411685625772013e-04,-7.910549198712002808e-03,-1.176646367816650274e-01,-1.276995743680454758e-02,-1.518810767737355759e-02,-2.221706891923415361e-02,-6.904925010930318408e-02,8.928441362916596583e-03,-7.976503921318213453e-02,7.586040926964250641e-03,-1.462752341536872336e-01,-2.522096262404975586e-02,4.943967082752680209e-03,2.802260463974561890e-03,-6.385684148797633047e-03,2.407544907192261593e-03,5.725559985895595054e-03,4.699517754639686087e-03,2.902905209696819699e-02,-2.023278152608916358e-02,3.819473159772549670e-03,-1.383334779645060131e-01,-4.897381147612885587e-03,-1.253229813438614358e-02,-9.242879731488811215e-03,-7.926174797771122840e-03,-7.567306585593027400e-03,-3.736306228763722898e-02,-1.143968572803671577e-02,4.107594173065421544e-02,1.278042795410612095e-02,1.032114332463526449e-02,8.096982427846803956e-03,-6.783771675911962062e-02,2.683085806892171465e-02,-6.107814279484942606e-03,-5.793940173031798986e-03,1.898914859943310598e-03,-1.330302927972052719e-03,1.450192928453811897e-02,7.037434661607287756e-02,8.938367685643454352e-03,2.572301053020994641e-03,3.364647568479970687e-03,-3.764040208621899884e-03,-1.009547820148895374e-02
3.981458757591242043e-02,-8.179710985441356746e-03,-2.402762093776120243e-03,-2.030021267356664494e-02,-4.620916848678682104e-02,-4.309354341811477175e-03,1.183550741948428964e-02,-2.136118186994543158e-02,-8.686221731387963260e-03,2.084109357366338219e-02,-1.746147565408378288e-01,-9.921181659873580527e-03,-3.672213798319159256e-02,3.326076667102813300e-02,-7.103041892659517353e-02,1.202750870146757425e-02,-3.705855693342829937e-02,-1.289390810517433879e-02,-7.188313395402422604e-03,7.225443169536943308e-03,5.921406984564554082e-02,-5.879865382910555438e-03,5.278433028863448173e-02,1.228426946259839492e-03,2.254271977006159361e-02,1.474166385754132648e-02,5.647739359295048285e-03,1.721680184423722212e-02,-9.833457108693460791e-03,2.002442059894456259e-03,3.706472131728517222e-02,1.059003470295181125e-02,-3.931936906966626392e-03,-2.106529669343193932e-03,4.474904613380894722e-03,5.286168362935524806e-02,-2.711408713378023888e-02,-7.053535745443691163e-02,2.368674823155280523e-02,4.114119472261753424e-03,8.954421973098512094e-03,-1.036118384374212428e-02,-1.683712657630476520e-03,-6.190301987711897130e-03,-9.254012370485125913e-03,-4.230866750689563777e-02,-7.540116647259152011e-03,-2.279885028047867399e-02,1.304873157315174790e-03,-1.765368806739052790e-02,1.994441739432045377e-02,3.554928832869222108e-03,-3.606394820225568981e-02,-8.975708770127308056e-02,-5.428047082408626878e-03,1.145932289660805091e-02,3.971383297971044744e-03,-1.204627642179655761e-02,-1.444597831869105266e-02,4.080134774328966416e-04,-1.564751438878943246e-02,3.782077165409716835e-02,-2.489378905360564373e-02,-7.983239550545116747e-02,-2.359495718186265314e-02,-3.413976112665421253e-02,-2.237645639311661248e-03,7.492000291163219798e-03,-1.825977403857333495e-02,-3.248127017107179521e-02,-5.289579819237853753e-02,9.953568225870320155e-03,-1.366266229598023414e-03,-7.943696678502649988e-03,1.847458276621327666e-02,-4.829437369394529167e-02,-8.128148300691397099e-03,9.515504162926766846e-03,3.164546145764640227e-03,1.824582458129022852e-02,-9.659251052245835037e-03,7.693023377771456700e-03,2.483070807689040631e-03,-4.603755684002802662e-02,-6.520298863268103595e-02,-3.861487902032504499e-03,2.374473507298531516e-03,-3.086827114190528014e-03,-5.082986331892416602e-03,1.633187708784213750e-03,-6.881400226604421615e-04,-1.825078791096525904e-02,1.891834103367391259e-02,-7.087093469388650382e-03,-2.210752017422909152e-02,-7.154202354448371826e-03,5.149103159940538604e-02,-1.097608031915009441e-02,-1.914200013956995211e-02,-7.745225569631314366e-02,-1.323520133502377114e-02,-3.091952775936463761e-03,2.339037318561781181e-02,2.377904579307730387e-03,-4.207780837382048278e-02,-3.737331951482880665e-02,-1.011718727043892617e-02,8.293141411081539002e-03,-6.787499477674906190e-02,-1.719620576530445366e-01,-9.273754154929736079e-03,-1.215268035163636143e-02,7.206957502233489118e-03,-4.296528591540531294e-02,5.742277348239671619e-02,-2.196705010848895925e-02,-1.715751516557818823e-02,3.122635060226274656e-02,-7.597066389907174014e-04,1.687805275697536536e-03,5.603333040833390760e-03,-1.144132311611363584e-02,-2.859379904676121603e-02,-3.201479562387451842e-03,4.781158084068015332e-03,5.347045587560330174e-03,1.103532915199972398e-03,-2.519840421334994598e-02,7.912064851673740115e-03,-4.822794777416753408e-03,-4.545396264446117073e-03,-1.386507643835048834e-02,-7.136911601026189010e-03,2.892979632650183666e-02,-7.426200516062637924e-02,2.885094939676286635e-02,-5.590375635731100433e-03,-9.415929851142253214e-04,7.640063500517844074e-03,-3.201105160748410339e-03,-2.733284325308033350e-02,-2.209672895588468168e-03,-3.947227315022605425e-03,3.820931438209426712e-03,-1.985121794761864414e-02,-5.283609702738503722e-02,6.629849088832635851e-03,3.780668250392672097e-02,-1.671115167514775253e-04,2.707222856134857900e-03,4.246331865205779307e-03,3.175585110877169465e-02,1.577130818557114303e-02,-1.504792354236053793e-02,3.655900269946765584e-03,-3.135852244575662584e-02,-5.451700698628771449e-03,2.673226627718088347e-03,-7.611176058042831325e-05,-2.580304667408361494e-03,5.462276496088051998e-03,1.405500280602139766e-02,9.056231842514571306e-02,-2.422929404207927254e-02,2.233180715711633249e-02,-3.850823140650548593e-02,-2.461045774307829212e-02,-5.683900714148434376e-04,3.309932354603973420e-02,-4.550809659576179889e-02,5.175315431398220742e-03,-2.576880485275822794e-02,1.363002561819779031e-02,-1.214668979780843955e-02,-9.204712569259146425e-04,3.444663254492284169e-04,-6.956871252474432221e-02,3.526246043439357821e-03,-4.698371597543427730e-02,-1.341046842809792521e-02,-8.256671718076808233e-03,-4.039658463468798720e-03,-7.830982445455363095e-02,1.318201715707720051e-03,-1.040368557928119803e-01,2.768781022128200681e-02,1.912691528735249594e-03,-7.667432136314359173e-03,-1.172703408261829144e-01,5.242612528236028496e-03,-6.272607570388972521e-03,1.564742360885463049e-02,9.365561915950025573e-02,1.880368626058772502e-02,-1.008202826359481420e-02,2.001346959436385922e-02,6.120142760397451025e-03,-4.379943307106534678e-02,-2.460085074065846648e-03,2.945189705907238879e-03,-4.112885231666760927e-02,8.992666159645779089e-03,-8.524738188296303700e-04,6.902630927663461549e-03,-4.726796723745019940e-02,3.833191363707710766e-03,-1.049001894516156039e-02,-6.649890074290826236e-02,-5.157362120293441238e-02,-1.273657037229365685e-02,-5.685163842443463969e-03,-1.394019767845647816e-02,-3.558257361182563024e-03,-1.023566389403566257e-01,4.035797938596371454e-03,4.486439701738983987e-02,2.832200878199486391e-02,-3.550869437858263089e-02,3.234956798132453126e-02,2.236516591963134959e-02,1.677822824686084000e-02,-7.998018145162169579e-03,4.732764967649498271e-03,4.014690153744823742e-02,-9.036393761881426900e-02,-3.577205799091791186e-04,-6.580715151290965001e-03,1.481235467508047222e-02,-3.245949572082379442e-02,-5.056544217322647000e-02,1.355704796359896887e-02,-3.865207185407342535e-03,-3.356390626531124185e-03,3.411005651626017408e-03,-2.598528823921838343e-02,2.637580186325405238e-03,-3.977794332919653425e-03,-5.969357408740236758e-03,2.482961203832262376e-03,-8.814763502380940216e-04,-4.032302978823293881e-03,-2.132186391319765631e-02,-5.434079740709631297e-03,-1.045184837700470770e-01,-1.437739094518552217e-03,-2.083501783921254749e-02,3.456841888930602298e-04,-1.099466082747936439e-02,-4.300574210971633109e-03,3.394050814162539488e-03,3.636097506707020033e-02,9.907419768541970984e-02,4.870744478471350850e-03,3.945743772568448271e-03,-5.354548807819763112e-03,-1.691119442267437125e-03,-7.739687662856181705e-03,7.267641582009087831e-02,-3.034291688471223332e-03,-8.341837098378714413e-03,-4.820407559891241173e-02,-5.039462102096623018e-04,-7.731199705481427153e-02,-5.406094125370369645e-03,2.683808619211598689e-02,3.492691692713205832e-03,3.976307891653062254e-03,-8.846894594781906998e-03,3.992856487063819321e-03,-1.805089575131731475e-03,2.324819910693418437e-02,-4.612429603348520805e-03,-5.189987575822414129e-02,1.460498552704089965e-02,-3.331925423694668230e-03,-2.076592186076395286e-02,2.657724579744376401e-03,2.022170664513171442e-02,-2.290909270769149117e-03,-1.706511240834961834e-02,2.246795648240894772e-03,2.631578920343275937e-02,-4.982440472720626838e-03,-3.538055802264643279e-02,2.458317421169649297e-02,6.737169679313683964e-04,2.869423988839412114e-03,5.541609851092664518e-02,1.379270583770427980e-02,-4.583178279498137386e-02,-7.464073670299592629e-03,1.679738025754757072e-02,-1.427406712005413816e-03,-4.885384461915914800e-03,-1.943394694804809197e-01,-1.883042157199543709e-02,5.526583190961879832e-02,-9.542453414312410120e-03,2.461756887242616890e-03,-4.201656038307195751e-03
-5.044024436849996879e-02,1.732040363899113936e-02,4.425389630285855684e-03,-2.886878143918835890e-02,-4.067952206709053026e-02,-1.892273054145191327e-02,-6.396201807212808545e-03,7.922934486959722078e-03,1.474985953412696069e-03,-1.758139599933779967e-02,-1.569343373074539791e-02,3.879694040105272079e-02,1.948155883841538394e-03,-1.905990002659796803e-02,-7.910147935284271570e-02,1.856004272184036234e-03,-2.494200998296357621e-02,-1.868394696324147952e-02,-4.808306648189285271e-03,1.306852654643272807e-03,-8.751540276093906778e-02,5.810773243554619161e-03,-7.263291185873843592e-02,-2.764563715539761213e-02,-5.308395895373427785e-03,-8.402006975239434405e-03,4.076177572366705519e-03,-2.991155610748759061e-02,-7.564349621640850500e-03,-3.073078711583882017e-02,1.872602368548250198e-03,-1.070884553079584807e-02,9.414597400192594584e-03,-1.360114230754102226e-02,1.354295848907546319e-02,-5.327953439066729358e-02,-1.100091380006638572e-02,-2.251994860862969669e-02,-4.291228290883610641e-05,-4.219529986072542010e-02,-3.537605475042698844e-03,3.707820840454145034e-02,-2.579171382251083978e-03,-9.945762136021642219e-03,2.384116042327137294e-02,2.075951561578801181e-03,6.756616955850177665e-03,-1.917004136838754841e-02,-4.813408616946109574e-03,-3.881450004166327877e-02,2.036472736168091005e-02,-3.212733989632042281e-03,4.371119903660345037e-03,-4.485024911663362639e-03,-6.122520596366871903e-03,-6.881053600481660745e-03,1.911051353646486210e-03,3.110993726517315150e-02,3.511738227061553252e-02,-1.389038109171741690e-02,-5.818197093175251147e-03,-3.979840879362376432e-02,-3.306907282046975954e-02,1.731699550509797425e-03,-8.709692743333437293e-02,2.034839510005731489e-02,3.063836856325134837e-03,6.170147245250974001e-03,1.672166155457478418e-02,-9.930846292137213843e-03,-1.751915000183912677e-02,-2.296423047827385842e-03,1.636319077309876871e-02,1.390003425685726324e-02,-4.911023333495602439e-02,1.337109980906396947e-02,4.370476139432658003e-02,-3.980331521184577413e-03,-6.702864324954728274e-03,-7.558553048233962457e-02,6.432741697676178181e-04,1.319217309535453998e-02,-4.081593921213872572e-02,-2.133845299398147433e-02,-4.269637166357989622e-02,1.387093813855462023e-02,-9.146018254776414058e-03,8.228630072293678654e-03,7.055050838842014289e-03,-4.871488340352582436e-02,2.449384426179236629e-03,-1.005678989736573797e-01,-5.704201215460850266e-02,5.876584274126706378e-03,-9.428707581124201598e-02,-5.739192044031337335e-04,-6.150889681639762352e-02,-6.244718856631452202e-03,4.952620758324895872e-02,6.468173595605261617e-02,3.287881547624423115e-03,-2.027307541862838694e-02,-3.240012522674947174e-03,-2.962938641333496322e-03,2.483749275733139819e-02,-5.346540519374849004e-02,-1.514032769554346861e-02,1.817021202213860154e-02,3.230647555880882676e-02,-1.015600043132314960e-03,-7.133115387877217092e-03,-4.618230832605778324e-02,3.195948572931631929e-04,-2.181639248240622997e-02,-4.450506131101820279e-02,-2.064665138130645367e-02,-3.653937269267150401e-02,2.542977453911084585e-03,-5.859733399194695311e-03,-1.376529795988421477e-02,1.514880929031533693e-03,-7.152491131665106305e-03,-4.048248809872403986e-02,-5.084930306497066101e-03,-1.903623269699110171e-03,1.053233675515267628e-03,-7.998624348273189119e-03,4.520075907241283427e-04,3.892597557309549882e-03,-2.017589509726557678e-02,8.063743740048055775e-03,-1.281182945685682001e-02,7.002644073427542401e-03,2.042845020263138814e-02,-1.002185810787465520e-01,-2.650775954076436611e-02,-1.086190061640923167e-02,-2.797693492621626185e-02,-7.029861265290308046e-03,-8.658966618299346329e-03,-3.061280366826720639e-02,-4.232491237247182521e-03,-7.500110095361199776e-03,-1.251053998915611573e-02,3.604381836016674195e-02,-1.493338948999004250e-03,9.207466435434350706e-06,-2.739565585895884295e-02,4.916050675497012426e-03,-2.539529521001435575e-03,5.754022070652035567e-03,1.187629095278767023e-03,-2.740759793185607029e-02,1.761350157130875003e-03,1.314701333326448191e-03,3.332175537437486162e-03,7.545369237693922392e-03,-9.485542752456119567e-03,6.149096752138241175e-03,1.104142323823795700e-03,-1.977269329423854329e-03,-3.296627625420288366e-02,-2.369664626728480369e-02,9.947460527598704291e-03,-1.087382761366472855e-01,-8.767172561076012199e-03,3.835789359106065582e-02,8.069252886795760804e-03,1.318826664894394473e-03,-7.591832277935647334e-03,4.872727227002995702e-03,-2.369726508849111582e-02,2.762666540827839971e-03,4.079989582270305767e-03,-5.022933492982184847e-03,1.560188642805753097e-02,5.348439580431191276e-02,5.179862183620054412e-03,-6.994069365999383905e-03,-4.210728436318394996e-02,-6.709095278071648162e-03,1.182578913873961156e-02,-2.692055704807895175e-02,-6.758121778243000172e-03,2.555143643153261548e-02,4.462465583537425506e-02,5.068177787457376314e-03,-9.397296164143028457e-03,-3.647272403127612556e-02,-1.623091345796361714e-03,9.458029329645019356e-03,1.301270948228546928e-02,-1.167824618026858940e-01,1.564858288783862322e-02,-2.559640131473354605e-02,-2.790544161547246077e-02,-3.062650580525762972e-03,1.586945554452091900e-02,-8.007266689218158970e-03,7.768089246137745325e-03,9.114196944240364473e-02,-1.399849582058707194e-02,1.002507205631636422e-02,1.020081581972180976e-02,2.311240632460540012e-02,4.324493769309946910e-03,-7.673090347084243756e-03,2.207225853855633059e-03,-3.771370545289439574e-02,6.064963653276296378e-03,-2.056292897665136857e-02,-1.813370976199357373e-02,2.316260037799244744e-03,-2.242095997734688470e-02,6.744593598138844126e-03,-2.069810849012694923e-02,-2.811390486723010229e-02,7.120555510811324429e-03,-4.847734839798661238e-02,-3.117014790725529394e-02,-9.530891512405606112e-04,-1.044940089923837101e-03,3.404042625116016161e-03,-7.870098941072845369e-03,-2.026978142773955618e-02,-8.597906438213589325e-03,-9.252019417403023818e-03,-1.570150894707501854e-02,-3.692120823042301971e-03,-2.341060765605981232e-03,-1.954991324471489714e-03,2.190348296789829301e-05,-6.594129378077678849e-02,9.989506509021474703e-03,-1.130883652411198738e-02,-4.300916726918357219e-02,3.545077788837842914e-03,-2.660115980313776732e-02,3.637800702691183514e-03,-9.720091326216324934e-03,-9.621557943149277627e-04,-2.390635043425754641e-02,-7.373331346897722682e-03,-5.134654208513119572e-02,4.383112604172029018e-03,-7.266613017019328546e-03,7.364474573599579486e-03,1.485877894950201131e-02,1.291455529095896166e-03,5.176111199124999208e-03,-6.256821482729018301e-03,-1.727360460695282277e-02,-6.887008726226687312e-03,-3.434057589907534014e-02,-1.017690751968799122e-02,1.234574294313617315e-03,1.652862636879936717e-02,7.704169674582843873e-03,-1.091531261596081874e-02,-4.423519456464668036e-03,-5.005708716547762303e-03,-7.321309154549211773e-02,-9.875204111132169713e-03,-7.659638194920936893e-03,-3.321884717188151176e-02,1.147306203179082780e-02,5.231016831777250166e-03,-8.656062305576237015e-03,5.589429287093079790e-02,-2.736763623304928634e-03,5.886573705770332260e-02,-5.911054394076093593e-03,-6.683151165577801145e-02,8.942703342573261188e-03,5.972989364752238559e-03,-2.921207992549777060e-02,3.331175035656269625e-03,7.219381634872234187e-03,-7.636665075711905441e-03,-2.633374565311755525e-02,-2.167960558803490485e-03,-5.161408155328438968e-02,-1.248185411659365196e-02,-7.952344922632522545e-03,4.083484334611846983e-04,1.958263264038461685e-03,1.090251190440565858e-03,-3.869231268345441760e-02,-9.677406658210674362e-02,7.491646361167964431e-05,-5.304849343009401634e-03,-1.731844489692390202e-02,3.356613216309752706e-03,-1.735552874286592356e-02,-2.300523784701300964e-03,1.352529286832549436e-02,-1.786044418851833251e-02,-2.178021714701126443e-03,-1.098672326016938679e-03,6.635007852375866995e-03
-9.706054937637317859e-02,3.118633556844040491e-02,3.638135184820017604e-02,-6.837687105097051132e-02,-4.350440073770752217e-03,-4.587891246000114220e-02,1.233428608076657558e-03,1.172380065742945586e-02,-9.620264083565206736e-03,3.360197920225032556e-03,1.690845041354126915e-02,9.410304770935669014e-03,2.009834689004336497e-02,5.435298562635799274e-02,-1.012296786310677146e-03,-1.395712443363308734e-02,3.019553609603046335e-02,-5.658662130242241017e-02,-2.496251298779297422e-03,-4.773719301733128986e-03,-6.532590127693519398e-03,-5.789896319763214276e-03,-8.174244781847499197e-02,3.442691177206040620e-02,-2.027998278472717148e-03,-5.298437982956787085e-02,-6.177006687376302384e-05,2.637414485060854408e-02,-1.597286943605004741e-02,1.528640995683162168e-02,1.270222084717570086e-03,-3.421747028299966693e-03,3.866240058516604711e-03,-1.902003181233916790e-02,-1.347306618090026234e-02,-4.193141355503661460e-02,-1.798554744231503980e-02,-9.800854385499612603e-03,1.093760368462478802e-02,3.809345676116055596e-02,-8.383344041095147289e-03,2.919870922107730207e-02,3.257289005114685602e-03,-2.333238497700648728e-02,-6.657666205733271149e-03,-9.091608168913857882e-03,-1.025714689690288006e-02,-2.476518504949535779e-02,5.375828421621587500e-03,8.024511473154071275e-03,-5.991631663373161998e-02,-7.551410327919490760e-03,2.340846963314619986e-02,1.444819789319077598e-02,-8.881984627256044517e-04,3.028651438969665044e-02,2.864788815973903519e-03,1.295365591011471418e-02,-1.418513070756816270e-02,-7.491312728916883421e-03,-9.476450854546904570e-03,3.830644348124852272e-02,3.617680404786622478e-02,1.654634981218848023e-03,-2.517971501458535211e-02,3.146136573372810066e-04,1.307026364783113806e-02,-4.711419206805849032e-03,1.569971842178107717e-03,-6.761512461789052908e-02,3.060015404412436829e-02,2.230820724971155269e-03,8.884194237448010678e-03,-4.282513357115932950e-02,-9.100912021166669696e-02,-1.776631452388191881e-02,-6.332122958616462349e-02,5.144482891323044586e-03,-2.025824919984427035e-03,1.939696912107819957e-02,-1.755135824945764159e-03,-9.179475387087669518e-04,-2.823896277941825503e-02,-7.048414600392354130e-03,2.037325530189040661e-03,3.455250291981468505e-03,2.859982326344566884e-03,-1.870858542993173845e-03,2.292642606495850187e-03,1.159879894724112105e-02,9.320848972545398015e-03,1.018412412478745220e-02,3.693327363948383651e-02,-1.124476871703788614e-02,-2.114462016697079595e-03,-3.682493876601475986e-04,8.797489265962871868e-03,-1.049175987736860639e-02,-3.314138475566791309e-02,8.261116075213201237e-02,-8.712130560959097103e-03,5.291510522930244903e-02,-9.673248969264754138e-03,3.185854519156938042e-03,3.002033617656871961e-02,4.482537653307916425e-02,-1.696367748005678071e-03,8.706837307293741708e-04,-5.820961672687742679e-03,-7.192576505619550920e-02,-1.143135677667521388e-02,2.743973125629527426e-03,4.815621792709559850e-04,-1.023679530075314453e-02,-1.389221675050034480e-02,-1.421438206939738477e-02,1.170376555772295081e-02,-1.312424039371160901e-02,4.843211667715452418e-03,8.540690816140025440e-03,9.207263071800505030e-03,-4.569785246148476421e-03,-2.822904459937819119e-02,2.113783682284595730e-03,7.786851628789039949e-03,-9.133507265865514410e-03,-3.888117306828108022e-03,-2.008478884221844007e-02,-1.105905779938641011e-02,-1.401926708198072101e-02,-1.030429107389562934e-02,2.666758549573316085e-03,-2.107796301599902666e-02,-5.409227782507178978e-02,-9.904801467059715092e-02,-5.015299530576567549e-02,7.542388441610591542e-03,-2.848173106429135754e-03,1.197547656446877086e-02,1.110192506872889363e-04,-2.989792165834436258e-02,4.187947931422677725e-03,8.348849481760437299e-03,2.106632784785594445e-02,-1.943023170899323832e-02,2.732437575601202873e-02,7.317294031400817939e-03,-6.423433689592423189e-03,-2.638277231012296168e-03,-1.653345109963429496e-02,3.551016478892570286e-03,-2.423173515738753087e-02,3.555434739811947492e-02,8.570537136970996644e-03,1.867814719410618727e-03,-1.678647034875814861e-02,5.696120291297073097e-03,-1.522361128066314524e-02,3.301710971616302406e-03,1.554092169792997778e-03,9.672695866481114541e-03,-1.548530957298240897e-02,-2.913632929040451541e-02,-2.402442068796208086e-02,1.785225043920147733e-02,-2.922282430824682878e-02,1.790783150606668414e-02,8.269358083228539602e-03,-7.967276967544692501e-02,-5.654843891477887019e-02,-1.130057833735858761e-02,5.314044849998181275e-02,-1.341585550489091333e-03,1.003151666162008931e-02,-1.329920440466711125e-04,2.035942799960062735e-02,-4.527787663411299117e-03,3.471387774496298515e-03,3.290503859554196747e-02,-2.811418750962284621e-02,4.990031660502270740e-03,-4.527199442930770167e-03,-2.355874128177309207e-02,6.641607903292978503e-03,-3.548279097052889353e-02,-2.409385627123666190e-02,-3.246272797546987353e-03,-7.231801813321071457e-03,2.172569270474388262e-02,-9.543642365215871184e-04,-4.627950976634757907e-03,-1.004204432746577322e-02,-3.893550689529052394e-02,-1.350504780974535850e-02,-5.416744786734611905e-02,2.898712576193520490e-02,6.037263627368575671e-03,3.948579339633976996e-03,-1.224178312919857806e-03,-5.379094013952538840e-04,-4.206493005054601914e-02,2.177972241455210928e-02,1.539679947727476232e-02,1.906086410163084248e-03,-2.791509133799922882e-02,1.458754715476588346e-02,-2.337857353361125559e-03,-5.804830852002790947e-02,1.935411017247412949e-02,5.929631500832272667e-03,-4.670927317731347200e-02,-8.799163172659921553e-03,3.168096572097234731e-04,-2.363307213931097397e-02,9.149448780126645270e-04,-8.364274322343707990e-02,9.645361813364746947e-04,4.957229778056830398e-03,-3.656187822148969369e-02,-1.967771082226786247e-04,-1.235977621841932196e-02,-1.012219946025069532e-02,-1.672071716880967366e-03,-1.237927971752973873e-02,4.936812186394738677e-02,-9.568700831757134817e-03,-3.525089726371743049e-03,1.907499463261674464e-03,2.214003390303893523e-02,-3.001154172910037998e-02,-1.063851051965764537e-02,-2.758347549328359679e-03,-6.794783802413392228e-03,-6.827371040757147271e-03,-1.642134724865324663e-02,7.233434992270713904e-02,-9.187584189077984548e-03,2.288280213886427841e-02,9.756827783713402369e-03,-8.072346487372055249e-03,5.553844147446440963e-03,-4.210290150123451730e-02,-4.145705565230994351e-03,-9.077257356983449432e-02,7.196531028363153774e-03,-1.656981468760367754e-02,3.083383775722311451e-04,1.172769052027141344e-02,-6.825578983873312189e-02,7.219919312891319614e-03,-3.321574588389995114e-02,-1.804579404224111727e-02,-5.772451362156020508e-04,-1.040237381004235169e-03,-1.157682607347005526e-03,2.615486388344627489e-03,-6.079920479804222511e-02,-5.745321719713279707e-02,2.747924846389964088e-04,-1.061450926663006292e-02,-1.771268869290125794e-02,6.549141640941124470e-03,-4.378081515315488531e-02,-2.832784217527681715e-03,3.379486645748862317e-02,8.124322876233834199e-04,1.048267873176130655e-03,-1.113352402265625762e-02,-2.674216545068595213e-02,-3.114870193215767222e-03,2.102226662287839595e-02,-6.598707038578321624e-03,-1.039070546495584751e-01,1.521811603087155559e-02,-1.234977057322300849e-02,3.494415661270194179e-02,1.570793531173629619e-03,8.798508973073996403e-03,-8.118862134029517647e-03,-4.516667921142026622e-03,-4.328247801167199767e-03,-1.368039590889980617e-01,-1.516223803293906790e-02,-4.651093024206445770e-02,5.908648657597939495e-03,2.698154449862260208e-03,-2.845909588871211107e-04,1.173854985973446551e-03,-4.924233238881486202e-02,-1.123627669745288181e-02,-8.696908547625378794e-03,-8.259406165724260396e-02,-7.365257795974123689e-04,-8.530355630306704282e-03,3.497698161119987183e-04,-2.274142097502260262e-02,-8.822013500287712376e-03,-9.429084263831389798e-03,2.775298156197021290e-03,-5.347146343284868084e-03
